/********************
    parameters.h

    Code generated using nn4mc.

    This file defines the neural network weight parameters for all layers.

*/
#ifndef __NEURAL_NET_PARAMS_H__
#define __NEURAL_NET_PARAMS_H__

#ifdef __cpluscplus
extern "C" {
#endif



const float lstm_W[512] = { -0.00845028, -0.0893683, -0.0298545, 0.107057, 0.0439455, 0.0975767, 0.0989435, 0.172167, -0.217909, -0.348023, -0.0181407, -0.292986, 0.538659, 0.0443906, -0.107195, 0.0133846, -0.185979, -0.107682, 0.209642, -0.191058, 0.0754143, -0.375761, -0.177813, -0.0567346, 0.172611, 0.182378, -0.0844529, 0.136807, -0.0381354, -1.07778, 0.300507, -0.0129833, 0.0764565, -0.0337073, -0.0714095, -0.198316, -0.0753037, -0.135826, 0.027974, 0.125011, 0.0565265, 0.132261, 0.0687961, 0.120188, -0.046129, 0.0712654, -0.147664, 0.189767, 0.133758, 0.133982, -0.113237, 0.148984, -0.068419, -0.173419, 0.0357077, 0.094521, -0.0106371, -0.0495891, -0.201155, 0.152935, -0.0776537, -0.111792, 0.107119, -0.141921, -0.0596096, 0.0266904, -0.0154263, -0.238474, 0.23864, -0.0410164, 0.287655, 0.415212, -0.0173244, -0.000543457, 0.202963, -0.394365, 0.0609952, 0.0650861, 0.184743, 0.220306, -0.192098, -0.0664146, 0.150606, -0.0900345, 0.294764, -0.11988, -0.160024, -0.192846, -0.188137, 0.185019, -0.065374, 0.277817, 0.143748, -0.439536, -0.0178425, 0.0980977, -0.192237, 0.173364, 0.119828, 0.308512, 0.127035, 0.137518, 0.0984997, 0.140272, 0.0982164, -0.202899, -0.21943, -0.119737, 0.413502, 0.0599851, -0.112194, 0.0445289, -0.051803, 0.235059, 0.0669407, 0.210716, -0.0522111, -0.294577, 0.0910705, 0.237356, -0.0321881, -0.0894751, -0.167901, 0.0773772, 0.381493, -0.967341, 0.193607, -0.150963,
                            -0.00493953, -0.205949, -0.0738277, -0.0381564, 0.226386, -0.069796, -0.215972, 0.230755, 0.22618, 0.00548067, 0.0707023, 0.115848, 0.435016, -0.180942, -0.223039, 0.143398, -0.0697238, -0.147153, 0.00223873, -0.200812, 0.132743, -0.200358, 0.0187927, 0.252083, -0.0860251, -0.151376, 0.0179104, 0.188374, 0.000534775, 0.327699, -0.172114, 0.173205, 0.163898, 0.124846, 0.175334, -0.0902404, 0.0916833, 0.0733872, 0.0206128, 0.131838, 0.130978, 0.122877, -0.0984157, -0.159284, -0.00925039, -0.129366, -0.0389716, -0.00888516, -0.0174927, -0.177708, 0.102838, 0.0743689, -0.13918, 0.101752, 0.0339935, -0.121716, 0.165208, 0.128241, -0.106991, -0.0644873, 0.150086, 0.0662746, -0.15903, 0.0499466, -0.0780082, 0.180602, -0.105311, 0.121709, 0.191906, -0.110134, -0.0800371, 0.248747, -0.323141, -0.121109, 0.0508631, -0.389769, -0.224145, -0.301833, 0.467936, -0.122837, -0.381065, -0.0972714, -0.0515274, -0.198262, 0.0587381, -0.13539, -0.413902, -0.27232, -0.496216, 0.195815, 0.266798, -0.101561, -0.0753465, 0.107047, 0.222312, 0.103091, 0.15248, 0.0211101, 0.259506, 0.00949888, -0.0427416, 0.156256, -0.47327, 0.0518111, -0.095049, -0.296678, 0.118873, 0.141052, 0.146069, 0.18416, -0.0243612, 0.145225, -0.0849376, 0.0345769, 0.0154872, 0.152773, 0.166565, -0.247558, 0.0444138, 0.108047, 0.187274, 0.0902619, -0.0157727, 0.0969724, 0.317972, 0.30623, 0.135799, -0.130225,
                            0.143327, 0.0622081, -0.130733, -0.0697169, -0.0251048, -0.0701624, -0.0225635, -0.136869, 0.0615867, -0.118482, 0.05816, -0.0376511, -0.100381, 0.198667, -0.322426, 0.202049, -0.124464, -0.189419, 0.182084, 0.152744, 0.0942535, 0.206023, 0.0233656, 0.232957, 0.169651, -0.0598488, 0.169805, -0.0991944, 0.0645774, -0.379544, 0.466669, 0.174323, 0.0602122, 0.0722224, 0.0481791, 0.0812824, 0.101635, 0.0949058, 0.049422, 0.183418, 0.0152634, 0.0477604, -0.0936898, -0.00252351, -0.154624, 0.12976, 0.200499, 0.0327437, -0.116555, -0.123862, -0.17963, 0.0262853, 0.0546945, -0.204622, 0.0591826, -0.114894, 0.0122007, -0.0167697, 0.100442, 0.130658, 0.0584465, -0.0897834, 0.0497447, 0.0497196, 0.20212, 0.24003, 0.207896, -0.144402, 0.142363, -0.167898, -0.30645, -0.017242, 0.134388, -0.0493911, -0.0121952, -0.0462156, 0.0511983, -0.130638, 0.35085, 0.35632, -0.0130324, 0.0660205, 0.203499, -0.156769, 0.118139, 0.287203, -0.20494, -0.155612, -0.173092, 0.491954, 0.194354, -0.0145549, 0.147549, 0.0229034, -0.0809281, 0.193284, 0.0488926, -0.042257, -0.0209822, -0.101718, 0.163765, 0.0847716, -0.330881, 0.0151194, 0.0254921, -0.26006, -0.2629, 0.239552, 0.136495, 0.262299, -0.157638, 0.128385, -0.0968583, 0.153777, -0.0401261, -0.0803488, -0.0135771, -0.0868185, 0.151027, -0.0433197, -0.0357653, 0.104801, -0.0992505, -0.214494, -0.00194371, -0.169715, 0.409024, 0.177103,
                            -0.216073, -0.11808, 0.235809, -0.0374616, 0.24039, 0.274097, 0.234264, 0.26388, -0.160423, 0.0068384, 0.160962, -0.245971, -0.0695662, -0.194217, -0.0552539, -0.0243642, -0.313182, -0.201542, 0.189343, 0.0529142, 0.0837716, 0.291333, -0.0419234, 0.179544, 0.173145, 0.243399, 0.197827, 0.188667, 0.302549, 0.388103, 0.0704643, -0.113277, -0.119065, 0.0215333, -0.168461, 0.187491, 0.0614462, -0.191222, 0.138832, 0.0443197, 0.0370452, -0.0328363, 0.111254, -0.118163, -0.0131478, -0.123551, 0.0431018, -0.160688, -0.12212, -0.211548, -0.0804281, 0.183374, 0.0530093, 0.193863, -0.13449, -0.190786, -0.137426, -0.173484, -0.0571485, -0.0439921, 0.0755179, 0.189381, -0.198969, -0.120636, 0.101498, 0.161496, -0.200603, -0.135475, -0.0410741, 0.0831918, 0.122097, 0.100719, -0.0622063, -0.0138473, 0.21549, 0.0156656, 0.280788, 0.0106047, 0.164121, 0.203867, -0.130404, -0.255809, 0.22187, -0.110501, 0.202218, 0.0231441, -0.111626, 0.296385, -0.164792, 0.160662, -0.176261, 0.211613, -0.089968, 0.33036, -0.296496, 0.0635087, -0.103852, 0.208332, 0.309879, -0.0386065, 0.113799, -0.0819118, -0.0317849, 0.206805, -0.0459195, -0.194004, -0.0927447, 0.231696, -0.166716, 0.064849, 0.174174, 0.25575, -0.240169, 0.309734, -0.123294, -0.131746, 0.197603, 0.144353, 0.307901, 0.494285, 0.196126, 0.144654, -0.192037, 0.18627, 0.375036, 0.559582, -0.277071, -0.149172};


const float lstm_b[128] = {-0.0471746, 0.0539263, 0.133132, 0.0647496, 0.0843615, -0.0439579, 0.234006, 0.0913116, 0.0902226, -0.115437, 0.0668408, 0.052569, 0.216214, 0.0278686, 0.120314, 0.0855085, 0.034603, 0.017848, 0.0399084, 0.0170953, 0.0814506, 0.187971, 0.0942516, 0.290569, 0.135826, 0.0992126, 0.153459, 0.0739988, -0.0572217, 0.110948, 0.217747, 0.0731101, 1, 1, 1, 1, 1, 1, 1, 1, 1, 1, 1, 1, 1, 1, 1, 1, 1, 1, 1, 1, 1, 1, 1, 1, 1, 1, 1, 1, 1, 1, 1, 1, 0.0629902, 0.0249851, -0.00585812, 0.0245442, 0.0373656, 0.0685643, 0.00803589, -0.109135, 0.0282358, -0.00696487, 0.082029, 0.111312, -0.00984756, -0.0221852, -0.0290349, -0.0390797, 0.0619952, -0.0169799, -0.0229463, 0.138897, -0.0417375, -0.085168, 0.0843451, 0.0880847, 0.0491943, -0.0900954, -0.0299977, 0.0314499, -0.0869246, 0.0201502, 0.0271619, 0.0151259, -0.06777, 0.0777194, 0.10825, 0.0551873, 0.0565263, -0.0293877, 0.102326, 0.0825075, 0.0998025, -0.143302, 0.0408006, 0.100582, 0.241371, 0.0397694, 0.179618, 0.074261, 0.0607003, 0.0321447, 0.0270761, 0.0352709, 0.0663431, 0.177981, 0.106305, 0.268927, 0.11979, 0.099452, 0.122922, 0.0580801, -0.106715, 0.173929, 0.189283, 0.0546961};


const float lstm_Wrec[4096] = { -0.0574081, 0.0471841, -0.0651011, -0.0297177, 0.0915697, 0.046169, 0.0721557, -0.0848017, -0.0718219, 0.022808, -0.136346, 0.00724735, 0.00981085, 0.0164683, -0.133849, 0.109663, -0.154933, 0.0356721, -0.0420977, -0.103447, 0.0589667, 0.0667119, 0.0170936, 0.0716123, 0.0477135, 0.0958021, -0.0659937, -0.0889628, -0.118992, -0.00153236, 0.0389561, -0.0713604, 0.0630764, -0.00991936, 0.0117879, -0.0170102, -0.00933085, -0.0875877, -0.0310462, -0.0464258, -0.096513, -0.00637293, 0.0305605, -0.100726, -0.0646026, 0.163193, 0.0041164, 0.00658298, 0.0536707, 0.145127, -0.00170132, -0.10735, -0.0528788, -0.0757379, -0.0934046, 0.0413996, 0.0699743, -0.133162, 0.108802, 0.171644, 0.0750886, -0.11867, 0.107856, 0.056135, 0.140762, 0.0496952, 0.162594, -0.0978172, -0.117387, -0.0643385, 0.0432424, -0.0590494, 0.0727294, -0.035851, 0.0450344, 0.135093, 0.00487284, 0.0526161, 0.0375313, 0.0243811, -0.186795, -0.125449, 0.0422357, -0.0388165, -0.0688715, -0.0421135, -0.0491364, -0.0454386, 0.121637, 0.159673, -0.0379288, 0.0227852, -0.0273776, -0.0794576, -0.0194644, 0.11416, 0.0965743, 0.186595, 0.149915, -0.0392965, 0.136149, 0.0463143, 0.0381748, 0.0677526, 0.0469305, -0.111375, 0.119043, -0.0238991, 0.011696, 0.124767, -0.0191062, 0.0556318, 0.122102, 0.0539299, 0.0529967, -0.000505848, -0.177803, 0.117282, -0.117804, 0.233549, -0.00439528, -0.0851517, 0.0315282, -0.0430264, -0.0667267, -0.158432, -0.033563, -0.19285,
                                -0.0731382, 0.0257503, 0.0295088, -0.0253543, 0.0550013, -0.0285843, 0.0732267, 0.0128397, 0.0255312, -0.101165, 0.0950604, 0.0280257, -0.0341275, -0.047686, -0.12431, -0.000823966, 0.00759542, 0.0301667, 0.0403173, -0.033208, 0.0999618, -0.0907155, 0.0191839, 0.201514, -0.127843, 0.0819786, 0.00386054, 0.0745852, 0.0677783, 0.0748666, -0.0302464, -0.0958679, -0.0322639, 0.0102819, -0.153728, -0.0388469, -0.0107251, 0.110348, -0.265204, -0.124836, -0.0215851, -0.0372586, 0.138348, -0.157015, 0.114629, 0.0089402, 0.116293, -0.0578868, -0.169449, -0.0629274, 0.026126, 0.0483666, 0.154569, -0.0435151, 0.166157, 0.128838, -0.145463, 0.0318458, 0.0430784, -0.0704497, 0.0729736, 0.0766302, -0.0471935, 0.0195752, -0.11414, -0.0247935, -0.0353069, 0.0143157, -0.0227889, -0.0225606, -0.0202679, 0.00318221, 0.0627596, -0.0223773, 0.123452, -0.0692127, 0.000739682, -0.230856, 0.13616, 0.0388792, -0.250868, 0.0622634, -0.0126516, -0.134688, 0.167003, 0.0471986, 0.0248586, -0.159133, 0.153497, 0.0351353, -0.0635284, -0.0332481, 0.0866816, 0.0483978, -0.120988, -0.0737719, -0.1135, 0.121959, 0.0698951, 0.0160328, -0.00448142, -0.0621659, -0.125797, 0.0640435, -0.126969, -0.0888064, -0.0232925, -0.0849734, -0.186961, -0.00200128, -0.0283681, -0.0363349, -0.0556581, -0.000215302, -0.0333646, -0.01708, -0.021449, 0.140625, -0.0212268, -0.0660918, -0.049985, 0.0303977, -0.000510372, 0.0376766, 0.00980938, -0.0342342, -0.0532536, 0.0588656,
                                0.171779, -0.0717182, 0.0330193, -0.148604, 0.00132597, 0.010948, 0.170783, -0.0487559, 0.146945, 0.0906558, -0.0283198, 0.102973, -0.048334, 0.0304986, -0.117732, -0.0574817, -0.000819046, 0.0940074, -0.0435527, -0.037242, -0.0729692, -0.118435, 0.0729027, 0.0544956, -0.0763196, -0.0971371, -0.0826991, 0.0551815, 0.0625011, 0.156511, -0.0112322, 0.150531, -0.0444255, -0.113154, 0.0697174, 0.062166, -0.000808368, -0.0433799, 0.0910673, 0.0578279, 0.0822195, 0.13658, 0.0359564, 0.128564, -0.0382908, 0.0975745, 0.10245, -0.0534495, 0.0878075, 0.00123473, -0.00672163, 0.177478, 0.0406759, -0.0201632, -0.0466614, -0.098405, -0.134094, 0.0433709, 0.0634976, 0.0655935, -0.111774, 0.051901, -0.0208775, -0.0868168, -0.0541269, 0.0731382, 0.124216, -0.0341908, -0.120889, -0.00651466, 0.0817154, 0.0861572, -0.0504009, -0.0580048, -0.0724974, 0.0742991, 0.0677605, -0.00836866, 0.0932424, 0.0665333, 0.0835881, 0.0950854, 0.106793, -0.190404, -0.181177, -0.0180002, 0.0724474, -0.0920456, -0.172978, 0.0219706, -0.111496, 0.0424908, 0.023695, 0.0419925, 0.103471, -0.0076938, -0.0679907, 0.0318046, 0.00786375, -0.129211, 0.00311535, 0.0985861, -0.160988, -0.103508, -0.112166, -0.0385707, 0.0979747, -0.168659, -0.0522792, 0.177519, 0.023266, -0.0107215, -0.0247883, 0.0303765, 0.0523588, -0.025124, 0.0903075, 0.0834778, -0.0917253, 0.0436889, 0.0272165, 0.090782, 0.151367, -0.0221051, 0.0309115, -0.0395698, 0.209545, 0.0481285,
                                0.135339, -0.0446874, 0.0477785, 0.227828, -0.0858327, -0.0704498, -0.127334, 0.0384909, -0.00746492, -0.0503431, -0.209581, -0.0546791, 0.223773, -0.130602, -0.0521475, 0.093288, 0.00737042, -0.0205057, 0.0640115, 0.0674848, -0.0858661, -0.0515467, -0.0735018, 0.0259171, -0.0114212, -0.00871946, 0.0640476, -0.169341, -0.0280556, 0.0664757, 0.100782, 0.0974599, -0.037712, -0.163124, -0.107325, -0.0696758, 0.0108729, 0.0795861, -0.129837, 0.105837, -0.0824822, -0.0892113, 0.0790253, 0.0358218, -0.0590366, 0.0312141, 0.0241862, 0.0573241, -0.0313536, -0.0708282, 0.018695, 0.0713896, -0.0790148, -0.0736971, 0.0112846, 0.105263, -0.0665079, 0.149254, 0.0520556, -0.0383034, 0.148914, -0.00563383, -0.0630683, -0.0654245, -0.00730412, 0.00138885, 0.0130936, -0.0612019, -0.0261749, 0.0796891, 0.0102671, -0.101782, 0.0276783, 0.116659, -0.0866141, 0.110167, -0.00625834, 0.0139659, -0.0628396, -0.0818791, -0.0718718, 0.034293, 0.0230421, 0.07458, -0.0440607, -0.0256473, -0.0487173, -0.0316584, 0.000842399, -0.0678668, 0.0489622, -0.198439, 0.0927644, -0.00837246, 0.195036, -0.0426609, 0.0624736, -0.0771654, -0.0439397, -0.00630433, -0.0875187, -0.139995, 0.0655077, -0.113714, -0.117209, 0.000429204, 0.105995, 0.0103091, -0.201637, 0.0611617, 0.0713794, 0.149339, -0.0590495, 0.10883, -0.000997911, -0.0679201, -0.109055, -0.0700763, 0.0802536, 0.0705258, 0.118615, 0.0515723, 0.233626, 0.0801552, 0.0365679, -0.0516273, 0.00422892, -0.127784,
                                0.0587065, 0.0389845, 0.00672113, 0.102705, -0.0412789, 0.00116579, 0.00207775, -0.00141415, 0.143452, 0.0545052, -0.0421404, 0.193619, -0.109942, 0.130705, 0.0882936, 4.78234e-07, 0.0384679, 0.0298897, 0.0601586, -0.0245416, 0.0291289, 0.164923, 0.168567, 0.118654, -0.133734, -0.0293741, 0.0663924, -0.0325178, 0.14507, -0.0777929, 0.0370826, 0.0338312, 0.0257375, -0.0289482, -0.0907001, 0.00400079, -0.0134263, 0.00464284, -0.13524, 0.106164, -0.0366113, 0.154849, -0.0562161, 0.00110311, 0.0637911, 0.0846395, 0.116213, -0.0168902, -0.0153427, 0.00501809, 0.0422897, -0.0721983, -0.0451451, 0.0873174, 0.0326651, 0.0240713, -0.124119, -0.186488, -0.0103362, -0.0318424, -0.0642413, 0.0194222, -0.00240617, -0.148522, 0.0264245, 0.0340547, -0.0798128, 0.0801916, -0.0425322, -0.0182409, -0.0544342, 0.0409393, -0.0791421, -0.0180458, -0.174516, 0.0211155, -0.0919631, -0.123967, -0.0494675, 0.15466, -0.0535498, -0.0684766, -0.0753208, 0.0230402, 0.0268354, -0.172142, 0.236424, -0.0822745, 0.108804, -0.0945394, 0.0899947, -0.0543746, -0.150821, -0.103124, 0.217318, 0.00434103, 0.196723, 0.0381424, 0.189494, -0.0218344, -0.125921, -0.112824, 0.0557222, -0.0364597, 0.138989, 0.0589245, 0.0976739, -0.00230681, 0.0406542, 0.0240717, 0.0106218, -0.0307257, 0.0138294, 0.00839383, 0.0521905, -0.119302, 0.00580206, -0.071496, -0.113624, -0.00844081, 0.0183446, -0.0730151, -0.108598, -0.0694446, 0.0413081, 0.136475, -0.104227, -0.0127077,
                                0.0665062, -0.0527414, -0.0689846, -0.0504837, -0.0501772, -0.072782, -0.0266112, -0.0416584, 0.0619764, -0.116908, -0.0769306, -0.0450283, 0.0466578, 0.00364698, -0.115982, -0.0878164, 0.129789, 0.0433707, 0.111983, -0.02768, 0.00306337, -0.0883295, -0.00492406, -0.0441871, -0.00458405, 0.00656633, 0.0576031, 0.0173928, 0.00918723, -0.104023, 0.066722, -0.0354443, 0.190275, -0.00727127, 0.021462, -0.0319969, -0.103547, 0.000921764, -0.0674555, -0.198047, 0.0821803, 0.0136412, -0.111765, -0.2027, -0.111698, -0.110228, -0.120949, -0.0343638, -0.0038424, 0.203505, 0.115122, -0.0329759, -0.0904149, 0.00270301, -0.0756598, -0.0172598, 0.0269416, -0.00608093, 0.0112649, 0.108084, 0.0457267, 0.13471, -0.116687, -0.168947, -0.147023, -0.123877, 0.0464293, 0.00208416, 0.133428, 0.017037, -0.139828, 0.122996, 0.0323567, -0.0482363, -0.174525, 0.0488972, -0.0982557, 5.52395e-05, 0.0790398, 0.0438993, -0.0380523, -0.161368, 0.00598279, -0.105828, -0.0339367, 0.0182796, -0.114417, 0.00422611, -0.00776273, 0.112292, 0.0258869, 0.0889614, 0.0601038, -0.058845, 0.0162719, 0.192406, 0.0281143, 0.0762233, -0.0575506, 0.0950617, -0.0939832, -0.227247, -0.0101336, -0.0241519, -0.00693305, 0.0433998, -0.174333, -0.104676, 0.08686, 0.0921008, 0.152854, 0.0033022, 0.0368218, -0.0557437, 0.000313394, -0.0199667, 0.107985, 0.101414, 0.0151226, -0.0820269, 0.169395, 0.00403179, 0.0391739, 0.0496719, -0.0614716, 0.0891308, 0.12685, -0.0648401,
                                -0.029991, 0.133848, -0.0380246, -0.121043, 0.0123449, 0.104815, 0.064708, 0.102155, 0.0996292, 0.0393369, -0.00594656, -0.0188702, -0.0439014, 0.0117347, -0.103983, -0.0492801, -0.115119, -0.0190007, 0.0666215, 0.228905, -0.136732, 0.124949, -0.062984, 0.0701036, 0.0921466, 0.0411188, -0.0807252, -0.0234569, -0.0946098, -0.0478555, 0.00898879, -0.0440618, -0.095371, 0.0187406, -0.0310298, -0.0199961, -0.168612, 0.0970772, 0.0826146, -0.00918274, 0.020984, 0.165284, 0.0811878, -0.0420772, 0.150138, 0.0397148, -0.175948, -0.0958521, -0.136634, -0.0963005, -0.126849, -0.106856, 0.0216425, 0.0556065, -0.10214, -0.193115, -0.121663, 0.147173, 0.104237, -0.0313339, 0.0669896, -0.0935576, 0.0181382, -0.139784, 0.0315952, 0.130075, 0.153301, 0.101315, -0.0868782, 0.0566442, -0.0601722, 0.0488163, 0.0638467, 0.00451394, -0.0438681, 0.13583, -0.0196492, -0.0402075, -0.0207337, -0.0525199, -0.0244702, -0.122553, 0.0452192, 0.0638628, 0.0817063, -0.0859703, 0.0641863, 0.0514332, 0.0143983, -0.14041, -0.112897, 0.012616, 0.147189, -0.0470364, 0.0304623, 0.0326331, -0.00520694, -0.10121, -0.0356222, 0.0382611, 0.0849256, -0.111432, 0.0490522, 0.0246401, -0.0435486, 0.0620846, -0.104715, -0.0330788, 0.000749938, 0.0609329, -0.0126827, 0.0379302, 0.0269123, 0.168297, -0.0366296, 0.00970733, 0.127199, 0.0818779, 0.0916424, 0.0416957, -0.225436, 0.0678044, -0.0742382, 0.143346, -0.0300661, 0.112349, -0.0512014, -0.0679308,
                                0.0129595, -0.0497255, 0.161137, 0.118504, 0.0919851, -0.0741821, -0.0336594, -0.0166812, -0.0369921, 0.0351995, 0.0991865, 0.0739296, -0.0560647, 0.0280944, -0.0984038, 0.177247, 0.266928, -0.0263467, -0.0223327, -0.0742408, -0.0714538, 0.0910778, -0.0211785, -0.102793, -0.0121426, -0.0451107, -0.0502248, -0.0623426, -0.0515872, -0.0865233, 0.103729, 0.116439, 0.091889, 0.100032, -0.0356964, -0.0282456, 0.138252, -0.062025, -0.0737636, 0.0980544, -0.0620313, 0.192393, -0.116437, -5.08487e-05, 0.0603276, 0.0637001, -0.0265453, -0.0575512, -0.0571398, -0.0844201, -0.0707909, 0.101206, -0.122289, -0.0321683, 0.100946, 0.0454717, 0.0105736, 0.0784644, 0.142216, -0.0668846, 0.0406243, -0.126033, 0.12072, -0.00250606, 0.0417387, -0.0395701, -0.0708807, -0.165282, -0.0187959, -0.0783994, -0.105809, 0.0968842, 0.0046163, -0.0412494, 0.0225777, 0.0359662, -0.0413009, 0.0747496, -0.0643841, 0.0715351, 0.00245936, -0.0169323, -0.104987, -0.113571, -0.183299, 0.0975659, -0.0396873, -0.112486, 0.032826, -0.170298, -0.0081325, -0.0326947, 0.144599, 0.146521, -0.0893749, 0.0855481, 0.0282238, -0.051152, 0.178898, 0.147805, 0.098966, 0.0776058, -0.0189967, 0.14094, -0.0962069, 0.0835854, 0.000448943, -0.0724471, 0.00412389, -0.0248579, -0.0196403, 0.0744715, 0.111007, -0.11802, -0.0614622, 0.0841428, 0.167454, 0.065711, 0.0539035, 0.0270193, 0.0745304, 0.0772707, -0.0946396, 0.125646, -0.0887493, -0.00822608, 0.00150828, -0.0018812,
                                0.0554937, -0.0837481, -0.202115, 0.103874, -0.105741, -0.2285, 0.0675909, 0.0469336, 0.0577091, 0.0334236, 0.00486986, 0.190692, 0.17636, 0.00327872, 0.118185, 0.00519213, 0.00150454, 0.0976164, -0.0214853, -0.0777951, 0.0134214, -0.0183532, -0.256909, 0.130914, 0.0574357, -0.0403844, -0.112898, 0.137901, 0.0119691, -0.116045, 0.0226828, 0.0483541, 0.0899517, 0.114635, 0.0188171, 0.117336, -0.131549, 0.0849689, 0.0503939, 0.11102, -0.117072, -0.0161939, 0.0423305, -0.0671401, -0.0648727, 0.0944739, -0.0268039, 0.177745, 0.0149871, -0.0546788, 0.0641863, -0.148206, 0.0221123, -0.0289962, 0.0228321, 0.0770124, 0.00216927, -0.077906, 0.0450795, 0.0297465, -0.0820723, 0.151862, 0.0438921, 0.0497723, 0.0308834, -0.112055, 0.0802319, -0.0652277, 0.162094, 0.0571842, 0.0937054, 0.0153399, 0.0692498, -0.0102123, 0.082397, 0.0513102, 0.100292, -0.0667678, -0.0718361, 0.0188404, 0.0563421, 0.0599047, 0.0428388, -0.0890712, -0.0716733, -0.048916, 0.075049, -0.054285, 0.010787, -0.0411413, -0.0921614, -0.0334653, 0.141643, -0.0295125, -0.039589, 0.0693806, -0.0658654, -0.129736, 0.111383, -0.0345234, 0.0752231, -0.0596752, 0.162525, 0.128492, 0.0211545, -0.00356412, 0.0911166, 0.0666407, -0.029885, -0.0645175, 0.0557353, -0.159098, 0.0219302, 0.108562, 0.0526764, -0.0748928, 0.00256762, 0.0824112, 0.11044, -0.056734, -0.130796, -0.0530184, 0.00168435, -0.0050416, -0.0811466, 0.0660699, 0.155884, 0.0917869,
                                -0.093077, -0.0433521, -0.0337872, 0.0623885, 0.0115363, -0.044393, 0.0583693, 0.0502323, -9.72687e-05, 0.122156, 0.046985, 0.0924867, -0.0124634, -0.0152956, 0.0207145, -0.090547, 0.0405814, 0.215806, -0.110814, 0.0813124, 0.0704729, -0.0522458, 0.083885, 0.0273453, 0.0480149, -0.0392405, -0.0804095, 0.217122, 0.0563801, 0.0510664, 0.0778657, 0.0487711, 0.0420431, 0.0114139, 0.0410503, -0.128906, 0.0101078, 0.0607785, -0.130636, 0.0335623, -0.0336605, 0.123291, 0.0854028, -0.0822611, 0.0374537, -0.143962, 0.078431, -0.00997741, 0.0390167, 0.11523, -0.0552402, 0.0611819, 0.039021, -0.0600838, -0.0882922, -0.0962843, -0.0226644, -0.13597, -0.164939, -0.0280858, 0.145872, -0.0624003, -0.124188, 0.0316282, 0.00943189, 0.114242, -0.00594277, -0.122509, 0.133918, -0.15551, -0.103333, -0.0321827, 0.0108536, 0.0196969, -0.0359084, -0.0729699, 0.0292189, -0.0334983, -0.0503543, 0.0250387, -0.066337, -0.0580667, -0.147343, 0.1639, -0.114943, -0.112843, 0.0454669, 0.126834, -0.0543651, 0.0584843, 0.00594291, -0.00527276, 0.0120677, 0.131706, 0.155469, -0.0463598, 0.0599932, -0.128504, -0.198268, 0.0861064, 0.0172271, 0.137078, 0.0272971, 0.0713669, 0.04071, -0.0600863, -0.077853, 0.0905148, -0.228183, 0.0852312, 0.0467649, -0.145321, 0.0552536, -0.000775454, 0.0835448, 0.182671, -0.0370366, 0.128531, 0.102073, 0.126348, 0.0481505, 0.0601556, -0.0182817, 0.0520032, -0.0302393, -0.0391469, -0.00680851, -0.126633,
                                0.048876, -0.063385, -0.0573907, -0.0250331, -0.100946, 0.000102557, -0.0454604, 0.0382207, -0.0937647, -0.00938562, -0.0762823, 0.114676, -0.0665466, -0.095001, -0.0435571, -0.00494918, 0.0407388, 0.0210808, 0.059687, -0.0713841, -0.082473, -0.0283301, 0.241174, 0.0660736, 0.0181957, 0.00221195, 0.0432277, 0.128737, 0.101316, -0.0467108, -0.0143104, -7.58315e-05, -0.0623383, -0.0456085, -0.0277724, 0.00922738, 0.127594, -0.105041, 0.0516958, -0.064302, -0.074742, -0.0441796, 0.011699, -0.0041481, 0.0290144, -0.0714125, 0.0201285, 0.0506873, -0.0331439, 0.122827, -0.0735871, 0.029835, -0.105577, 0.198056, -0.0706822, 0.055754, -0.0403677, -0.0230004, -0.0672373, 0.00863541, -0.0328056, 0.103274, 0.0146689, 0.0361888, 0.108188, -0.0642853, -0.0147696, -0.0900429, -0.128366, 0.0880172, 0.0304977, 0.109863, 0.194717, 0.16001, -0.0616166, -0.0406077, 0.0554642, 0.0692071, 0.0325331, 0.00406567, -0.0691375, 0.0183133, 0.145496, 0.0180047, -0.0146522, 0.031166, -0.090499, 0.0867482, 0.208235, 0.0423473, -0.024473, -0.0797079, 0.179077, -0.0252524, -0.0845189, -0.158796, 0.230017, -0.126742, 0.0404081, -0.195961, 0.112134, 0.0868196, 0.030244, 0.0398948, -0.074083, 0.0727989, -0.117142, -0.0586275, 0.0287648, -0.105797, -0.0775559, 0.106472, -0.0741619, 0.0974798, -0.0559045, 0.151506, -0.0260225, 0.107159, -0.0013069, -0.00587972, -0.00490136, 0.0656895, -0.072978, -0.0988838, 0.142795, 0.251944, 0.11679, -0.0521572,
                                0.0692026, 0.0846397, 0.0228268, -0.159088, 0.116514, -0.0417369, -0.0316785, -0.0147004, -0.243451, 0.150553, -0.0566297, 0.0264478, -0.14513, -0.0335851, -0.0902674, 0.0556116, -0.0684271, -0.0729843, -0.0225528, 0.0195646, -0.0399273, 0.0648995, -0.0982914, 0.133352, 0.11392, 0.0777806, -0.175423, 0.0920965, -0.0492678, 0.114057, 0.1842, -0.179433, -0.117041, 0.0456643, -0.0302352, 0.0959261, -0.00837805, 0.155995, -0.0370983, 0.00897329, -0.0440593, -0.0646526, -0.107811, 0.0628556, 0.0496854, -0.124241, -0.0171586, -0.0242356, -0.00394039, 0.0365175, -0.0502991, 0.0930644, -0.000438105, -0.0504859, 0.0210479, 0.119682, 0.0365764, 0.000320302, -0.0215833, 0.170019, -0.0766197, -0.0731715, -0.0815811, 0.0699001, 0.0204303, 0.0539935, -0.168121, 0.0454943, 0.0632651, -0.0271039, -0.0478862, -0.121929, -0.000216378, 0.136719, -0.12476, 0.0368609, 0.0488829, 0.0926654, -0.0151303, 0.15736, 0.0526356, 0.0166622, -0.109183, -0.15916, -0.103632, -0.0468704, -0.0613542, -0.0726916, 0.00144607, -0.0316148, -0.103147, 0.0409311, 0.0578833, 0.0430608, 0.0424798, 0.131166, 0.036209, -0.102762, -0.0241298, 0.0602311, -0.119516, -0.115253, 0.0540265, -0.0437954, 0.015228, -0.171682, 0.0188137, 0.0409654, -0.00732452, -0.00133463, 0.0791668, 0.0563883, -0.112366, 0.153373, 0.0521346, -0.0803071, 0.0108487, -0.00650249, -0.0994331, -0.127466, 0.105808, 0.0239957, -0.169268, -0.0579343, 0.158164, 0.0193519, 0.0150372, 0.0956085,
                                -0.070151, 0.0925715, -0.0888118, 0.06176, 0.249336, 0.0251147, 0.118734, -0.235472, 0.0433675, -0.0203956, -0.137767, -0.10422, 0.0169582, 0.0294481, 0.0248041, -0.0439208, 0.174851, -0.0330755, 0.0672711, 0.0170321, 0.0249594, -0.00296264, 0.100596, -0.0692178, 0.0196868, 0.0447053, -0.0543285, -0.0956963, 0.0689875, 0.126853, -0.0504616, 0.0429565, 0.0400816, -0.0557984, -0.130691, 0.0560377, -0.0772206, 0.04528, 0.018366, -0.0729488, 0.00165198, 0.0189552, -0.135367, -0.0697205, -0.118338, 0.0297413, 0.0617984, 0.0549586, 0.0316154, 0.0235318, 0.0780527, -0.106798, -0.0752757, 0.0126424, 0.0194476, -0.065013, -0.0262625, 0.106288, -0.214144, -0.0351588, -0.0387517, 0.0489179, 0.118423, -0.196234, 0.0788898, 0.0182602, -0.0340794, 0.0593558, 0.131379, -0.184075, 0.00410594, 0.0668264, 0.0845363, 0.0547081, -0.0621285, -0.156918, 0.100058, -0.0595146, -0.026278, -0.122505, -0.00208117, -0.015316, -0.0713503, -0.0321853, -0.095523, -0.162322, -0.0199332, 0.00772262, 0.015309, 0.0363842, -0.0274191, -0.217052, -0.0171463, 0.0781851, -0.0864226, -0.0199888, -0.0539606, -0.0540746, -0.0381923, 0.0587344, 0.136388, 0.00662951, 0.00858054, -0.0446452, -0.107866, -0.12687, 0.0259838, 0.0068872, 0.00402364, -0.0575694, -0.075325, 0.157874, 0.0285453, 0.161953, 0.0358053, -0.0395188, -0.0127074, -0.0508176, -0.0290567, 0.157396, -0.0872219, -0.0266193, -0.0494485, 0.0466293, -0.0346232, 0.0216222, 0.0496143, 0.275861,
                                -0.138597, -0.00535597, -0.120047, 0.10394, -0.127495, -0.220065, 0.0210136, -0.0995428, 0.0447557, -0.0411762, 0.0691293, -0.166721, -0.128691, -0.130461, 0.0152982, -0.197351, -0.0370586, 0.0420098, 0.00353955, 0.0307539, 0.110072, 0.0105468, -0.0633691, -0.0535578, -0.00813909, 0.101043, -0.118348, -0.0932963, 0.0656854, -0.114762, 0.0449353, -0.0410836, -0.0918501, -0.0318374, -0.0835918, -0.0466422, 0.0764632, -0.04365, 0.082769, 0.0337639, -0.0576834, 0.0119442, -0.0596545, 0.0525893, 0.110838, 0.0610714, -0.0306157, -0.0363194, -0.0813072, -0.106991, 0.102943, 0.119211, -0.0435326, 0.102005, 0.0607403, -0.104928, 0.000978359, 0.0817581, 0.0113301, -0.0317176, 0.0213127, -0.063198, 0.0281067, -0.0433421, 0.0529237, -0.0303319, 0.0235553, -0.0867872, -0.0596833, -0.166985, 0.0106585, -0.0125872, 0.171841, -0.0975263, 0.0179853, -0.036549, -0.0269787, -0.0220653, -0.00487677, 0.0148162, 0.0135952, 0.169522, 0.127604, 0.0122658, -0.126047, -0.0252017, 0.0106212, 0.0338954, -0.0251171, 0.108462, 0.0447669, 0.233665, -0.00266764, -0.0205998, -0.0177665, 0.0826339, 0.180209, 0.113079, 0.0520362, 0.0984184, -0.0619149, -0.1483, 0.0583974, -0.222074, -0.0752996, -0.0636828, 0.133431, 0.0471793, -0.00381141, -0.0617146, 0.0439522, -0.180711, -0.0675415, -0.00623823, -0.0583422, 0.0651892, 0.0459151, 0.0770135, 0.100825, 0.13899, 0.0132549, -0.0210044, -0.0333143, -0.0165338, 0.254947, -0.00730626, 0.00249746, 0.016094,
                                0.0188284, 0.0103913, -0.0624462, -0.115401, -0.0121543, -0.123723, 0.0868707, -0.0391196, 0.095727, 0.117137, -0.00428999, -0.0205223, -0.0576671, 0.16031, -0.13143, -0.0668709, 0.0251748, -0.0706369, -0.0261612, -0.0555613, 0.00799249, -0.0330655, -0.180411, 0.0613165, -0.11767, -0.0786694, 0.0863752, -0.0396094, -0.0387081, -0.0437977, -0.00253065, 0.0294095, 0.0572945, -0.103728, 0.17311, -0.0658163, -0.164998, -0.00113154, -0.0731945, 0.0269042, 0.142163, 0.19002, 0.000496019, 0.0267517, -0.0496424, 0.00754312, 0.00247115, 0.159018, -0.0542338, -0.0164458, -0.188182, 0.139258, -0.159113, -0.0601649, 0.127968, 0.0582267, 0.206146, 0.00397044, 0.0509341, -0.00518217, 0.0280783, -0.0160201, 0.0116012, 0.0839698, -0.0120257, 0.116288, -0.0555005, 0.00176951, -0.0882009, -0.0517493, 0.0379666, -0.0482991, -0.0736046, 0.134675, 0.152393, -0.218788, -0.011694, 0.085386, 0.0960962, -0.0565803, -0.100489, -0.0821697, 0.0618541, 0.0760241, 0.086732, -0.164361, -0.121397, -0.0240919, -0.0012475, -0.0508351, 0.175862, 0.0909193, 0.00946217, 0.0547812, 0.0559726, -0.209927, 0.0116213, -0.0190928, 0.0478124, -0.0203853, 0.0368494, -0.199378, 0.0546219, 0.0465575, -0.000730356, -0.0836118, -0.0902935, 0.0699044, 0.0501322, -0.0390915, -0.0209203, 0.0680548, -0.020178, -0.034241, 0.00887203, -0.12293, 0.00188788, 0.0801772, 0.0856917, 0.122692, 0.0194654, 0.0224277, 0.00160384, -0.131589, 0.0363924, 0.08396, 0.101401, 0.0443789,
                                0.0320773, -0.0159444, 0.0800112, 0.102109, 0.102692, -0.0512666, 0.0249542, 0.00777716, -0.0689636, 0.0365794, -0.0414557, -0.0716751, -0.157397, -0.138553, -0.157663, 0.167788, -0.0848688, -0.0273509, -0.0915578, -0.126701, -0.0447576, -0.00759805, -0.05591, -0.102788, -0.00734155, 0.228815, 0.147149, 0.0754416, 0.0423551, 0.0896633, -0.0874014, -6.84138e-05, 0.0490544, 0.0274881, 0.118937, -0.0606012, -0.143755, -0.0584139, 0.0431853, -0.0519979, 0.12601, 0.022313, -0.0908934, -0.00401892, 0.0567452, 0.0900769, 0.12583, 0.0355814, -0.0305906, -0.0214396, 0.0256321, -0.110857, 0.0293538, -0.108066, -0.152265, -0.0496727, -0.0617921, 0.0353489, -0.127611, 0.0382875, -0.119563, 0.161335, -0.0188004, -0.0504116, 0.0592092, 0.0553346, 0.0770943, -0.0969968, 0.0193754, -0.0547027, -0.0436856, 0.0695434, -0.0734649, 0.0233915, 0.130876, 0.0478492, 0.127117, 0.0102845, -0.155458, -0.00608214, 0.0803809, 0.0387513, 0.15317, 0.0179621, 0.0720498, -0.00982898, -0.0526048, 0.0466992, -0.0013663, -0.0459595, 0.164574, -0.14838, -0.0505834, 0.184535, -0.00160818, 0.0778153, 0.033186, 0.00609239, 0.0821293, -0.0618456, -0.146262, -0.122189, -0.0240012, 0.0253389, 0.13688, 0.13556, 0.0422196, -0.0815733, -0.0938768, 0.0521633, -0.0157466, -0.0896782, -0.00211644, -0.0295427, 0.0392736, -0.0421962, -0.0794431, 0.162821, 0.115104, -0.0985376, -0.0177355, 0.0986458, -0.113145, 0.145124, 0.173648, 0.020484, -0.0891473, -0.0262109,
                                0.102215, 0.0986015, -0.178692, -0.00199928, -0.0155681, 0.0407584, 0.0495172, -0.0661801, 0.0917276, 0.0570449, 0.0964633, 0.107534, 0.00242764, -0.00199802, -0.125645, 0.197006, 0.022114, 0.107074, -0.0669173, -0.104567, 0.0123114, -0.0776114, 0.0333227, 0.021809, -0.0293571, -0.0328037, 0.188896, -0.0841036, 0.0283353, 0.100174, 0.109616, -0.000852334, -0.0486894, 0.092851, -0.00768264, -0.170538, -0.0242364, 0.00690197, -0.000603559, 0.124891, -0.0437887, -0.077061, -0.0751787, 0.023486, -0.0170992, -0.0420397, -0.0986066, -0.131572, -0.0619058, -0.14671, -0.0116988, -0.0320451, 0.051, 0.0276226, 0.0287196, 0.12101, 0.112803, 0.100522, -0.024724, -0.0630212, 0.046206, 0.0826454, -0.00791551, 0.0626975, 0.0375502, -0.0703804, 0.158402, 0.144628, 0.0203479, -0.0538187, -0.222809, -0.0501542, -0.0182956, -0.148964, 0.0626397, -0.147269, 0.121076, 0.0953706, -0.0160886, 0.137648, 0.191636, -0.058377, 0.0507709, 0.083772, -0.090987, -0.0626465, 0.116048, 0.15679, 0.00176277, 0.100675, -0.117369, -0.00293409, 0.129454, -0.0346932, -0.00590453, -0.0780773, 0.0787938, 0.0763541, 0.058416, -0.0532745, -0.0248755, -0.107332, -0.0931444, -0.0154742, -0.0652569, -0.111001, -0.120404, 0.135317, 0.0205027, 0.0615102, 0.0186677, 0.0236706, 0.180474, 0.0461706, -0.080654, 0.107003, -0.0950264, -0.101435, -0.14217, -0.0962019, -0.0247761, -0.0643573, 0.0734643, 0.088105, 0.0581268, 0.0221686, -0.00853022, 0.00402085,
                                -0.0207066, -0.0660278, -0.0575721, 0.085921, -0.0179769, -0.0345473, -0.173366, 0.0874137, 0.0117886, -0.210392, 0.033904, -0.0536675, 0.174213, -0.0231914, 0.0250142, -0.00199249, 0.0372039, -0.142011, -0.0587263, -0.0920056, -0.0442325, 0.0953495, 0.0988161, 0.120354, 0.0122033, 0.00887551, -0.0935529, 0.178114, -0.118154, -0.10068, -0.0219874, 0.0736536, 0.11664, 0.112253, -0.120477, -0.15026, -0.172102, 0.0600953, -0.0808069, -0.0107285, 0.138094, -0.054805, 0.0356563, 0.147018, 0.0846965, -0.122989, 0.0279484, -0.130563, -0.118679, -0.0299904, -0.0475714, -0.00064426, -0.0954163, -0.0451472, -0.110235, -0.146657, 0.0652661, 0.0753959, -0.0801009, -0.00139985, -0.125897, 0.0100301, 0.0564969, -0.0443938, -0.0240346, -0.00305986, 0.00286987, -0.121246, -0.150045, -0.0812494, -0.0940865, 0.0234542, -0.0206555, 0.0163335, 0.0791438, -0.0335708, -0.0773302, 0.014422, 0.154364, -0.17028, 0.0356207, 0.0592505, -0.0918978, 0.00147511, -0.195655, -0.146199, -0.0176123, 0.0017738, -0.0564262, 0.0311608, -0.0944628, 0.0514963, -0.0325774, -0.0332646, -0.0564522, 0.00699374, -0.090883, -0.0590089, 0.0861437, -0.16084, -0.143714, 0.0201544, -0.090437, 0.164169, -0.104056, 0.000726085, 0.0601524, 0.0498072, 0.0403477, 0.151588, 0.00211693, 0.00663319, -0.0390748, 0.0409871, 0.0741164, -0.0958502, -0.0611748, -0.0492298, -0.112809, 0.0371737, 0.00426457, -0.111659, -0.0750385, -0.108941, 0.0727537, 0.0294028, -0.0573085, -0.0496028,
                                -0.158438, 0.0840054, 0.0610399, 0.0203596, -0.0553098, 0.128342, -0.052741, 0.119096, 0.0713936, 0.0971879, 0.0983684, -0.0463498, -0.066009, 0.0159483, -0.00711654, -0.122685, 0.102805, -0.0135014, 0.040723, -0.105092, -0.0303494, -0.121133, -0.127205, -0.0356879, 0.0741629, 0.0762676, 0.0738411, -0.0515124, -0.0324434, -0.0122672, -0.0621589, -0.05357, -0.0784444, 0.162395, 0.0112887, 0.000299281, -0.0844774, 0.199952, -0.162205, 0.0133631, -0.0653982, -0.00849304, 0.137075, 0.0228056, -0.22283, -0.0217291, -0.154376, 0.069846, 0.11888, -0.0494436, -0.0181543, 0.11607, 0.110481, 0.115766, 0.0270596, 0.028684, -0.156045, -0.0103925, -0.00549603, -0.0116873, -0.0894102, 0.1382, 0.0767073, -0.0451569, 0.0409513, 0.118985, -0.100334, -0.148105, 0.0120167, 0.0234542, -0.0540179, -0.0348886, -0.0215198, -0.00863791, -0.0770061, 0.0897481, -0.0144172, 0.169126, 0.112999, 0.00301076, 0.0872314, 0.114376, 0.0482682, -0.028521, -0.0487559, 0.0137308, -0.0438422, 0.190088, 0.0113198, -0.0378998, 0.0216005, -0.185438, 0.0355684, -0.142051, 0.0374199, 0.0436575, 0.172882, 0.155853, 0.0241021, -0.0424593, 0.0357884, -0.0158371, -0.029022, 0.11651, 0.0574596, 0.00708672, -0.0664671, -0.0493069, -0.0842709, 0.0529084, -0.10633, 0.0134482, 0.00650907, -0.0460557, 0.110897, -0.0375874, 0.153729, 0.0824615, -0.0215245, 0.160556, 0.0555304, -0.168918, 0.0028886, -0.0479489, 0.0300997, -0.0848037, -0.053952, 0.123859,
                                -0.0991375, 0.119957, -0.0355635, 0.012444, -0.0161187, 0.0654514, -0.0103474, -0.00789371, -0.0248819, -0.127337, 0.18325, 0.0662432, -0.0540319, -0.0317177, 0.0878809, 0.0409588, 0.0693189, 0.0430556, 0.0740146, -0.0650546, -0.0500666, 0.119497, -0.0618751, -0.0341045, -0.0799521, 0.00645469, -0.0117578, -0.0333636, -0.00464736, 0.0759521, 0.0554446, -0.0746008, -0.0501154, 0.0508288, -0.0544545, 0.240181, -0.061508, -0.0862084, 0.111434, -0.00389062, 0.21796, -0.023376, 0.123917, 0.0345168, -0.0911234, -0.116007, -0.117396, -0.0451922, 0.0478662, 0.0260813, -0.0486476, 0.000424406, -0.0458022, 0.0402553, -0.0827892, 0.124178, 0.0411188, 0.054403, -0.0941862, 0.227615, 0.222234, 0.109565, 0.0229898, 0.0184383, 0.0433699, -0.106752, 0.0532609, -0.0275817, 0.00109461, -0.0253604, 0.0310435, 0.015678, -0.177106, -0.0215531, -0.13007, 0.0232586, -0.0709757, -0.00671859, -0.0543253, -0.101055, -0.129227, 0.0340944, -0.0378639, -0.0491404, -0.106391, -0.00526549, 0.255124, -0.0879131, -0.079447, -0.0327709, 0.0321608, 0.0796588, 0.0980416, 0.0652458, -0.0270778, -0.0495352, 0.0200698, 0.0482529, 0.0866728, -0.00691381, -0.035221, 0.0922951, -0.0473645, -0.0869541, 0.0769084, -0.00788136, -0.0229058, 0.177801, -0.158601, 0.0147513, -0.0731641, 0.101794, -0.0106375, -0.0805895, -0.0785043, -0.145361, -0.130672, 0.169523, 0.133245, 0.0861933, 0.0170735, 0.119228, 0.0749077, 0.0128883, 0.0400008, 0.16019, -0.0616814, 0.0386569,
                                0.0458062, 0.11422, -0.124433, 0.0537157, 0.00200831, -0.0991044, 0.0268533, -0.123008, -0.0469601, 0.033889, 0.0098819, -0.04753, -0.0332091, 0.0901411, 0.0253218, 0.262171, -0.026267, 0.0853143, -0.0633472, -0.00644592, -0.0680456, -0.0579375, 0.135697, -0.0080788, -0.0812976, -0.0499963, -0.106307, -0.128287, -0.132633, -0.0458635, 0.155357, 0.0437401, -0.0292374, 0.0734889, 0.0144157, 0.0947018, 0.0461131, -0.0382743, -0.179535, -0.043287, -0.129975, -0.16555, 0.0525679, 0.14318, 0.0798965, 0.0556379, -0.0747025, 0.17628, 0.0344497, 0.0877675, -0.0728942, -0.0641612, -0.0512303, -0.0297416, -0.106311, -0.162351, 0.0236493, 0.0567959, -0.0509649, -0.00838928, -0.0282374, 0.112038, -0.0578418, -0.134416, -0.124064, -0.0715605, -0.0388965, 0.0257712, -0.174643, 0.0285185, -0.102921, 0.0324436, -0.0173414, 0.0329507, -0.150097, -0.16655, 0.075638, 0.0550496, 0.0717687, -0.0621418, 0.0665064, 0.0310746, 0.0480509, -0.142593, 0.147198, -0.00745893, -0.0349194, 0.102635, -0.0148693, -0.0185122, 0.052476, 0.111954, 0.0903021, -0.113225, 0.0508524, -0.105957, -0.115724, -0.0407534, 0.00863262, 0.134053, 0.0256353, -0.0103686, -0.10339, 0.0169722, 0.180864, -0.00364985, 0.0926134, -0.07427, -0.163119, -0.0691726, -0.0518664, -0.170033, -0.0938973, -0.00972804, -0.0628374, -0.00952109, 0.0786568, 0.0463423, 0.0302861, 0.0721724, -0.0250797, 0.0253445, -0.0871967, -0.0415956, -0.12549, -0.0762614, -0.0645805, -0.0474056,
                                -0.0641939, -0.0311204, 0.056896, -0.13851, -0.0828298, -0.14321, -0.0812403, -0.0196094, 0.0885555, -0.141092, -0.062608, 0.0464136, 0.00596868, -0.0176501, 0.0170256, 0.0119974, 0.0963781, -0.00449977, 0.0125585, 0.0410161, 0.058429, -0.205937, -0.0881392, -0.0269387, 0.0954503, -0.0251212, 0.028656, 0.0338535, 0.0426138, -0.00210517, 0.0451623, -0.212987, -0.0715824, -0.0121356, 0.188378, -0.0895927, 0.000540983, 0.0613049, -0.0199334, 0.0312893, -0.156456, 0.0447032, -0.000751787, 0.182114, -0.0617431, 0.0834519, -0.0114533, -0.106035, 0.071068, -0.022886, -0.0313351, -0.156601, 0.0794113, 0.00836529, -0.0834982, -0.0313903, 0.0689713, 0.0108981, 0.0123324, 0.0658511, 0.00690168, -0.0918783, -0.146714, -0.0215569, -0.0100855, 0.0111457, 0.00367271, -0.263891, 0.0075784, 0.00339962, 0.0393825, 0.0796424, -0.0310433, 0.053853, -0.138371, -0.0968377, 0.0948327, -0.0606638, -0.0560727, -0.0247738, -0.0807473, -0.126973, -0.14637, -0.11354, 0.0908511, -0.0775871, 0.0138918, -0.070196, -0.12499, -0.0981048, 0.0938402, -0.0796909, -0.0319276, -0.0222031, -0.0198545, -0.0452377, -0.0908447, -0.0172398, 0.100287, -0.188542, 0.0794515, 0.0195849, 0.00915191, -0.108186, -0.101271, 0.0365609, -0.00404036, -0.0165722, 0.0737576, 0.00595194, 0.0848925, -0.033459, 0.0493194, 0.00338128, -0.322644, 0.0856281, -0.0570399, 0.0474213, -0.117851, 0.0704993, 0.0126277, -0.106936, -0.0512058, 0.0776006, 0.0845318, 0.0184853, -0.189122, 0.0934674,
                                -0.0630108, -0.0398048, -0.153366, 0.0310425, -0.110688, 0.0718338, -0.055804, -0.0950537, -0.265961, 0.154993, 0.0678383, 0.110014, 0.0911957, -0.0736218, 0.0645288, -0.0357402, 0.0175068, 0.0588023, -0.0911737, 0.0101949, -0.017895, -0.143564, -0.122299, -0.0471777, -0.0275463, -0.0470534, 0.123592, -0.0582938, -0.105878, 0.00146273, 0.120565, -0.00501654, 0.144732, -0.106453, -0.0461843, -0.076705, 0.033979, -0.00949747, 0.0798119, 0.0977722, 0.0855212, 0.0894653, -0.0679762, 0.0518281, 0.0974986, -0.0507361, 0.0463725, 0.00902629, 0.118821, -0.0358097, -0.0104693, -0.0558088, 0.072767, 0.00102774, -0.163114, -0.0169547, -0.0269841, -0.00296728, -0.0512394, -0.00988966, 0.0645444, -0.00719958, 0.199801, -0.0919232, -0.0336348, 0.0753, 0.0502151, 0.0023737, -0.118604, 0.00145796, 0.0351381, -0.0171574, -0.0523721, 0.0536617, 0.0348177, -0.0234287, 0.0581777, -0.0982893, 0.11582, -0.0584437, -0.0525504, 0.125215, -0.182533, -0.0460529, 0.0345629, -0.122793, -0.221582, -0.260988, 0.164744, -0.0384709, -0.0360608, -0.0200296, 0.0745395, -0.124548, 0.0233877, 0.0554336, 0.0133596, 0.1568, -0.0753512, 0.0295586, -0.0350457, 0.0441181, 0.0446563, -0.154437, 0.0521902, 0.0220403, -0.126875, -0.0111852, -0.00795677, -0.0083632, -0.139123, -0.070378, 0.061628, -0.0286709, 0.12248, 0.0421334, 0.119168, 0.0229384, -0.0885613, -0.12144, -0.050102, -0.0281059, 0.0671314, 0.0963328, 0.0713181, 0.121321, -0.0621295, 0.0503634,
                                -0.0275498, -0.0223017, -0.164326, -0.034311, 0.00514389, 0.0258751, -0.0164871, -0.046449, -0.00894521, 0.0624748, 0.0143106, 0.0411699, 0.0561648, -0.0199574, -0.00116614, -0.000399451, -0.151498, 0.0307305, -0.0119959, 0.117308, -0.0599678, 0.163788, -0.144095, 0.00307941, -0.0367488, 0.217746, 0.0220933, -0.00382724, 0.0851019, 0.0662364, -0.0222772, -0.0172024, 0.0991894, 0.0350512, -0.117891, -0.231526, 0.0575875, -0.00760722, -0.000291775, 0.119012, 0.155013, -0.0873456, 0.00932652, 0.0766754, -0.211358, -0.00737368, 0.159127, 0.0138172, -0.107087, -0.0326681, 0.0515203, 0.0984044, -0.0751948, -0.107889, -0.0489248, 0.00450087, -0.0487554, -0.0432685, 0.0838989, 0.219999, -0.0465684, -0.0477484, -0.00585244, -0.0386199, -0.0454972, -0.0219674, -0.0611347, -0.10702, 0.00585913, 0.087294, -0.134927, -0.0240458, -0.0771889, 0.0997742, -0.0619538, -0.10625, 0.0386813, -0.124748, -0.191606, 0.0314123, -0.103975, 0.105359, 0.0916005, 0.0444774, 0.0491938, 0.0127983, 0.035404, 0.14455, 0.0540569, -0.029715, -0.101329, 0.0776573, 0.0359208, -0.0658218, 0.0410296, 0.0680089, -0.042824, -0.0440506, 0.0538006, 0.0447815, 0.144632, -0.0064375, -0.138882, -0.0109968, 0.0073251, 0.111755, -0.0463764, -0.102018, 0.0472625, -0.0196922, 0.124994, 0.0790391, -0.0929365, -0.177138, -0.00749117, 0.205826, 0.0435196, -0.0609452, -0.0577087, 0.123117, -0.0381579, 0.0128136, 0.00640273, -0.099505, -0.138583, 0.0556341, -0.00710124, 0.187065,
                                -0.0550411, 0.0595615, 0.0627767, -0.110034, 0.0751022, -0.0549095, 0.159901, -0.00101423, -0.150567, 0.0437113, -0.0555846, -0.0153107, 0.116192, -0.104357, 0.0357534, 0.166633, 0.0800859, -0.0758563, 0.00685995, -0.0114239, 0.178708, 0.198286, -0.0196099, -0.0681042, -0.148813, -0.219801, 0.0493048, 0.0747804, 0.00672136, -0.0796668, -0.0224274, -0.0274844, -0.136734, -0.085708, 0.0483814, 0.0995278, 0.0630963, 0.0229173, 0.000432763, -0.0276972, -0.00871345, -0.0535612, 0.0566277, 0.0118133, -0.123103, -0.0180216, -0.0294904, -0.167926, -0.0164565, -0.0966149, 0.0488079, -0.107166, 0.102928, -0.226736, -0.152161, 0.0148633, 0.0265709, -0.0288357, 0.0642398, 0.0277438, 0.0516707, 0.00539393, 0.058522, 0.0808875, -0.0468464, 0.172262, -0.0797884, -0.0959225, 0.0640315, -0.151694, -0.00700738, 0.00978883, 0.090902, -0.124451, -0.0216022, -0.103679, -0.0754719, -0.123666, 0.163782, -0.0716003, 0.0818456, 0.0576452, -0.0426763, 0.00736373, 0.0351345, 0.033044, 0.0121756, 0.103976, 0.0923017, 0.0641486, -0.0450139, 0.00860265, 0.109981, 0.101915, 0.101493, -0.0555987, 0.209401, -0.0580813, -0.0154821, -0.0776694, -0.0547109, -0.153553, -0.0534185, -0.00413163, 0.0782356, 0.206465, 0.103865, -0.0657355, 0.111055, 0.0568224, -0.0130382, 0.0136838, -0.0874542, 0.0772231, -0.0235544, 0.0149643, 0.12234, 0.0105002, 0.0557301, 0.0287773, -0.0269469, -0.0758235, 0.100978, -0.0117639, -0.0595074, 0.0524677, 0.0785766, 0.0303146,
                                0.0253263, -0.198277, -0.115878, -0.0278452, 0.00817178, 0.102731, -0.0337468, -0.0332414, 0.0535142, -0.0623689, -0.00846161, 0.100379, -0.00906667, 0.100595, -0.0140427, 0.0846622, -0.0680357, 0.0227708, 0.0164678, -0.151648, -0.0418893, 0.028303, -0.152293, -0.0610623, -0.027934, -0.0860839, 0.0473153, 0.127125, -0.121347, -0.0877769, -0.0468202, -0.139934, 0.111566, -0.086837, -0.0428158, 0.126587, 0.0389397, 0.0918962, 0.0382854, -0.218804, -0.0918483, -0.00990455, -0.0956926, -0.115815, -0.0282, 0.119154, -0.105038, -0.0337835, -0.0619708, -0.0611216, 0.00802017, 0.0156267, 0.0966818, 0.107724, -0.0585799, 0.0706163, -0.203276, 0.277853, -0.0873315, 0.0454836, -0.0164193, -0.107618, -0.00297498, 0.0427932, 0.067804, 0.0884574, -0.0377097, -0.0117919, -0.145638, 0.0894034, 0.00256614, -0.0465174, 0.110933, 0.0277193, 0.0186797, -0.0996381, 0.0976059, -0.0131161, -0.245094, -0.10142, -0.102732, -0.0075963, -0.0658135, -0.0256555, -0.0908292, -0.00693759, 0.0432704, 0.0998817, -0.0307508, -0.0118007, -0.00892606, -0.00550847, -0.193305, 0.103011, 0.136785, -0.12342, 0.0246478, -0.0367611, 0.024807, 0.0981805, -0.0660859, -0.0514035, -0.114494, -0.0508988, -0.0499723, -0.105863, 0.033641, 0.0600977, 0.0423782, 0.0407025, -0.142404, -0.121434, -0.00778457, -0.0781659, 0.0663907, 0.0763939, 0.0871675, 0.0125447, -0.0179708, -0.0482509, 0.145218, -0.0384501, 0.00700387, -0.0923568, -0.106031, 0.0390349, 0.0229099, -0.0671201,
                                -0.0203232, 0.00444935, -0.0567579, -0.00553608, 0.0434936, 0.010575, 0.0731446, -0.0779283, -0.144015, 0.0610693, 0.0763205, 0.0558932, 0.0709672, -0.0717315, -0.145182, -0.0898831, -0.0309512, 0.0956423, 0.0228409, -0.0834526, -0.175717, 0.0555818, 0.109136, 0.0723092, 0.0694254, 0.0600376, 0.00531363, 0.0729707, 0.12087, 0.0291421, 0.0656095, 0.0131847, 0.0227596, -0.0440236, -0.0411815, 0.0774263, -0.0605372, -0.0769463, -0.000202166, -0.0458708, 0.0412859, 0.0210856, 0.0121292, 0.124583, -0.163468, -0.0383888, 0.0383199, 0.097248, 0.0672954, -0.080541, -0.0172451, -0.019659, -0.149557, 0.149881, 0.0684352, 0.0628265, 0.0529681, 0.0112483, 0.0612232, -0.0822714, 0.131689, -0.105836, -0.152239, -0.0700171, -0.0436337, 0.0459485, 0.0611633, -0.147527, 0.0887972, 0.146669, -0.121874, -0.0706841, 0.178397, -0.0726935, 0.112603, 0.0400462, 0.194157, 0.043715, 0.165903, -0.106453, 0.0449365, -0.00398961, -0.100437, 0.087877, 0.193954, 0.0461043, 0.253973, -0.0547381, -0.0723866, 0.0870239, 0.000323266, 0.00266823, 0.00998118, 0.0382566, -0.0398799, -0.0189386, -0.121749, -0.0103576, -0.0161579, -0.0118025, -0.0630027, -0.0426122, 0.0741952, -0.0420104, 0.00598222, 0.0239212, 0.195219, -0.093832, 0.148349, 0.00970383, -0.0779376, 0.0597553, 0.0666629, -0.0384374, 0.114061, -0.00818062, 0.171533, -0.0047537, 0.0947182, -0.0013936, 0.158489, -0.11534, -0.0822803, 0.0226809, 0.0184732, 0.0087586, -0.172728, -0.0252466,
                                -0.0432528, 0.0648324, -0.0850096, 0.00164641, -0.112478, -0.088923, -0.0360943, -0.030963, 0.11618, 0.0804438, 0.125589, -0.0864352, 0.000300185, 0.100804, -0.169234, -0.0444616, 0.0525236, 0.0226717, 0.0223313, -0.104675, -0.0159003, -0.0718899, -0.0225033, 0.184923, 0.0944861, -0.0208302, -0.178568, -0.0406442, -0.113541, -0.0210224, -0.0415385, -0.0316378, -0.0366282, -0.0569472, 0.00166056, -0.00826225, 0.0910174, 0.0381543, 0.135053, 0.0430311, 0.00624549, -0.226589, 0.0240659, 0.065337, -0.0733967, 0.133824, 0.141503, -0.0644708, -0.0254937, -0.124922, -0.073959, 0.0696586, -0.0665407, -0.0596326, -0.0423261, -0.0382349, 0.109194, -0.114054, -0.216498, -0.00929571, 0.036199, 0.095983, -0.0634729, -0.040757, 0.047253, 0.108659, -0.163657, 0.0913831, -0.069121, -0.0102619, 0.048212, -0.0524963, -0.0759663, 0.0148309, -0.0873443, -0.0148612, -0.0986823, -0.0214438, -0.0344825, -0.0101198, -0.169063, -0.0694528, 0.0207531, -0.0393066, 0.0921819, 0.000380351, 0.0808821, -0.00408086, 0.0535513, 0.0695164, -0.00239165, -0.160107, -0.00192885, 0.0805685, -0.153826, 0.182874, 0.10237, -0.134491, 0.0265373, -0.0885372, -0.109396, 0.0169035, -0.0719945, -0.105695, -0.0466406, 0.10482, -0.0509483, 0.0597081, 0.0711197, -0.0249637, -0.110479, -0.00938117, 0.113352, -0.0911078, 0.071361, 0.00437464, 0.116104, -0.0550323, 0.0410856, -0.0529293, -0.0154005, -0.0221923, -0.0350402, 0.218258, -0.106856, -0.0901737, 0.154951, -0.163369,
                                0.00938571, -0.0118784, -0.00603651, -0.136417, -0.0339071, -0.249384, -0.126997, -0.00930868, -0.199676, -0.087397, 0.165266, 0.0366211, 0.00824058, 0.00539963, 0.108425, -0.0132471, -0.0548632, 0.0162375, 0.157966, 0.0213408, -0.0716416, -0.0744648, -0.080529, 0.0379916, -0.0729971, -0.0536053, -0.0513746, -0.0120359, 0.147349, -0.0280717, 0.111299, 0.110669, 0.018221, -0.0636736, 0.0120201, -0.0236039, -0.11203, -0.100277, -0.0638501, 0.0687285, -0.0277595, -0.0911774, -0.0198929, -0.224596, 0.00641405, 0.169993, -0.131111, 0.0639912, -0.0649714, 0.0633157, -0.151307, -0.0324761, 0.122103, -0.158546, 0.01355, -0.035014, 0.0872208, 0.0213694, -0.0816356, -0.12531, -0.108717, 0.0166223, 0.131771, 0.0318729, 0.0137017, 0.148306, 0.044599, 0.0529603, -0.00956185, -0.11484, 0.0597897, 0.0212268, 0.127429, 0.14637, -0.0440395, 0.0906768, 0.0400442, 0.0169702, 0.0172668, -0.0154028, 0.0489301, -0.0644723, -0.00222692, 0.0111694, -0.093337, 0.0430215, 0.248466, 0.0740046, 0.00158353, 0.0480523, -0.0321342, -0.101351, -0.0756915, -0.044049, 0.0410298, 0.0318916, -0.0725603, 0.164016, -0.0532322, -0.0614012, -0.0255576, -0.0205448, -0.0263941, -0.0253382, 0.0297554, 0.00207901, -0.0562365, -0.0584048, -0.000400698, 0.0700661, -0.0148421, 0.212546, -0.088872, -0.187927, -0.00421982, 0.121399, 0.0439906, -0.0680043, -0.0338522, 0.0348631, 0.0125784, 0.197249, -0.0993116, -0.0235656, 0.0505143, -0.0279348, -0.07024, 0.0147841,
                                0.183548, 0.0440253, 0.0910283, -0.0971896, 0.0887816, -0.0932405, -0.206244, -0.00586952, 0.0697587, 0.0138603, 0.0804977, -0.161854, -0.0615827, -0.0137352, -0.158553, 0.0260794, -0.142769, -0.102919, -0.00862627, -0.0988175, 0.0362328, 0.163684, -0.00458648, 0.0231696, -0.0239881, -0.0538111, -0.123655, -0.0950734, 0.0618493, -0.105283, -0.0982139, 0.0300159, -0.0521089, 0.0414155, 0.1088, 0.010542, 0.0740195, -0.0273932, -0.0271842, -0.022339, -0.155206, 0.0784184, -0.0415604, -0.213306, -0.0239794, -0.0531009, 0.175765, 0.0663254, 0.119552, -0.255166, -0.110033, -0.00269449, -0.0307288, 0.150863, -0.241517, 0.188753, 0.0217174, 0.0328633, -0.084488, 0.0104801, 0.0470224, -0.0740906, 0.0488514, -0.14828, -0.0507871, -0.0610621, -0.0167732, 0.057484, 0.106798, -0.0147587, 0.0552609, -0.0157578, -0.0595837, 0.0325923, 0.0189589, -0.0520955, 0.0922619, -0.0960015, 0.081524, -0.0756982, 0.026788, -0.0689744, 0.0117799, 0.0295268, -0.119661, 0.0127927, 0.00483799, -0.0479989, 0.0207558, 0.0341438, -0.0351299, 0.0278742, -0.00234576, -0.242989, 0.00664817, -0.0176442, -0.031955, -0.0835142, -0.117474, 0.00545761, 0.039425, 0.0610108, -0.0165596, 0.0396944, -0.0020584, 0.0558144, -2.11094e-05, 0.0117246, -0.12944, 0.0746853, 0.107733, -0.059072, 0.0228241, -0.130654, 0.0377996, 0.0560325, -0.0113244, 0.110328, 0.0192785, -0.0282297, -0.0304606, -0.125849, 0.117368, -0.02869, 0.0737282, 0.073986, -0.0562168, 0.0869051,
                                0.0468419, 0.194742, -0.0177395, 0.036145, -0.222474, 0.00510659, -0.123562, 0.0799118, -0.154473, -0.0340418, -0.0877588, 0.0314554, 0.0806515, -0.14216, -0.0282105, -0.012932, 0.162894, -0.0639204, -0.110609, -0.00780448, 0.142386, 0.03165, 0.115404, 0.183375, 0.000593322, -0.0723567, -0.0491567, 0.0292254, 0.0141104, 0.176592, -0.0325099, 0.0742497, -0.0521511, 0.122006, 0.00717731, -0.0569807, 0.00327046, 0.1583, 0.0660474, -0.0698546, -0.041195, 0.079712, 0.0462864, -0.0708881, -0.0440717, -0.0753002, 0.0617192, -0.0367451, -0.0263596, -0.090006, -0.0914008, -0.0309295, 0.0766158, -0.153417, -0.10285, -0.0605346, -0.0628564, -0.0632359, 0.182077, -0.000543941, 0.0235732, -0.0846084, 0.0386252, -0.0580268, 0.0677853, -0.0691233, 0.0455866, 0.177203, -0.00413335, 0.017329, 0.0506147, 0.0431113, -0.0509972, 0.0566627, -0.0906212, 0.00380468, 0.184902, 0.0610995, -0.148859, -0.0739293, 0.0123559, 0.14024, 0.0807423, -0.00810857, 0.0178451, -0.0353054, -0.00262868, 0.0216897, -0.0252151, 0.155723, 0.215297, 0.060943, -0.132851, -0.0406832, -0.00779903, -0.069698, 0.00659946, 0.100598, 0.0785317, 0.0787289, 0.0658385, -0.0226817, -0.00801658, -0.0142202, -0.0852177, -0.098497, -0.00582546, -0.0358968, 0.136446, 0.0183146, -0.068765, -0.00204014, 0.153127, -0.0652069, -0.0368949, -0.0664347, 0.0671875, 0.055574, 0.166656, -0.00815924, 0.162654, 0.0875947, -0.1414, -0.0277069, -0.112203, 0.015451, 0.0532277, 0.074703,
                                0.0721306, 0.000536159, -0.0340725, 0.0263095, -0.0433582, -0.0596127, 0.0661635, -0.0890765, 0.140612, -0.104491, -0.0852881, 0.0323319, -0.0115224, -0.00863456, -0.0278405, -0.0728984, -0.0499656, -0.206698, -0.0767104, -0.127679, 0.112236, -0.0574996, 0.101876, 0.0688669, 0.0156641, 0.098227, 0.0194813, 0.0669228, -0.0856309, 0.160723, 0.119369, -0.0784323, -0.0152767, 0.0461836, 0.00467657, -0.090223, 0.0489379, -0.0841228, 0.033874, 0.183521, 0.0802894, 0.00342172, 0.0147266, -0.0703412, 0.0148481, -0.0634258, -0.0537169, 0.0990131, 0.0980728, 0.0783008, 0.0306371, -0.036419, 0.0504816, 0.0343331, 0.0184709, 0.0256267, -0.0162361, 0.214412, 0.0612853, 0.0518695, 0.000152196, -0.199389, 0.182718, 0.17458, -0.050944, -0.0293707, -0.090611, -0.016708, -0.0019607, -0.0696323, -0.0777958, 0.0985645, 0.132002, 0.0570299, -0.0979497, 0.0904945, -0.0998864, 0.0566208, 0.144134, 0.0871035, -0.124742, 0.00922977, -0.0153568, 0.0454389, -0.029807, -0.17103, 0.0948245, 0.11832, 0.0326825, -0.0637146, -0.00404888, -0.0228673, -0.116976, -0.0532808, 0.0740175, 0.0255151, -0.118187, -0.0498693, -0.049847, -0.0824082, 0.0187268, 0.00406881, -0.142749, -0.018473, 0.194135, 0.059665, 0.0621432, -0.052129, -0.0334511, -0.148912, -0.0722484, 0.0377967, 0.0241348, -0.0228817, -0.0208882, 0.021991, 0.0465869, 0.0533477, 0.256835, -0.199959, -0.0273721, -0.131939, 0.0562069, 0.140695, -0.0142882, -0.0511748, 0.0682079, 0.0508607};


const float dense_W[256] = { 0.423256, 0.272053, 0.0953172, -0.230435, 0.283352, 0.242854, 0.0835055, 0.226962,
                             0.395596, 0.370926, 0.0142989, -0.566665, 0.0727442, -0.0621396, 0.254104, 0.294002,
                             0.396657, -0.143766, -0.248429, 0.0937304, 0.0537913, 0.3214, 0.125911, 0.274452,
                             -0.064265, -0.215637, 0.212034, 0.159971, -0.165981, 0.254681, 0.0671824, 0.339579,
                             0.230549, 0.0845849, -0.203293, -0.252039, 0.381305, -0.0985858, -0.118386, -0.100966,
                             0.176506, 0.171675, 0.174047, 0.0606423, -0.218458, 0.44453, 0.169218, 0.315,
                             -0.445702, 0.304096, 0.352157, 0.195534, 0.378049, 0.17444, 0.00295385, -0.476311,
                             -0.239294, -0.22442, 0.231923, 0.141798, 0.335255, -0.267988, 0.386815, -0.325927,
                             -0.211119, 0.0919168, -0.540615, 0.28202, -0.354071, -0.0863535, -0.0401681, 0.251377,
                             0.137961, -0.252116, 0.0862916, 0.035669, 0.0935853, 0.355142, 0.156713, -0.367395,
                             0.153504, 0.425986, 0.283641, -0.227538, -0.0512492, -0.0554292, 0.262939, 0.0824819,
                             -0.339852, -0.00662016, -0.241711, 0.0876225, -0.0978738, 0.0416295, -0.346755, -0.202883,
                             -0.56043, 0.107356, -0.506654, 0.297469, 0.00131617, 0.322258, -0.319364, -0.441304,
                             -0.487065, -0.103293, -0.278515, 0.309786, 0.1459, 0.210067, -0.395161, -0.0773299,
                             -0.0330775, 0.0409772, 0.230855, -0.645799, 0.130026, 0.0188042, 0.110231, 0.465567,
                             -0.235528, 0.3629, -0.374348, -0.289965, 0.339695, -0.156698, -0.269683, -0.0847789,
                             -0.0309818, -0.0904708, -0.101328, 0.408482, -0.148023, -0.0965391, 0.052749, -0.301472,
                             0.075318, -0.315253, 0.207354, 0.379101, -0.302368, -0.133649, 0.172525, 0.332532,
                             0.183499, -0.0410884, 0.087159, -0.270638, -0.00402416, 0.0928661, 0.454886, 0.0592096,
                             -0.110324, 0.107156, -0.0397426, 0.606592, -0.314397, 0.0731945, 0.114407, 0.118013,
                             -0.167288, -0.141534, -0.0875129, -0.484401, 0.449147, 0.101681, 0.430836, -0.018503,
                             -0.000483818, -0.3279, -0.470568, 0.182821, 0.301603, 0.323946, -0.182562, 0.26582,
                             -0.32952, -0.265397, 0.0826467, 0.0572742, -0.37961, 0.38672, -0.269684, -0.318399,
                             -0.385212, 0.379757, -0.0278924, 0.367374, -0.267404, 0.536357, -0.135834, 0.158535,
                             0.33475, -0.423205, -0.080375, 0.673785, -0.376058, 0.48457, -0.278868, -0.158675,
                             -0.24175, 0.12182, -0.26914, -0.440463, 0.142784, 0.138903, 0.257904, 0.128671,
                             0.437522, -0.133018, -0.0198009, -0.333813, 0.0852595, -0.551652, 0.315501, 0.0709642,
                             -0.370651, 0.28849, 0.0469663, -0.30846, 0.247504, 0.182734, 0.207449, -0.38367,
                             0.203351, -0.0654296, -0.177717, -0.0596758, 0.0126561, -0.140967, -0.172819, -0.172472,
                             -0.355739, 0.549108, -0.133635, 0.183409, -0.165613, -0.459994, -0.334718, 0.237919,
                             0.311921, 0.402419, 0.596618, 0.0383452, 0.160968, -0.540269, 0.296931, 0.336827,
                             0.126271, -0.112364, 0.00150757, -0.225029, 0.432267, -0.321909, 0.332607, 0.138583};


const float dense_b[8] = {0.076705, 0.0653155, 0.0408673, 0.0618774, 0.014939, -0.0268149, 0.0382292, 0.0174305};


const float dense_1_W[8] = { 0.379611,
                             0.845822,
                             -0.934503,
                             0.783856,
                             0.772136,
                             -1.09935,
                             0.386541,
                             -0.943407};


const float dense_1_b[1] = {0.0321573};



#ifdef __cplusplus
}

#endif
#endif
