/*************
* neural_net_params.h
*
* Neural Network Parameters
* Code Generated using nn4mc
* Hardware Plateform: ESP-32
*
* This file defines the weights used by the neural network implementation.  Weight representations were
* created automatically using nn4mp.
*/

#ifndef __NEURAL_NET_PARAMS_H__
#define __NEURAL_NET_PARAMS_H__

#ifdef __cpluscplus
extern "C" {
#endif



const float dense_39_W[40] = { -0.313935, -0.00219704, -0.0798439, 0.0236189, 0.0108514, -0.000927075, -0.0523325, -0.024906, -0.0266882, -0.0267905, -0.0656632, 0.0269382, -0.0201722, -0.0442147, -0.00488579, -0.00102029, 0.0444547, -0.0496769, 0.00593809, 0.00775434,
                               -0.0937741, 0.0628034, -0.141601, 0.0593007, 0.0608291, 0.0274638, 4.27302e-05, -0.0814168, -0.0883255, 0.0278317, 0.0985764, 0.27164, 0.0188866, 0.0192811, -0.131278, 0.0202697, -0.0255525, -0.000177334, 0.0664596, 0.0911619};


const float dense_39_b[20] = {0.276616, 0.563134, -0.352986, 0.627978, 0.644239, -0.00306275, -0.0151649, -0.499066, -0.597003, 0, 0, 0.723797, 0, 0, -0.970659, -0.662584, -0.947281, -0.00312267, 0.846859, 0.776051};


const float dense_40_W[200] = { 0.351353, -0.437964, 0.366176, -0.0357857, 0.0962667, 0.205539, -0.0131423, -0.0360012, -0.392438, -0.443614,
                                0.026894, -0.0200245, -0.007949, 0.0658462, -0.00793008, -0.0291233, -0.0495773, -0.00301599, -0.0164776, 0.00242557,
                                -0.0598047, 0.218317, -0.0580484, -0.275284, -0.151738, -0.0846325, -0.0264171, -0.144619, 0.21386, 0.172086,
                                0.0472144, 0.0687754, 0.0670201, 0.0114582, 0.0719978, 0.128087, -0.00862683, 0.052629, 0.00472823, -0.00429929,
                                0.022041, 0.0401799, 0.0971652, 0.0074871, 0.00236996, 0.0552272, -0.0288929, 0.110166, -0.00271505, -0.00484731,
                                0.0256435, -0.0708737, -0.0226947, 0.0471199, 0.120536, -0.0194706, 0.0194309, 0.0330026, 0.039658, 0.00197472,
                                0.0274918, 0.0551923, -0.0131212, 0.038668, 0.0574848, 0.00549835, 0.0813391, -0.016412, -0.0404916, -0.0036298,
                                0.0981047, 0.0282252, 0.0558531, 0.0351571, 0.111337, -0.0203986, -0.0235688, -0.254299, 0.105177, 0.0433233,
                                -0.0767063, 0.0588951, 0.0321642, 0.0050067, 0.0926058, 0.0120813, -0.108154, -0.163536, 0.0284738, -0.0148578,
                                0.0405197, -0.0471103, -0.0347352, 0.0320128, 0.0494999, 0.0104443, -0.00170735, 0.00901227, 0.000702603, -0.0793175,
                                0.0090523, -0.0353664, 0.0631006, 0.0426576, -0.0425901, 0.0504176, 0.0452688, 0.0734201, 0.049744, 0.00488638,
                                0.776925, -0.544538, 0.76351, 0.0241249, 0.88718, 0.876153, -0.0727714, -0.404828, -0.46963, -0.529674,
                                -0.00347364, -0.0168014, -0.0971073, -0.0435841, 0.122829, 0.0126168, -0.0522443, 0.012852, 0.0476288, -0.0228337,
                                -0.00330427, 0.0173556, -0.0385633, -0.0331056, -0.0591135, -0.0297598, 0.0160841, -0.04932, 0.00448927, -0.000876996,
                                0.0191706, 0.0825965, 0.0192621, 0.0967406, -0.0261554, 0.0744363, -0.00956886, -0.0022998, 0.0817844, 0.123077,
                                0.0160248, 0.0186096, 0.0570767, 0.0761896, -0.0231698, 0.00484809, 0.0281008, 0.00852546, -0.0167356, 0.036472,
                                0.0303482, 0.0736571, -0.0192938, -0.00648407, 0.144777, -0.0283225, -0.0334032, 0.0773712, 0.0963189, 0.0707843,
                                0.0340388, -0.00223698, 0.000478439, 0.0325787, -0.0619646, -0.0395185, -0.0431555, -0.0470733, 0.059897, -0.0113943,
                                0.0765743, -0.00323435, 0.106798, -0.037489, 0.0190542, 0.0894253, -0.0196556, 0.0441486, 0.0193517, 0.109033,
                                0.0179063, 0.0584314, 0.0442665, -0.00787078, 0.0130851, 0.0479785, -0.00624843, -0.000339336, 0.0212585, 0.00959146};


const float dense_40_b[10] = {1.00457, -0.934677, 1.05515, 0.384496, 1.03167, 1.02185, 0, -0.644376, -0.962816, -0.947226};


const float dense_41_W[10] = { 0.0848623,
                               -0.179626,
                               0.159756,
                               0.155749,
                               0.146174,
                               0.157358,
                               0.14456,
                               -0.205014,
                               -0.166949,
                               -0.219257};


const float dense_41_b[1] = {1.01226};



#ifdef __cplusplus
}

#endif
#endif
