/*************
* neural_net_params.h
*
* Neural Network Parameters
* Code Generated using nn4mc
* Hardware Plateform: ESP-32
*
* This file defines the weights used by the neural network implementation.  Weight representations were
* created automatically using nn4mp.
*/

#ifndef __NEURAL_NET_PARAMS_H__
#define __NEURAL_NET_PARAMS_H__

#ifdef __cpluscplus
extern "C" {
#endif



const float simple_rnn_1_W[128] = { -0.596236, -0.199684, 0.29014, 0.181878, -0.477569, -0.0618626, 0.182484, 0.248653, 0.350232, 0.255888, 0.114406, -0.1833, 0.373468, 0.346389, 0.279842, -0.0217888, -0.264254, -0.211113, -0.588695, 0.250457, -0.253518, 0.448433, 0.142198, -0.438403, 0.380579, 0.118248, -0.0698823, -0.0158626, -0.00289979, -0.515447, -0.333292, 0.404473,
                                    0.209141, -0.37828, 0.0126628, 0.258348, -0.440872, 0.45776, -0.582522, -0.0204698, 0.0305326, -0.301251, -0.0454801, -0.290774, -0.425288, -0.333731, -0.140394, -0.418699, -0.304046, 0.34569, -0.22298, -0.437825, -0.310591, 0.316819, 0.131673, 0.130409, 0.178064, 0.319207, -0.0307532, -0.306708, -0.420127, -0.228913, -0.33588, 0.125629,
                                    -0.117721, -0.314534, 0.174889, -0.084453, -0.0990712, -0.492842, 0.141821, 0.426547, -0.181029, -0.55045, 0.215817, 0.41884, -0.269872, -0.0221344, 0.382695, 0.127132, 0.225322, -0.140395, -0.127161, 0.210812, 0.300135, -0.459291, 0.265324, 0.129775, 0.309864, 0.222026, 0.442341, 0.286422, 0.289463, 0.0796308, 0.195801, 0.128009,
                                    -0.145249, 0.422655, -0.481702, 0.0341707, 0.141565, -0.33618, 0.0349703, 0.253067, -0.1546, -0.432053, -0.758082, 0.00185155, -0.0457784, 0.297536, -0.464703, 0.148985, -0.181199, 0.00441055, 0.146326, -0.314432, -0.243651, 0.0159426, 0.359427, 0.0473026, 0.205141, 0.384051, -0.067517, -0.180519, -0.200522, 0.22983, 0.156528, -0.302225};


const float simple_rnn_1_b[1024] = { -0.111788, -0.129283, -0.0920274, -0.172967, 0.161189, -0.22169, 0.508788, 0.0149539, -0.0232152, 0.151153, 0.132529, 0.0443922, -0.230825, 0.00132608, -0.0895281, 0.031455, -0.00647182, -0.178057, -0.316126, -0.0158562, -0.259298, 0.13998, -0.10987, 0.0345201, -0.131487, 0.173793, -0.11356, 0.298878, -0.0516989, -0.0310915, -0.0797589, 0.318174,
                                     0.0774739, 0.266705, -0.0892797, 0.0350284, 0.0996968, -0.153907, 0.0122438, 0.178069, 0.0112503, 0.196996, 0.121802, 0.0608323, -0.137992, 0.0642474, 0.0165369, -0.503371, -0.0985279, -0.0329071, -0.0679606, -0.290994, 0.331146, 0.296365, 0.0885348, -0.0263301, -0.000713348, -0.0784863, 0.00650961, -0.106434, -0.180766, 0.395474, -0.0100765, -0.0327333,
                                     0.149451, -0.283601, -0.164294, 0.11613, -0.193594, 0.0310823, -0.0862116, 0.0669157, 0.044039, 0.203243, 0.0602574, 0.0785668, 0.258034, 0.303963, -0.142475, 0.0412123, 0.143257, -0.285153, -0.0880319, 0.0734445, 0.137977, 0.238662, -0.0209635, 0.434265, 0.0657055, 0.174891, -0.323382, -0.0918101, 0.149564, -0.0201586, 0.0819975, -0.122345,
                                     0.0690649, -0.156975, 0.22524, 0.178947, 0.339733, -0.148815, -0.180334, -0.172023, 0.0285459, 0.108979, 0.0349547, -0.0479843, 0.0361212, 0.166988, 0.233186, -0.327026, -0.345317, 0.0203326, 0.23743, 0.222511, -0.212676, -0.154423, 0.079277, 0.100394, 0.0468847, 0.0909673, -0.272271, 0.252776, -0.0870145, 0.0265209, 0.114415, 0.0241081,
                                     0.479508, 0.00570125, -0.324163, -0.234267, 0.0424939, 0.056237, -0.105109, 0.191506, 0.263171, 0.0567955, -0.0290282, 0.00217407, -0.106101, 0.16639, 0.116472, 0.139356, -0.271086, 0.249681, -0.294403, 0.060467, 0.127758, -0.161426, 0.15832, -0.102187, 0.189307, -0.0363839, -0.00995548, 0.115688, 0.125319, -0.126355, 0.0274886, 0.158146,
                                     -0.169632, -0.278552, -0.414661, -0.279499, 0.209503, -0.0351303, -0.111609, -0.268817, -0.148914, -0.161817, 0.0126732, -0.00964943, -0.283248, -0.0802694, 0.212502, -0.00632466, -0.0857392, -0.0612265, 0.102381, -0.148317, 0.102062, 0.0142665, 0.0709895, 0.246505, -0.0437689, 0.0273255, 0.138663, 0.047037, 0.235342, 0.068485, -0.106132, -0.343212,
                                     0.185293, 0.0892073, 0.117024, 0.198586, 0.00959292, -0.0486251, -0.0788945, -0.0275583, -0.094062, -0.216619, -0.554904, 0.0506519, -0.193923, -0.00528467, -0.227636, -0.112622, 0.115517, -0.113777, -0.074072, 0.0702407, 0.0775709, -0.00968793, 0.133274, 0.194784, -0.0655775, 0.140492, 0.216478, 0.265033, 0.291947, 0.212251, 0.0668509, 0.228748,
                                     0.167019, 0.261227, 0.119007, -0.167061, -0.22354, 0.271652, 0.34461, -0.308657, -0.151209, 0.225235, 0.114223, 0.27679, -0.150665, 0.0506687, 0.0583283, 0.0911314, -0.0963564, 0.0323474, 0.314898, -0.00623451, 0.12522, 0.0287027, 0.113727, -0.000926991, -0.0250709, 0.129174, -0.0273448, 0.114954, 0.135002, -0.0105634, 0.362534, -0.0613266,
                                     -0.166976, -0.226739, 0.0839727, -0.0749426, -0.0516252, 0.207878, -0.164908, 0.402169, -0.0347318, -0.186842, 0.106334, 0.244063, -0.0558285, -0.21202, -0.266513, -0.120311, -0.240358, 0.0861458, -0.0439246, -0.0573651, -0.219351, 0.261144, 0.00564872, -0.103164, 0.0925546, -0.0883574, -0.0544318, 0.21262, 0.142781, 0.00604823, 0.357859, -0.149118,
                                     -0.24526, 0.0327614, -0.0827067, 0.108133, -0.123163, 0.201945, -0.091562, 0.417422, -0.0286803, 0.119182, 0.0927013, 0.00154763, -0.402355, -0.0835443, 0.103326, 0.0193373, 0.0243078, 0.0838304, 0.289829, 0.217359, 0.181359, -0.109317, 0.0189488, 0.372731, -0.0388254, 0.0443497, -0.0153128, 0.0313075, -0.170943, -0.138874, -0.14144, 0.286233,
                                     -0.11367, -0.240701, -0.0135258, -0.0970257, -0.106496, 0.180461, 0.0622798, 0.131516, -0.142357, -0.261387, -0.170189, 0.24782, 0.0115386, 0.469361, 0.259258, -0.0878461, -0.0416489, -0.153013, 0.0133701, -0.253012, -0.0234572, -0.277364, -0.107623, -0.156735, -0.164915, -0.0259656, -0.0748755, -0.203508, -0.0804628, 0.141838, 0.108076, 0.25297,
                                     0.243254, -0.186701, -0.056073, -0.130384, -0.149944, -0.0791757, 0.195178, 0.0040965, -0.0789751, -0.305869, 0.113117, -0.463392, 0.0269963, -0.201573, -0.180202, 0.0214156, -0.295449, -0.186628, 0.233696, 0.0849039, 0.0776424, 0.00226684, -0.0196954, 0.0646486, 0.157112, 0.0728862, 0.0314918, -0.218786, -0.164608, 0.201796, 0.17913, 0.209872,
                                     0.206529, -0.250863, 0.119208, -0.156345, -0.0141375, 0.00932251, 0.037183, -0.0908473, -0.011467, 0.153583, -0.271947, 0.260262, -0.00803989, -0.314567, 0.167638, -0.12815, 0.147646, 0.342459, -0.0902692, -0.0807822, -0.117675, 0.0364428, -0.297291, 0.270149, 0.269197, 0.111065, 0.0703924, -0.204794, -0.259297, 0.0604414, 0.0502266, 0.0385446,
                                     0.0646153, 0.152554, -0.106351, 0.208116, 0.294363, 0.0646558, 0.220907, -0.0555466, 0.219388, -0.317712, 0.117866, 0.135504, -0.0500975, 0.283614, -0.221934, -0.011339, 0.0417557, 0.081951, 0.132026, -0.212173, -0.231963, 0.048308, 0.111744, 0.332085, 0.185748, -0.122973, 0.207842, -0.133012, -0.161576, -0.259999, 0.0853905, -0.0151839,
                                     -0.0471358, -0.156014, 0.0221338, -0.0535425, -0.247719, -0.160596, -0.0184055, -0.0373483, 0.208587, -0.0552663, 0.349455, 0.0490158, -0.0703919, 0.136349, 0.137644, -0.0976711, 0.331328, 0.195869, -0.0302964, 0.315908, -0.251349, 0.0204568, 0.328583, -0.0229729, -0.0248639, 0.0389674, 0.267865, -0.104754, 0.120081, 0.355139, 0.0829935, 0.069534,
                                     -0.0291684, -0.000588662, -0.0922354, -0.13546, 0.233376, -0.0802482, -0.0210993, 0.0478001, -0.078218, 0.247912, -0.165683, -0.149807, 0.0495549, -0.133514, -0.00777002, 0.154732, 0.221251, 0.0222974, 0.0571473, -0.0743258, -0.105396, -0.0536171, 0.244402, 0.15637, -0.201612, -0.53122, -0.215702, -0.121858, 0.0398345, 0.0793145, 0.4121, 0.169035,
                                     -0.24166, -0.0520429, 0.0458607, -0.0932858, 0.222945, -0.0099295, 0.0963505, 0.132267, 0.181378, 0.213448, -0.110382, 0.0409063, -0.0220694, -0.0804412, -0.332873, -0.00688282, -0.0013017, -0.0134793, 0.0153393, -0.0827842, 0.0608586, -0.428671, 0.298007, -0.103398, 0.125187, 0.459077, -0.0683269, -0.288015, 0.0572521, 0.0724102, 0.053033, -0.14754,
                                     -0.00065856, 0.0454861, 0.225172, -0.387035, -0.0400778, -0.338387, -0.0783999, 0.0362385, 0.0819238, -0.203733, -0.00699033, -0.0162699, -0.253927, 0.254951, -0.202203, 0.00635484, 0.268679, 0.032706, 0.0380018, 0.132396, 0.253918, -0.137319, -0.222202, 0.0198984, 0.0612046, -0.104837, -0.174087, 0.189803, -0.230198, -0.0652135, 0.153374, -0.260301,
                                     0.0984007, -0.0360297, 0.0395037, 0.0234163, 0.182809, 0.381244, 0.139988, -0.0702997, -0.118409, -0.13057, 0.0378736, 0.230465, -0.027276, -0.0934881, -0.0671507, 0.117093, 0.0375678, -0.185455, -0.197355, 0.342416, 0.0493931, -0.103842, 0.207979, 0.00787571, 0.153854, -0.261239, -0.18631, 0.0516568, -0.270851, 0.34399, -0.273711, -0.160743,
                                     -0.0627964, -0.170658, 0.0746456, -0.0762321, 0.151671, 0.230395, -0.0532916, 0.0107094, 0.208629, -0.029261, -0.00421028, -0.181956, 0.220913, 0.0381781, 0.114117, 0.227299, 0.266009, 0.0756592, 0.198023, -0.329688, 0.17881, 0.209705, 0.160236, -0.0793359, 0.116313, 0.198455, 0.0327219, 0.443927, -0.218824, 0.178942, -0.00309252, 0.144126,
                                     -0.102223, -0.269129, -0.194703, 0.391819, -0.280945, -0.30937, 0.0784753, -0.175916, -0.197913, -0.0358394, -0.137021, 0.116273, -0.118076, -0.0154383, -0.0654383, 0.105791, -0.0673229, 0.244508, -0.0588039, -0.0744799, 0.167687, 0.0463443, 0.352167, -0.188636, 0.0656899, -0.0332263, -0.141327, 0.0651689, -0.297372, -0.154377, 0.0746997, -0.0294362,
                                     -0.0677748, 0.234093, -0.128898, -0.226144, -0.111681, -0.233664, -0.185484, 0.0125314, 0.250789, -0.0436592, -0.234438, 0.327388, 0.162308, -0.0302439, -0.0215612, 0.295488, -0.307411, -0.101588, 0.181348, 0.0971031, -0.191545, 0.186881, 0.092033, 0.104006, -0.251936, 0.108032, 0.00513385, -0.0323446, -0.282852, 0.163045, -0.0914574, -0.00528308,
                                     -0.142432, 0.184001, -0.393746, -0.126095, -0.0441089, 0.143079, -0.20318, -0.221116, -0.0345879, -0.0579243, 0.0709291, 0.0612288, 0.238346, -0.16046, -0.0455558, -0.367758, 0.1673, -0.199169, -0.173397, 0.155289, 0.0398523, -0.16264, 0.0167778, -0.0312098, 0.0313496, 0.126937, 0.0938247, 0.151096, -0.266873, -0.203351, 0.296047, 0.170413,
                                     0.302251, -0.343092, -0.019137, -0.087743, 0.126617, 0.109966, -0.208399, -0.157433, 0.0550925, 0.186241, 0.0533301, 0.153644, -0.166127, 0.0150958, -0.381233, -0.130562, 0.109517, -0.0781183, 0.296222, 0.0366548, 0.0199542, 0.117625, -0.00890309, -0.298423, -0.291172, -0.0790827, 0.116497, -0.111692, -0.0718185, -0.178171, -0.203971, 0.161244,
                                     0.0784518, -0.0284557, 0.251014, 0.0618713, -0.0120698, -0.150729, -0.278814, 0.0268031, -0.0534957, 0.170725, 0.13294, 0.0979241, -0.242411, -0.0560368, 0.19819, 0.253255, -0.00650165, -0.556651, -0.12286, -0.176521, -0.0684069, -0.0395767, 0.119496, -0.0338487, 0.301881, -0.031315, 0.283194, -0.0443873, -0.117205, -0.116296, 0.142774, 0.0230745,
                                     0.288884, 0.024734, -0.172779, 0.0829813, 0.307761, -0.237741, 0.138722, 0.419294, -0.352953, -0.11525, 0.0635013, 0.198531, 0.196846, -0.0851224, 0.195981, 0.0821598, 0.236664, -0.0193742, 0.220851, 0.177786, 0.0331701, 0.0101686, -0.00929812, -0.160061, -0.0759778, 0.213882, 0.0994842, 0.0199088, -0.00170907, -0.069122, 0.0908014, -0.148095,
                                     -0.00856462, -0.0140371, -0.229755, -0.0217325, -0.23964, -0.0728348, 0.241342, 0.115245, 0.258287, 0.102408, -0.284209, 0.0161651, -0.00502483, -0.0646607, 0.0928629, -0.240774, 0.134462, -0.26474, 0.363245, -0.000252619, -0.196646, -0.0483529, 0.0010549, -0.17638, 0.382963, -0.239022, -0.0772555, 0.162302, 0.130118, -0.0327442, -0.167318, -0.0940135,
                                     0.201131, 0.0262109, -0.0930834, 0.202118, -0.133664, -0.152982, -0.103966, -0.0461062, 0.117512, -0.0867166, 0.356729, 0.228993, 0.043426, -0.278655, -0.121113, 0.0747552, 0.0599249, 0.0170545, 0.0774044, -0.358985, -0.0212042, -0.452267, -0.175427, 0.122585, -0.120567, -0.0470998, -0.18505, 0.203772, 0.102915, 0.226522, -0.0731179, 0.0708053,
                                     0.207141, 0.189367, -0.159632, -0.0365944, -0.161518, 0.164118, -0.202029, 0.0654287, -0.3306, 0.0829882, -0.0477969, -0.302464, -0.224551, 0.156889, -0.102172, 0.00254632, 0.136729, 0.0743207, -0.00538626, -0.17996, -0.516233, -0.0292895, 0.0626994, -0.0299831, -0.0147564, 0.215954, -0.154576, 0.0378453, -0.202818, 0.10225, -0.0796596, -0.204751,
                                     0.0326992, -0.167738, 0.105846, -0.13921, -0.169956, -0.0321017, 0.150394, 0.164159, -0.191096, 0.256836, -0.0045796, -0.0571785, 0.318314, 0.128423, -0.148448, -0.110071, -0.174658, 0.0341753, -0.0328692, -0.0663019, 0.00799444, -0.266278, 0.133224, 0.238104, -0.145168, -0.187441, 0.47002, 0.266141, -0.147391, -0.0369603, -0.12023, -0.186883,
                                     0.192999, 0.00211737, 0.285066, -0.191855, -0.135812, 0.0127626, 0.0768068, 0.0748996, 0.100768, -0.27683, 0.0098757, -0.0229276, 0.0238853, -0.242378, 0.213594, -0.245623, 0.0839168, -0.0998754, -0.0961224, -0.165746, 0.0014967, 0.0449654, 0.442986, 0.130833, -0.258132, 0.0730616, -0.248927, -0.061717, -0.000984526, -0.352025, -0.168188, -0.0530589,
                                     -0.115596, 0.1309, 0.0841955, -0.296008, 0.0199007, -0.17941, -0.159745, -0.0574594, -0.423833, -0.0439627, 0.119445, 0.163457, 0.202978, 0.0966045, -0.157719, -0.0177554, 0.00313085, 0.123831, 0.113478, -0.0653013, -0.00567377, 0.0589866, 0.169152, 0.0475222, 0.408816, -0.0406046, -0.122364, -0.0376886, 0.202939, -0.0457143, -0.30319, 0.357596};


const float dense_1_W[256] = { -0.183559, -0.00824704, 0.230935, 0.102283, 0.467791, 0.265584, -0.0492861, 0.109356,
                               -0.133989, -0.220057, -0.282069, 0.0292202, 0.426853, 0.477807, -0.457733, -0.0902184,
                               -0.139728, 0.387031, 0.010759, 0.194101, 0.304594, 0.544484, -0.182291, -0.266273,
                               -0.362559, 0.233307, -0.0614004, -0.246279, 0.0192949, -0.193489, 0.270974, 0.1831,
                               0.126536, 0.0183774, 0.055631, 0.52019, -0.124886, -0.273891, -0.295721, 0.0437625,
                               -0.188464, 0.225982, -0.0432745, -0.293701, 0.0289369, -0.427953, 0.326854, 0.443363,
                               -0.391474, -0.0447543, -0.249421, -0.0978635, -0.303084, -0.317261, 0.300219, 0.0783428,
                               -0.300722, -0.289255, 0.413203, 0.238081, 0.205033, 0.337816, 0.238773, -0.230734,
                               -0.114342, -0.23418, -0.229551, 0.342942, -0.0969522, -0.550171, 0.0152395, -0.279207,
                               0.426686, -0.376598, -0.358046, 0.263678, -0.197984, -0.284545, 0.0760213, 0.27834,
                               -0.351552, 0.0527187, 0.129575, 0.111422, -0.31189, -0.501531, 0.451248, 0.164723,
                               0.0447364, -0.0609476, 0.359153, -0.426161, 0.280375, 0.237137, -0.0237291, 0.302191,
                               -0.216505, -0.174764, 0.130626, 0.428041, 0.308887, -0.228876, -0.0388646, -0.143358,
                               -0.1646, -0.164806, 0.269444, -0.111022, 0.0355539, -0.0763256, 0.289387, 0.332489,
                               -0.0610737, -0.0182151, 0.127191, -0.287582, 0.0443195, 0.285336, 0.07587, -0.173358,
                               0.42617, -0.730134, -0.238617, -0.233112, -0.38432, -0.357983, 0.254397, 0.358343,
                               0.44674, 0.296335, 0.0656461, 0.241314, 0.25594, 0.579008, 0.401038, -0.208665,
                               -0.338407, 0.0043563, 0.365314, 0.0501325, 0.0282082, 0.63261, -0.449834, 0.207213,
                               0.233864, -0.0717445, -0.559982, 0.216313, -0.338121, -0.145898, 0.40176, 0.11341,
                               0.0155271, 0.00448237, -0.27574, 0.323195, -0.0194485, -0.384202, 0.311909, -0.412869,
                               -0.0222725, -0.211758, -0.051817, 0.0321004, -0.0191709, -0.244744, 0.138964, -0.385187,
                               -0.29395, -0.0455398, 0.28705, 0.130319, 0.174553, -0.0233507, 0.435326, -0.499024,
                               0.0578426, 0.104107, -0.338473, -0.546253, -0.28718, 0.00863644, -0.0345642, -0.0620067,
                               -0.424761, 0.0778256, -0.0978601, 0.0362959, -0.635953, -0.476651, 0.257072, 0.580184,
                               -0.731787, 0.0340902, 0.129205, -0.109296, 0.231358, 0.304531, -0.123105, 0.0927462,
                               -0.500563, -0.435312, 0.00215867, -0.466544, 0.241707, 0.149588, -0.348673, -0.289588,
                               -0.622348, -0.1313, -0.192167, 0.0924055, -0.282464, -0.304673, 0.345593, -0.391311,
                               0.1746, 0.248314, 0.298863, 0.320186, -0.21176, -0.269643, 0.450627, 0.349496,
                               0.179998, 0.483664, 0.440306, 0.30768, 0.232037, -0.0613001, -0.244649, -0.209404,
                               0.123256, 0.264418, -0.341401, 0.473867, -0.135578, -0.34266, -0.461374, 0.253803,
                               0.169233, -0.398121, 0.0870564, -0.0603052, 0.0516637, 0.248392, -0.672833, 0.341521,
                               -0.313062, 0.0741285, -0.095191, 0.133318, 0.226542, -0.245992, 0.126225, -0.0488873};


const float dense_1_b[8] = {-0.00320162, -0.0714366, 0.0338325, 0.0458278, 0.0361289, 0.0611157, -0.0221241, -0.00914477};


const float dense_2_W[8] = { -1.15483,
                             0.925806,
                             0.668662,
                             0.699652,
                             0.462507,
                             0.613199,
                             -0.745071,
                             -0.773275};


const float dense_2_b[1] = {0.0384585};



#ifdef __cplusplus
}

#endif
#endif
