/********************
    parameters.h

    Code generated using nn4mc.

    This file defines the neural network weight parameters for all layers.

*/
#ifndef __NEURAL_NET_PARAMS_H__
#define __NEURAL_NET_PARAMS_H__

#ifdef __cpluscplus
extern "C" {
#endif



const float simple_rnn_W[128] = { -0.486412, 0.23899, -0.229319, -0.418807, -0.535061, -0.170579, 0.0517425, -0.0314119, 0.402536, -0.362399, 0.37346, 0.294296, 0.150323, 0.0848122, 0.473743, -0.0285728, 0.0926934, 0.112631, -0.404301, 0.387338, 0.0869942, 0.283665, -0.30604, 0.0324998, -0.00068067, -0.424127, -0.758146, -0.645472, -0.0841179, 0.167456, 0.437011, -0.461529,
                                  0.317842, -0.138647, -0.314156, 0.0749053, -0.360984, 0.361244, 0.190229, 0.325302, 0.351275, 0.275134, 0.033529, -0.166729, 0.0104525, 0.0828498, 0.232563, 0.20887, 0.225188, -0.389871, -0.387954, -0.0233078, -0.714637, 0.190271, 0.499194, 0.319236, 0.165455, 0.26792, 0.0195875, 0.252739, -0.0555029, 0.11227, 0.064954, -0.395642,
                                  0.312911, 0.258505, -0.225201, 0.353604, -0.00526262, 0.207117, 0.158892, 0.0961229, -0.332101, 0.11941, 0.0317292, 0.254391, 0.286456, 0.184383, 0.359729, -0.204327, 0.184881, 0.285617, 0.37526, -0.0234379, -0.0681968, -0.178493, -0.0414642, 0.210594, 0.0570535, 0.132064, 0.319596, -0.29339, 0.379465, 0.233899, -0.180655, 0.140784,
                                  -0.0927442, 0.0519304, 0.298701, 0.0631744, 0.376146, -0.283322, 0.194681, 0.36316, 0.0407309, -0.227056, 0.309149, -0.343101, 0.328738, -0.750197, 0.391654, 0.374814, 0.310154, 0.0555545, 0.350211, -0.182973, 0.246226, 0.24602, -0.598204, -0.140807, 0.265898, 0.169306, -0.160133, 0.10508, -0.264929, 0.0604088, -0.277814, 0.290049};


const float simple_rnn_b[1024] = { 0.194739, 0.122988, -0.155216, 0.107674, 0.204784, 0.0327458, -0.0288395, -0.193883, -0.0292343, 0.20709, -0.0775422, -0.258624, -0.0299801, 0.120233, 0.150071, -0.27844, 0.201365, 0.0629999, -0.0509002, 0.132423, -0.140709, 0.176244, -0.0286853, -0.15232, -0.199259, 0.120784, 0.41205, 0.0530136, -0.3575, 0.0017776, 0.0797419, -0.311775,
                                   0.00774055, -0.333455, 0.0329613, -0.169783, -0.0128973, -0.107642, -0.180367, 0.0365643, -0.0352436, 0.213303, 0.16699, 0.460071, -0.106996, -0.224342, -0.254387, -0.0646339, 0.0987047, 0.310721, -0.0752405, 0.172845, 0.123894, 0.116467, 0.0483302, 0.141297, 0.0989588, -0.0559253, 0.0346923, 0.030879, -0.121517, -0.147456, 0.01694, -0.38902,
                                   0.231038, -0.0886702, 0.186584, 0.163469, 0.0763606, 0.179597, -0.21736, 0.0341938, -0.0806524, -0.245616, 0.222535, -0.150016, 0.0553888, -0.1792, 0.0473943, 0.174691, 0.123927, -0.0692783, -0.000256839, -0.384279, 0.384755, 0.0760216, 0.0930717, -0.0599146, 0.206783, 0.27723, -0.000430755, 0.246933, -0.237716, 0.0621569, -0.0468665, -0.0828523,
                                   -0.331542, -0.035456, -0.090617, 0.066041, -0.051618, -0.441925, -0.0176638, 0.0978602, 0.238972, 0.0345481, 0.115413, -0.0745462, -0.0762384, 0.244358, -0.211292, 0.0404935, -0.0189909, 0.0810337, 0.193994, -0.255973, 0.231066, 0.328662, -0.0782574, -0.238196, -0.0789419, -0.000285059, 0.0710902, -0.0341521, 0.00416145, 0.298563, 0.204819, -0.0387218,
                                   -0.102235, -0.156559, 0.0317126, 0.0786494, 0.17367, 0.0216279, -0.185541, -0.0258096, -0.122392, -0.305629, 0.0224463, -0.0222366, 0.0388847, 0.246206, -0.138146, -0.196293, 0.0468683, -0.0501721, -0.235972, -0.021161, -0.21675, 0.0309719, 0.400563, -0.169972, 0.265373, -0.431595, 0.179129, 0.151873, 0.190831, 0.107712, -0.0585954, -0.0395826,
                                   0.0880021, -0.00485336, -0.152165, -0.0867556, -0.16201, 0.27672, -0.107553, 0.156392, -0.0426795, -0.0330336, 0.137581, -0.179545, 0.167866, 0.192357, -0.266854, -0.293527, -0.11154, 0.181979, 0.0509225, -0.0123174, -0.0727033, -0.250295, 0.0243641, 0.171258, 0.0424329, 0.219011, -0.141159, 0.0474846, 0.0650605, 0.104861, 0.554359, -0.0736752,
                                   0.291665, 0.0624787, 0.00483407, 0.46977, -0.202439, 0.0258819, 0.0624575, -0.123006, -0.20929, 0.231023, 0.0998776, -0.114907, -0.0777337, 0.0795511, -0.0415625, 0.128895, 0.127356, 0.343864, -0.21354, -0.0331518, 0.173811, 0.172058, 0.115633, 0.124825, -0.0432827, -0.141538, -0.0194543, -0.273295, 0.305585, 0.00221399, 0.031009, 0.131617,
                                   -0.126023, 0.0101872, 0.411625, 0.00559132, 0.00376446, -0.0254976, -0.0557071, -0.125588, 0.126658, 0.172908, -0.0365604, -0.090553, -0.063855, -0.146103, -0.058166, -0.0852496, 0.420499, -0.173991, 0.0944607, 0.159485, -0.111414, 0.194688, -0.0357339, 0.00136161, 0.269029, 0.0893422, 0.0360914, 0.115262, 0.132308, -0.209772, 0.390107, 0.319017,
                                   -0.139878, -0.0307724, 0.0221731, -0.0592717, 0.0520865, 0.0643331, -0.121506, -0.0953137, -0.259902, -0.0783119, -0.257896, -0.0316827, 0.0713104, 0.218334, 0.218621, -0.222588, -0.00453749, 0.139993, 0.135016, 0.24073, 0.185627, 0.327006, 0.0193414, -0.132629, 0.228161, 0.159772, -0.509892, -0.196098, -0.0559711, 0.0321757, -0.119057, -0.0629811,
                                   0.250303, 0.148394, -0.145989, -0.130989, -0.234248, -0.333625, -0.0657506, -0.117502, -0.0844853, -0.0463499, -0.219253, 0.0625054, 0.0588553, 0.040061, 0.00940001, 0.0867189, 0.170102, -0.290227, 0.0508777, -0.228598, -0.0514997, -0.0153296, 0.205045, -0.0988379, -0.0398069, 0.111794, -0.142766, 0.0320638, 0.314803, -0.284885, 0.113537, -0.408964,
                                   0.0531089, 0.0998908, 0.260353, -0.551564, 0.0400266, -0.001507, -0.056521, 0.132202, -0.17516, 0.234176, 0.229431, -0.219141, 0.0565668, 0.201624, 0.0111428, -0.0327437, 0.0165773, -0.172878, -0.297391, -0.028623, 0.140766, 0.121454, -0.199967, 0.118708, -0.0180279, 0.0336826, 0.127995, -0.0686272, 0.252404, 0.155135, -0.194723, -0.0733457,
                                   -0.133472, 0.304243, 0.000999549, -0.0306862, 0.278748, -0.0175591, -0.197839, -0.189933, 0.138347, 0.101254, 0.160515, 0.302336, -0.0524439, 0.0187892, 0.28757, -0.187942, 0.242122, 0.112233, -0.105476, -0.437665, -0.0910354, -0.210083, 0.0123391, 0.149496, 0.01608, -0.0693157, -0.203008, -0.209391, -0.05137, 0.137794, 0.0815855, 0.0233973,
                                   -0.0273473, -0.260544, 0.00581316, -0.0677531, -0.352019, 0.376778, 0.0945023, 0.0452256, 0.190506, 0.0365126, 0.205, 0.0676847, -0.0303665, -0.0530743, 0.277813, -0.0260554, 0.085936, 0.0763439, 0.0615641, -0.195177, -0.41717, 0.350163, 0.0269977, -0.169097, -0.162478, 0.0528467, -0.0980547, 0.0908328, 0.158946, 0.0997417, -0.111092, -0.0915639,
                                   0.00672677, 0.145214, 0.279992, -0.146444, 0.2105, 0.0130056, 0.379775, 0.0584044, -0.0573161, -0.0475351, 0.110805, -0.0668629, -0.0776649, 0.132873, -0.212391, 0.0143288, 0.0732388, 0.0839207, 0.300922, -0.0570846, -0.0587003, 0.119691, 0.526685, 0.240912, -0.278156, 0.00915074, -0.127796, 0.00145433, -0.163569, -0.0942642, -0.0804357, -0.0169237,
                                   -0.17532, 0.193421, 0.216095, -0.0756234, -0.100473, -0.0504945, -0.0304834, -0.0187156, 0.0142921, -0.132351, -0.111864, 0.207747, 0.496574, 0.0166761, 0.0719254, -0.000752073, -0.0500357, 0.397165, -0.26363, -0.00660312, 0.101861, 0.0181995, 0.106124, -0.208413, -0.263875, 0.205129, 0.193083, 0.169572, 0.0489806, -0.192707, 0.0296944, 0.163479,
                                   -0.241164, 0.0965126, -0.302748, -0.234313, 0.049477, -0.0109411, -0.114097, -0.117374, -0.139004, -0.216308, 0.246402, -0.260572, 0.0491503, -0.205077, 0.0516423, 0.489669, 0.325672, 0.205826, 0.046694, 0.267503, -0.117427, -0.0597984, 0.0708089, -0.037637, -0.00802881, -0.00165551, 0.00282753, -0.109989, 0.0353914, 0.0929736, 0.0711824, -0.0432412,
                                   0.0529603, -0.179557, -0.239738, -0.10582, 0.0696591, 0.15456, 0.0249925, -0.147004, -0.0265613, -0.0718496, -0.278285, 0.167828, -0.0825062, 0.254317, -0.229381, -0.0247837, 0.442001, 0.124649, 0.186457, -0.105588, 0.121838, -0.0964783, -0.173182, 0.139999, -0.074931, 0.1815, 0.142534, 0.215109, 0.19887, 0.112757, -0.270938, 0.218493,
                                   0.159416, 0.00275382, 0.33586, 0.0360121, -0.287508, -0.0891972, 0.0540285, -0.3304, 0.000784607, -0.036302, 0.0439871, 0.0919102, 0.379586, 0.114861, 0.0649318, 0.0610176, 0.0978437, -0.021914, 0.300671, 0.151493, 0.0114059, -0.151236, -0.144035, 0.104899, 0.0179472, -0.312075, 0.0111718, 0.0829921, -0.137276, 0.385382, 0.00966413, -0.174698,
                                   0.270671, -0.209468, -0.0856972, -2.35401e-05, 0.357382, -0.0302971, -0.111331, 0.342383, 0.292982, 0.0207923, -0.128215, 0.0276074, 0.318958, 0.247301, 0.250012, 0.310039, 0.0627333, 0.0295197, 0.00889524, 0.0571811, -0.0357293, 0.20424, -0.0412708, 0.243896, -0.0209104, -0.167127, -0.0721387, 0.0204827, 0.021584, -0.102916, 0.184968, 0.0257772,
                                   0.303192, 0.147964, -0.203828, -0.19627, -0.128824, -0.0766654, 0.130661, 0.301543, -0.206809, 0.121998, -0.013574, 0.197315, 0.216469, -0.111966, -0.136577, -0.0463686, 0.165296, -0.0154339, 0.057906, -0.114669, -0.148793, 0.114013, 0.0769941, -0.267978, 0.276923, -0.0654128, 0.0676371, -0.196708, -0.296182, 0.140345, -0.0181877, 0.331276,
                                   -0.166619, -0.190084, 0.100724, 0.0379384, -0.0656374, -0.137348, -0.0503222, 0.0157927, -0.495643, 0.263135, 0.0140674, 0.0330822, -0.154558, 0.36219, 0.167087, 0.306776, -0.0912301, 0.0827208, 0.0170235, -0.179444, -0.266056, -0.167012, -0.0736915, -0.013038, 0.0575781, 0.064335, -0.00985354, 0.244449, -0.22228, -0.139433, 0.0988089, 0.086134,
                                   0.0975429, 0.303452, 0.0250163, 0.16999, 0.0943184, 0.0629357, 0.156843, 0.217524, 0.171736, 0.0595282, 0.353667, 0.140973, -0.0859877, 0.290935, -0.054048, 0.0511125, 0.1682, 0.0523532, 0.0199351, 0.268261, 0.0413869, -0.203933, -0.149732, -0.39386, 0.140354, 0.0241525, -0.200507, 0.225169, 0.0995223, -0.147033, -0.14458, -0.143845,
                                   -0.017694, -0.0687227, 0.0278854, -0.0136846, 0.00544776, 0.123746, 0.183912, -0.252884, 0.0280913, -0.251912, 0.00487986, 0.01126, 0.0746724, 0.147192, -0.391359, 0.130239, 0.105006, -0.125049, -0.409281, -0.130718, -0.122188, 0.166631, -0.349278, -0.0364821, -0.0971606, -0.088421, -0.247915, -0.165671, -0.296086, -0.192858, 0.0919566, -0.0484706,
                                   0.0649659, 0.0335456, -0.281563, -0.0145938, 0.0996207, -0.232168, 0.307965, -0.36503, 0.0864261, 0.0822659, 0.209036, 0.0601852, 0.127614, -0.015744, 0.0391741, -0.00530023, -0.227851, -0.0191458, -0.202583, 0.0743595, -0.0849344, 0.207486, 0.101242, 0.233175, 0.296716, 0.250216, -0.0979814, 0.365311, 0.0448991, 0.148341, -0.030104, 0.105981,
                                   0.152855, 0.100987, -0.0969919, -0.169331, -0.344921, -0.0750451, -0.332588, -0.152253, 0.231937, -0.224963, 0.2599, -0.029242, -0.18453, 0.304349, 0.091351, -0.0735046, -0.102087, 0.0362564, 0.118788, 0.0705878, 0.0445065, 0.0847536, 0.0473864, 0.157441, 0.0707668, -0.0593377, 0.144077, -0.0796298, -0.205856, -0.35735, -0.136772, 0.255515,
                                   -0.0652521, -0.302091, 0.0335728, 0.128667, 0.174851, -0.0861242, 0.0107568, -0.14398, 0.0753892, 0.149922, 0.219887, -0.151845, 0.404667, 0.0329193, -0.128607, -0.0582825, -0.0497068, 0.0163811, 0.232428, -0.131215, -0.164988, -0.176727, -0.022215, -0.0820228, 0.165291, 0.229059, 0.119905, -0.395743, 0.116676, -0.25826, -0.26618, -0.0450063,
                                   -0.101845, 0.212992, -0.0878789, -0.0852254, -0.0495942, 0.241216, -0.272423, -0.136054, 0.220751, 0.470151, -0.228794, -0.24129, 0.133526, -0.0588994, -0.277217, 0.17217, -0.117562, 0.0898227, 0.0409357, -0.138155, 0.0117843, 0.0238581, 0.114428, -0.0599937, 0.0873593, -0.243734, -0.179546, 0.236288, -0.0957518, -0.0620708, -0.197817, -0.0215316,
                                   -0.120144, 0.222769, -0.0844262, 0.282594, 0.0608192, 0.150535, -0.377346, 0.026637, -0.229354, 0.0547281, 0.182163, 0.33218, 0.164323, 0.0386223, -0.198128, 0.0788714, -0.078321, -0.394604, 0.13174, 0.156378, -0.119564, 0.259353, -0.000822923, 0.13684, -0.254526, 0.150524, 0.0393299, -0.0120884, 0.0512654, 0.0809521, -0.0445753, 0.0464165,
                                   -0.0332097, -0.192507, -0.217604, -0.174529, 0.11374, 0.257862, 0.175986, -0.264654, -0.131829, 0.169184, 0.215164, 0.125272, 0.0901612, 0.0375286, 0.155714, -0.0363112, -0.0627194, -0.222163, 0.124831, -0.0195956, 0.428842, -0.0275893, 0.109492, -0.258846, -0.158746, -0.267532, 0.0334409, 0.0180207, 0.046369, -0.186155, 0.272339, 0.135601,
                                   -0.444178, 0.0778831, -0.174593, 0.161601, -0.297433, 0.132991, 0.257948, 0.239704, 0.0214198, 0.0568011, -0.03495, -0.0142229, 0.182525, 0.1136, 0.142801, -0.0468883, 0.262318, -0.176908, -0.113699, -0.0323, 0.191695, -0.00706152, 0.0931658, 0.335066, 0.231091, -0.0363001, 0.162007, -0.0281952, -0.146108, -0.135939, -0.0716094, -0.193478,
                                   -0.0289094, 0.243387, -0.0692104, 0.0166729, 0.127173, -0.00961912, 0.0914288, 0.0588893, -0.275235, -0.184719, 0.078246, -0.0735774, 0.0752329, -0.197928, 0.0140145, -0.174998, -0.100317, 0.221524, 0.298827, -0.222216, -0.0628834, 0.241486, -0.417291, 0.139431, 0.0979766, -0.297626, 0.0728102, 0.202088, 0.167133, -0.275561, 0.000767711, -0.0886181,
                                   0.0122489, 0.209574, 0.117494, -0.10305, 0.0779298, 0.334699, 0.124663, -0.143117, 0.0830655, -0.0561723, -0.178698, 0.24493, -0.161664, 0.153452, -0.0168773, 0.329114, -0.256395, 0.0829237, 0.109974, -0.0537083, -0.0200991, 0.104851, 0.0174828, -0.044373, 0.361727, 0.130516, 0.354817, -0.24318, 0.101568, 0.055933, 0.175694, -0.196548};


const float dense_W[256] = { 0.471977, -0.222348, -0.0100374, 0.0860548, -0.50001, 0.365362, 0.134302, 0.356766,
                             -0.000293326, -0.298304, -0.178459, -0.239151, -0.00263659, 0.233186, 0.427062, 0.344198,
                             -0.634919, -0.00467617, 0.558192, 0.390349, 0.503286, -0.239184, -0.0917449, 0.0830633,
                             0.399067, -0.151464, 0.496434, -0.0345672, -0.160577, -0.0818473, -0.0970707, -0.010297,
                             -0.0402323, -0.333566, 0.148165, -0.336259, 0.315916, 0.227838, -0.315903, -0.481877,
                             0.0581501, 0.103942, -0.25032, 0.242668, 0.0406669, -0.429465, 0.0797699, 0.218086,
                             -0.0777313, -0.248913, 0.150115, -0.299482, -0.047022, -0.100395, 0.355092, -0.176198,
                             0.048339, -0.224228, 0.182338, 0.0290509, 0.0584004, -0.01511, -0.0243833, 0.105702,
                             -0.456892, 0.193843, -0.224416, 0.239193, -0.350655, -0.317066, 0.195195, 0.378164,
                             0.114217, 0.169932, 0.0729411, 0.551688, -0.15608, -0.057667, -0.523326, 0.583388,
                             -0.32674, 0.0582603, 0.112977, 0.235465, -0.270162, -0.00528326, -0.331194, -0.214236,
                             0.101964, -0.0879138, 0.0377408, 0.482416, 0.0721896, 0.119999, -0.0744272, 0.488974,
                             0.317018, 0.186588, -0.134672, -0.12568, -0.333038, 0.250471, 0.208096, -0.282518,
                             0.208079, -0.297856, -0.585886, -0.602591, -0.288909, -0.0085267, -0.0574926, -0.280703,
                             -0.00107085, -0.198355, 0.355128, 0.0976049, -0.180599, 0.150166, -0.191132, 0.294848,
                             0.200867, -0.0818459, 0.403849, 0.0112559, -0.846239, -0.0519716, 0.337094, -0.0127453,
                             0.248762, -0.107925, 0.256207, 0.142491, -0.00724298, 0.106329, -0.175423, 0.154511,
                             0.134449, -0.243007, 0.517076, 0.258681, -0.140035, 0.100823, 0.230899, 0.115152,
                             -0.0380785, 0.144302, 0.524256, 0.325105, -0.178007, -0.286143, -0.206744, 0.32653,
                             0.239567, -0.20857, 0.0587933, -0.358988, -0.115535, 0.223672, -0.305784, -0.372157,
                             0.461306, -0.174185, -0.463444, -0.986619, 0.284047, -0.255096, 0.226329, -0.433252,
                             -0.487709, 0.0907402, 0.187525, 0.424342, -0.0674042, -0.0443497, 0.19335, 0.170393,
                             -0.157665, -0.324389, -0.159286, -0.239479, 0.365536, -0.768283, -0.554398, -0.0573479,
                             0.152593, 0.288299, -0.207601, 0.221574, 0.0695647, -0.0318876, -0.0825136, -0.176415,
                             -0.153974, 0.130594, 0.354931, -0.195761, -0.27041, 0.0351843, 0.275222, -0.304305,
                             0.392875, -0.239384, -0.1591, 0.279713, -0.691075, 0.253638, 0.118862, 0.346683,
                             0.382898, -0.261368, 0.0333298, -0.169325, 0.329292, 0.0481198, 0.366831, 0.125546,
                             -0.115309, -0.235137, -0.27918, -0.548398, 0.0155339, 0.436047, 0.018576, -0.140064,
                             0.0898905, 0.123367, 0.397588, 0.218977, -0.334436, 0.0621055, -0.55517, 0.503013,
                             0.182788, 0.115364, -0.0796463, 0.223008, 0.343423, -0.243541, 0.23725, 0.135319,
                             -0.168965, 0.145351, 0.202768, -0.157941, -0.146926, -0.497767, -0.350872, -0.444532,
                             0.308274, 0.24272, -0.319294, 0.0832788, -0.159976, 0.227276, 0.0758748, -0.399375};


const float dense_b[8] = {-0.175996, -0.0167741, 0.0751845, 0.00430448, -0.0507309, -0.142076, -0.0189497, 0.0519248};


const float dense_1_W[8] = { -0.560023,
                             0.346078,
                             0.369613,
                             0.563103,
                             0.802834,
                             -0.389596,
                             -0.431526,
                             0.635451};


const float dense_1_b[1] = {0.00673724};



#ifdef __cplusplus
}

#endif
#endif
