/********************
    parameters.h

    Code generated using nn4mc.

    This file defines the neural network weight parameters for all layers.

*/
#ifndef __NEURAL_NET_PARAMS_H__
#define __NEURAL_NET_PARAMS_H__

#ifdef __cpluscplus
extern "C" {
#endif



const float simple_rnn_W[128] = { 0.418332, 0.0408898, 0.0737742, -0.167333, 0.324497, 0.255683, 0.310787, -0.195139, 0.289454, -0.0147434, -0.119651, 0.386733, -0.15577, 0.335527, -0.41688, -0.0423462, -0.225304, -0.433339, 0.383441, 0.471291, -0.205127, -0.0602432, -0.0430322, 0.069463, -0.233007, 0.51209, -0.153147, 0.0427695, 0.0117723, -0.317434, 0.0567059, -0.0417882,
                                  0.0583555, 0.400508, 0.337671, 0.50575, 0.170423, -0.237267, 0.0574894, 0.183243, 0.0745743, -0.272052, 0.222024, -0.0225559, -0.257566, -0.134526, 0.408485, 0.235928, -0.0917809, -0.379605, -0.115041, 0.395558, 0.533779, 0.317059, -0.13013, -0.521429, -0.0522875, -0.211598, 0.435978, 0.10852, 0.0871993, 0.346349, -0.106435, 0.482194,
                                  -0.159211, -0.235975, -0.167495, 0.0877265, 0.294182, 0.136789, 0.0787061, -0.503545, -0.380794, -0.619442, -0.358824, 0.705636, -0.120264, 0.157678, -0.179548, -0.219044, -0.101207, -0.138556, -0.0136345, -0.172053, 0.210568, 0.514903, -0.327239, -0.498124, 0.101122, 0.408562, -0.394495, -0.271389, 0.547031, -0.440957, 0.134493, 0.345854,
                                  0.297246, 0.386962, -0.0725071, 0.229998, 0.155061, -0.0560951, 0.0406899, 0.0256979, 0.0687622, -0.376524, -0.188312, 0.0182307, 0.241395, -0.506582, -0.187304, -0.249131, 0.0512896, -0.055118, 0.426382, -0.0452246, -0.249916, 0.0631247, -0.153897, 0.12488, 0.243308, 0.354611, 0.005496, 0.159041, -0.0378615, -0.271232, 0.272234, -0.162691};


const float simple_rnn_b[1024] = { -0.278886, 0.0826761, 0.135691, 0.059812, -0.201981, 0.250709, -0.259303, -0.348634, 0.0735069, -0.276787, -0.00719969, -0.070703, 0.237214, 0.26996, -0.1447, -0.180249, 0.201978, 0.0273638, -0.251351, -0.176115, 0.00899601, 0.0206278, -0.340319, -0.0255553, -0.203013, -0.0256748, 0.144515, -0.000666152, 0.0855759, -0.00612957, -0.0864577, 0.0318291,
                                   -0.120261, 0.0107257, 0.222495, -0.0324842, -0.044454, 0.0867928, 0.136478, 0.0561877, -0.157619, 0.0617977, -0.00228377, -0.239749, 0.105473, -0.0257443, -0.00530817, 0.111512, -0.224257, -0.299077, 0.245038, 0.121001, -0.398873, 0.188095, -0.161563, -0.0174921, -0.203723, 0.185987, -0.0682069, 0.0434699, -0.0428465, 0.24737, -0.43997, -0.136469,
                                   -0.167235, -0.110395, 0.0236708, 0.0563906, 0.0406851, -0.185781, 0.219444, 0.065859, 0.00934663, 0.156696, -0.139544, 0.36677, 0.163935, 0.343326, 0.112604, 0.0480301, -0.00362204, 0.056077, -0.287872, -0.054428, -0.119226, -0.282384, 0.0406606, 0.118792, -0.135903, 0.411983, -0.0255316, 0.0615762, -0.113357, 0.328801, 0.120957, 0.0461523,
                                   -0.121285, -0.203575, 0.0124838, -0.221003, -0.138571, -0.211695, -0.112765, 0.162263, -0.277631, 0.193083, -0.0718465, -0.0257322, 0.330228, -0.190527, -0.161681, 0.0591483, 0.0894903, 0.200212, 0.144657, 0.0799038, -0.139497, -0.108381, -0.212355, 0.114529, -0.163442, 0.020846, -0.0121252, 0.164574, 0.353625, -0.297401, 0.247857, -0.0498192,
                                   0.317936, 0.26376, -0.116605, -0.00877342, 0.201092, 0.0405262, -0.0548902, -0.108439, 0.0405894, 0.0328821, 0.0618408, -0.0639637, 0.0784058, 0.198719, -0.145084, 0.2977, -0.264012, 0.131929, 0.168363, -0.281718, -0.131935, -0.241455, -0.374825, 0.169391, 0.0933352, 0.0463335, -0.0890648, -0.312627, -0.0401374, -0.043172, 0.11752, -0.139068,
                                   -0.262361, -0.00657706, -0.369031, 0.103529, 0.268903, -0.0319041, -0.197114, 0.104595, 0.270342, 0.077489, -0.168307, -0.129176, 0.0285145, -0.250942, -0.217496, -0.0979799, -0.341268, 0.125222, -0.224646, -0.0157057, 0.0296417, -0.192474, -0.0178841, -0.017626, -0.0170008, 0.0843861, -0.0660975, 0.173866, -0.0131222, -0.102428, -0.369932, 0.0733029,
                                   0.256144, 0.250256, -0.256431, -0.0817928, 0.0663592, -0.184513, 0.120099, -0.250032, -0.162476, 0.000439834, -0.0681451, 0.215036, 0.0863256, 0.197707, -0.310971, -0.150973, 0.0929221, -0.369055, -0.114612, 0.323983, -0.130916, 0.0814182, -0.00784832, 0.0487522, 0.0645932, 0.00574681, -0.128384, 0.0996788, 0.0576624, -0.23116, -0.127248, 0.218836,
                                   0.194959, 0.250442, -0.00762255, 0.0893853, -0.097762, 0.0801039, -0.197582, 0.438824, -0.154553, 0.0784653, 0.106338, 0.107021, 0.128564, 0.219946, 0.338882, 0.27111, -0.0228868, 0.0757623, -0.30891, 0.0125262, 0.0139274, 0.0975834, 0.00881948, -0.0432602, 0.0292393, -0.0585008, 0.196237, 0.0840789, 0.166415, -0.205315, -0.322935, 0.00945957,
                                   0.0724589, 0.226276, 0.110798, -0.107132, 0.104911, 0.183185, 0.281143, -0.142304, -0.238869, 0.08703, -0.125544, -0.312261, 0.0936937, 0.00127278, -0.02116, -0.00281216, 0.0351969, 0.238459, -0.18088, 0.00161168, 0.188346, -0.0581448, -0.0350549, -0.0509211, 0.347814, -0.039596, -0.128868, 0.47495, 0.0994165, 0.251376, 0.0341308, -0.127827,
                                   0.144328, 0.0334787, 0.0147929, 0.0758313, 0.169747, 0.107474, 0.0512748, 0.199413, 0.315996, 0.0579798, -0.436902, -0.251388, 0.178751, 0.15306, -0.0272511, -0.00807909, 0.278249, -0.219379, 0.156274, -0.0311364, 0.275467, 0.123639, 0.153249, 0.316767, -0.159084, 0.154628, 0.0477668, -0.0376796, 0.156929, -0.0764749, 0.0149716, -0.162123,
                                   0.231243, 0.215911, 0.0969217, 0.0426651, 0.238099, 0.347608, 0.179222, -0.0480612, 0.136874, -0.00485381, 0.0663997, 0.244131, 0.217665, -0.296712, 0.0837566, -0.213385, -0.163475, 0.0271715, 0.0757383, -0.073635, -0.202075, -0.0666746, 0.123251, -0.155558, -0.329075, -0.0198494, 0.233845, 0.121921, 0.214277, 0.0196093, 0.173654, 0.167434,
                                   0.261984, -0.277391, -0.161227, -0.145998, 0.104683, 0.0276494, -0.128246, 0.0978352, -0.138593, -0.282792, -0.172552, 0.225896, 0.123677, -0.127438, 0.0657146, -0.1291, 0.19245, -0.167157, -0.0942442, -0.249634, -0.111967, -0.167933, -0.00981276, -0.182753, 0.00943735, -0.181546, -0.218121, -0.00839723, 0.0256902, 0.166859, -0.178503, -0.430572,
                                   -0.000411126, -0.0337384, -0.161178, 0.0669656, 0.0297945, 0.264632, -0.333035, 0.0837279, -0.193244, -0.0367987, 0.0414546, 0.0123151, -0.108977, 0.045304, -0.207481, 0.222607, 0.0142416, -0.242222, 0.140687, 0.103887, 0.226315, -0.0915397, 0.0173253, -0.418957, 0.0353189, 0.432281, 0.0283254, 0.0495863, 0.173247, 0.181932, 0.209715, 0.09543,
                                   0.432064, -0.0791945, 0.0393815, 0.267392, -0.266395, 0.0691579, -0.143627, 0.141109, -0.0751637, 0.199974, -0.0339131, -0.0959262, -0.13207, -0.202434, -0.216356, -0.0606788, 0.142587, -0.0223912, -0.118068, 0.0268341, 0.00457391, -0.150584, -0.210439, 0.214238, -0.212585, -0.0874071, 0.0783344, 0.181066, -0.371053, 0.205671, 0.0166018, 0.180063,
                                   -0.00519186, -0.132859, -0.268765, -0.102538, -0.200887, 0.0448804, 0.2053, 0.161615, 0.323324, 0.328481, 0.162648, -0.203696, 0.044542, 0.107695, 0.0270923, -0.155403, 0.107619, -0.272779, -0.0653518, -0.276295, -0.259013, 0.037329, -0.173421, -0.254259, 0.291494, -0.00611724, 0.161416, 0.0757586, 0.036701, -0.0408087, 0.13872, 0.0349881,
                                   0.0231365, 0.113525, 0.0442166, 0.188607, -0.0522144, -0.275272, 0.276998, -0.00121528, -0.0977097, -0.389279, 0.108257, -0.288964, 0.182778, -0.30701, 0.055682, 0.213088, 0.197583, -0.136636, -0.116227, -0.236582, 0.0188429, -0.218362, 0.081865, -0.115483, -0.0178553, 0.267032, 0.00813698, -0.0442459, -0.112664, -0.230531, -0.0322765, 0.159849,
                                   0.030391, 0.13225, -0.265583, -0.0127978, -0.117879, -0.18196, -0.0320064, -0.368955, 0.0241201, 0.297254, -0.241286, -0.0430178, 0.0395187, -0.0262594, 0.110998, 0.22539, 0.286672, 0.22878, 0.222301, 0.0266728, -0.046955, -0.111792, 0.14792, -0.300917, -0.156123, -0.109452, 0.259039, -0.103838, -0.00608867, 0.1681, -0.240858, -0.00443653,
                                   -0.132431, 0.237068, -0.0253991, -0.0812805, -0.228384, -0.0119499, -0.189065, -0.0322257, -0.0944078, 0.0106489, 0.15995, -0.0365285, 0.141523, -0.0823042, -0.110409, -0.126157, -0.140652, -0.253174, 0.00277023, 0.0315683, -0.0362455, -0.335438, 0.394748, 0.326413, 0.202159, -0.0366815, 0.358635, -0.0426803, -2.43336e-05, 0.13373, 0.0383287, -0.293214,
                                   -0.189204, 0.215626, -0.425576, 0.158948, -0.182953, 0.301514, -0.00158329, -0.0370187, -0.162437, 0.126763, -0.0107441, -0.00943215, 0.13249, -0.249847, 0.232735, 0.00249818, 0.0929285, 0.00214206, -0.137597, 0.00393771, -0.0854938, 0.240177, 0.0454118, 0.189697, -0.0653898, 0.046535, -0.411956, -0.236358, -0.0348131, 0.0718643, 0.19877, -0.0153121,
                                   0.00783431, -0.114865, -0.265117, -0.048328, 0.144447, 0.0351261, 0.102267, -0.0911575, 0.0736923, -0.127778, 0.270261, -0.198041, -0.0918616, 0.0627867, 0.427286, -0.028027, 0.0461576, -0.112603, -0.00947455, 0.464341, 0.125577, -0.33112, -0.29676, 0.113231, -0.219294, -0.0452855, 0.0829779, 0.0835975, 0.0615782, 0.00406379, 0.0404841, -0.131243,
                                   0.0987326, -0.0509023, -0.190066, 0.154581, -0.243482, -0.114305, -0.0348077, -0.0749741, -0.232521, -0.0766304, -0.12199, -0.013132, 0.073817, 0.188715, 0.311904, -0.387849, -0.324809, 0.0123603, 0.403995, -0.279205, 0.220047, -0.00402818, -0.0241328, 0.0418037, 0.00873558, 0.113405, -0.0275903, 0.201939, -0.00747438, -0.0638037, -0.0721687, 0.152621,
                                   -0.026791, -0.0852052, -0.236907, 0.0370682, 0.0041336, -0.0222934, 0.35246, 0.122574, -0.287639, -0.00176255, 0.191071, -0.147492, -0.241382, 0.185535, -0.3279, -0.0390859, -0.0880155, 0.0686494, -0.139735, -0.228753, 0.13345, 0.050932, 0.151447, 0.0287768, -0.385871, -0.17762, 0.0921463, -0.166357, 0.294803, 0.117771, -0.063459, -0.0460842,
                                   -0.1075, 0.228484, 0.241436, -0.0231053, -0.223433, 0.0281302, 0.0553652, 0.121403, 0.0262005, 0.147953, -0.294743, -0.0830914, -0.0791933, 0.11802, 0.044436, -0.0435467, -0.200259, -0.223473, -0.0746346, 0.0753143, 0.0950401, -0.389881, 0.0243172, -0.333499, -0.199887, -0.293572, -0.312098, -0.13617, -0.037327, -0.179432, 0.135742, -0.0151329,
                                   0.054153, -0.265265, 0.18701, 0.215125, 0.377319, -0.085663, -0.147507, -0.159749, -0.309961, 0.30792, -0.0466208, -0.221415, 0.20813, -0.0326569, 0.148143, -0.195312, -0.0717826, -0.148163, -0.221047, 0.0283214, 0.0389204, 0.0221272, -0.0194225, -0.061682, 0.144926, -0.06502, 0.134781, -0.38629, 0.0635626, 0.029297, 0.0298687, 0.143299,
                                   -0.28692, -0.0265745, -0.160792, 0.044106, 0.240183, 0.179859, 0.133945, 0.2582, -0.180365, -0.105202, -0.00789631, 0.075763, 0.355464, 0.15259, -0.118991, 0.116443, 0.0913486, -0.030405, 0.265985, 0.0420099, 0.0730361, -0.0332118, -0.0282605, -0.0360753, 0.0584043, -0.382479, 0.146951, 0.0473881, -0.436798, 0.00874205, 0.0460608, 0.17583,
                                   -0.00956069, 0.149087, 0.0603299, 0.00428738, 0.0578296, 0.00363956, 0.104061, 0.019902, -0.0792899, 0.288881, 0.260928, 0.158925, 0.0735081, -0.0646341, -0.111658, -0.28929, 0.10738, 0.0998617, 0.0296003, 0.0197189, 0.30447, 0.0750418, -0.115252, -0.207613, -0.117048, 0.287253, 0.0351998, -0.0744745, -0.328385, -0.254148, -0.104541, -0.454731,
                                   -0.233244, 0.106224, 0.00615758, 0.528506, 0.101841, -0.0665965, 0.111571, -0.0623623, -0.124773, 0.023265, -0.236339, 0.23375, -0.340386, -0.113524, 0.0284082, 0.0964108, 0.0459911, -0.186239, 0.0469535, -0.0921507, -0.113916, 0.0247134, -0.257132, 0.0495226, 0.117168, -0.104636, 0.224075, 0.175726, 0.149026, -0.121734, 0.101354, -0.275019,
                                   -0.163466, 0.129036, 0.0776706, -0.397115, 0.136835, 0.222082, 0.0248599, 0.083131, -0.195088, 0.130575, -0.0701336, 0.100593, -0.346464, -0.119474, 0.119006, -0.121856, 0.284913, -0.069823, 0.0934323, -0.229949, 0.0305116, -0.252053, -0.130914, 0.215793, 0.0697378, 0.124211, 0.0379536, -0.131017, 0.0446698, -0.0690676, -0.253664, 0.313082,
                                   -0.0290461, 0.0795472, 0.0968514, 0.421778, 0.081076, -0.00365445, -0.0787011, 0.165908, 0.0562217, 0.014429, 0.266569, -0.0803786, -0.0130969, 0.191966, -0.077756, -0.26915, 0.326515, 0.225287, 0.255096, 0.108768, -0.270659, -0.257236, 0.152513, -0.029249, 0.12737, -0.00910464, -0.306115, -0.0227815, 0.201946, 0.0435013, -0.130451, 0.0284647,
                                   0.0412401, -0.371605, 0.0128112, 0.0620107, 0.00962371, 0.404649, 0.00871801, -0.312167, -0.0954338, 0.144735, 0.04299, -0.051972, -0.0816023, 0.166132, 0.0109535, 0.218823, -0.0161416, -0.00693717, -0.0321261, -0.0981927, -0.180662, -0.138739, 0.344016, 0.0838862, -0.0608301, 0.0522515, -0.071009, 0.206624, -0.156891, -0.447806, -0.0529998, -0.0871793,
                                   0.0975923, -0.0827391, -0.0943635, 0.00201861, -0.174861, 0.226814, 0.199253, 0.151867, -0.113433, -0.263855, -0.376534, -0.0923254, -0.0950768, 0.035392, -0.0618251, -0.205988, -0.071843, 0.310901, -0.05943, 0.311406, -0.237307, -0.0456832, -0.0294512, -0.0881853, 0.182021, 0.209444, 0.277564, -0.302146, -0.071956, -0.128008, 0.0201666, -0.0626622,
                                   -0.0351092, 0.250383, -0.0637287, -0.168096, 0.296485, -0.198621, -0.303279, 0.0908642, -0.15225, -0.080276, -0.0658274, -0.290515, -0.230671, 0.163036, 0.111986, -0.161344, 0.0745454, 0.0427595, -0.0672695, -0.10801, -0.33255, 0.154706, 0.129933, -0.0776212, -0.235341, 0.0543705, 0.0689354, 0.18808, -0.257821, -0.0375552, 0.294471, -0.0733546};


const float dense_W[256] = { 0.0215133, -0.132029, -0.172069, -0.314378, 0.0613187, 0.231993, 0.229832, 0.0908222,
                             -0.147859, -0.313211, 0.126744, 0.302849, 0.492138, -0.612872, 0.175789, -0.0831552,
                             -0.0569455, 0.102349, 0.316013, -0.283375, 0.138945, 0.324017, -0.36198, -0.139055,
                             -0.164702, 0.252228, -0.0155591, 0.193003, 0.0596777, -0.165203, 0.343763, -0.47794,
                             0.20653, 0.0327293, 0.372525, -0.420708, 0.303891, 0.324743, 0.242776, 0.0318887,
                             0.326337, -0.249238, -0.15103, 0.105888, 0.294973, -0.0148065, 0.413231, 0.352613,
                             0.210324, -0.278278, 0.170901, 0.200535, 0.115591, -0.017186, -0.204284, 0.0804554,
                             -0.210808, -0.405131, -0.113477, 0.175344, -0.242959, -0.249665, -0.329447, -0.297817,
                             -0.100401, 0.224147, -0.111846, 0.08277, 0.374207, -0.203003, 0.321402, 0.461491,
                             0.174751, 0.275223, -0.534787, -0.178892, 0.673161, 0.266957, 0.668715, -0.202084,
                             -0.622382, 0.256859, 0.316056, 0.00141917, 0.458478, 0.340246, -0.0878623, -0.0487022,
                             -0.374336, 0.352245, -0.0874244, -0.315115, 0.100297, -0.0816171, -0.250858, -0.399682,
                             -0.0289563, -0.0605577, 0.186753, -0.383556, 0.378948, 0.281813, 0.212416, -0.287608,
                             -0.325017, -0.470885, 0.356751, -0.215291, -0.112751, -0.12107, -0.54555, -0.489401,
                             -0.512787, -0.314498, 0.288485, -0.380187, -0.0681141, -0.0294246, -0.749308, -0.166844,
                             -0.392461, 0.0891535, 0.278542, 0.292393, -0.134676, 0.0568289, -0.305737, -0.554555,
                             -0.257476, 0.0802697, -0.16253, -0.344648, 0.37778, -0.0818585, 0.168323, 0.191714,
                             0.0269096, 0.428027, 0.366826, -0.263409, 0.397249, 0.155751, 0.414874, 0.208178,
                             0.155926, 0.344114, -0.0710189, -0.18268, 0.479229, -0.0684326, 0.000315929, -0.229269,
                             -0.423595, -0.253453, 0.0335655, 0.0885165, 0.564311, -0.769346, 0.0657791, -0.0641846,
                             -0.057588, 0.151687, -0.339272, 0.133885, -0.161972, -0.446711, -0.112218, -0.0549663,
                             -0.473267, 0.430549, -0.042335, -0.0372135, 0.539691, -0.611003, 0.0377284, -0.643719,
                             -0.222295, 0.110082, 0.162019, 0.195958, 0.644655, -0.111631, 0.424949, -0.248208,
                             0.431719, -0.181796, -0.115485, 0.229625, 0.101942, 0.130675, 0.400155, 0.283377,
                             0.0884449, 0.129887, 0.127631, -0.0792989, 0.125586, -0.356647, 0.268317, -0.250427,
                             0.0108217, -0.178156, -0.408631, -0.00940289, 0.129594, 0.12798, 0.438326, 0.232357,
                             -0.457829, 0.702381, -0.0480886, -0.3224, 0.315758, 0.299677, 0.603384, -0.613477,
                             0.369186, 0.0128358, 2.15352e-05, 0.224856, 0.291589, 0.140467, 0.256388, -0.0187894,
                             -0.886149, 0.290335, -0.441244, 0.0830301, 0.373058, -0.414581, 0.367613, -0.441954,
                             -0.350928, -0.383281, 0.329453, -0.398307, -0.22979, 0.485444, -0.393227, -0.111317,
                             0.164978, 0.364255, -0.28087, 0.146946, 0.0120062, -0.0759816, 0.22971, 0.241394,
                             -0.146686, 0.128436, -0.459537, -0.252851, 0.070397, -0.258103, 0.017991, -0.0181187};


const float dense_b[8] = {-0.0156722, -0.0859142, 0.0158877, -0.0706576, 0.123938, -0.0758454, -0.00732837, 0.0387735};


const float dense_1_W[8] = { -0.821218,
                             0.123401,
                             -1.03506,
                             -0.00139059,
                             0.199151,
                             -0.81857,
                             0.143111,
                             -1.20039};


const float dense_1_b[1] = {0.107868};



#ifdef __cplusplus
}

#endif
#endif
