/*************
* neural_net_params.h
*
* Neural Network Parameters
* Code Generated using nn4mc
* Hardware Plateform: ESP-32
*
* This file defines the weights used by the neural network implementation.  Weight representations were
* created automatically using nn4mp.
*/

#ifndef __NEURAL_NET_PARAMS_H__
#define __NEURAL_NET_PARAMS_H__

#ifdef __cpluscplus
extern "C" {
#endif



const float lstm_1_W[512] = { 0.488981, -0.0565203, 0.0200435, 0.0993117, -0.705304, -0.0253448, -0.219292, 0.00956247, -0.124408, -0.138325, -0.385797, 0.0767602, 0.236282, 0.377522, -0.0649031, 0.045978, 0.593692, -0.138809, 0.0571417, 0.158366, 0.12628, 0.127919, -0.14949, 0.239352, 0.132923, 0.213911, 0.117478, -0.0408142, -0.142836, -0.474901, 0.349125, 0.0189017, -0.141338, 0.0122701, 0.126808, 0.203233, -0.164139, -0.0929308, -0.104973, -0.0632651, -0.047042, 0.207399, 0.171372, 0.12024, -0.0128531, -0.0130244, -0.109602, 0.0167187, 0.00428735, -0.176879, -0.0544985, 0.00179149, 0.116237, 0.202685, 0.0507932, -0.185691, -0.192737, 0.190467, 0.0999607, -0.0136979, -0.000189096, -0.027315, -0.113371, 0.110871, 0.219386, 0.167984, -0.0628959, -0.312936, -0.282572, 0.15968, -0.0730893, -0.0551952, 0.253013, 0.0773748, -0.518196, 0.388831, -0.0409636, 0.0868546, 0.0453251, -0.106528, 0.128416, -0.0169184, -0.0115731, 0.111519, 0.295682, 0.0876415, 0.100714, 0.275725, 0.0399098, 0.0652827, 0.227659, -0.115526, -0.22458, -0.220847, -0.371993, -0.518139, 0.456731, -0.113407, -0.264341, 0.104733, -0.485633, -0.203126, -0.260003, 0.102614, -0.212823, 0.0635963, -0.355342, -0.367408, 0.247132, 0.309491, 0.0167027, -0.0523962, 0.488622, 0.0195808, 0.0304348, -0.173886, 0.42378, 0.321247, 0.183109, 0.260472, -0.0374568, 0.21397, 0.106803, -0.228124, 0.0240704, -0.360462, 0.0545562, 0.0313292,
                              0.0130792, -0.0699374, 0.194692, 0.275279, 0.0935764, -0.127807, -0.0398521, -0.119184, 0.177833, -0.0239088, 0.0679654, -0.0607591, -0.320723, 0.515371, -0.184584, 0.00714098, -0.0859066, -0.0127794, -0.139296, -0.186207, 0.121983, 0.315679, -0.139008, -0.19113, 0.353632, -0.204064, -0.0205152, 0.215537, -0.292604, 0.243564, -0.187304, 0.319393, 0.0511634, 0.0895337, -0.0407507, 0.00345016, -0.177456, 0.109389, -0.0735403, -0.156173, -0.172585, -0.186263, 0.0238611, 0.178268, 0.0780781, -0.0617061, -0.139157, 0.0563108, -0.0386064, -0.00175484, -0.0907567, -0.183003, -0.169273, -0.087707, -0.00941634, -0.016862, -0.0102557, -0.142256, 0.0529155, -0.212706, 0.123422, -0.1596, -0.0875677, 0.0878, -0.133701, -0.214488, -0.232841, 0.230332, 0.244283, -0.0162208, 0.188484, -0.0488155, -0.0155324, -0.0403469, -0.109411, 0.0997332, -0.308702, 0.0441806, 0.175857, 0.0760472, -0.297407, 0.0443378, 0.303919, 0.0893646, -0.265695, 0.0678082, 0.134018, 0.0290318, 0.0365973, -0.247803, 0.286935, 0.31513, -0.378037, 0.0438169, -0.263976, 0.0941461, 0.0924835, -0.058619, -0.0370602, 0.559693, 0.0395446, 0.075699, -0.170564, -0.0606822, 0.169553, -0.0700627, 0.0825094, -0.178156, -0.14513, 0.400005, 0.0501153, -0.0758229, -0.336704, -0.133138, 0.0180861, 0.0712213, 0.0217995, 0.197484, 0.250491, -0.128674, 0.350745, -0.230702, 0.219883, 0.188183, -0.228617, 0.233293, -0.338072, 0.345099,
                              0.436744, 0.469964, 0.0822093, 0.306516, 0.110796, 0.163514, -0.264622, -0.329264, -0.496691, -0.235928, -0.176205, -0.393197, 0.148631, -0.469851, 0.0261964, 0.174371, -0.423981, 0.10223, 0.00345704, 0.126017, -0.00224849, 0.13966, -0.181219, -0.218911, -0.00219433, 0.537297, -0.225836, 0.0897657, 0.0554769, -0.145895, -0.291592, 0.313245, 0.0227102, -0.0357344, -0.0658359, -0.0524474, -0.0967391, -0.0958413, 0.212836, 0.0896561, 0.0212772, -0.160099, -0.202501, -0.138092, 0.0260073, -0.0962603, -0.0368117, -0.137941, 0.0439229, 0.0723074, 0.183881, -0.199309, 0.0440552, -0.0250878, 0.0760438, -0.131143, 0.0610655, 0.0808773, -0.166077, -0.119467, 0.136527, -0.170811, 0.104484, -0.000747263, -0.164942, 0.0785507, -0.302649, -0.15733, -0.323348, 0.29055, 0.139481, 0.135118, -0.395989, 0.285806, -0.0663599, -0.267492, 0.15683, -0.462424, 0.226459, 0.27165, -0.240577, 0.0933173, 0.134541, -0.0368683, -0.11577, 0.131814, 0.0744099, 0.334408, 0.094968, 0.162409, 0.184019, 0.232634, 0.0652445, -0.294266, -0.554905, 0.0877661, 0.334981, 0.389282, -0.0411985, 0.225756, 0.350942, -0.0491607, 0.0726214, 0.0686411, -0.412285, 0.136731, -0.232172, -0.578271, 0.0329107, -0.27756, 0.269355, 0.106052, -0.188433, -0.0960549, 0.119416, 0.0675656, -0.0748814, 0.280657, 0.238842, -0.154126, 0.27798, 0.422718, 0.0152196, -0.146491, -0.10174, -0.160062, -0.26632, 0.272765,
                              0.116274, -0.070827, -0.25529, 0.456938, -0.543873, -0.131675, 0.0133857, -0.0837583, 0.00756062, -0.159093, -0.243099, 0.00808966, 0.076827, 0.49267, -0.22778, 0.0994769, -0.209065, 0.00199985, -0.153621, 0.0997965, 0.209348, -0.0606685, -0.161102, -0.155747, 0.0453737, -0.0658226, -0.154203, 0.0248571, -0.440685, -0.577299, -0.234695, 0.488451, 0.0936216, 0.150534, -0.134831, -0.180611, 0.00839972, 0.144768, 0.00887433, 0.141112, -0.137982, 0.209913, 0.0566642, -0.104625, 0.0704395, 0.00443231, -0.160209, 0.196592, 0.0706895, 0.0847972, 0.157252, 0.0877911, -0.0414556, 0.115248, -0.178949, 0.16639, 0.0566249, -0.0673251, -0.199867, 0.0616764, 0.156135, 0.0692291, -0.100601, 0.193241, 0.0440934, -0.094023, 0.015234, 0.170113, -0.283226, -0.0274558, -0.0842256, 0.255416, -0.0374614, 0.321029, -0.0486951, -0.131063, -0.127903, 0.094597, 0.190798, 0.231262, -0.188396, 0.0354125, -0.0230739, -0.0344413, 0.194247, -0.397904, 0.249761, -0.0544476, -0.0424044, -0.266343, 0.233815, 0.123883, -0.182587, -0.517971, -0.145539, 0.0875368, 0.0194014, -0.00156177, -0.0164333, 0.0720016, -0.306953, -0.058547, 0.185342, 0.156623, -0.193689, 0.270961, -0.182295, -0.20486, -0.213928, 0.574554, -0.0674329, 0.0325131, -0.128856, 0.17087, 0.121019, 0.193392, 0.184132, 0.0639699, 0.225093, 0.0181189, -0.00827446, -0.11655, 0.0979254, -0.176085, -0.534783, -0.5272, 0.0206966, 0.499952};


const float lstm_1_b[4096] = { 0.104533, -0.110771, -0.142942, 0.0646203, -0.0114875, 0.0389408, 0.0109819, 0.0101873, 0.0851836, 0.0478439, -0.131918, 0.0412769, -0.0241954, -0.0510964, 0.0745103, 0.0527652, 0.123774, 0.124334, 0.127283, 0.103082, 0.0512425, -0.00431818, -0.0583937, -0.056601, -0.0654283, -0.127579, 0.0161819, 0.0151745, -0.0244025, 0.0948241, 0.0300293, -0.0795011, 0.0101888, 0.0278293, 0.0197194, -0.0866574, -0.0889635, 0.0795779, -0.0611592, 0.0288914, -0.041788, -0.0400273, -0.000571818, 0.0581409, 0.0247868, -0.165328, 0.0569372, 0.0426781, 0.113118, 0.0404109, 0.0225754, 0.014535, 0.0525251, -0.00527404, -0.0977264, 0.0130989, 0.023181, 0.0116171, 0.188533, -0.0295117, -0.03462, 0.0173519, 0.000137514, -0.0998752, -0.0251612, -0.0343783, 0.0781449, -0.154464, -0.0463073, -0.0715935, -0.0823508, -0.0427395, 0.014244, -0.077834, -0.0390229, 0.00653917, 0.18565, 0.202053, -0.0524894, 0.169336, 0.0765559, 0.0408445, 0.193877, -0.161529, 0.108978, 0.0555819, -0.0402695, 0.0751766, 0.0928402, 0.0217586, -0.0147451, 0.116709, -0.0152662, -0.036935, 0.12433, 0.107619, 0.00935312, -0.0690813, -0.0127855, -0.019444, -0.155492, -0.0313938, -0.0552001, 0.0962175, -0.0613559, 0.170903, 0.00994438, -0.120066, -0.0409491, -0.0944595, -0.0288727, -0.0689268, -0.153693, -0.0416087, 0.147831, -0.0378889, 0.0158888, -0.173082, -0.139024, -0.0848714, 0.0793564, 0.200605, -0.0653854, -0.0203031, 0.111917, 0.179383, -0.142886, 0.162366,
                               0.0801776, 0.0342611, -0.0589891, 0.00298187, -0.00483458, -0.211658, -0.0262956, 0.168423, 0.139603, -0.0650746, -0.10213, -0.048793, 0.147339, 0.0492616, 0.0342246, -0.00636424, -0.201644, -0.0261924, 0.0503271, -0.103692, -0.00215863, 0.177983, 0.108218, -0.014567, 0.0138663, 0.0285894, 0.00959129, -0.0360346, -0.0851435, 0.0594951, -0.137229, -0.144588, -0.0745664, 0.116955, -0.0116309, -0.0350633, 0.140108, 0.0577592, -0.0620697, -0.0133756, -0.0455554, 0.208383, 0.0273203, -0.0164844, -0.0908303, -0.127451, 0.0342532, -0.0561006, 0.020504, 0.023065, 0.105778, -0.0521794, 0.222197, -0.0832536, 0.0187086, 0.125078, 0.0483765, 0.119736, 0.0408871, 0.129457, -0.0482748, -0.0190833, 0.0524647, -0.0223771, 0.0423707, 0.00613511, -0.0584283, 0.0272954, -0.0116709, 0.0967748, -0.0916916, 0.0400856, -0.0360573, -0.0902441, 0.0753403, -0.0162744, 0.131632, -0.128208, 0.0120834, -0.0629117, -0.000895376, 0.159228, 0.100034, 0.0033758, -0.00504727, -0.0754364, -0.00636255, 0.0502435, -0.191643, -0.13819, -0.0185237, 0.0390558, 0.0881915, -0.0726929, 0.107076, 0.0675642, 0.137665, -0.066215, 0.168631, -0.124096, -0.136964, 0.0160518, 0.156907, -0.0189401, -0.0654034, -0.115384, -0.108316, 0.00958249, 0.128045, -0.072295, 0.0439106, -0.0289407, -0.0610859, -0.0706771, -0.0175031, -0.0550984, 0.0146941, -0.00574387, -0.0457622, 0.0971785, -0.0135658, -0.0976064, 0.0794328, -0.108869, -0.0750255, 0.0330539, 0.0896565, -0.100873,
                               -0.0547471, 0.0183769, -0.308869, 0.0390306, -0.0451754, -0.184259, -0.106493, 0.0842362, -0.228231, 0.185757, -0.0307018, -0.00408827, 0.0623801, 0.0852562, -0.121393, -0.0208088, 0.0461667, -0.0803541, 0.00596526, -0.0334533, 0.0253584, 0.107991, -0.095382, 0.0940578, 0.0479033, -0.244942, -0.0203849, 0.0973896, -0.105515, 0.0958863, -0.00642185, -0.0670597, -0.0992729, 0.0106811, -0.0512485, -0.00950036, -0.0710339, -0.0606735, -0.0217667, 0.0409048, 0.0288548, 0.0275316, 0.0845389, -0.0886015, -0.0996295, -0.0587701, 0.044408, 0.0946694, -0.0893697, 0.1069, -0.126695, 0.109538, -0.0137946, -0.0696048, -0.0241242, 0.00956743, 0.123568, 0.104005, -0.0375133, -0.0461463, 0.0373405, -0.0888604, -0.133657, -0.0939243, 0.0354547, -0.0299689, 0.0134483, -0.0926166, 0.0568392, -0.0476271, -0.111553, 0.0910922, -0.116552, -0.0166161, -0.0928163, 0.173906, -0.0527561, -0.0984097, 0.0333963, -0.0771544, -0.0548029, -0.0810278, -0.103349, -0.052522, -0.0937445, -0.0733006, -0.110935, -0.0499903, 0.0376467, -0.0390092, 0.0104823, -0.0157267, -0.0654085, -0.0273721, 0.0189938, -0.0300707, -0.0141897, -0.0254589, 0.107079, 0.0456789, 0.020635, 0.0610458, -0.202731, 0.0874068, 0.136507, 0.0366338, -0.0032567, 0.0885339, 0.181221, -0.0121181, -0.0291996, 0.0561464, -0.0019297, -0.0389614, 0.0126997, 0.119068, -0.121118, 0.0649826, -0.0526349, 0.0260168, -0.0426008, 0.04602, 0.0172747, 0.188549, 0.147717, -0.0849004, -0.000911663, 0.0323842,
                               0.0855995, 0.0208398, 0.00260865, 0.0278831, -0.0704297, -0.139836, 0.101623, -0.266174, 0.044343, 0.135552, 0.0624127, 0.0839972, -0.0438776, -0.10467, -0.06875, -0.156501, -0.114871, -0.051675, 0.0276876, -0.0597577, 0.049975, 0.0834851, -0.106373, 0.0268894, -0.0568708, 0.106198, 0.040835, 0.0572738, -0.0942435, 0.0643176, -0.0972505, -0.0119854, -0.129151, 0.0805622, -0.141103, 0.0913339, 0.0280412, 0.137372, -0.18438, -0.0439745, 0.0815943, -0.207806, -0.0452766, -0.173612, -0.0418853, -0.0529043, -0.15887, 0.0294081, -0.0399953, -0.106068, -0.126106, -0.0421226, 0.0801349, 0.115453, 0.207141, 0.0428141, 0.0578668, 0.0592634, -0.118004, 0.0347413, -0.0619748, -0.0361634, 0.133895, 0.113046, -0.0979634, 0.0965564, 0.0496238, 0.0123737, 0.0697539, 0.043449, -0.0720523, -0.0220613, -0.0329958, -0.0282572, 0.0181472, -0.0937674, -0.078861, -0.053783, 0.0809195, 0.0569597, -0.029077, 0.0600196, 0.00875659, -0.169919, -0.0526658, -0.0393226, 0.0739562, 0.0614994, 0.140644, 0.110682, 0.0600935, -0.0597225, 0.0323093, -0.113892, -0.0516144, 0.117927, -0.0367487, -0.016103, -0.0460616, 0.0170922, -0.0896947, -0.132873, -0.0964794, -0.0272868, -0.0895453, -0.0121236, 0.101837, 0.0712506, -0.19096, -0.0732076, -0.0971251, -0.0776766, -0.0408727, -0.0832047, -0.018349, 0.0289087, 0.0912379, 0.0472011, -0.0468738, 0.0882074, 0.028461, 0.112131, 0.00767776, -0.014816, 0.0694074, -0.0560941, 0.0496183, -0.0175606,
                               -0.0556106, 0.0802265, -0.120061, 0.186178, -0.0199428, -0.03017, -0.084446, -0.0729115, 0.0844395, 0.14659, 0.0440783, 0.0570431, 0.0672443, -0.0719189, -0.101835, 0.159891, -0.0135646, 0.0476326, 0.0700417, 0.0947355, -0.157954, -0.0140695, -0.0145347, -0.0289512, -0.106483, 0.192366, -0.0776299, 0.00981363, -0.0278688, 0.0375575, 0.0198361, -0.134066, -0.0931188, -0.0818731, -0.0756078, -0.107265, 0.0291503, -0.149323, -0.0807417, 0.0514698, 0.110973, 0.0512676, -0.115116, 0.0299491, 0.051363, 0.113369, 0.113922, 0.0132019, -0.143323, 0.203981, -0.0803104, -0.0163179, 0.0010115, 0.0448031, -0.0599058, -0.123538, -0.00335748, -0.0381807, -0.0312149, 0.0950576, 0.007535, 0.0856202, -0.0804136, 0.0131219, 0.231192, 0.0560823, -0.183103, 0.0275992, 0.00744104, -0.0794102, -0.0768203, 0.020197, -0.0701813, -0.0910454, 0.11868, -0.0662256, 0.0559077, -0.0717216, -0.205718, 0.016294, 0.0165965, -0.0275648, -0.18917, 0.0099055, 0.100458, 0.0605829, -0.0645007, 0.0199065, -0.100833, 0.0353227, 0.0670269, 0.0270424, 0.0320172, -0.0085616, -0.029604, -0.159062, -0.128257, 0.140718, -0.00696564, 0.0500487, -0.0480526, -0.107722, 0.0244697, -0.0692396, -0.136053, 0.0595937, 0.00352431, 0.0467765, -0.0354369, -0.0715669, -0.0260248, -0.0838432, -0.13612, -0.0639786, -0.0748981, -0.134328, 0.0241547, 0.0526953, 0.0630533, -0.0661253, -0.0873831, 0.0721736, -0.00226159, -0.171806, -0.000939681, -0.0485386, -0.054401, 0.0734413,
                               0.035849, -0.0167461, 0.0385359, -0.0972056, -0.0840112, 0.0495523, -0.128816, -0.0545248, 0.0323078, -0.0821285, 0.127573, 0.130441, 0.000705071, 0.0288551, -0.0297876, 0.0755752, 0.0485935, -0.154863, 0.121224, -0.0487014, 0.02864, -0.0666921, 0.0767231, 0.126, -0.15573, -0.0548626, 0.0929327, -0.109111, 0.00672568, 3.90725e-05, -0.0162653, 0.0874084, -0.00887271, -0.12404, -0.125399, 0.0061332, -0.0331249, 0.0886449, -0.130712, 0.214046, -0.262434, -0.104162, 0.0440563, 0.0134316, -0.0100777, -0.0321201, 0.156242, -0.171716, 0.128873, 0.130627, -0.0914464, -0.101234, -0.0853582, -0.135661, -0.0112703, -0.0730291, 0.104106, 0.0964942, -0.0520246, -0.0679475, -0.0671009, 0.0431866, 0.0968565, -0.071299, 0.10457, -0.0171643, -0.0525898, -0.00236751, -0.000224584, 0.026494, -0.0618953, -0.0153725, 0.0139087, 0.0762169, -0.0526144, 0.151954, -0.0111515, -0.00889809, 0.000760746, 0.0806524, 0.112919, 0.0661481, 0.0400196, 0.108934, 0.0135262, -0.0409419, 0.00954476, -0.0153528, -0.0548597, -0.0946066, 0.0729966, 0.0590615, 0.135394, -0.0728406, -0.00440022, 0.0785703, -0.0430279, 0.112041, -0.0749645, -0.0554057, 0.135481, -0.0323306, -0.0811107, -0.0235255, -0.151047, -0.125218, 0.118669, 0.0738493, 0.119771, 0.024763, -0.197019, 0.0470911, 0.128927, -0.104861, -0.0950913, -0.0343726, -0.000693454, -0.166017, 0.0316649, 0.0432869, 0.06263, 0.135291, 0.0826077, 0.0428714, -0.0683936, 0.00461659, 0.0548759, -0.0276498,
                               0.0292717, 0.0162434, -0.0613754, -0.00525462, 0.198512, -0.0889676, 0.00332602, 0.188013, -0.0314348, -0.14089, -0.0258007, 0.0832992, -0.000431445, 0.102791, -0.100761, -0.0386723, -0.0699091, -0.0760331, 0.143425, -0.0498565, 0.108835, -0.0213009, -0.061528, -0.0532559, 0.13923, -0.0245377, -0.039655, 0.00165878, 0.00324743, 0.0572784, 0.0667402, 0.00340547, -0.0210906, 0.0340765, 0.0194055, 0.00939058, -0.0279802, -0.0834135, -0.0156631, -0.128849, -0.0360541, -0.0522635, 0.00823516, -0.0141192, 0.0518635, -0.04158, -0.0320026, 0.175341, 0.0666992, 0.0353246, -0.0206481, -0.105665, -0.171781, 0.071108, -0.0570624, 0.0259918, 0.0521983, -0.034227, 0.164389, 0.0555781, 0.185684, 0.0370849, 0.120692, 0.0516314, 0.036172, 0.0685529, 0.0436577, 0.0315482, -0.134326, -0.0293166, -0.137969, -0.0924997, 0.0626985, 0.00149007, 0.126662, -0.153734, -0.0280367, -0.00903351, -0.168169, 0.117111, 0.0376506, 0.143829, -0.0420231, -0.0495574, -0.177574, 0.0760318, -0.129792, 0.0820976, 0.118707, 0.106273, 0.0104223, 0.195664, -0.0703231, -0.0613055, 0.0476113, -0.0582597, 0.0108111, 0.0409265, -0.00418037, -0.127352, 0.169125, -0.139971, -0.0639617, -0.0997493, -0.0283315, -0.110006, 0.0805768, 0.0410902, 0.059284, 0.043463, 0.0110504, -0.06355, 0.200447, -0.0181614, -0.0599698, 0.0425727, -0.0148806, 0.248385, -0.05266, -0.0219056, 0.0619719, 0.0154924, 0.00836719, 0.0154022, -0.155758, 0.0746803, -0.0746283, 0.0267342,
                               -0.0531715, -0.214812, -0.026081, 0.0677314, -0.0300481, 0.0842657, -0.0604999, 0.0377476, -0.148877, -0.0988987, -0.206977, 0.00729468, -0.0154437, -0.0585472, 0.125438, -0.261132, -0.145997, 0.0652663, 0.0935536, 0.0546749, 0.0471414, -0.0884381, -0.0991206, 0.0462612, -0.0119121, 0.165159, -0.0944195, -0.0874223, -0.00840867, 0.0595349, -0.0424861, -0.169611, 0.0640131, 0.0775227, -0.027828, 0.0413696, 0.109841, -0.0531442, 0.0341808, -0.0305203, -0.111711, -0.0681988, -0.00795599, -0.0169909, 0.137443, -0.113392, -0.0893632, -0.0766881, 0.0943212, 0.110749, 0.00615503, 0.0225294, 0.0201207, 0.102328, 0.0935882, -0.0990806, -0.0185781, -0.099052, -0.00285299, -0.102721, -0.0642513, -0.00923494, -0.0366093, -0.205201, -0.0108744, 0.0367534, 0.128655, 0.0670144, -0.0653059, 0.0859089, 0.00272156, 0.16619, -0.103677, -0.0241907, -0.07047, -0.0338111, -0.107486, 0.0549796, -0.0250404, -0.0228729, -0.0755337, -0.0344847, -0.0953448, 0.128162, -0.00758855, 0.0488375, -0.100277, -0.028675, -0.195656, 0.0355867, -0.0493421, 0.0230725, -0.0135925, -0.170359, -0.0253142, -0.103087, -0.176884, -0.0480493, -0.0874847, -0.0673153, -0.117549, 0.000970786, -0.0629854, 0.0286323, -0.0264206, 0.0547556, -0.00352141, 0.015943, 0.0402832, -0.0659516, -0.117983, 0.128874, 0.0180399, -0.0261286, -0.00878327, -0.0981563, 0.143053, 0.0254798, -0.00988456, 0.023235, 0.0839048, -0.131382, 0.112105, 0.121127, -0.0145428, -0.0419293, 0.0156186, 0.076072,
                               -0.0831597, -0.161963, -0.0751623, -0.103263, -0.102339, 0.0464131, -0.105767, -0.0398056, -0.0381641, -0.0102722, 0.0410338, 0.122738, 0.0453024, -0.0156723, 0.00820465, 0.0814231, -0.0216387, 0.0900953, -0.0504323, 0.0128449, 0.0426811, -0.0915218, -0.0220315, 0.0572245, 0.141746, -0.0732175, -0.0198381, 0.0979456, 0.133133, -0.0542854, 0.0115436, 0.0406636, 0.00240183, 0.118555, 0.211594, -0.00270905, 0.122489, -0.0167337, -0.0548227, 0.00995642, 0.0200325, -0.0348262, -0.00874723, 0.100932, -0.0708416, 0.0258339, 0.262885, 0.0102953, -0.051261, -0.00272957, -0.130557, -0.0136337, 0.112534, 0.0445038, 0.166659, -0.0442571, -0.0251285, -0.079285, 0.0658656, -0.0786299, -0.113922, 0.118847, -0.106061, -0.00944714, 0.0277271, 0.137455, 0.0667612, 0.102386, -0.164733, -0.0391422, -0.0294615, 0.214913, 0.0299852, 0.031909, -0.00923784, -0.0606773, 0.0577743, -0.194111, 0.144675, 0.0438766, 0.135998, 0.123432, -0.102581, -0.160245, 0.0782411, -0.0112837, -0.0927828, -0.0276503, 0.0784001, 0.0644549, 0.0522254, -0.0876953, -0.046448, -0.00912663, -0.0153509, 0.0349593, 0.0569233, 0.108737, 0.0157136, -0.00554232, 0.0906367, -0.0691596, 0.174372, 0.00962504, 0.0100724, -0.165612, -0.0785037, -0.0673647, -0.0975211, 0.0747962, 0.0296609, 0.123693, 0.00689231, -0.160112, 0.145905, 0.0326902, 0.031965, 0.03561, -0.167445, 0.00850996, -0.0142772, 0.0398815, -0.0185385, 0.00576668, 0.0228878, 0.0788839, 0.156198, 0.0243031,
                               -0.0970555, -0.0391938, -0.120433, -0.0119148, 0.0518812, -0.062748, 0.122774, -0.0500985, -0.0499021, 0.0869264, 0.0696115, -0.0745857, -0.0355042, 0.0628288, -0.0368162, -0.0768639, 0.0806972, 0.0418399, -0.0653829, 0.0665462, -0.0219329, 0.119408, 0.0453917, 0.104501, 0.0757692, 0.00743846, 0.0474288, -0.0467597, -0.165828, -0.0454001, -0.0103094, 0.0946089, 0.0678968, 0.0533968, 0.174179, -0.0417244, 0.161315, -0.00556598, 0.0096164, 0.133115, -0.0695869, 0.0632691, 0.0205246, 0.122212, 0.120537, -0.159713, 0.114766, -0.193715, 0.122419, 0.0188481, -0.0103457, -0.0525861, -0.0449013, 0.0561449, -0.0708697, 0.014283, 0.134303, -0.179758, -0.0515302, 0.00167706, 0.018095, -0.180104, -0.141857, -0.0521103, -0.10936, -0.111966, 0.0106007, 0.100677, 0.048689, 0.0128776, -0.104541, 0.156925, 0.0712382, -0.189996, 0.0357331, -0.126877, 0.073335, -0.0247586, -0.060081, 0.111305, -0.0553366, 0.0486361, -0.0343797, -0.0358064, 0.0244513, -0.0978568, 0.167326, -0.0466349, -0.0301847, 0.0547557, -0.0236447, 0.0914382, -0.0532139, 0.119622, -0.037473, 0.0125271, 0.0376601, -0.139977, 0.0464726, 0.0959829, 0.0662187, -0.15768, -0.170043, -0.0472475, -0.0137944, 0.00350595, 0.0278841, 0.0423999, -0.175231, 0.00189758, -0.00141069, -0.112075, 0.125577, 0.0054511, -0.157168, -0.0432084, -0.119646, -0.0749976, 0.0601119, -0.0521256, 0.115923, -0.0437244, -0.0447475, -0.123481, -0.00941698, -0.0878358, 0.0825198, -0.0183285,
                               0.00813011, -0.119354, 0.0612588, -0.011657, -0.0249444, -0.204901, -0.112254, -0.0592969, 0.00922065, 0.0419915, -0.0577649, -0.0514771, 0.0896263, -0.115998, 0.0436829, -0.0114345, 0.0768501, -0.0131983, 0.0659633, -0.0453596, -0.00753545, 0.00114027, -0.00470382, 0.0911054, 0.0642702, 0.0499239, 0.0411341, 0.0294831, 0.213325, 0.0572264, 0.0807953, 0.0840298, 0.102161, -0.0143665, -0.0298914, -0.0310871, -0.139849, 0.104613, 0.04788, -0.00882379, 0.03829, -0.00463698, -0.0356376, -0.116812, -0.0128856, 0.11202, 0.0866363, 0.127609, -0.162608, 0.107802, 0.0680876, -0.0638288, -0.0389944, -0.0687364, 0.102088, 0.0691046, -0.00260718, -0.12524, 0.0417465, 0.0177601, 0.0342024, -0.139464, -0.0691625, -0.0812044, -0.0537185, 0.0844181, 0.0413316, -0.126201, 0.0298299, -0.0815523, -0.0793534, -0.0954379, -0.0439454, -0.00170589, -0.0897137, -0.143015, 0.0740154, -0.139411, 0.0236276, 0.143096, -0.0970799, -0.0145604, 0.148909, 0.0101046, 0.0294506, -0.0142296, -0.0551319, 0.0921051, -0.0773389, -0.201751, -0.118625, -0.0382647, 0.108773, 0.0429987, 0.0859464, -0.178669, -0.0175347, -0.0202411, -0.0115621, 0.192721, -0.034737, 0.0653987, -0.1279, 0.168842, -0.0505142, 0.00419229, 0.0900854, -0.0103815, -0.0967928, 0.0313221, -0.037738, 0.120674, 0.191257, 0.032411, -0.10477, -0.0129545, 0.150084, 0.0384756, -0.0468316, -0.103257, 0.0545429, -0.0508348, 0.0356057, -0.171741, -0.0516279, 0.0899819, 0.0614871, -0.185419,
                               -0.0703291, -0.148906, 0.0764891, -0.0604608, -0.00732245, -0.0598734, 0.127118, -0.0742366, 0.0253284, -0.0864855, 0.0485762, 0.00558188, 0.140614, -0.00665796, -0.0591685, -0.0466445, -0.033987, 0.0804435, 0.00654373, 0.117329, -0.030494, 0.0294794, -0.0935874, 0.0214361, 0.146869, -0.130074, -0.155425, 0.0959819, 0.0722229, -0.0739563, -0.0620147, -0.10938, -0.0814233, 0.0926954, -0.0995814, 0.131834, 0.115572, 0.122504, -0.050076, 0.121267, 0.0820114, 0.0284201, 0.0185656, 0.0844538, -0.0409817, -0.0153862, 0.0713333, 0.00280504, -0.0118456, -0.104156, 0.0521511, -0.00585915, -0.122277, -0.1326, -0.106686, -0.0774145, 0.0549697, -0.121421, -0.0803034, 0.013156, -0.114047, 0.0135824, -0.0382471, 0.176009, -0.0418926, 0.03692, -0.132226, 0.172908, 0.0165085, 0.0647125, 0.0536542, -0.0172101, -0.156861, -0.0892806, -0.0556178, -0.0519662, -0.0724369, 0.045469, -0.0241167, -0.0044303, -0.148843, 0.00751515, -0.0197671, 0.133021, 0.0851076, 0.0197624, -0.04772, 0.0940692, -0.0448498, 0.0202867, -0.0815213, 0.18135, 0.105435, -0.0326712, 0.0257823, -0.011116, 0.115392, 0.103203, -0.0666479, -0.0125863, -0.122694, 0.18369, -0.0602434, -0.0905194, -0.0107481, 0.11534, 0.13551, 0.00994391, 0.0773313, 0.0502092, -0.0554889, -0.0407962, -0.0221019, -0.0747742, 0.0147413, 0.175193, -0.0820811, 0.0369911, 0.0229578, -0.10918, -0.0602306, 0.155153, -0.140781, 0.115643, -0.110099, 0.205817, 0.0119678, -0.0410567,
                               -0.0230493, -0.0642255, -0.0466577, 0.078729, 0.0735002, -0.1589, 0.0361273, 0.0391349, -0.038444, -0.0857776, -0.0931795, 0.053742, -0.00551303, 0.219914, -0.0411054, -0.03861, 0.0484423, -0.0545619, 0.00458139, -0.0961825, -0.0380031, -0.16849, -0.0528978, 0.0922408, 0.00610181, -0.0350883, 0.173006, -0.0814174, -0.122163, -0.0224115, 0.123834, -0.00484086, -0.00884681, 0.00857405, 0.0181819, 0.104395, -0.14207, -0.00684363, 0.0150558, 0.0415456, 0.151064, 0.0462692, -0.0506234, -0.00538819, 0.00520928, 0.0633954, -0.0497378, -0.0439495, -0.00248298, 0.0383561, 0.12136, 0.113844, -0.0421447, 0.0808613, 0.128931, -0.252568, 0.0549843, -0.0371957, 0.0615543, -0.10942, -0.102668, -0.0241369, 0.0710549, -0.00257192, -0.0777122, 0.0919208, 0.0486158, -0.0238387, -0.016146, -0.00173547, 0.0208118, 0.0448419, 0.0820434, -0.045653, 0.176736, -0.0155752, 0.00293442, 0.165587, 0.0118665, 0.0162908, -0.121241, 0.0433426, -0.0755154, 0.0324607, 0.120653, 0.100299, 0.105135, -0.121583, 0.0758844, -0.170264, -0.120553, -0.0325983, 0.126432, -0.15896, -0.0409694, 0.102909, -0.00675976, 0.00985587, 0.0640545, 0.0241346, 0.0742876, 0.028239, -0.00503246, 0.0857479, 0.0478231, -0.207883, -0.0106587, -0.0664918, 0.10079, 0.0495897, -0.0270323, -0.0987357, -0.249408, -0.102092, 0.0103665, -0.10106, 0.00857759, 0.0615525, 0.0598791, -0.114707, -0.0314101, 0.0959452, -0.138506, -0.114325, 0.0164122, -0.0515015, 0.0581451, -0.153217,
                               0.0717178, 0.1768, -0.0149309, 0.0494328, 0.151459, -0.0993514, 0.11052, 0.010232, -0.0327328, 0.0345222, 0.0158429, 0.0472308, 0.0125759, -0.0266335, 0.121719, 0.0945101, 0.105974, -0.0294827, -0.0819891, 0.10945, -0.0841478, -0.0625545, -0.127198, -0.0891455, 0.00645722, 0.0607675, 0.0581431, -0.0923865, -0.0951932, 0.0951457, 0.145091, -0.0864019, -0.130874, -0.107718, -0.0631614, 0.0413171, -0.0517174, 0.0496422, -0.0108227, 0.047376, 0.0386992, -0.0551343, 0.134609, 0.144491, 0.0636966, 0.00866182, -0.0501367, 0.00612978, 0.00496658, -0.11088, -0.0442703, 0.0584251, 0.0512666, 0.0206321, 0.0686485, -0.0152364, 0.126952, -0.110674, 0.0158532, -0.0444581, -0.15866, -0.058934, -0.0903354, -0.00715748, -0.0666675, 0.124786, -0.132901, -0.041727, -0.0793659, 0.148771, 0.0376089, -0.00459784, 0.110259, 0.158902, 0.0432789, 0.04397, 0.12032, 0.0125111, -0.109929, 0.044693, 0.0515322, 0.112769, 0.140896, 0.0488475, 0.0377527, -0.160448, -0.0818395, -0.158545, -0.232882, -0.0386886, 0.0389687, -0.0139407, -0.0658873, 0.0907698, -0.136035, -0.0283945, 0.0237422, 0.0844615, 0.0475543, -0.168442, -0.014207, 0.080042, -0.129111, -0.0257267, -0.0636888, 0.0105732, 0.0713289, -0.100533, -0.105728, -0.0762474, 0.155941, 0.169235, 0.134634, -0.108848, 0.021401, 0.113935, 0.089801, 0.138268, -0.0693378, 0.0779079, -0.00307019, -0.0461958, -0.00779127, 0.0734198, 0.0802162, 0.00451854, 0.0222695, 0.013507,
                               -0.095994, 0.00767594, 0.026583, -0.107272, 0.0112064, -0.00249792, 0.0584735, -0.0386695, 0.0871905, 0.0169266, 0.0256469, 0.0358148, 0.0857719, 0.0515579, 0.137901, -0.0362848, -0.0425539, 0.043112, -0.135245, 0.0748091, -0.0549811, 0.132304, -0.0434121, 0.135174, -0.00715262, 0.168799, -0.0280339, -0.0894048, -0.0797501, -0.000127283, 0.00213023, -0.0218283, 0.0301792, -0.0489886, -0.0812778, -0.0389105, 0.00957835, 0.0558786, 0.0403629, 0.0477579, 0.102064, -0.125859, 0.0370109, 0.00777674, -0.0894162, -0.161475, 0.172165, 0.145095, -0.0905041, 0.236868, 0.0144131, 0.0860507, -0.0347946, -0.100275, -0.0423675, 0.10236, -0.0892566, -0.00789197, 0.0327234, -0.0126596, 0.0171915, -0.183236, -0.0573332, 0.0866661, -0.0411018, -0.0354665, -0.0766394, -0.134074, -0.152452, 0.0943354, 0.099344, 0.0176873, 0.0498833, 0.0302059, -0.149134, 0.0674141, -0.178388, 0.0822995, -0.067916, 0.0237164, -0.131577, 0.151123, 0.0140146, -0.102136, -0.194966, 0.140607, -0.00280786, -0.0351375, 0.0213992, 0.0461272, -0.035842, -0.105765, 0.0547051, -0.0203439, 0.0931695, 0.0366984, 0.0181915, -0.0416315, 0.0503016, -0.132196, 0.231075, 0.0614969, 0.186313, -0.0210743, -0.0705647, 0.0286416, -0.0396047, 0.0754702, -0.0856633, 0.013553, -0.0858566, 0.0563446, -0.0119356, -0.0467254, -0.0033813, -0.258974, -0.041912, 0.0576433, 0.0158499, -0.0226793, 0.0343007, 0.0327946, -0.142302, 0.0530102, 0.0708177, 0.00287371, -0.0894499, 0.0023921,
                               0.0182022, 0.168242, -0.0146474, -0.0929994, 0.0576839, 0.00692445, 0.0826995, -0.0931487, 0.0760632, 0.112129, -0.169669, -0.113384, 0.0501922, 0.0416929, -0.0339373, 0.0324052, -0.123927, 0.161899, 0.0399835, 0.0510479, 0.0836131, -0.046298, -0.0315768, -0.0209547, 0.0171013, 0.0173547, -0.0864775, 0.000110149, 0.275832, -0.0167155, -0.0760698, 0.00658548, -0.254959, -0.0239252, -0.00902421, -0.0797914, 0.0904625, 0.0837069, 0.039986, -0.0552507, 0.0239535, -0.133567, -0.0130785, -0.052017, -0.0301581, -0.0246909, 0.0169005, -0.136287, -0.00503042, 0.058708, -0.0936462, 0.118931, -0.0531745, -0.0475458, -0.128716, -0.115691, -0.0666463, -0.071055, 0.0258198, -0.00121115, 0.0501663, 0.037247, 0.0861904, -0.16781, 0.0567398, -0.0727721, 0.0675746, -0.0385833, 0.141942, -0.141498, -0.0302345, 0.0841556, 0.0286043, -0.0680731, 0.044132, 0.000814342, -0.0206563, 0.097736, -0.0441624, 0.0220562, -0.0433678, 0.263514, 0.143102, -0.0365557, -0.0451941, -0.161592, -0.0912439, -0.174308, -0.0239957, -0.0141925, -0.0542835, -0.0393165, 0.00913025, 0.0527801, -0.151208, 0.121211, -0.0113904, -0.0391349, -0.0775813, 0.0020295, 0.0783283, 0.12927, 0.0300534, 0.1483, 0.0475444, -0.0666387, -0.00152732, 0.0883292, 0.00776441, 0.0843856, -0.0237094, -0.0160319, -0.0494131, 0.116481, 0.0285145, 0.0843775, 0.0122856, 0.103681, 0.0435652, -0.0910595, -0.0127648, 0.08091, 0.107653, -0.0583017, -0.154589, -0.135246, 0.0994237, 0.0542369,
                               0.0821735, -0.0436171, -0.0698058, 0.211075, -0.0873761, 0.0993967, 0.165636, 0.0204634, -0.0525561, 0.0482416, 0.127795, 0.0814963, -0.130389, -0.0279731, -0.0161839, 0.0523411, -0.203724, -0.0616494, 0.0927631, -0.0170095, 0.0405868, -0.00161918, 0.0616707, 0.0367605, -0.0962998, -0.0786832, 0.0422988, 0.00837627, 0.0768405, 0.0959683, -0.0149248, -0.0863047, -0.107909, 0.0129284, -0.00360251, -0.0889639, -0.0983831, -0.0692764, -0.00817353, -0.0869504, -0.0384691, -0.000796425, 0.0914738, 0.020139, -0.0477599, -0.0459691, -0.0610478, -0.238904, 0.0650042, -0.0344443, -0.0404896, -0.109466, 0.0058102, -0.0561659, 0.0830157, 0.0336351, -0.0786349, -0.014282, 0.00381222, -0.082381, -0.0776684, -0.11453, 0.0109836, -0.011177, -0.0205434, 0.0713088, -0.151485, 0.0481564, 0.00898166, -0.0746611, 0.0950468, 0.135701, -0.00957801, 0.127184, 0.159704, -0.0765234, -0.0659627, 0.0176787, -0.000860008, 0.0921159, -0.156446, -0.0561198, 0.139364, -0.0496274, -0.0507521, 0.119067, -0.0832566, 0.122352, -0.0227117, -0.0638254, 0.000731617, 0.0128246, -0.0168871, 0.17366, 0.0204173, 0.00675186, -0.117317, 0.00577194, 0.0251406, -0.012971, 0.123952, -0.0417721, -0.0518197, 0.0855079, 0.0822529, 0.160961, -0.234004, 0.101003, -0.0233329, 0.0626865, -0.0214195, 0.0368658, 0.0703019, -0.0304192, 0.0593672, -0.100957, -0.135697, 0.0228887, -0.074247, -0.0940176, -0.197291, -0.0465831, -0.123599, 0.0147415, -0.100067, 0.13923, 0.0534242, -0.175056,
                               0.163144, -0.0639701, 0.187734, 0.0546799, 0.0878205, -0.081032, 0.212686, 0.167775, -0.0327025, -0.0501867, -0.0332141, -0.0674801, 0.0597108, -0.0821451, 0.0451226, 0.0140001, 0.0317686, -0.0759111, -0.089931, -0.0196178, -0.0748762, -0.0255748, 0.020488, 0.0248517, 0.0652, -0.0584806, 0.0484616, 0.119428, -0.0214465, 0.0467197, -0.00829174, -0.0121509, 0.0389492, 0.100767, 0.127281, 0.00114466, 0.032588, -0.0720051, -0.0598872, -0.112765, 0.0777503, -0.00500442, -0.203881, 0.0738056, 0.0452215, 0.0595462, -0.035536, 0.0189903, -0.0475217, -0.0435105, -0.0642685, 0.0513336, -0.0766412, -0.126475, -0.0191628, -0.0285333, -0.0321405, -0.0656347, -0.0698881, -0.0617136, -0.214734, 0.0921027, -0.064701, -0.071671, 0.242145, -0.168098, -0.166195, 0.0265907, 0.0805451, -0.0576272, -0.0723488, 0.0333431, -0.0349744, 0.0306298, -0.0380878, -0.0537602, -0.0789455, -0.0801481, -0.0971708, 0.0921307, 0.071347, 0.0625218, 0.149552, -0.0893969, -0.0709742, 0.0915678, 0.195403, -0.118223, 0.123727, 0.051191, 0.0212275, -0.0607381, -0.0385759, -0.0516632, 0.0320348, 0.0208936, -0.114479, 0.0492987, 0.071806, 0.00540103, -0.0361313, 0.0593023, -0.0621717, 0.111167, -0.0172666, 0.0596234, -0.0727377, 0.0928851, 0.111906, 0.1289, -0.123357, 0.0587682, -0.00796544, -0.104045, -0.104995, -0.0440477, 0.052414, -0.0175621, 0.0455837, 0.236984, 0.219234, 0.00935168, 0.0210066, 0.0029982, 0.0514602, 0.0483066, -0.032299, 0.0327449,
                               -0.0446145, 0.0793513, -0.0421033, -0.0263118, -0.0822771, 0.119322, 0.0744707, 0.142087, 0.0403825, -0.00935121, 0.0113977, 0.0136691, -0.0173628, -0.0154101, -0.0899099, 0.027367, 0.07602, -0.238744, 0.0610312, -0.00557184, -0.00312372, -0.0572525, 0.148917, 0.123513, 0.0361558, 0.121357, 0.00365571, -0.0372417, 0.119406, -0.031326, 0.00669483, -0.177488, -0.0411293, -0.00482802, 0.0710808, -0.0106777, 0.152901, 0.0427181, 0.0952828, 0.147643, -0.0418098, -0.014801, 0.174277, 0.114737, 0.0103675, -0.035787, -0.0241063, 0.0778105, -0.172033, -0.023106, -0.111771, 0.0656627, -0.169916, -0.0202636, 0.0918708, 0.0135878, -0.146186, 0.0906273, 0.0338134, 0.0661615, 0.0398728, -0.0785432, -0.00574867, 0.0968224, -0.10027, -0.0584721, -0.0392066, 0.163889, 0.00410239, 0.142194, 0.122961, -0.0287362, -0.105159, -0.104327, 0.0382806, -0.0699228, 0.197808, -0.0174235, -0.0838581, -0.0834146, 0.0585144, 0.0267822, -0.0164383, -0.113232, 0.170992, -0.0299817, 0.0345328, -0.121371, 0.207062, -0.157349, -0.0113899, -0.0134161, 0.047039, -0.0909732, 0.101838, 0.106787, -0.152512, -0.122879, -0.0269688, -0.0104825, 0.00307543, -0.032919, -0.103708, 0.0749194, -0.00413858, 0.0102226, -0.055248, 0.113132, -0.0089281, -0.0945684, -0.0796186, 0.0552259, 0.00535396, 0.0619524, 0.033721, 0.104065, 0.185775, 0.0825912, -0.0504772, -0.0869059, 0.0115348, -0.0614658, 0.0431608, 0.0330805, 0.031588, 0.027935, -0.124767, 0.0151996,
                               -0.069967, -0.0881358, 0.101826, 0.119929, -0.222039, -0.113972, -0.107386, 0.0989097, 0.0265786, 0.105484, 0.0279522, -0.0685397, -0.140229, 0.0323036, -0.0353808, -0.173489, 0.0776553, 0.114934, -0.0064331, 0.105576, 0.0137536, 0.034516, 0.0539188, -0.168201, -0.0941526, 0.0298526, 0.176151, 0.041667, -0.0237551, -0.00904593, -0.0493499, 0.16203, 0.0268592, 0.113235, -0.0751576, -0.0263174, -0.0145012, 0.0863128, 0.0809749, 0.0844343, 0.0481839, 0.016566, -0.0175653, -0.0237574, 0.0520676, -0.0175008, -0.0955673, 0.139345, -0.0276797, -0.0579958, -0.106906, -0.00152638, -0.00385629, -0.3324, -0.0625765, -0.102275, -0.0222005, 0.0563846, -0.00213557, 0.0207423, -0.170958, 0.0273854, 0.056486, 0.0865548, 0.156411, 0.0605545, -0.00841974, 0.0380758, -0.0834894, 0.113619, -0.0364448, 0.0853978, 0.00461371, -0.0247916, -0.011213, 0.0852371, 0.00869179, 0.0370321, -0.045857, 0.021497, -0.00239986, 0.0973912, 0.0295894, 0.0849599, -0.0342162, 0.0389354, -0.0594114, -0.119164, 0.0105025, 0.0930731, -0.0350621, -0.0325545, -0.141552, -0.089584, 0.0019586, -0.142297, -0.016796, -0.0986788, 0.08446, -0.0778111, 0.151796, -0.148073, -0.0482851, 0.0113791, -0.0169609, 0.0395892, -0.0384388, -0.0215893, -0.0457717, 0.00493422, 0.0821615, -0.0632652, -0.00682464, -0.0086711, 0.115762, 0.145614, 0.0674371, -0.091543, -0.0939983, -0.189987, 0.00823306, -0.0599292, 0.0214177, -0.0511636, -0.193882, -0.105777, -0.0233063, -0.0987464,
                               -0.269803, -0.0327135, 0.0312092, 0.0964006, 0.0672166, -0.131266, -0.0943407, -0.124982, 0.0002332, -0.00518103, -0.152891, 0.14926, -0.0479472, 0.10795, -0.00865749, 0.116129, 0.0286049, 0.0153011, 0.0644791, -0.0156941, -0.129924, 0.0565494, -0.123344, 0.111165, -0.0344661, 0.106866, 0.0334044, -0.119308, -0.0696421, 0.0570213, 0.0720718, -0.026839, 0.0217224, 0.0411322, 0.0851768, -0.142325, 0.102128, 0.0647813, -0.149873, -0.0253022, 0.0832514, -0.00939336, 0.0082652, -0.148358, 0.0455791, -0.0160799, 0.0461216, -0.00674962, 0.0215429, -0.150961, -0.104346, 0.00480626, -0.00423362, -0.113441, -0.068987, -0.0875885, -0.0595067, 0.0334159, -0.0618524, -0.00196408, 0.159513, 0.117494, 0.11578, -0.0953702, 0.0158251, -0.0813979, 0.0503932, 0.0828578, -0.0459182, -0.0655559, -0.0241787, -0.0200864, -0.0230769, -0.0844064, -0.118936, -0.13795, -0.00734198, 0.0051083, 0.0242239, 0.0328742, 0.0447372, -0.128061, 0.157918, -0.0184414, 0.0133559, 0.00406973, -0.0210642, 0.0377577, 0.0438253, -0.0801066, 0.0553803, -0.0646499, 0.0198958, 0.168017, -0.0877343, 0.114922, -0.0132958, -0.00996586, -0.00773773, -0.0638492, -0.00839239, 0.0632496, -0.083034, -0.181833, -0.0554248, -0.0257074, -0.0525268, 0.0836779, 0.104607, 0.133336, 0.158841, 0.0412788, 0.00197087, -0.0207507, 0.108041, -0.00278762, 0.145525, -0.0871671, 0.0360304, 0.0528105, 0.015473, -0.202191, -0.21497, 0.14808, -0.031834, 0.0280007, -0.0988828, -0.100388,
                               -0.0982144, -0.0246545, 0.0249465, -0.069954, -0.110712, -0.179445, -0.00174569, -0.146012, -0.014507, -0.0836941, -0.0534313, 0.0926518, -0.0254429, -0.0555709, 0.0331417, 0.0516378, 0.120378, 0.0238197, 0.2383, -0.070546, 0.0598708, -0.0413471, -0.0537504, -0.125271, -0.00442588, 0.0459084, 0.00253967, 0.0344837, -0.0767665, 0.0799199, 0.0972762, 0.0786171, -0.168842, -0.122523, 0.0819757, -0.117669, -0.00400192, -0.0178661, -0.0256338, 0.149173, -0.0631683, 0.02676, 0.0570101, -0.00405641, -0.127842, 0.106574, -0.00269991, 0.0268338, 0.0249117, -0.00508842, 0.130945, -0.00321031, 0.114146, 0.221912, -0.0583449, 0.0681164, -0.0997748, -0.0567637, -0.0894577, 0.0404683, 0.0120095, 0.161798, -0.138007, 0.101308, 0.00209547, -0.0528138, -0.00117391, -0.02909, 0.139671, 0.05785, 0.104604, 0.169507, -0.077468, 0.063399, 0.0340881, -0.0534145, -0.00442902, 0.165975, 0.0740768, 0.00400611, -0.00400611, 0.088015, 0.0693907, -0.026097, -0.0812569, -0.119037, 0.112634, -0.112845, 0.180125, 0.0530157, -0.0134329, 0.129206, 0.0220435, -0.0145555, 0.112532, -0.153291, -0.0443633, -0.0149998, 0.110947, 0.0141491, 0.0561376, 0.0235362, 0.126856, 0.0548487, 0.0505729, 0.152254, 0.0283043, 0.00564302, 0.0711004, -0.0920172, -0.0510966, 0.0067264, 0.0106147, -0.182229, -0.0679475, -0.0407987, -0.0510004, 0.0394914, 0.0233285, -0.0392591, 0.0726819, -0.160884, 0.0934587, 0.12998, -0.137931, -0.00969028, -0.0310835, -0.073087,
                               0.0937008, 0.0245059, -0.00358815, -0.0827911, 0.0511902, 0.0573775, -0.0289253, -0.0172824, -0.0499845, -0.0597852, 0.143069, -0.123162, -0.0847107, -0.00151061, 0.0943427, -0.127556, -0.077233, 0.146428, -0.0241695, 0.00951369, 0.0413658, -0.105082, 0.0627269, 0.0173997, -0.0681667, -0.0375691, -0.0514312, -0.0361199, -0.134037, 0.172111, -0.0572077, 0.122894, 0.036309, 0.0829586, 0.116629, -0.0230046, -0.120117, 0.0351645, 0.0301371, 0.0708432, 0.108103, -0.0623017, 0.0708141, 0.0862067, 0.0343555, 0.124583, -0.0386718, 0.0555747, 0.0236955, 0.190589, 0.102286, -0.0252859, 0.0433783, 0.0628829, 0.060665, -0.00179676, -0.102189, 0.0524832, 0.0760503, 0.0568867, 0.00461602, -0.00846007, 0.0180655, -0.0806378, 0.0524275, 0.0386187, 0.00539786, 0.260749, 0.113048, -0.00790261, -0.000306589, -0.0486872, -0.184568, -0.0414418, -0.094446, 0.0626692, -0.0535278, -0.0891411, 0.0255636, 0.105815, -0.137183, 0.186986, 0.0813661, 0.0414523, 0.00860562, -0.0743707, -0.00944608, -0.0680968, 0.113793, -0.0785523, 0.346713, 0.0694698, 0.0747082, 0.143325, -0.0275645, -0.0880212, 0.0693606, -0.0470904, 0.0383676, -0.0431016, -0.070726, 0.00532137, -0.0664876, -0.0363427, 0.0126328, -0.0814723, 0.0480585, 0.107119, 0.128128, -0.0030686, 0.0825845, -0.000395718, -0.0100084, -0.0469524, -0.0328084, -0.0175564, 0.140712, -0.00392142, -0.0338681, -0.0781789, -0.169782, 0.0143724, -0.187031, -0.0439938, 0.0981736, -0.0151546, -0.0605803, 0.128538,
                               0.00238944, 0.0212298, 0.10994, -0.0742468, -0.0659245, 0.0851772, -0.0310122, 0.190576, -0.0740113, 0.125938, 0.00849616, 0.100892, -0.014174, 0.182743, -0.149754, 0.0916876, 0.0709905, -0.124692, 0.0234154, 0.0777298, 0.1116, 0.0223653, 0.0242643, 0.0792779, -0.117321, -0.0473753, 0.000540432, -0.00199857, -0.0477896, 0.122718, -0.062958, -0.186799, 0.0560692, -0.00270974, -0.0976324, 0.0522563, -0.133606, 0.0429061, 0.0139111, -0.0380271, 0.195207, -0.128445, -0.0341834, 0.226603, 0.0953353, -0.154237, -0.00834159, 0.0224702, 0.0130034, 0.0709346, 0.0882014, -0.00654146, 0.149785, 7.593e-05, -0.0223495, 0.0427093, -0.103894, -0.118452, -0.101197, -0.058562, 0.0182303, 0.119354, -0.0281276, -0.01313, -0.104516, -0.193418, -0.0385298, -0.0285037, 0.0432892, -0.0452159, -0.020521, -0.103243, 0.131393, 0.0156698, -0.0607961, -0.247842, -0.0162586, -0.12958, 0.111099, 0.127664, 0.0387643, 0.047311, -0.0929173, 0.100408, 0.0318366, -0.0759146, -0.0681865, 0.0271851, -0.0282223, 0.0140111, 0.10317, -0.0481428, 0.0216575, -0.0580816, 0.00732599, -0.0568299, -0.083772, -0.111479, -0.0359794, 0.0252721, -0.0144237, 0.143224, 0.119142, 0.00860291, 0.0530273, 0.0629502, 0.164626, 0.0256004, -0.0350992, 0.0204692, 0.0328745, -0.151357, -0.0285878, -0.0953204, 0.0869191, 0.0225869, -0.0176138, -0.0255683, -0.0992613, 0.0263893, -0.00137676, -0.0527272, 0.0263599, 0.00879973, -0.139597, -0.127113, 0.0887799, -0.0769587,
                               -0.0224623, 0.0397422, -0.0258638, 0.0995483, 0.0555216, -0.045499, 0.152344, 0.0467696, -0.225818, -0.00123719, 0.0582655, -0.124876, 0.166128, 0.206615, -0.000655979, 0.0383942, 0.112587, 0.120594, -0.0894068, 0.0839058, -0.00120873, -0.00112373, -0.0198251, -0.0514496, 0.0660241, 0.0354027, 0.225441, 0.0838357, 0.11746, -0.0221932, 0.0724516, 0.142815, -0.1405, -0.0167721, 0.0207876, -0.0148108, 0.00263696, -0.0712214, 0.103443, 0.0308905, -0.180655, -0.0692029, -0.0799222, -0.0679185, 0.0347275, -0.0662983, 0.0815007, -0.0413621, -0.10073, 0.0220352, -0.032587, 0.038401, 0.105346, 0.0124047, 0.094209, 0.0253238, -0.0773423, 0.0230318, 0.0437081, -0.0628274, 0.0470598, -0.119196, 0.140526, 0.0444815, 0.0735295, -0.0390152, -0.0562942, 0.0159886, -0.00629032, -0.0203613, 0.0844423, -0.116808, -0.0185267, 0.0032898, -0.0886367, -0.0334436, -0.0327843, 0.0267974, -0.0226913, -0.0277203, 0.0344002, 0.0873313, -0.083976, -0.0868114, -0.0673321, -0.0925625, 0.0641771, 0.0626216, -0.0465348, -0.0686494, 0.146753, 0.0144532, -0.0424575, -0.0808607, -0.00909568, 0.0531351, -0.0177992, 0.10958, -0.118493, 0.00474889, -0.294381, -0.137129, -0.00250934, -0.190092, 0.128358, 0.058915, 0.114789, -0.0132136, 0.051458, -0.0431269, -0.0814877, 0.075707, -0.0594895, -0.00181303, 0.0695451, -0.200363, 0.00755584, -0.0734862, -0.115578, -0.0975632, -0.012719, -0.0593038, 0.0525275, 0.0723534, -0.139261, 0.0580847, -0.00951882, -0.155386,
                               -0.176843, 0.00740536, 0.0683897, -0.129132, 0.0415173, -0.0575934, -0.0577905, -0.00531625, -0.221148, -0.0768227, 0.0416645, -0.0400249, -0.0176305, -0.0802271, 0.0999033, 0.140475, -0.0554644, -0.0941832, 0.047922, -0.0891669, -0.0553837, 0.0969952, 0.0421418, -0.00418366, -0.030959, 0.0345173, 0.0709234, 0.111953, 0.0514539, -0.0367368, -0.098645, 0.101923, 0.102908, -0.056434, -0.130072, 0.0852846, 0.137869, 0.0332525, -0.219393, -0.0435881, 0.0691546, -0.022906, -0.0608899, 0.011118, -0.0232162, -0.010661, -0.00206011, -0.0593543, 0.0538319, 0.0232741, 0.127817, 0.0362592, -0.0442518, 0.00889088, -0.0219956, 0.0274361, -0.114402, 0.00999379, 0.26074, 0.0183874, -0.0922406, -0.115871, 0.139317, -0.034219, -0.0845714, 0.135537, -0.0161381, 0.0739191, 0.0525214, -0.0265013, 0.132602, 0.02264, 0.0374048, -0.0870037, 0.0762181, 0.0250854, -0.0127466, -0.0300643, -0.106829, 0.169603, 0.033793, 0.00534063, 0.0276932, -0.00202973, 0.0616726, -0.0931632, -0.100962, -0.0595634, -0.144747, -0.041464, 0.0447536, -0.0591373, -0.0034351, 0.0653885, 0.0102584, -0.134471, -0.0515785, -0.00591675, 0.129963, 0.153564, 0.0429851, -0.115035, -0.0323972, -0.0184787, 0.116463, 0.0473269, 0.0217846, 0.0513869, -0.0122106, 3.57292e-05, -0.0773056, -0.071793, -0.153211, -0.0476551, 0.261569, 0.0755608, -0.135455, 0.080158, 0.0746726, 0.0948804, 0.156929, 0.0246124, 0.0765867, 0.062029, 0.042645, -0.0235393, -0.194249, 0.0425303,
                               0.0261287, -0.114581, -0.00118151, -0.0326559, 0.0591602, -0.132217, -0.165045, 0.022376, 0.0868992, 0.0654365, 0.235898, -0.0787118, -0.0564197, 0.0645467, -0.130949, 0.143788, 0.106324, -0.0296758, 0.00429321, 0.0985565, 0.281375, -0.013133, -0.0886807, 0.128778, 0.102637, 0.0723508, -0.119645, -0.0312169, -0.0260844, -0.0687897, 0.176824, -0.0112019, -0.0198889, 0.0306627, -0.0170094, -0.0437367, 0.0300034, 0.0912961, 0.143466, -0.114732, 0.0232735, 0.0316101, 0.091919, 0.0753917, -0.184951, 0.0544097, -0.0494724, 0.0990839, 0.0114825, -0.0601682, 0.0663605, -0.182005, 0.097284, 0.00157653, 0.0404022, -0.0784814, 0.0680578, -0.0215325, 0.0133904, 0.0493378, -0.0883118, 0.0440314, 0.0767505, -0.0142705, -0.140794, -0.0871687, 0.0183741, -0.0517502, 0.0438307, -0.0172013, 0.109289, 0.113557, -0.0387153, -0.0746287, -0.0125648, 0.0039688, -0.115914, 0.0787794, -0.0721738, -0.010663, -0.0502728, 0.0276165, 0.0464868, -0.0900254, -0.0403351, 0.131809, 0.0969063, -0.0515884, -0.260489, 0.0990825, 0.171663, -0.0809426, 0.0116673, 0.00982415, -0.00820671, 0.0685262, -0.230206, 0.0429081, 0.101701, 0.0283646, -0.0497146, -0.0718107, -0.0594373, -0.0226494, -0.0734803, -0.0575662, -0.0240771, 0.0500544, 0.103861, 0.0286409, 0.0109331, 0.045819, -0.0657755, 0.167626, 0.0178649, 0.0179979, -0.00660792, -0.0637177, 0.021953, 0.00289277, 0.0206479, 0.00677546, 0.106774, -0.0273472, -0.0321958, 0.119497, 0.000237199, 0.091616,
                               0.0478585, -0.0953364, 0.0418941, 0.105372, 0.105528, 0.0263326, -0.181764, -0.0773699, -0.0400099, 0.0463267, -0.0386264, 0.0467642, -0.0379216, 0.00166843, -0.00707299, -0.0262913, -0.0427843, -0.0985933, -0.122548, 0.0843206, -0.0431473, 0.0304782, -0.0392973, 0.0956986, -0.0371151, -0.218223, -0.0279066, 0.115784, 0.0768828, -0.124694, 0.131964, 0.0510217, -0.0781639, 0.0883016, 0.129809, -0.107454, -0.0684263, -0.0611253, 0.0107015, 0.0855641, -0.0837917, -0.0549706, -0.0451665, 0.113298, 0.0107921, 0.00967545, -0.0964631, -0.0200843, 0.10457, -0.0267324, -0.110336, 0.250787, 0.154738, 0.00768701, 0.00994378, -0.0519291, 0.0440192, 0.105723, -0.0160767, 0.221578, 0.0834663, 0.066335, 0.232265, 0.0663631, -0.0487053, 0.0274008, -0.0237111, 0.10675, 0.0519743, -0.0397931, 0.132186, -0.0678708, -0.0262748, -0.0472611, -0.0247389, 0.0288214, -0.04692, -0.146693, -0.0864276, 0.0141271, -0.108264, 0.00733275, 0.0957489, 0.0521975, 0.0145271, -0.0574069, 0.0181286, -0.016225, -0.115458, -0.111411, -0.216989, -0.0436978, 0.0484532, -0.0196817, 0.0569255, -0.0474872, -0.123402, -0.0883476, 0.0692035, -0.0213631, 0.0333491, -0.0105116, 0.157258, 0.00193139, -0.0481995, 0.0328277, 0.0369583, -0.051642, -0.138472, 0.000115718, 0.0428873, -0.0746478, 0.0529023, -0.103734, -0.213234, -0.106958, -0.0393824, 0.0751024, -0.154105, -0.0281126, 0.0930647, 0.0412525, -0.0280523, 0.109958, -0.0128538, -0.0156571, -0.0655826, 0.135748,
                               0.116752, -0.00307449, 0.0285395, -0.038441, -0.045998, -0.0975932, -0.0352919, -0.107798, -0.129093, 0.0739918, 0.0110548, -0.113825, 0.120032, 0.081399, -0.00400616, -0.0175981, -0.117513, 0.0238737, -0.25969, -0.0989758, 0.0590306, 0.0989933, 0.0872809, 0.0721181, -0.156433, 0.00106456, -0.0946657, -0.2215, -0.0552457, 0.0656065, 0.0400652, 0.0664066, 0.0153615, -0.0977472, 0.0983077, -0.0419789, -0.0522273, -0.0610518, -0.0324647, 0.0785101, 0.0384783, -0.0625905, 0.060552, 0.0137279, -0.0518269, -0.0384485, 0.165209, 0.0842676, 0.0440802, -0.0697893, -0.000844448, 0.0491056, -0.134275, -0.0035137, -0.0314503, -0.118176, -0.0708233, -0.0153637, 0.0136589, 0.0182791, -0.0492385, 0.157985, 0.182206, -0.019946, -0.0704834, 0.0594456, 0.0678259, -0.0152437, -0.0654973, 0.0432052, -0.019696, 0.00829327, -0.0786347, -0.0362476, 0.0724167, -0.0913306, 0.0830608, -0.101801, -0.12771, 0.135823, -0.0269397, -0.179167, 0.0234359, -0.0149593, -0.0663281, 0.0112539, 0.101827, -0.0565797, -0.0300555, 0.153293, 0.0696213, 0.124956, -0.010769, -0.145608, 0.00320623, 0.0649703, 0.0199186, -0.0394316, -0.206214, 0.0187825, -0.0217213, 0.0969689, 0.0497968, 0.0505644, 0.0868824, 0.141082, -0.181326, -0.131912, 0.0262418, -0.0791224, 0.0169944, 0.116724, 0.0578339, -0.128585, 0.0183283, 0.106228, -0.0582309, 0.0431671, 0.0526952, -0.0101338, -0.105535, -0.0139233, 0.178591, -0.113249, 0.0137854, 0.0243831, -0.11723, -0.118389,
                               0.142509, 0.0826328, 0.0923654, -0.0113087, 0.0393179, -0.000550554, -0.0579613, -0.0488861, -0.1188, -0.0338562, -0.0247478, -0.0215531, -0.13153, 0.0144425, 0.0362647, -0.0381134, -0.0224777, 0.125276, 0.188269, 0.0951423, -0.171848, 0.194056, -0.00968794, -0.00624029, -0.109483, 0.0978646, -0.115073, 0.0518568, 0.00543111, -0.0641747, 0.0295342, -0.0300037, -0.00710394, -0.00340623, 0.0449477, 0.0381003, 0.07425, 0.1176, 7.6896e-05, 0.08234, 0.108826, -0.118786, 0.0533765, 0.170159, -0.125736, -0.021367, 0.038333, 0.0479636, 0.042435, -0.0717962, 0.0680194, -0.118745, 0.156165, 0.0487144, 0.0540254, -0.0582472, 0.0111909, -0.0544063, 0.0957769, -0.0390752, 0.0661405, 0.0482481, 0.0181315, -0.065467, 0.144236, -0.166442, -0.165142, 0.0117636, -0.0577291, 0.00014129, -0.0114411, -0.0191347, 0.0420696, 0.0799724, 0.00642529, 0.0133594, 0.0243939, -0.0856237, 0.00681064, -0.241425, -0.0321915, -0.117868, 0.0842321, 0.00674685, -0.0806289, 0.00791886, -0.0420927, -0.0147986, 0.122826, -0.0690197, -0.0949412, -0.0611833, -0.0499478, -0.128439, 0.000224262, 0.0116117, -0.056902, -0.162057, -0.0347, 0.160483, 0.0246915, -0.0791009, -0.197234, -0.0919409, 0.10825, -0.194636, 0.0116419, -0.161065, 0.0703025, -0.0761133, -0.0678026, 0.184635, 0.0385366, -0.00656703, 0.0374631, -0.055756, -0.157568, 0.0765972, 0.011976, -0.0217762, 0.0276529, 0.128891, -0.102399, -0.103348, -0.0902012, 0.0296533, 0.00961962, 0.0044158,
                               0.0765854, -0.205354, -0.0803846, -0.111659, 0.0923304, 0.143249, 0.104695, -0.0758269, -0.0183823, -0.0758939, -0.0772624, -0.0860542, 0.161805, -0.158435, -0.071809, -0.142737, 0.0265715, -0.182361, 0.147881, -0.00206956, -0.000899759, 0.00567065, 0.0648527, 0.0139048, 0.0349858, -0.0701, -0.0516907, -0.132359, -0.054306, -0.0394256, 0.00539165, 0.0869688, -0.0238608, 0.013616, -0.092212, 0.00230723, -0.00802118, -0.137406, -0.0143159, 0.158844, -0.0188174, -0.0573714, -0.0489182, -0.057633, -0.122688, 0.0140189, -0.0117678, -0.0183095, -0.0925625, -0.159143, 0.14849, 0.108078, 0.241044, -0.118933, -0.164058, 0.037186, -0.0874538, -0.00574338, -0.0122841, -0.164693, -0.0718834, 0.0301827, -0.0573454, -0.0387983, 0.0440314, -0.0051262, 0.0795143, 0.0295646, -0.0689647, -0.0810869, -0.0856509, -0.029506, 0.0571625, 0.155741, -0.0880072, -0.0637575, 0.058237, 0.0061556, -0.143867, -0.0551776, 0.033556, -0.103676, -0.0936147, -0.113036, -0.13155, -0.0554522, 0.039315, -0.0191706, -0.108356, -0.0922418, 0.15593, -0.0366616, 0.114144, 0.063227, -0.0147427, 0.0771436, -0.0827542, -0.0470721, 0.0556019, -0.015751, 0.10526, -0.104634, -0.0457647, -0.0966407, -0.101761, 0.0584869, -0.00359998, 0.000600423, -0.0577144, 0.0797853, 0.10934, -0.0368338, -0.137916, 0.0184433, -0.0296829, 0.0926675, 0.060145, 0.174287, -0.0547874, -0.137285, -0.0201909, 0.0186155, -0.0321538, -0.0660767, -0.041343, -0.0583057, -0.0208878, -0.0229669,
                               -0.131768, -0.12496, -0.0178292, -0.0507709, -0.0253528, 0.0537672, -0.0183934, -0.0111086, -0.112664, 0.0294648, -0.110276, -0.0752318, 0.0845583, 0.0918612, -0.0152871, 0.182752, -0.149888, -0.0520277, -0.0667917, -0.0696692, -0.202665, -0.0660789, 0.0244688, 0.0122518, 0.0329207, 0.11362, -0.106104, -0.0122333, 0.0103737, -0.0147131, 0.0885369, -0.150716, -0.0569654, 0.110123, -0.072406, 0.0296413, -0.0201056, 0.0433503, -0.0285715, -0.05973, -0.116503, -0.172102, 0.149274, 0.0339043, 0.129255, 0.0134922, -0.00384203, 0.10206, 0.0545704, -0.154568, -0.0421945, -0.0652137, -0.105996, -0.0508764, -0.00432831, 0.0863963, 0.0282966, -0.0167089, -0.0417835, 0.0511647, -0.124272, -0.0910616, -0.0112345, -0.0230463, 0.166297, -0.0157559, 0.165078, -0.13873, 0.0746849, 0.0281631, 0.10597, -0.115658, 0.0137718, 0.0704949, 0.0685954, 0.0652759, -0.202321, -0.100799, 0.0492099, 0.0554252, 0.034681, 0.122798, -0.0414281, -0.0463616, -0.0106149, -0.00746605, 0.0997593, -0.00479425, 0.110271, -0.0359081, -0.0125829, 0.145262, 0.0819044, 0.122135, -0.0313607, -0.0464039, -0.0593579, -0.137417, 0.188787, 0.0753755, 0.0406313, -0.110421, -0.006024, -0.0627095, 0.0220088, 0.102862, -0.000275065, -0.209143, 0.104132, -0.0930263, 0.147775, -0.0194956, -0.0531399, -0.0479236, -0.0440721, -0.0302844, 0.061868, -0.113108, 0.0605745, -0.0885021, -0.0590431, 0.0786087, 0.0649026, -0.0840291, -0.00886953, 0.0331378, 0.173154, 0.0656382};


const float dense_1_W[256] = { 0.666692, 0.00158098, 0.0264188, 0.589206, 0.271062, -0.346394, -0.113643, 0.0853104,
                               -0.204123, -0.362385, -0.309749, -0.406726, -0.169859, 0.539238, -0.285628, 0.248397,
                               0.0574557, -0.399027, 0.420258, -0.291172, 0.037438, 0.224533, 0.135514, -0.385102,
                               0.597588, 0.112065, 0.134879, 0.614381, -0.677504, 0.402309, 0.168178, -0.0100094,
                               0.0328857, -0.123614, 0.330098, 0.139099, 0.109265, 0.463831, 0.198575, -0.464777,
                               -0.10365, 0.161034, -0.0717675, 0.237378, -0.178882, -0.0570982, -0.0300226, 0.278484,
                               0.203454, -0.00960117, 0.193891, 0.228945, -0.0149688, 0.281154, -0.288202, 0.320818,
                               -0.209759, -0.255528, -0.356426, 0.227972, -0.308277, 0.353507, -0.257674, 0.357909,
                               0.39419, -0.482492, -0.555774, -0.2827, -0.0931638, 0.1002, -0.109371, -0.0523145,
                               0.118171, 0.405282, -0.497083, -0.00749674, -0.0593755, 0.125963, 0.255022, 0.210509,
                               0.128768, 0.277689, 0.436386, -0.513986, -0.631616, 0.381478, -0.0395677, 0.239357,
                               -0.0223611, -0.177094, -0.326824, -0.0736587, 0.45801, 0.177537, -0.0697846, -0.274544,
                               -0.0262721, -0.222775, -0.18395, -0.37125, 0.0137147, 0.0103395, -0.379442, -0.272664,
                               -0.594929, -0.425962, 0.0497737, -0.685289, -0.304232, 0.385249, -0.172062, -0.461313,
                               0.183475, 0.111819, 0.347309, 0.123592, -0.455877, -0.357068, -0.215379, 0.12965,
                               0.441186, 0.0958406, -0.151795, -0.12629, -0.427202, -0.312247, -0.250597, 0.392532,
                               0.538246, -0.17201, 0.109261, 0.541365, 0.105434, -0.491139, 0.339081, 0.148375,
                               0.262639, 0.17143, -0.400701, 0.335368, 0.283246, 0.396605, -0.150109, 0.108582,
                               -0.257865, 0.196423, 0.372388, 0.436258, 0.118638, -0.289129, -0.0385038, 0.362172,
                               0.197006, -0.0630865, -0.310148, 0.23293, -0.29314, 0.196286, -0.177548, -0.237289,
                               0.232315, 0.0249929, 0.362035, 0.120449, 0.312983, -0.361862, -0.137822, 0.591549,
                               -0.612843, -0.256858, 0.0784158, -0.0683294, 0.17053, 0.171497, 0.0869453, -0.690821,
                               -0.100081, 0.187546, -0.279293, 0.473402, -0.58794, -0.321598, -0.29674, -0.11533,
                               0.368448, 0.17497, -0.592894, 0.255921, -0.0647754, 0.116422, -0.134606, 0.16407,
                               -0.285848, -0.0959933, 0.259011, 0.0415222, 0.0467377, -0.380678, 0.368091, -0.274741,
                               -0.247843, -0.459037, -0.0249443, -0.418651, 0.107275, 0.381996, 0.0477234, -0.405935,
                               0.29379, 0.420459, -0.250499, -0.040891, -0.476935, -0.0213823, -0.0878595, 0.246056,
                               0.424744, 0.518496, -0.148262, 0.382445, -0.334392, -0.152529, 0.103773, 0.480548,
                               -0.372104, -0.127587, 0.137838, -0.484386, -0.607938, 0.552123, -0.177001, -0.237991,
                               0.234543, -0.247713, 0.490232, -0.232151, 0.548741, -0.276301, -0.296752, -0.139908,
                               0.385692, 0.244657, 0.582388, 0.395465, 0.337805, -0.298595, -0.0625814, 0.532076,
                               0.0580057, -0.236325, -0.00609876, -0.556465, -1.07739, 0.686731, -0.19535, -0.399697};


const float dense_1_b[8] = {0.0886548, 0.105982, -0.087746, 0.103163, 0.0435897, 0.126676, -0.00316205, 0.0827742};


const float dense_2_W[8] = { 0.264555,
                             0.573784,
                             -1.27716,
                             0.686849,
                             1.017,
                             -1.06963,
                             0.0891421,
                             0.906339};


const float dense_2_b[1] = {0.0803387};



#ifdef __cplusplus
}

#endif
#endif
