/********************
    parameters.h

    Code generated using nn4mc.

    This file defines the neural network weight parameters for all layers.

*/
#ifndef __NEURAL_NET_PARAMS_H__
#define __NEURAL_NET_PARAMS_H__

#ifdef __cpluscplus
extern "C" {
#endif



const float lstm_W[280] = { 0.149748, -0.346101, 0.334979, 0.496632, 0.475507, 0.192168, 0.055387, -0.106383, -0.184273, 0.362881, -0.249756, 0.109578, 0.114132, 0.0988158, -0.127462, -0.130375, 0.795155, 0.195815, 0.145483, -0.330021, 0.0425135, 0.219013, 0.070501, 0.124805, -0.336645, -0.00912146, 0.473968, -0.0277451,
                            0.40449, -0.291124, -0.112063, 0.148684, 0.21278, -0.138185, 0.394686, -0.0159521, -0.15725, -0.33577, -0.0446849, -0.211133, -0.0496603, 0.327815, 0.0212455, -0.356503, 0.297786, 0.0656346, -0.166861, -0.207861, -0.311132, 0.41683, -0.115719, -0.342646, -0.171208, -0.160147, 0.707188, -0.0838691,
                            0.337841, -0.445744, -0.107702, 0.348745, 0.202336, 0.24428, 0.141549, -0.00221962, 0.0178366, -0.281847, -0.282905, 0.183208, 0.331734, 0.271648, 0.41576, 0.257047, -0.176945, 0.143609, 0.297283, -0.391373, 0.443844, -0.112068, 0.223736, -0.16241, -0.173364, 0.319817, 0.460753, 0.441942,
                            -0.0804128, -0.277991, 0.254408, 0.218714, 0.269281, -0.133721, 0.221844, -0.339185, 0.219463, -0.298401, 0.026772, -0.383872, 0.176572, -0.317023, -0.0295265, 0.353403, -0.146773, 0.324921, 0.0909319, -0.326178, -0.102282, 0.181129, -0.0398118, 0.256104, 0.162111, -0.0029588, -0.377018, -0.111089,
                            0.0410528, -0.173785, -0.286472, -0.0247734, 0.322398, -0.13242, 0.49927, -0.185026, -0.350036, 0.345734, 0.26716, -0.220069, -0.318565, 0.396364, -0.165122, -0.429629, -0.137954, 0.00251787, -0.44754, -0.691782, 0.540441, 0.190476, 0.584416, -0.315804, 0.287867, -0.117109, -0.15964, -0.0979956,
                            0.0641972, -0.0863871, 0.191815, -0.263707, -0.0496387, -0.511758, 0.34194, -0.110403, -0.000796258, 0.233868, -0.293967, 0.00417957, -0.238091, -0.142329, 0.425838, 0.0178764, 0.218583, 0.0299939, 0.0619995, -0.511656, 0.33266, -0.114346, 0.428351, 0.705794, 0.249454, 0.553049, 0.32977, 0.00652981,
                            -0.197659, 0.306117, 0.228381, 0.00816721, -0.179985, -0.37649, -0.151891, -0.115873, -0.1662, 0.0801389, -0.192849, -0.354155, 0.0802095, -0.342122, 0.516082, -0.604842, -0.164123, 0.0656371, -0.0353973, 0.0859083, -0.0173371, 0.248214, 0.122373, 0.219977, 0.472964, 0.217952, 0.60999, 0.124013,
                            0.417489, -0.0872813, -0.478649, 0.0328284, 0.108317, -0.170887, -0.0941187, -0.111154, 0.118297, -0.371265, -0.029644, 0.351737, 0.0661001, -0.171821, -0.175685, -0.564268, 0.126272, 0.345755, -0.819721, -0.19749, 0.871395, -0.351885, 0.267376, -0.346452, -0.0347116, 0.243931, -0.22133, -0.234719,
                            0.263588, -0.047464, 0.365835, 0.264866, -0.221131, -0.508161, 0.278499, -0.120235, 0.314067, 0.176497, 0.284991, 0.00668821, 0.245299, 0.0276539, -0.170514, 0.190106, -0.121043, 0.368403, -0.105549, -0.493813, -0.190558, 0.515549, -0.373741, 0.406047, 0.575726, -0.260782, -0.114416, 0.245779,
                            0.0527898, -0.0355882, -0.189389, -0.110386, -0.0365185, -0.22877, 0.324587, 0.290737, -0.341111, 0.140508, 0.250853, 0.361612, 0.0531818, 0.102162, 0.343667, -0.597217, -0.14124, -0.11256, -0.144994, 0.192572, -0.00515217, 0.171773, -0.105127, -0.458169, 0.2938, 0.658367, 0.803342, 0.495614};


const float lstm_b[28] = {-0.0609271, 0.213287, 0.351386, 0.159051, 0.289779, 0.10979, 0.715031, 1, 1, 1, 1, 1, 1, 1, -0.0101263, -0.0319762, -0.000958931, -0.0440255, 0.0298283, -0.17155, 0.0717071, 0.0723758, 0.507135, 0.23857, 0.0870122, 0.191055, 0.340453, 0.445662};


const float lstm_Wrec[196] = { -0.244566, 0.0934912, 0.409722, -0.258926, 0.00109722, -0.00249945, -0.122568, 0.175544, -0.258729, -0.122269, 0.208068, 0.11639, -0.245427, 0.123871, 0.255473, -0.131082, -0.0889448, 0.0997159, 0.146639, 0.0869542, -0.265745, -0.159267, -0.169589, 0.0553982, -0.391286, 0.0826832, 0.132685, 0.0406099,
                               -0.0284409, 0.0681893, -0.153283, 0.0669103, -0.116264, -0.197833, -0.00299738, -0.370035, 0.34581, -0.124749, 0.440984, -0.0347114, -0.257213, 0.128992, 0.0131832, 0.319449, -0.142857, -0.0951054, -0.373098, 0.0279851, -0.132674, -0.0680042, -0.0989916, 0.0317218, -0.177127, 0.108831, -0.123497, -0.0141497,
                               0.164255, -0.273674, -0.0646305, 0.212209, -0.338908, 0.236024, 0.264807, 0.281437, -0.0459165, 0.209102, 0.201559, -0.0294642, -0.11239, -0.0395722, 0.235396, -0.343775, -0.049398, -0.179134, -0.17586, 0.120121, -0.0716364, 0.0752613, -0.182846, -0.110913, -0.070057, -0.14253, -0.303745, 0.00164468,
                               0.100822, -0.134607, -0.0742814, -0.137047, -0.146742, 0.0579214, -0.0524489, -0.36619, -0.236996, 0.207292, -0.0705391, 0.0936655, 0.276786, 0.224275, -0.257223, -0.105849, 0.12875, 0.19885, -0.10097, -0.304117, -0.3268, -0.0696871, -0.316512, 0.116492, -0.0902307, -0.0868896, -0.0982859, 0.242822,
                               0.141747, -0.135497, 0.0116435, -0.113383, -0.161051, -0.128098, 0.289786, 0.372435, -0.200824, -0.201077, 0.0262117, -0.05206, 0.194393, 0.00360094, -0.0187666, 0.360125, 0.224138, 0.0786636, -0.132613, 0.00170313, 0.0994735, -0.0399965, 0.000595769, 0.390587, -0.051711, 0.408865, -0.146653, 0.0458707,
                               0.059776, 0.258017, 0.00940766, 0.313928, 0.109293, 0.141974, 0.080663, 0.0457878, -0.000967811, -0.333825, -0.318426, 0.18201, 0.0004777, -0.106351, -0.144744, -0.214444, -0.115831, -0.299658, -0.224891, -0.0827624, -0.246839, -0.180239, 0.119105, -0.0449053, -0.137983, 0.268877, -0.0374218, 0.321417,
                               0.163423, -0.137027, 0.33409, 0.254273, -0.21312, -0.0104019, -0.153441, -0.149068, 0.0236217, -0.171115, 0.0798176, 0.23242, 0.111385, 0.117569, 0.176125, 0.167291, 0.0936047, -0.0400483, 0.21513, 0.176609, 0.0798665, -0.441388, -0.0560126, -0.104153, 0.402171, -0.0644246, -0.0884004, 0.186433};


const float dense_W[56] = { 0.360429, -0.797586, 0.458705, 0.591332, 0.108173, 0.349045, -0.621486, 0.667676,
                            0.925064, 0.805375, 0.0355412, 1.11441, -0.228824, 0.145381, -0.549844, -0.475809,
                            -0.179429, -0.156346, 0.225179, -0.325126, 0.810878, 0.467511, -0.329477, -0.249055,
                            0.544411, 0.197862, -0.194251, 0.538544, 0.0338465, 0.600518, 0.333433, -0.179744,
                            0.072943, -0.193188, 0.621594, 0.351536, 0.61999, -0.579193, 0.385609, -0.210957,
                            0.315264, 0.269289, 0.420038, 0.688613, 0.454432, -0.018386, 0.591255, 0.637292,
                            -0.0332127, -1.21121, 0.051259, 0.0122414, -0.558227, 0.418256, 0.456275, -0.0309245};


const float dense_b[8] = {0.000361346, -0.00788166, 0.216729, 0.0556025, -0.0977915, 0.104928, -0.100885, 0.0424258};


const float dense_1_W[8] = { 0.550334,
                             -0.870309,
                             -0.388533,
                             0.333486,
                             1.45776,
                             0.699953,
                             -0.996379,
                             0.56856};


const float dense_1_b[1] = {0.0392478};



#ifdef __cplusplus
}

#endif
#endif
