/********************
    parameters.h

    Code generated using nn4mc.

    This file defines the neural network weight parameters for all layers.

*/
#ifndef __NEURAL_NET_PARAMS_H__
#define __NEURAL_NET_PARAMS_H__

#ifdef __cpluscplus
extern "C" {
#endif



const float lstm_W[512] = { -0.0495606, 0.0940879, -0.0218329, -0.0435081, 0.0181803, -0.0714254, 0.0784598, 0.121977, 0.0718057, 0.352635, -0.117067, 0.111825, 0.418923, 0.745672, -0.219759, 0.270508, -0.000709975, 0.0563506, -0.2813, -0.213995, 0.0397085, 0.085673, 0.323348, 0.100549, 0.0984917, 0.279525, 0.0150785, 0.206861, -0.00498873, -0.0559615, 0.307748, -0.106475, 0.0415691, 0.0577625, 0.0218436, 0.0152977, -0.0410546, 0.045335, -0.168394, 0.0792862, 0.18057, 0.147161, -0.0346313, -0.108329, -0.15991, 0.148006, -0.184889, -0.0969924, -0.131521, -0.00960919, -0.183188, 0.0408551, -0.172352, -0.0842911, 0.114349, 0.0356838, 0.0733708, -0.033356, -0.0899955, -0.00505346, -0.0315359, -0.137529, 0.193149, 0.183201, -0.0649503, -0.176263, 0.0618324, -0.0734146, -0.0563242, -0.135219, -0.0761236, 0.0402271, 0.0273894, -0.268369, 0.134526, 0.118527, 0.0489537, -0.0365515, -0.022847, -0.325485, 0.0933675, -0.39658, 0.110646, 0.0254108, -0.196431, -0.247737, 0.204554, -0.00777953, -0.242947, -0.00368051, -0.384624, -0.0528947, -0.0666777, -0.358073, 0.0190017, 0.258314, 0.311014, 0.0911001, 0.215562, 0.305048, 0.440307, -0.117822, 0.202417, -0.0323519, 0.221796, 0.317387, -0.120612, 0.362004, 0.224715, 0.616554, 0.0620914, 0.00127994, 0.16835, 0.230186, -0.281638, 0.0730812, 0.262812, 0.118166, 0.369929, -0.148512, 0.18073, 0.290055, -0.249314, -0.107702, 0.382599, 0.157138, 0.0437532, -0.122547,
                            0.182724, 0.0643068, -0.0319551, -0.0232058, 0.196611, -0.0961559, 0.233165, 0.118743, -0.0244234, 0.435729, 0.10838, 0.456233, 0.0892523, 0.428259, -0.425866, 0.420381, 0.106437, -0.0645427, -0.00711436, -0.326079, 0.182923, 0.0636144, -0.00116812, 0.30634, 0.418547, 0.232621, 0.00977734, -0.0183357, 0.18364, -0.106615, 0.449999, 0.201337, 0.0905674, 0.13688, -0.137576, -0.0715853, -0.0208682, -0.212622, 0.116939, -0.196668, 0.182285, 0.20807, -0.178325, -0.211676, 0.0153956, -0.124067, 0.0438196, -0.1829, -0.19893, 0.0274246, -0.0418663, 0.0666178, 0.190643, -0.121207, -0.0729669, 0.0986047, 0.127507, -0.197123, -0.203173, 0.102116, 0.135526, 0.2005, 0.17196, -0.173124, -0.278363, -0.161926, 0.463011, -0.312546, -0.186731, 0.239899, -0.405423, 0.00294421, 0.300263, 0.0699505, 0.262669, -0.0378847, 0.482304, -0.055707, 0.205915, -0.0357795, 0.386327, -0.104907, -0.0776075, 0.207321, 0.309144, 0.15849, 0.0463148, 0.440995, -0.125521, 0.0823377, 0.109071, -0.33036, -0.209657, -0.103166, -0.33496, 0.345691, 0.0486347, 0.091129, -0.0401317, 0.111833, 0.383318, -0.132314, 0.230115, -0.103347, 0.0582709, 0.0606023, 0.108289, 0.275214, -0.0576319, 0.129748, -0.364782, 0.350682, 0.337824, -0.0813788, -0.0960464, -0.192911, -0.0405084, 0.166108, 0.289413, -0.07558, 0.405098, 0.341127, -0.280528, 0.0836717, 0.103413, 0.188938, 0.270041, -0.0267111,
                            0.459325, -0.0537802, 0.0575812, 0.314553, 0.0488412, -0.120218, 0.228756, 0.258801, 0.0662716, 0.323877, -0.121954, 0.143747, 0.335343, 0.190618, -0.449705, 0.00695195, 0.0813224, -0.0220359, -0.0614171, 0.0538044, -0.177925, 0.358014, 0.00327364, 0.078084, 0.342343, -0.0566786, 0.0105311, 0.0696536, -0.115344, 0.107379, 0.128461, 0.0350008, -0.118056, -0.172418, -0.00167778, -0.10433, 0.00354628, 0.173635, -0.101886, 0.148432, 0.130494, -0.200038, 0.0125302, -0.197961, 0.016069, -0.0438023, -0.00085859, 0.162535, -0.0132025, -0.129879, 0.189773, 0.130698, 0.0410721, -0.0482279, 0.0484213, -0.0341983, 0.106509, 0.21042, 0.123756, -0.195612, 0.189039, 0.16681, -0.0585837, 0.0513356, 0.159035, -0.163932, 0.237836, -0.161023, -0.260658, -0.00537379, -0.283725, 0.2293, -0.0142629, -0.209847, 0.166846, 0.216576, 0.16702, 0.554132, 0.180765, 0.111605, 0.0787682, -0.0738237, -0.0124045, -0.110892, -0.302242, -0.0315821, 0.148702, -0.000772426, -0.047956, 0.109329, 0.208074, 0.00214557, 0.199553, -0.0771807, -0.0545738, -0.0272324, 0.329996, -0.0956246, 0.106895, 0.219634, 0.362043, -0.095479, 0.174259, 0.0410936, -0.0561241, 0.309803, -0.0685587, 0.163691, 0.10598, 0.0884159, -0.67871, -0.0135878, 0.147711, 0.135473, 0.258899, 0.123909, -0.054726, 0.25955, 0.26003, 0.0404244, 0.0491256, 0.0028728, -0.309512, 0.0745634, -0.176638, 0.0317626, 0.293366, 0.199951,
                            0.516863, 0.0757897, 0.0531832, 0.118825, 0.383025, -0.0823944, 0.114546, 0.0644486, 0.186907, 0.261412, 0.150241, 0.0560737, 0.299868, 0.269285, -0.377428, 0.128583, 0.432286, 0.0508766, -0.0364039, 0.230074, -0.0879521, 0.156155, 0.0288566, 0.128063, 0.168041, 0.255941, 0.271518, 0.309093, 0.365854, -0.0106461, 0.517353, 0.377803, 0.20085, 0.0837793, -0.189389, -0.149225, -0.197503, -0.104119, -0.122672, 0.120344, 0.0765794, -0.0603555, 0.096399, -0.209773, 0.0494139, 0.135834, -0.0843412, 0.0431277, -0.0290339, -0.197037, -0.141595, -0.0249309, -0.0169427, -0.193739, -0.0467348, 0.173954, 0.0657995, 0.0737141, -0.150383, -0.162671, -0.0919959, 0.16148, -0.0117555, -0.160129, -0.000907338, -0.0643884, 0.252807, -0.208508, -0.271304, -0.136736, -0.0666617, 0.0950468, 0.251583, 0.00592572, 0.147731, 0.123725, 0.0090213, 0.0564939, 0.24314, -0.352434, 0.130763, -0.262992, -0.358092, -0.194247, 0.128521, -0.225969, 0.106485, 0.345677, -0.0329196, 0.131353, -0.121865, -0.137743, -0.166735, -0.0974598, -0.321755, 0.138747, 0.155107, -0.18679, 0.156497, 0.0879477, 0.0801859, -0.239069, 0.0531924, -0.124222, 0.0794623, 0.209538, 0.253134, 0.184898, 0.16333, 0.0211824, -0.189214, 0.384577, 0.475238, 0.293334, -0.0464312, 0.206984, 0.057709, 0.50765, 0.34599, 0.0110084, 0.360748, 0.182612, -0.168384, 0.185557, 0.442968, 0.0836104, 0.00996494, 0.347205};


const float lstm_b[4096] = { -0.0548338, 0.0570281, 0.084239, -0.0832505, -0.090771, 0.0970988, 0.0470498, 0.2909, -0.054124, 0.0396587, 0.0272038, -0.000718448, -0.0590573, -0.0386764, 0.00970646, 0.066541, 0.0598476, -0.0487686, 0.0812851, 0.0305045, -0.0971652, -0.040678, 0.0992545, -0.0840696, -0.124206, 0.056429, -0.0497926, 0.150691, -0.0217429, 0.0259346, -0.108921, -0.0119521, -0.117336, -0.119986, -0.0993519, 0.0332764, -0.100272, -0.0310145, 0.15773, -0.0420454, 0.274018, -0.157319, 0.073978, -0.0728567, 0.083262, -0.0644114, 0.076463, 0.002837, 0.0537192, -0.159537, -0.00504474, 0.0152974, -0.0176344, -0.010651, 0.0275009, 0.112487, -0.090449, -0.0245901, -0.0475359, 0.137973, 0.0538748, -0.14517, -0.0707809, -0.00998969, 0.101062, 0.0256369, 0.127272, 0.0617366, 0.0699528, 0.00560786, 0.0208699, 0.0279239, -0.140524, 0.111122, 0.040689, -0.112817, 0.0174732, -0.0726555, -0.045831, 0.0304194, 0.104934, 0.124128, -0.102039, -0.077475, 0.114814, 0.0114352, -0.0683076, -0.000691139, 0.0138255, -0.0230693, -0.112288, 0.0547543, 0.0231911, 0.0759894, 0.00508645, -0.200986, -0.161147, 0.0300826, 0.0479974, -0.00666484, -0.142036, -0.122018, 0.0312227, -0.0667076, -0.0264635, -0.127697, 0.0151751, -0.0385335, 0.0868519, -0.20375, 0.0509926, -0.128121, -0.0639074, -0.0250129, 0.0560601, 0.178719, 0.0148652, 0.091281, 0.0928478, 0.0333749, -0.0638213, 0.039009, -0.00781042, 0.061638, 0.0959274, -0.00315051, -0.0382588, 0.0730894,
                             0.0148585, -0.119535, 0.0379862, 0.104547, 0.0513213, -0.0852604, -0.0694575, 0.0983766, -0.0360802, -0.040699, -0.0491909, 0.112778, 0.0429813, 0.0384699, -0.089097, -0.0178812, 0.126359, -0.151222, 0.12468, -0.103706, 0.0451287, -0.148406, 0.0158913, -0.0121276, 0.00375902, 0.0205164, 0.133101, -0.0707267, -0.0137409, -0.102181, -0.244939, -0.038119, -0.0388709, 0.0726393, -0.0200729, 0.0990461, -0.00455266, 0.0396246, 0.0621279, 0.0828663, 0.111266, -0.114269, -0.0209565, -0.144521, -0.0236725, -0.00933461, 0.00259515, -0.100261, -0.0696919, 0.14533, 0.0337832, 0.0986794, 0.06956, 0.0918369, 0.16154, 0.00786938, -0.0632649, 0.0667862, -0.0456452, 0.0012383, -0.18238, 0.0931337, 0.031037, -0.0489982, 0.0904592, -0.0254338, -0.0428442, 0.0210657, 0.0375707, -0.0257481, 0.00377817, 0.148486, -0.0269945, 0.0853023, -0.103198, -0.0580947, 0.119337, -0.0728426, -0.0891199, -0.0309917, 0.177569, 0.0782513, 0.16224, 0.119388, -0.0850505, 0.0874218, -0.217886, -0.0911927, 0.0298325, -0.0290157, -0.0699649, 0.011079, 0.0291268, 0.0689582, 0.0870955, 0.204001, -0.0155299, -0.0480407, 0.107079, -0.02467, 0.107634, 0.0634851, -0.168775, 0.0256553, 0.0700294, -0.0608471, -0.177068, -0.0463756, -0.108299, 0.0412459, 0.0423417, -0.00845713, 0.0639612, 0.0161608, -0.0554426, -0.112797, -0.0567913, -0.0435142, -0.0264997, 0.0129943, 0.100608, 0.18781, 0.0373819, 0.094525, -0.0520904, 0.129088, -0.00690074, -0.0320239,
                             -0.0744328, 0.108694, -0.0613079, -0.0791331, 0.000609093, -0.0233808, -0.101177, -0.082266, 0.0388067, -0.177056, -0.00533149, -0.00677814, -0.0159144, 0.0737309, -0.0954002, -0.107981, 0.0298592, 0.220144, -0.0847096, -0.0289684, -0.128568, 0.0936488, 0.0739254, -0.0576663, -0.0578409, 0.125327, 0.0432253, 0.0450659, -0.177673, -0.069771, -0.0250175, 0.0509614, 0.0352083, 0.0997384, 0.0354627, -0.130052, 0.0921312, 0.0444295, -0.0144395, 0.101044, 0.00939331, -0.0889137, -0.0425566, -0.0990117, -0.0469281, -0.0979482, 0.0519226, -0.00640588, -0.109835, -0.199531, 0.0766501, 0.0228065, -0.0671697, -0.0372877, 0.0535761, 0.118193, 0.0641288, 0.0880336, 0.0710777, -0.0483399, -0.0495278, 0.0652496, 0.142803, 0.0065239, 0.178405, 0.0467496, 0.1617, 0.022391, -0.0565872, 0.16304, 0.133642, -0.00731485, 0.0339093, -0.0733989, 0.11026, 0.0970638, 0.037652, 0.0420017, -0.0841954, 0.0469467, 0.069591, -0.0782151, 0.150405, -0.0231166, 0.0683751, -0.125043, -0.106963, 0.0897885, -0.00228973, 0.107554, -0.0335841, 0.0178604, -0.0601627, -0.00948114, -0.150312, -0.103719, 0.0476613, -0.141449, 0.0394582, -0.267928, 0.0576832, 0.1767, 0.0215643, -0.0400667, 0.102517, 0.128538, 0.0194511, 0.0539411, 0.00833999, -0.0552574, 0.0532179, 0.0709287, 0.0441292, -0.0654606, -0.0676901, 0.0338896, 0.137729, -0.00363445, 0.00366058, 0.0030943, -0.111243, 0.0681397, -0.0247965, 0.1302, 0.0666826, 0.0770531, -0.0852894, 0.0104955,
                             -0.0157094, -0.0403154, 0.0399888, 0.0744365, 0.00671393, 0.000136751, -0.0984034, 0.0507285, 0.0279981, -0.129789, 0.00264048, 0.0671303, -0.0739975, -0.0944715, 0.0246769, 0.0382425, -0.0565083, 0.0305015, -0.0159282, 0.323539, 0.0823742, 0.0421962, -0.0770008, -0.0311341, 0.0957851, -0.0437011, -0.0806391, -0.0993706, 0.131382, -0.00945884, 0.0966345, 0.0107473, -0.00104296, 0.124142, -0.0624575, 0.0482957, -0.0190114, 0.0291386, -0.0508861, -0.106898, -0.0462897, -0.128217, 0.0676554, -0.0534446, -0.127758, 0.0432481, -0.109972, 0.0730193, 0.133182, 0.12411, -0.164244, 0.0473551, -0.0343414, 0.0236225, -0.033456, -0.0215811, 0.0223871, 0.109972, 0.116905, 0.0609848, -0.0492839, -0.0672043, -0.0947889, 0.0590674, 0.0335565, -0.0731578, -0.0220455, -0.112737, -0.177719, 0.0121134, 0.105433, 0.102693, -0.146956, 0.146383, -0.00802637, 0.105441, 0.0694311, 0.131325, 0.126934, 0.0436247, 0.111696, -0.0138428, -0.148383, -0.0778806, 0.0904041, -0.0243908, -0.130843, -0.0788915, -0.00472791, 0.100063, -0.0785548, 0.221601, 0.0489827, -0.161738, -0.06655, 0.041012, 0.0604192, 0.0358992, 0.0851364, -0.0878724, 0.113665, -0.0559951, -0.0841366, -0.18833, -0.0600389, -0.0526731, 0.122042, 0.0130282, -0.0453396, 0.0137934, -0.013872, -0.0473456, 0.00299286, -0.074736, 0.0923001, 0.0338258, 0.0509421, -0.050446, -0.124288, -0.0847674, -0.179479, 0.0721949, -0.0199451, 0.0612373, -0.0599481, 0.107217, -0.0543318, -0.0147931,
                             -0.046004, 0.134582, -0.00194403, -0.00271876, 0.180626, 0.0410173, -0.0347364, -0.0862051, 0.068265, 0.0509809, 0.14423, -0.0918361, 0.0557679, -0.060828, 0.0345351, -0.126543, -0.136179, -0.0820519, 0.00117209, 0.127329, -0.0380832, -0.0830078, -0.0307788, 0.070165, 0.235005, 0.0271462, -0.0787224, 0.19596, -0.125114, -0.0558824, 0.00806844, -0.125519, 0.0154949, -0.0628563, 0.176379, 0.00465087, -0.086058, 0.0243136, -0.0272124, 0.0411888, 0.122957, -0.12295, 0.0817312, 0.0448312, 0.0707778, -0.164726, -0.151445, -0.144546, -0.0386909, -0.050858, 0.103803, -0.023717, 0.0486529, 0.0146871, -0.0218678, -0.037179, -0.0317835, -0.0537323, 0.0292059, 0.183531, 0.0105839, 0.13143, -0.0246371, -0.00842962, -0.0898262, -0.0707059, -0.116041, -0.0911802, -0.0287067, -0.0327018, 0.0173498, 0.0485027, -0.104238, 0.0277113, 0.00039072, -0.0298402, -0.0461567, -0.00800122, -0.0987656, -0.180232, 0.013265, 0.0674817, 0.0882689, -0.026715, -0.054994, 0.018084, 0.173223, -0.00328673, -0.0509117, 0.10338, -0.0712847, 0.0686681, -0.0718576, -0.0584025, -0.0266578, 0.0438435, 0.0290761, -0.150826, 0.111831, 0.0200621, 0.00187294, -0.165826, 0.0121881, 0.0930261, -0.0918554, 0.0824428, -0.0527378, -0.0332612, -0.0345532, 0.0106047, -0.158119, 0.179032, 0.103085, 0.0880358, 0.107365, 0.0148915, -0.0433993, -0.0124166, 0.0473278, 0.0686476, -0.0793224, -0.0342062, 0.053581, 0.178923, 0.0747967, 0.0961189, -0.147539, 0.0532372,
                             -0.045099, 0.0115308, 0.171696, -0.0872996, 0.00494089, 0.0121697, 0.0697638, -0.0668625, 0.0296375, -0.0110483, 0.119021, 0.0464585, -0.133829, 0.0926686, 0.0446361, 0.0689052, -0.0270381, -0.0433115, 0.0502431, -0.110135, 0.0526128, 0.0675187, -0.104196, -0.139183, -0.0486398, -0.0115602, 0.17768, 0.135738, -0.0545414, -0.10933, -0.0403994, -0.0574287, 0.0255667, 0.0323016, 0.0104753, -0.0815521, 0.00271467, -0.198341, 0.171601, -0.0817861, 0.0468707, -0.0421047, -0.00288103, 0.032767, -0.0014226, -0.053867, 0.0864827, 0.0257521, -0.0315284, 0.151704, -0.205867, 0.0189575, 0.0871435, -0.063158, -0.0127138, 0.0181623, -0.0149313, -0.00594971, 0.13772, -0.0479429, 0.0987467, 0.0261644, -0.0826616, -0.0552046, -0.114036, 0.00944405, -0.00206131, 0.0745048, -0.146079, -0.0705077, 0.0220587, 0.0207184, -0.206046, -0.0386157, -0.0576011, -0.0731422, -0.0210266, 0.0868099, -0.00674033, 0.0687772, -0.0779207, -0.0642116, 0.149803, 0.0942212, -0.109864, -0.127388, 0.0709822, -0.0261117, 0.136302, 0.0113271, 0.0303242, -0.10528, 0.0718433, -0.0805642, -0.106655, -0.0887002, -0.0202683, -0.0807422, -0.0101457, -0.0378991, -0.00246655, -0.0440463, 0.151468, -0.0571303, -0.135933, 0.0745667, -0.146102, 0.0527073, -0.163229, -0.182605, -0.103647, -0.116386, 0.0427809, -0.0553402, -0.0955039, -0.0834611, 0.095223, 0.0744743, -0.124928, -0.137254, 0.0349548, -0.0691362, 0.0596694, 0.0634865, -0.190242, 0.0982168, 0.0656275, -0.0396617,
                             0.0691198, -0.0639675, -0.111704, -0.106616, -0.0485927, 0.0841278, -0.0988754, -0.144632, -0.00191857, 0.107204, -0.0184822, -0.00594098, -0.0118688, 0.116123, 0.0155152, 0.000444706, 0.0220352, -0.0848547, 0.108171, 0.0463077, 0.025906, 0.0474292, 0.0611799, -0.00309502, 0.0967145, -0.0346078, 0.059771, -0.140379, -0.0209256, -0.0300951, -0.0248197, -0.144231, -0.149355, -0.0305948, -0.0949104, -0.0508315, 0.134972, -0.0857718, -0.210958, 0.0423453, -0.0166003, -0.0310449, -0.0224982, -0.0895477, 0.0301735, -0.0563124, 0.00846808, -0.0807172, -0.00905345, 0.183984, -0.0762365, -0.125558, -0.0318483, 0.0626507, 0.0552041, 0.196084, 0.0579437, 0.0665274, -0.0754977, -0.0376906, -0.0470746, -0.0402762, -0.0505598, 0.0636861, 0.14157, 0.057991, -0.116471, -0.0656017, -0.13331, -0.0376181, -0.22994, -0.0265217, -0.0910084, -0.00442165, -0.105404, -0.101455, 0.0281432, -0.0155971, -0.0558776, 0.109006, -0.03018, -0.0617568, -0.0760573, -0.0114646, 0.0488072, 0.0897093, 0.0360471, 0.177076, 0.0539703, -0.12327, 0.070358, 0.143498, 0.0712584, -0.0652766, -0.126123, -0.160438, -0.070333, -0.0202549, -0.049345, -0.136059, 0.0789666, 0.0111832, -0.0450542, 0.0463959, 0.0262081, 0.043304, -0.0777136, -0.103137, 0.0378316, -0.0585364, 0.0101957, 0.0757826, 0.130783, -0.037285, 0.12293, 0.0543132, 0.00396046, 0.120036, 0.0906819, 0.1476, 0.103524, -0.144173, -0.104421, -0.0748934, -0.00561449, 0.0389481, -0.127291, 0.201216,
                             0.219191, -0.0279831, 0.180745, -0.0360987, 0.0831257, 0.054371, 0.0716565, -0.0398938, 0.0262758, -0.0376454, -0.140556, -0.149529, -0.151216, -0.0493161, -0.0370605, -0.0504485, 0.0333081, -0.00614776, -0.0350568, -0.0515445, 0.0609743, -0.104167, -0.0164566, 0.0408038, 0.225054, 0.0372858, -0.16015, -0.00533886, -0.0418144, -0.0962096, -0.00544774, 0.0617414, -0.238114, 0.0300047, 0.0239546, -0.0690782, -0.0717816, -0.0710262, 0.0197833, 0.175636, -0.0908199, 0.0121755, 0.0600599, 0.0722669, 0.0405034, -0.102469, 0.136935, 0.193079, 0.0550328, -0.0800368, 0.0260706, -0.0424314, 0.0714461, -0.172336, -0.0450525, 0.169845, 0.11835, -0.139145, -0.0187354, -0.0614345, 0.0422684, 0.0744812, 0.0494947, -0.0443688, -0.0170273, 0.169349, -0.0466905, 0.0493599, -0.0141321, 0.0454145, 0.0980905, -0.103332, 0.0564312, 0.0910275, -0.111547, -0.133762, 0.118845, -0.0613339, 0.117895, 0.0803179, -0.0228975, -0.13859, 0.0169696, -0.0168146, 0.0489834, 0.0642829, -0.0124173, -0.0357418, 0.0510572, 0.0849413, -0.0645391, 0.192281, -0.0386064, -0.0513875, -0.0118835, 0.108328, -0.0727004, -0.00842858, 0.0629059, 0.0517586, -0.0283076, 0.0499769, 6.0508e-05, -0.0929064, 0.0622285, -0.0138488, 0.0072044, 0.0286568, -0.0908203, -0.0911212, -0.095326, -0.0568969, -0.0891747, -0.074757, -0.0073243, 0.00232366, -0.0807018, -0.142025, -0.0495247, 0.115675, 0.126281, 0.0944756, 0.121854, -0.0632741, 0.0352854, 0.00494785, -0.0733636, -0.0282717,
                             -0.0471807, 0.0780602, 0.067651, -0.00399747, 0.0838256, 0.091579, 0.118991, 0.159845, -0.0323454, 0.0115679, 0.0129247, -0.122014, -0.197618, 0.076866, 0.112663, -0.0219242, -0.0813604, -0.0336276, -0.0312397, 0.0112151, 0.137962, -0.0726614, -0.148195, 0.0425976, -0.106037, 0.0575521, -0.209386, -0.102816, -0.0555013, 0.0492222, 0.00601677, -0.139931, 0.0267437, 0.0181182, -0.0177494, 0.00617042, 0.11126, 0.0141227, 0.0170405, 0.0728984, -0.0718478, -0.0268613, 0.0484105, -0.101169, -0.0670317, -0.0100669, -0.0850836, 0.0321062, 0.0335668, -0.0426837, -0.0303675, 0.143104, 0.0215455, 0.0881837, -0.0274268, -0.0773228, -0.25721, -0.0663391, -0.071214, -0.156863, -0.13743, 0.0749465, 0.160257, -0.148452, -0.0981338, 0.0664839, 0.0783496, 0.0248588, 0.0574159, -0.0297665, -0.101013, 0.11495, -0.0703574, -0.0814048, 0.0237713, 0.122317, -0.0132664, -0.0159574, 0.0398424, -0.0474975, -0.015252, -0.0306, -0.00572666, -0.00950949, -0.154517, -0.0164162, 0.0359351, 0.170539, -0.0631444, -0.0861415, 0.0778845, -0.0380039, -0.0199392, -0.0134961, -0.0704799, -0.104566, -0.00571967, 0.0906076, 0.0812798, -0.0139201, 0.192494, 0.106422, -0.171275, -0.0147619, -0.192364, 0.0626157, -0.100421, 0.0127993, -0.0482533, -0.0752021, 0.0402662, -0.00858137, -0.0761033, -0.0809757, 0.00402365, 0.0750802, 0.0630507, 0.0766645, -0.055567, 0.110152, -0.0657576, 0.0670864, 0.10273, -0.136549, 0.143153, -0.0500723, -0.122279, 0.00172198,
                             -0.0566871, 0.0267336, -0.0764919, 0.0415822, -0.0198634, -0.0468711, -0.188723, 0.0307765, -0.101939, 0.0692703, -0.185112, 0.0864704, -0.0447359, -0.0336307, 0.0417152, -0.176291, -0.150416, -0.124773, -0.0631042, -0.0283107, -0.10926, 0.0888504, -0.0543818, -0.128757, 0.0783908, -0.0528779, -0.0844863, 0.00881319, -0.00939236, 0.127777, -0.0563326, -0.0564399, -0.0149809, -0.083868, 0.136395, 0.0216682, -0.0527187, 0.00476326, -0.0667377, 0.139425, -0.0267698, -0.14325, 0.0370036, 0.0741546, -0.0209681, 0.155074, 0.0712073, -0.0926335, -0.121201, -0.0215803, -0.0428815, 0.061304, 0.0582812, -0.0516746, -0.0835579, -0.134056, 0.173462, -0.010411, -0.0588359, -0.0808212, 0.0618338, -0.141261, 0.000991711, -0.0596825, -0.054194, 0.0118019, 0.0269562, 0.104406, 0.0480423, -0.0345601, -0.0145384, 0.0610384, -0.0289928, 0.0487043, -0.13847, 0.0660327, -0.124427, 0.0159819, 0.0460184, 0.101322, -0.000401306, -0.0502831, 0.00529109, 0.0983487, -0.048552, 0.0704529, -0.0883969, 0.0217855, 0.0351961, 0.207037, 0.0326874, -0.213386, 0.101259, -0.055575, 0.0579211, -0.170949, -0.213724, 0.022677, 0.00915632, -0.174969, -0.0426073, 0.00679828, 0.0236457, 0.0995523, 0.0222417, -0.028283, -0.0521964, -0.033111, 0.0035228, 0.131144, -0.184406, -0.101785, -0.0682298, -0.0380327, 0.0288374, 0.0602499, -0.052057, -0.116684, -0.0627109, 0.0666094, -0.0946838, 0.119681, -0.138961, -0.0702337, -0.0207014, 0.112023, -0.0572472, 0.0129383,
                             -0.126783, 0.0513973, -0.134393, -0.0488879, -0.0420843, 0.0426839, 0.01603, 0.0498329, -0.185303, -0.108675, -0.0705831, -0.0290451, -0.0043893, -0.0865864, 0.103881, 0.007784, -0.0216654, -0.186291, -0.00426443, -0.0134136, 0.030966, -0.0230413, -0.0711207, 0.157009, 0.127152, -0.0774546, 0.0971556, -0.0260564, -0.0641516, -0.0204985, 0.0730923, 0.040403, 0.0167233, -0.0288241, 0.126874, -0.0309891, 0.147048, -0.00415539, 0.188537, -0.0534683, -0.137971, 0.0232384, 0.134529, -0.0652712, -0.0929383, -0.0640199, 0.061079, 0.0293173, -0.134448, -0.0873111, 0.113003, -0.0604371, 0.132871, -0.0392985, 0.178741, 0.115077, 0.00167249, -0.0809298, 0.0488662, -0.0439277, -0.0161416, -0.176629, -0.0801509, 0.13539, 0.0533398, -0.169583, 0.108241, -0.0760123, -0.100994, -0.0710181, -0.15095, -0.0977725, -0.0989699, -0.00245673, 0.0266434, 0.0413844, -0.0756126, -0.0255809, -0.024752, 0.00806939, -0.0300617, 0.0613481, -0.0168119, -0.199523, -0.0508373, 0.0329388, 0.0696982, -0.167254, 0.0288731, -0.0831916, 0.10797, 0.0908608, -0.0205778, -0.0784575, -0.0777845, -0.092217, -0.0490138, 0.0611709, -0.00945628, -0.116644, -0.0947981, 0.0743872, -0.0966164, 0.0387277, 0.0611843, -0.116707, -0.0191872, -0.0116897, -0.0748166, 0.00469491, -0.0128852, 0.0577053, -0.0131667, 0.121375, -0.0742135, -0.140923, 0.0772495, -0.10574, 0.0287101, -0.12176, 0.0514213, 0.151574, 0.141779, -0.0293401, 0.111135, 0.00424421, 0.0399403, -0.10444,
                             0.0694541, -0.0157462, 0.014644, -0.000238401, -0.157671, 0.0542846, -0.0332197, -0.0883908, -0.0170617, -0.12547, -0.0580899, -0.0766893, 0.119089, 0.000508463, 0.125101, 0.0688906, 0.172492, -0.0960942, 0.0184816, -0.0290311, 0.0695821, -0.0234954, 0.0603232, -0.163109, 0.0427019, -0.126147, 0.0862844, -0.181545, -0.0315282, -0.00948108, 0.00817394, -0.0222521, -0.0495075, -0.0633951, 0.070611, -0.0100595, -0.118235, -0.0191513, 0.0846512, 0.0472199, -0.0265953, -0.157836, 0.0598839, 0.143067, 0.0231469, 0.015648, -0.0217177, 0.0214111, -0.0165689, -0.00396424, -0.0661483, -0.101547, -0.0185344, -0.0016065, -0.226107, -0.0967597, -0.0449083, 0.0689917, -0.199495, 0.0715293, -0.0181436, 0.120162, -0.168689, -0.00151579, 0.0301021, 0.0883496, 0.0795027, -0.00651064, -0.0748649, -0.0506599, 0.0877796, 0.146579, 0.0408247, -0.00710979, 0.0852014, -0.0133601, -0.101438, -0.120972, -0.0755113, 0.0844826, -0.072036, -0.2409, 0.0747678, -0.191196, 0.0611916, -0.0780835, 0.0934849, -0.045667, -0.0898776, 0.0710111, 0.199925, -0.014347, 0.00484044, 0.197167, 0.176042, 0.0942193, 0.0109674, 0.00883733, -0.0382096, -0.0964796, 0.0493965, -0.0449611, -0.0382973, -0.0067136, -0.094658, -0.021582, 0.0189418, -0.00558651, 0.0330345, -0.0230173, 0.0810549, 0.0418417, 0.0613521, -0.0074317, -0.00966615, -0.0567042, 0.127946, 0.152687, -0.0819671, 0.00813983, -0.0500679, 0.0971117, 0.0370068, 0.0811525, 0.159707, 0.00295554, -0.0931042, -0.0573842,
                             -0.0439732, -0.0149247, 0.0376842, 0.0709547, -0.0586591, 0.0272206, -0.0484545, 0.0981644, -0.0677405, 0.0753209, 0.097579, -0.0454066, -0.0344472, -0.110498, 0.035538, -0.126771, -0.0849037, 0.0480303, 0.123809, 0.0592533, 0.0757445, -0.0762632, -0.0941773, -0.0649331, 0.0244438, 0.00270716, 0.0667587, 0.0458729, 0.0500328, -0.00416601, -0.0961647, -0.0192575, 0.0851338, 0.0526728, -0.110255, 0.0286785, -0.0151436, -0.0292095, -0.0256271, -0.185155, 0.0229153, 0.0043562, -0.0231992, 0.0976879, -0.0657111, -0.00536248, 0.0316259, -0.0374358, 0.166165, -0.0252986, 0.187699, -0.00802376, -0.128059, 0.263272, -0.286598, 0.13705, 0.0176171, 0.0656558, -0.0492855, -0.14978, 0.0485389, 0.080668, 0.0346858, 0.0937914, 0.0932253, 0.105492, 0.0666692, 0.164911, -0.176336, 0.062598, -0.00851466, -0.0908364, 0.0489243, -0.155111, 0.0218692, -0.0614122, -0.0776527, -0.0443631, -0.103316, -0.0441758, 0.0301441, 0.0215586, 0.0650314, 0.0598774, 0.194825, 0.0841462, 0.0599555, -0.0758618, 0.066973, -0.107438, -0.00293655, -0.00394766, -0.178161, 0.0011791, 0.0134599, 0.0181003, -0.140952, 0.0922454, 0.0557791, -0.0543646, 0.0566883, 0.00650717, 0.0111987, 0.0795874, -0.0389343, 0.0127026, 0.0514171, -0.073068, 0.00948937, -0.012598, -0.139916, 0.0812546, -0.124487, 0.0692619, -0.0653068, -0.123497, 0.106621, -0.163029, -0.0727503, 0.0460721, -0.0347416, 0.0658074, 0.0642475, -0.0720662, -0.137242, 0.109557, 0.00548899, 0.0792354,
                             -0.0944182, -0.0292644, -0.0614076, 0.00660456, 0.148873, -0.182656, -0.21993, -0.0729679, 0.031741, 0.0640268, 0.0630142, 0.0567158, -0.106426, 0.0510204, 0.0177448, 0.0663858, 0.0305489, -0.121124, -0.0105004, -0.049984, 0.0220949, -0.00272814, 0.00428204, 0.105471, -0.0260289, 0.0491629, 0.0345785, -0.223054, -0.0255, 0.154128, 0.121526, 0.0385597, -0.0172886, 0.0320456, -0.0169482, -0.0713063, -0.20816, 0.104354, 0.0152399, 0.0721371, -0.0267429, -0.0323896, -0.0785444, -0.05865, 0.117978, -0.0687696, 0.163532, 0.021965, -0.0673119, 0.0128513, -0.0755747, -0.0735013, -0.163485, -0.125797, -0.0941383, 0.215342, -0.163163, 0.122043, 0.0952651, 0.136162, 0.0454822, 0.0731836, 0.105244, 0.0409918, -0.092243, 0.0305582, -0.0202844, 0.217926, 0.134026, 0.0221402, 0.0259496, 0.132445, -0.0457031, -0.115133, 0.0528862, -0.0684352, -0.0527156, 0.0745386, 0.144236, -0.0311631, 0.0689483, 0.0683053, -0.0544593, -0.0100961, -0.055433, 0.00779015, 0.0513825, -0.0512586, 0.162352, 0.0255063, 0.0807075, 0.0472216, -0.0719322, -0.000489791, -0.0678019, -0.128439, 0.0619138, 0.0157675, -0.0327856, 0.129596, -0.0359845, -0.0176912, -0.111228, 0.101824, -0.0846875, -0.111673, 0.141046, 0.0149954, 0.0117001, -0.084855, -0.0362454, 0.104469, -0.0327967, 0.041701, 0.0112522, -0.108432, 0.00754697, 0.0066511, -0.0105753, -0.0341725, 0.0376144, 0.154603, -0.100533, 0.00324402, 0.00219412, 0.0860961, -0.026143, 0.0091778,
                             0.103626, 0.17966, -0.0594015, -0.164785, -0.0578949, 0.0279725, -0.106469, 0.0737755, -0.0653558, 0.129333, 0.033558, 0.0123531, 0.103084, -0.0371492, -0.103545, 0.0324951, 0.0604845, -0.20175, -0.0164065, -0.116875, 0.157878, 0.0694691, -0.092652, 0.0662184, 0.0485385, -0.0646698, -0.0375633, 0.00555343, 0.0139622, 0.226288, -0.122776, -0.0410289, 0.197327, -0.0127507, -0.157545, -0.0305617, 0.0649586, 0.00102326, -0.0433221, 0.157543, -0.0169213, 0.0587747, -0.0116784, 0.0281957, 0.0501921, -0.122974, 0.0689509, -0.0656444, -0.0357997, -0.0569212, -0.0515599, 0.00282529, -0.00850143, 0.150905, -0.00914875, -0.146617, -0.0994395, -0.154613, 0.0799253, 0.0163666, 0.00248391, -0.0198979, 0.0163981, -0.129946, -0.0443372, 0.0709431, 0.0866891, -0.090965, 0.0561313, 0.135686, -0.070676, 0.0892028, 0.0596513, 0.00650415, -0.134713, -0.0432274, -0.0204019, -0.00871182, 0.0421165, 0.0432316, -0.034197, -0.102027, 0.0627942, -0.0792324, 0.265004, -0.0703054, -0.00856706, -0.142007, -0.0251438, -0.0219654, -0.0535568, 0.152701, -0.0158848, -0.046855, -0.0817511, 0.0380285, 0.0833392, -0.0216711, -0.00813478, -0.00949379, 0.0164929, 0.0584924, 0.0629778, -0.119352, 0.00709975, -0.0153714, 0.059827, 0.201814, -0.0683509, 0.0570624, -0.113621, -0.0510139, 0.0797799, -0.0221513, -0.000629145, -0.0411784, -0.0110911, 0.0956187, 0.188188, 0.00811315, -0.109848, 0.0485485, -0.00921335, 0.0506443, -0.134653, 0.0803272, 0.110746, 0.0232042,
                             -0.00981437, 0.145005, -0.112578, 0.00850008, 0.0109123, -0.14022, -0.0182167, 0.127626, 0.075279, -0.014315, 0.0649759, -0.064701, -0.236116, 0.128999, 0.206223, 0.0401696, 0.0413826, 0.13493, 0.092132, 0.0653873, 0.110139, 0.056428, -0.0121932, 0.0747428, 0.0241596, 0.000948549, -0.0222283, 0.0332837, -0.0735124, -0.102605, -0.130798, 0.0314176, -0.0149123, -0.160559, 0.0671818, -0.05877, 0.0257424, -0.00594792, -0.137531, -0.045022, -0.0383921, -0.0799616, -0.0658011, 0.0141096, 0.00114666, -0.0181259, -0.0518431, 0.0773439, -0.0492261, -0.00279401, 0.088068, 0.0405187, 0.187954, 0.0493772, 0.00256255, -0.0825384, -0.168286, 0.182975, 0.0267248, -0.0165919, 0.0498276, -0.0204774, 0.0161952, 0.0568503, -0.0284056, -0.0600569, -0.0677386, -0.0252273, -0.13552, 0.104213, 0.0277076, 0.15944, 0.18469, 0.129269, -0.0722978, -0.159664, 0.0196014, -0.00637846, 0.0498578, 0.103203, 0.0604303, -0.0367659, 0.106021, -0.142692, 0.0559911, -0.0301522, 0.0085367, -0.0955642, -0.0153825, 0.030399, 0.169474, -0.04032, -0.162146, -0.0559685, 0.00597731, -0.0734388, -0.00991523, 0.110562, -0.0296072, 0.0642359, -0.176416, 0.0216455, -0.0465005, 0.0217159, 0.0492909, -0.0138748, -0.0274376, -0.139558, -0.0159257, 0.0440363, 0.0678105, -0.0298708, 0.00738151, -0.12223, -0.143874, 0.0573363, -0.1758, -0.0629044, 0.0161035, 0.0711539, 0.0292892, -0.130926, -0.146474, 0.103444, -0.0947935, -0.0349063, 0.0367781, -0.0838687,
                             0.140685, 0.020253, -0.0968175, -0.0175245, 0.0634212, 0.0850959, -0.156653, -0.143072, -0.0985795, 0.0120345, -0.0173299, -0.137834, -0.105961, -0.0144333, 0.143869, 0.0268443, -0.131015, 0.0772082, -0.00352424, -0.180576, -0.176456, 0.00348014, -0.20415, 0.0710944, -0.149605, -0.176322, -0.115599, -0.02459, 0.0102789, 0.0168907, -0.0858751, -0.019003, 0.0343533, -0.0422918, -0.0305224, -0.118864, -0.0142481, -0.130181, 0.0146724, -0.000362602, 0.0483326, 0.0228184, 0.18913, -0.0890739, -0.102001, 0.0423655, -0.0267614, -0.0267913, 0.164554, -0.000356166, -0.079772, 0.0732317, -0.112376, -0.123751, 0.0927153, 0.033039, -0.00915896, 0.080234, -0.142803, 0.0844487, -0.0931314, 0.0494002, -0.172374, 0.0816365, -0.000432154, 0.0102293, 0.0885333, -0.0375453, -0.0396086, -0.00119136, -0.0385569, 0.0210485, 0.0567906, -0.0701368, 0.101811, -0.0178363, 0.0495915, -0.036599, 0.0766189, 0.00880876, -0.00497979, 0.154864, 0.15669, 0.034952, -0.0369844, 0.0517546, 0.0295683, 0.0483748, 0.163093, 0.036488, 0.142972, 0.0299249, -0.0987528, 0.0769863, 0.0253571, 0.0723238, 0.0624681, -0.0225331, 0.124157, 0.00168516, 0.0442867, 0.00568037, 0.0476437, -0.115065, 0.100768, -0.0010109, 0.0157369, 0.0497099, 0.11407, 0.0630932, 0.0093921, -0.160563, -0.00214181, 0.204495, 0.0565441, 0.100739, -0.102838, -0.0296246, 0.0620111, -0.0463137, -0.0163933, 0.0458766, 0.0468074, 0.097751, -0.186222, -0.0144615, -0.0694627, 0.0165681,
                             -0.0751477, 0.16007, 0.0701011, -0.0155819, 0.18646, -0.0380559, -0.000207338, -0.0923809, 0.084675, -0.0900436, 0.0475643, -0.0677385, 0.168816, -0.174554, 0.0112838, 0.152525, -0.183345, 0.0665502, 0.0644848, -0.0184981, -0.0220702, -0.0162063, 0.062434, 0.0105643, 0.0156084, 0.0421481, 0.0853443, 0.0267391, 0.0351742, 0.0569275, -0.121104, 0.033453, 0.0162043, 0.0814823, -0.0615482, -0.0627648, 0.0761804, 0.083538, 0.14, 0.0432871, 0.142357, -0.0847975, 0.105017, 0.0631713, -0.00133366, -0.0158333, 0.137972, 0.0607436, 0.0185618, 0.0177952, -0.172911, 0.0369711, 0.0734674, -0.00347766, -0.0812128, -0.0980976, -0.0220209, 0.188241, 0.0862172, -0.132714, -0.0273067, -0.0426213, -0.0623993, 0.0348882, 0.0908498, 0.216428, -0.0649624, 0.0891724, 0.0808723, -0.150457, -0.140504, -0.0320427, 0.0776456, -0.0970617, -0.00317501, 0.177049, -0.0803264, -0.030706, -0.0670997, 0.0802912, -0.0621696, 0.024951, -0.0672389, 0.0438864, 0.140686, -0.0294815, -0.114207, -0.102021, 0.0780474, 0.0168696, 0.112449, 0.031658, 0.0819094, -0.107261, -0.0922477, 0.050606, 0.105602, 0.16006, 0.050072, 0.0976095, -0.076662, -0.00266377, -0.00441969, 0.0175948, 0.0179526, 0.0955014, -0.0862926, -0.160764, -0.0725084, 0.0526524, 0.00261868, 0.0368651, 0.10387, -0.05842, 0.0553842, 0.0849052, -0.113195, -0.0891731, 0.0698441, 0.0540114, 0.0673605, 0.0510199, 0.0370839, 0.032203, 0.17074, -0.106797, -0.0426299, 0.0371929,
                             -0.0316196, 0.147739, -0.00685128, 0.01935, -0.0340804, -0.0271895, -0.0607973, 0.0483036, 0.125815, 0.0194955, 0.0877431, -0.0334561, 0.0295354, 0.0279991, 0.0371641, -0.000984897, -0.00920095, 0.112416, 0.00241412, -0.0237333, 0.203367, -0.140496, -0.173652, 0.0298673, 0.0687327, 0.116269, 0.0264686, 0.00784909, 0.22466, 0.157951, 0.0074362, 0.0693884, -0.129664, -0.0291829, 0.122839, 0.170193, -0.00431025, -0.0896846, -0.113464, -0.154246, -0.126167, -0.0498587, 0.0404949, 0.0543993, -0.0953838, 0.0146264, -0.041617, 0.029786, -0.183947, -0.0603327, -0.138006, -0.207834, -0.0401786, 0.0248647, 0.117421, 0.0990947, 0.0388004, -0.0076622, -0.0666202, 0.0636329, 0.0503955, -0.00342485, -0.112242, 0.0105192, 0.198653, 0.152344, 0.0810909, 0.104507, 0.130123, 0.193058, -0.151545, 0.0359513, -0.0115399, -0.00541871, 0.0587801, -0.0258978, 0.0352568, 0.0440005, -0.00445544, 0.00368726, 0.125512, -0.0502385, 0.0141375, 0.0459794, -0.0730974, -0.0694582, -0.00361861, 0.128512, -0.00570964, 0.046247, -0.12524, -0.0812397, -0.034357, 0.0362166, -0.0241022, 0.000366746, 0.102973, -0.0325838, 0.0455312, 0.00830032, -0.0344867, -0.124029, 0.00857541, 0.0490138, 0.0567568, 0.024873, -0.1222, -0.0504218, -0.0804481, 0.147364, -0.0624237, -0.187814, -0.0292798, 0.00528287, 0.0677077, -0.0599674, 0.139597, 0.0551424, 0.0861004, 0.00419405, 0.0484594, -0.00722445, 0.0968612, 0.0275753, 0.0156959, -0.0334484, -0.0349122, -0.164754,
                             0.0559133, -0.0317119, 0.0152182, 0.119798, -0.0431667, 0.0872386, 0.123677, -0.0716255, 0.00970054, -0.0581078, 0.273243, -0.0702695, 0.000408189, 0.0632653, -0.124474, -0.0363464, 0.0360266, 0.0619099, -0.0349769, -0.0209418, -0.1434, -0.055515, -0.0232895, 0.180049, 0.0371826, -0.00786102, -0.096941, -0.0888315, -0.0548214, 0.0244162, 0.0324266, 0.102306, -0.00438564, -0.114075, 0.11167, 0.0504092, -0.0716483, -0.0598756, -0.0719213, -0.0672557, -0.080615, 0.0432178, -0.0735897, -0.182413, -0.0243602, -0.0248714, 0.259367, 0.00237048, 0.0273485, -0.052823, -0.0653217, -0.0221521, 0.213924, 0.04097, -0.0474178, -0.169818, 0.0130683, 0.0508693, -0.0303191, -0.00735917, 0.117458, -0.0828323, 0.00231773, 0.0168823, 0.0636084, -0.0870074, 0.155967, 0.0537107, 0.00125686, -0.0729378, -0.101218, 0.00136644, 0.074434, -0.0843788, 0.0701693, -0.0403706, -0.128987, -0.121987, -0.0687893, -0.0736936, 0.0160395, -0.0291936, -0.0911349, -0.0401212, -0.0362143, -0.053342, -0.168981, 0.00182828, 0.122093, 0.0139956, -0.0192185, 0.103449, 0.127799, -0.00886186, 0.0994758, 0.0616008, 0.0074821, -0.0563148, -0.0626967, -0.0767826, 0.117926, 0.0948055, -0.0978009, -0.0234913, -0.180205, -0.0541043, -0.0288648, -0.0375407, -0.00755011, -0.0583011, -0.123478, -0.0347951, -0.107232, -0.0180451, 0.137046, -0.0512104, -0.0300385, -0.00861132, -0.0437096, 0.136606, 0.00155489, -0.0833096, -0.0601012, 0.232122, -0.0825707, 0.0868652, 0.11956, 0.0997066,
                             -0.0688015, -0.00706773, -0.111295, 0.0542855, 0.0428692, 0.0278238, 0.0436993, -0.0242946, 0.0898593, 0.0644335, -0.0973728, 0.0388583, -0.0645462, 0.143594, -0.13341, 0.0646049, 0.0375291, 0.0143317, 0.036513, -0.149441, 0.149113, 0.040414, -0.0870667, -0.0794501, 0.0665567, 0.0675835, -0.0234703, 0.105806, -0.0541745, 0.0837212, -0.0178458, 0.121006, 0.0251683, -0.00112193, -0.131732, 0.0913045, -0.131525, 0.0245553, -0.0185385, -0.0938701, -0.0478379, -0.128845, 0.193146, -0.112176, 0.13495, -0.0826499, 0.047061, 0.0361017, -0.0369919, -0.124657, -0.00023302, 0.0123545, 0.0363027, 0.101572, -0.00735619, 0.0277306, 0.0295326, -0.0258956, -0.114328, -0.031928, 0.0264159, 0.162349, 0.0512781, 0.0871091, -0.132518, 0.210713, -0.0784294, -0.063338, -0.174949, -0.102121, 0.0716026, -0.143581, -0.0696929, 0.228415, 0.157499, 0.0744981, -0.0062758, 0.00952282, 0.0293245, -0.0521052, -0.0129048, 0.0278323, -0.10411, -0.0143179, -0.0970544, -0.0355041, -0.0742419, 0.123533, -0.0381561, -0.0264329, 0.130157, 0.0370786, 0.0950688, -0.0936083, 0.134498, -0.0509128, 0.108742, 0.0222575, 0.00490783, -0.110842, 0.0321748, 0.0536258, 0.0478603, 0.0766857, 0.0546796, -0.0358842, 0.0410978, -0.159966, 0.0110561, 0.0120444, -0.0630372, -0.0219733, 0.133756, 0.131545, -0.0889624, -0.0715417, -0.114651, 0.0298104, 0.0586443, -0.020708, -0.173354, 0.0987366, 0.00210246, -0.00967043, -0.0657403, -0.0948038, 0.178962, 0.0788844,
                             -0.096388, 0.0550565, 0.0164322, 0.273225, -0.0210978, -0.140551, -0.145798, -0.0871879, 0.0707398, -0.152786, -0.0484852, -0.00550147, 0.0699243, 0.0323963, -0.0308872, -0.149073, 0.155696, 0.0131792, 0.0394351, -0.133014, -0.0057406, -0.0348331, 0.095638, -0.114007, -0.188651, -0.0557399, 0.000983293, 0.149547, -0.0590679, 0.131967, -0.0615253, -0.126215, -0.137228, 0.149009, -0.037491, 0.105944, 0.124121, 0.0917344, -0.0139214, -0.067323, -0.0393509, 0.247814, 0.136838, -0.0812254, -0.0397226, -0.0843269, -0.0936807, 0.0375325, 0.0261824, 0.0463874, -0.0947525, 0.0329328, 0.0216258, -0.00012487, 0.00815011, -0.00925819, -0.124527, 0.0276965, 0.0112353, 0.111352, 0.0596836, 0.00639559, 0.0647962, -0.0151282, -0.0778473, -0.0277357, 0.054827, 0.0558171, -0.0426955, -0.0666642, 0.0389857, 0.00790191, 0.0999963, 0.0275634, 0.00517128, -0.0882789, -0.0723052, 0.0148581, 0.0223912, 0.0533168, -0.0352188, -0.0436599, 0.043069, -0.110377, 0.0858781, 0.0941342, 0.0673452, 0.144625, -0.163191, 0.0193096, 0.0894498, 0.12638, 0.0803322, -0.21138, 0.00308442, -0.00308001, -0.0342923, 0.00347895, -0.0146739, -0.0479057, -0.138917, -0.0689395, 0.0871999, -0.0115949, -0.0536376, -0.0959826, -0.124288, 0.0834743, -0.0820211, -0.0215177, -0.0130908, -0.00155335, -0.221592, 0.0690698, 0.152785, -0.0443943, 0.0028849, -0.102788, 0.0461626, 0.0289239, 0.0498957, -0.0313022, 0.0634886, -0.00374068, -0.00253681, 0.0347265, -0.0803146, 0.0310101,
                             -0.110769, 0.127828, -0.0216407, 0.0192957, -0.0911611, 0.0634905, -0.0428071, 0.0095632, -0.0811117, 0.047314, -0.066991, -0.076484, 0.0562858, 0.141445, -0.031336, 0.0445894, -0.0568685, 0.0294343, 0.00824851, 0.0957427, 0.0639892, 0.18002, -0.0280778, 0.0535097, 0.102672, 0.0297196, -0.0354912, -0.0805327, -0.0337814, -0.117121, -0.0484727, -0.0773656, -0.13222, 0.0685618, 0.0222526, 0.0359534, 0.0593065, 0.044107, -0.0367358, 0.00496027, 0.129044, 0.0936542, 0.000280565, -0.107836, -0.107961, 0.108675, 0.0916501, -0.119871, -0.0203234, 0.0474107, -0.158528, 0.00754962, -0.15011, -0.000690812, -0.0390094, -0.119947, 0.0757474, -0.0385996, -0.0165373, -0.0434682, 0.220679, 0.0607158, 0.050989, 0.00073941, -0.0938361, 0.0250842, 0.108197, -0.0590228, 0.068966, 0.0908869, 0.154749, -0.182989, -0.0476471, -0.041087, 0.123826, 0.000607364, -0.131075, -0.0970693, -0.00346769, 0.0594267, 0.0118423, 0.0302321, 0.0977905, -0.13502, -0.0752119, 0.213604, 0.124334, -0.00626291, -0.00308012, -0.115461, -0.107951, 0.0454642, -0.0852658, 0.0509704, -0.0771277, 0.0728495, 0.106861, -0.0268563, -0.0260063, 0.0901307, 0.0739693, -0.139479, 0.00960573, -0.0357118, -0.00761654, -0.0233548, -0.0825258, -0.146766, -0.0513301, -0.0561605, 0.114946, -0.18193, 0.049181, -0.11693, -0.109141, -0.0746728, -0.157677, -0.0833075, 0.016136, -0.0589737, 0.0301654, 0.120275, -0.138939, 0.0243183, 0.143363, 0.15346, 0.0628841, 0.0361564,
                             -0.0722547, 0.151199, 0.130738, 0.0296092, 0.0571336, 0.0785711, -0.00134117, -0.0448229, 0.123173, -0.0836958, -0.111731, 0.0695838, 0.0966537, 0.0657141, -0.129406, -0.0371287, 0.108707, 0.0392347, -0.005087, 0.103436, 0.14744, -0.0110821, -0.102258, -0.0293183, 0.00669883, -0.0625312, -0.073343, -0.163265, 0.0253792, 0.00143599, -0.0374282, -0.0953982, -0.0381603, -0.0141972, 0.166519, -0.0523685, -0.067525, 0.138326, 0.0114388, -0.0934182, 0.253842, -0.0398436, 0.0954602, -0.117543, -0.0916011, -0.107611, 0.0625587, -0.0119573, 0.0978, -0.165136, 0.0689387, -0.102111, 0.0241349, 0.0175264, 0.023112, 0.0493686, 0.142861, -0.0535684, 0.0421175, -0.115248, -0.223606, -0.0499973, 0.0281728, 0.0606549, -0.0290165, -0.0478657, -0.0520273, -0.040901, -0.0556026, 0.0266063, -0.00851929, 0.0841984, 0.153569, -0.142559, -0.196615, 0.0173903, -0.00290683, -0.10784, 0.0581111, -0.0155229, -0.128092, 0.0544849, -0.00828334, 0.052579, -0.074062, 0.0746121, 0.121921, -0.0373899, 0.0557149, 0.0334384, 0.00899202, -0.118333, 0.00254543, 0.00568242, -0.0259101, -0.0860145, 0.0366612, 0.0220573, -0.0436568, -0.0797703, 0.00665927, -0.111765, 0.0953743, 0.024619, -0.00721416, -0.138254, 0.0929469, -0.00693471, -0.0549608, -0.012945, 0.0867088, 0.02788, -0.0896566, -0.130272, 0.0774736, -0.00162186, 0.0100882, 0.170098, -0.00674939, -0.0325315, 0.0578829, 0.0861392, -0.0222638, 0.0651478, -0.241848, -0.18131, 0.0716632, 0.0245387,
                             0.101579, 0.0190517, 0.0100328, -0.095331, -0.0408722, -0.0816024, 0.00306791, 0.120597, -0.107204, -0.0912229, -0.0812145, 0.0702104, -0.0554111, -0.0979769, 0.00316502, 0.0605335, -0.0631386, -0.0132319, 0.113658, 0.0267065, -0.142765, 0.049453, -0.144936, 0.0476094, -0.17029, 0.0104764, 0.194874, -0.0910428, -0.147573, 0.0587912, -0.019533, -0.0120951, -0.0616254, -0.0675376, 0.0464485, 0.186099, -0.115166, -0.0117844, 0.00409804, 0.0252316, -0.127191, 0.0590275, -0.152073, -0.048665, 0.106817, -0.172813, 0.0264766, -0.0598683, 0.0520081, -0.126213, -0.0183501, -0.0850885, -0.0298872, 0.0636466, -0.0648994, -0.0199931, -0.0252494, -0.0356186, -0.0186432, -0.0294015, 0.0790626, 0.0801959, -0.060247, -0.000178366, 0.114953, 0.0428389, -0.0681583, -0.205612, -0.043546, -0.0290191, 0.00523143, -0.0958535, 0.0949791, 0.110012, -0.0844404, 0.206793, -0.19735, 0.0793223, -0.0269182, 0.0949878, 0.099683, 0.097137, 0.158757, 0.0549369, -0.112811, 0.0961642, -0.0199801, 0.00929409, 0.0483855, 0.100641, 0.0156981, -0.00204684, 0.0238442, -0.0719331, 0.0347088, -0.016967, 0.0951226, -0.120901, 0.131009, 0.0448587, -0.00976734, -0.118244, 0.0297817, -0.160799, -0.0972276, 0.0355896, 0.144465, -0.065962, -0.201434, -0.0319176, 0.101809, 0.0728609, -0.0699669, 0.0029356, 0.0486556, -0.00721265, 0.0580633, -0.00192227, 0.0215949, 0.142801, 0.0602033, -0.0790954, -0.031185, -0.146183, -0.023343, -0.0547726, -0.0504702, -0.0523233,
                             -0.0525816, -0.079792, -0.108115, -0.00805539, -0.14286, -0.00189099, -0.118151, -0.0749303, 0.0125159, -0.0314104, 0.0712452, -0.0752683, 0.0275623, -0.100316, 0.048423, -0.0769214, 0.00341254, -0.0239715, 0.0733079, -0.11892, 0.0964103, 0.039705, -0.0572414, -0.0333227, 0.130617, 0.117966, 0.0762782, 0.0387167, -0.0401956, -0.00282939, 0.122348, -0.101998, 0.0125928, -0.0402204, -0.0956775, 0.0891969, -0.0738172, -0.143585, -0.118345, 0.0813379, 0.148071, -0.0491312, 0.0279473, 0.252992, -0.0235711, 0.00451492, -0.00731768, 0.0464919, -0.0425503, -0.154032, -0.000665665, 0.00604161, 0.065959, -0.0537304, 0.16918, -0.0526964, -0.0525299, 0.0143876, 0.0492415, 0.0247002, 0.0176292, 0.0439526, -0.0401074, -0.0275239, 0.077598, -0.210729, -0.0153262, 0.0828049, 0.0284794, -0.0841157, 0.148579, 0.137838, 0.112138, -0.0698598, -0.0170997, -0.0454309, 0.108814, -0.0870758, 0.00465076, 0.0634718, -0.0512262, 0.16436, -0.0479763, 0.0548868, -0.00539299, -0.068389, -0.0340675, 0.053937, 0.0725762, -0.0431809, -0.0440809, 0.0128376, -0.0498947, -0.0499403, 0.0540586, -0.0293627, 0.23215, 0.0661705, -0.0255088, -0.163583, 0.186208, 0.00241946, 0.0432479, -0.165172, -0.117714, -0.0242996, 0.0174782, -0.114134, -0.0782617, -0.0208211, 0.0130853, 0.0264689, -0.177641, -0.0363291, -0.07689, 0.0487846, -0.0885705, -0.0574889, 0.0280185, -0.0966511, 0.0656206, -0.0176294, 0.0407068, -0.233456, 0.113823, -0.0209037, 0.0832988, 0.188206,
                             -0.190148, 0.0908888, -0.0861469, -0.0762537, -0.0207413, -0.129281, 0.0791271, 0.0405023, -0.0755039, -0.0401098, -0.00623751, 0.0144069, 0.0285186, -0.0108381, -0.00352681, -0.141866, 0.0728972, 0.0648766, 0.0797925, -0.0524664, 0.132168, -0.00238526, 0.0053263, -0.00965291, -0.0577874, -0.103481, -0.146851, -0.126157, 0.0609347, 0.025473, 0.0516587, 0.0275669, 0.0240809, -0.0458425, -0.00548883, 0.167709, 0.0301262, -0.0230481, 0.181656, 0.124937, -0.194112, -0.0943895, 0.0355146, 0.0617049, 0.178093, 0.0598141, -0.0503032, 0.166291, -0.0017554, -0.0176999, -0.0589539, 0.0827352, -0.166613, -0.0857596, -0.221608, 0.14713, 0.0815398, -0.0226019, 0.0671863, -0.014865, -0.00263737, 0.0140634, -0.0383806, -0.0533872, 0.00889487, -0.0771481, -0.0502604, -0.167284, 0.0047527, 0.0349635, -0.0733345, 0.065022, -0.037972, -0.041807, 0.00191984, -0.0066461, -0.0531883, -0.0577869, -0.216215, -0.0416873, 0.0954736, 0.208509, -0.00833346, -0.0363418, 0.00307121, 0.018572, 0.0614681, -0.0287751, 0.0349776, 0.0184931, -0.0325703, 0.017005, -0.0238218, -0.109398, 0.134672, 0.037952, 0.0551515, -0.00964329, 0.0551152, -0.0510235, 0.0442488, 0.114061, 0.0816295, 0.0850192, 0.136666, 0.108252, -0.141742, 0.0754114, 0.067441, -0.103655, -0.0056044, -0.0700574, -0.00460902, -0.198798, 0.100521, 0.0143092, -0.138945, -0.00203001, -0.0664585, -0.0673795, 0.129442, -0.10967, 0.0205083, 0.125836, -0.0567498, 0.00709377, 0.0397083, 0.14446,
                             -0.0139952, -0.00952344, 0.0549253, 0.326384, -0.0133693, -0.0369358, 0.0284687, 0.124186, 0.03473, 0.0983067, -0.092924, -0.0827529, -0.0719406, 0.0451782, 0.0349106, -0.00473825, -0.0129362, 0.0161675, 0.0584142, -0.0286458, 0.012827, 0.0474418, 0.0260714, -0.0438438, 0.115479, -0.084909, 0.0400528, -0.10478, 0.0476073, 0.0821536, -0.0521072, 0.113041, 0.100492, 0.0514012, 0.191627, -0.0637616, 0.0521351, 0.0312652, -0.0580166, 0.0511455, 0.181205, -0.0208047, -0.164963, 0.0243123, 0.0805875, 0.0269612, -0.0414913, -0.0168414, 0.0290478, -0.182035, 0.127031, 0.050179, -0.153013, -0.112367, 0.0646873, 0.0370829, -0.0981215, 0.0617692, 0.0384317, -0.0182682, 0.0224765, 0.0463065, -0.144734, -0.0649997, 0.071425, 0.0823886, -0.0854391, 0.0204283, 0.0244592, -0.044417, -0.152471, -0.125204, 0.029379, -0.0147634, 0.0373288, 0.00373034, 0.0599246, 0.0568806, -0.0973661, 0.0881068, -0.0478656, -0.134917, -0.014243, -0.219676, -0.0602231, -0.0173738, 0.0971599, 0.0378883, 0.0324987, 0.0245504, -0.032617, -0.0611536, 0.182913, -0.112686, 0.0520345, 0.0277087, -0.0860639, -0.0326785, 0.0794776, 0.0888333, 0.149422, 0.0436711, -0.101922, -0.199672, 0.0205951, 0.0371053, -0.0667348, -0.00570634, -0.047271, -0.119233, -0.084175, 0.088788, -0.0108596, 0.0558861, 0.0472065, 0.111781, 0.0349642, -0.0284074, 0.157883, -0.252228, -0.0176584, -0.0359011, -0.0635483, 0.000424269, -0.0846049, 0.0705691, 0.101777, -0.0196757,
                             0.0166185, 0.0522139, 0.0711973, 0.0796545, 0.0624094, -0.0505446, -0.0446786, 0.0208528, -0.00641796, 0.0316356, -0.111114, -0.0904091, 0.111757, 0.0365067, 0.100002, 0.0831153, 0.0391427, -0.0292969, 0.0670881, -0.126085, -0.0679594, -0.109501, -0.157555, 0.0245292, -0.0330459, 0.201136, -0.152328, 0.00706895, 0.0866136, 0.0629547, 0.164662, -0.0168068, -0.0224336, 0.0251592, -0.0406632, 0.101446, 0.168344, -0.0378988, 0.0172826, 0.0384957, -0.0655662, 0.0141293, -0.129489, 0.0626088, -0.020546, 0.0402399, -0.190425, -0.105113, -0.0715427, -0.0973448, 0.0628095, 0.0480474, -0.0499047, 0.00266565, -0.00926466, -0.117908, -0.0105547, 0.055893, 0.213283, -0.13588, -0.0509492, -0.0457858, 0.0285793, 0.304245, -0.000102795, 0.0930195, -0.0243991, 0.101494, -0.138732, -0.0607472, -0.00824145, -0.0448644, -0.065313, 0.0611465, 0.0154744, -0.0497969, -0.0317941, -0.108872, 0.119725, -0.0663837, -0.0813087, 0.0544905, 0.0960993, 0.0777568, 0.0802006, -0.0768797, -0.0653964, -0.073049, 0.105022, -0.00124588, -0.0112069, 0.0611351, 0.0511267, 0.0140933, 0.114427, -0.0498062, -0.155624, -0.196418, -0.0671912, -0.0436368, 0.0736024, -0.0894421, 0.08046, -0.130257, 0.0054824, -0.118585, 0.0323342, 0.0147771, 0.0847691, -0.105996, 0.011601, 0.0155555, 0.0632199, -0.062039, -0.0483673, -0.137199, -0.103682, 0.14579, -0.0116788, 0.0166806, 0.0896214, -0.0289582, -0.116187, 0.110045, 0.123902, -0.0164083, -0.11152, -0.0544478,
                             0.0918676, 0.15409, -0.0599774, 0.0698069, -0.0629494, 0.221707, 0.153134, 0.00711202, 0.125187, -0.131576, -0.0822236, 0.0476116, 0.120498, -0.0499862, 0.116276, 0.0305401, -0.0108655, -0.191986, 0.156239, 0.0425915, 0.0828236, -0.176415, 0.116058, 0.0847479, -0.091169, -0.0039778, -0.0121906, -0.0759559, -0.105786, 0.00179115, -0.0423802, 0.0576441, -0.0121289, 0.0290622, -0.0229083, 0.219004, 0.0828373, 0.0280389, -0.0883018, 0.00157016, -0.0930647, -0.0502257, 0.0229812, 0.0310027, 0.106052, 0.0840057, 0.00513143, -0.16095, -0.0502704, 0.0126944, 0.0145258, 0.0817878, 0.102709, 0.0155795, -0.039214, 0.240953, 0.0621345, 0.0925175, 0.129135, 0.103068, 0.0327809, -0.0035679, -0.0478265, -0.0348576, -0.145056, -0.0451744, 0.118089, 0.144095, 0.0442546, 0.0859376, 0.0528174, -0.0780811, 0.0516507, -0.0974754, 0.015299, 0.14695, 0.132117, -0.003199, -0.0222897, 0.00745041, -0.0377845, -0.0692746, 0.123571, 0.127328, -0.0723213, -0.0187455, 0.0636745, -0.00515084, -0.0415368, 0.109433, 0.0986414, 0.0836125, 0.0947664, 0.0294766, -0.0981743, -0.141648, 0.0371724, 0.00321676, -0.0566161, 0.0716117, 0.087055, -0.0848016, -0.0329365, -0.0667166, 0.0269103, -0.0145722, 0.101922, -0.00248569, 0.0705135, 0.0359475, -0.0213841, -0.0633, 0.0298018, 0.049229, -0.139124, 0.185043, -0.0521245, -0.104278, -0.0724397, 0.0272864, -0.0219481, -0.0585518, 0.031179, 0.0464979, -0.0948548, 0.0737059, 0.0854708, 0.0893884,
                             0.114179, 0.123401, -0.0261861, 0.0580201, -0.00728275, 0.0429381, 0.0709054, -0.057974, -0.0197981, 0.0476024, 0.169284, 0.0286099, -0.0263064, 0.103144, -0.0697793, -0.0689554, 0.134291, 0.00632892, 0.00249994, -0.127319, -0.0299555, -0.130431, 0.128913, -0.0440408, 0.103952, 0.00865236, -0.103355, -0.00899198, 0.0264806, 0.222683, -0.0365764, 0.010901, -0.0203943, 0.0520197, 0.0257875, -0.0176343, 0.177965, 0.0489738, 0.0568371, 0.0135815, -0.00898777, -0.126267, 0.0044594, -0.0235168, 0.083594, -0.0729497, -0.06799, 0.0116455, 0.00392099, 0.16269, 0.025693, -0.0920975, -0.00609576, 0.0847087, -0.137355, 0.045367, 0.00760543, 0.0773813, -0.0371713, -0.07903, 0.017447, -0.0436046, -0.0781739, 0.012507, 0.183451, -0.126615, 0.0219426, -0.0407651, -0.0369123, -0.180016, 0.0227752, -0.0357931, 0.0913567, 0.0877713, 0.0158369, -0.061717, -0.0681962, 0.130698, 0.186806, -0.0254664, -0.0266482, 0.138023, 0.0453065, -0.15383, -0.107764, 0.0831005, -0.0639854, -0.0808813, 0.0363388, 0.0147035, -0.0951906, -0.121143, 0.0653617, 0.203585, -0.222574, 0.0529809, 0.0666584, -0.0950505, 0.00381952, -0.0577689, -0.00162249, -0.0346102, 0.0514916, 0.0649087, -0.127121, 0.161717, 0.116425, 0.0313341, 0.0041565, -0.0545582, -0.0179589, -0.0526967, -0.0625108, -0.0551676, -0.148871, 0.077976, -0.157787, -0.086864, 0.0177442, -0.125111, -0.0945451, 0.0710721, 0.0162533, -0.169012, -0.0249411, -0.0664993, -0.116572, -0.0579396,
                             0.0973085, 0.150654, 0.00804699, -0.127061, -0.0144874, 0.0108234, 0.121693, -0.00391593, -0.295956, -0.0990509, 0.0157001, -0.200997, -0.0967348, 0.0416309, 0.0378919, 0.0637623, 0.0124231, 0.0759289, -0.122775, -0.0278311, -0.0832938, 0.0652021, 0.164285, -0.082801, 0.182613, 0.00999503, -0.0353682, 0.0224514, -0.0819256, 0.0668883, -0.0831583, -0.105433, -0.0503937, -0.0116903, -0.069777, 0.13503, 0.0762914, 0.221283, 0.0191238, -0.0973771, 0.0457951, 0.123511, -0.0151902, 0.195739, 0.0160444, -0.0268795, -0.0462684, 0.0439073, -0.1224, 0.0348455, -0.0736129, -0.0141441, -0.142544, 0.0652617, 0.0459869, 0.0448042, 0.0581091, 0.0435418, -0.0582899, 0.0493758, -0.0298272, -0.0354148, 0.077899, 0.0327109, -0.0271301, 0.0539376, 0.00123773, 0.00169531, -0.00540209, 0.0763268, -0.0167935, 0.0437327, 0.0636168, 0.172871, -0.043964, 0.0642971, 0.0635062, -0.0463566, 0.0157458, -0.12672, -0.0241625, 0.0790406, -0.0456755, 0.21736, -0.0150855, -0.0700117, 0.0878644, 0.0242612, 0.10041, 0.0911328, 0.0778736, 0.0468152, 0.1098, 0.0162018, -0.0360284, 0.0661511, 0.031693, 0.0903615, 0.0598675, -0.0420741, -0.0652629, 0.0150597, -0.174743, -0.0491934, -0.0875855, -0.00462339, -0.09792, -0.105073, 0.0588384, -0.021626, -0.0438964, 0.107068, -0.129865, 0.0619638, 0.0432722, -0.0493047, 0.0859764, 0.113442, -0.0649253, -0.144826, 0.0638568, 0.0440102, -0.159319, 0.0516894, -0.115563, 0.0854382, 0.121237, -0.0493858};


const float dense_W[256] = { -0.0176401, -0.3041, -0.065036, 0.23643, 0.00427793, 0.103284, -0.459947, -0.229185,
                             -0.368999, -0.332752, 0.15929, 0.599205, -0.0737431, -0.327238, 0.261397, -0.337215,
                             0.0892304, 0.160086, -0.0341843, -0.264774, -0.00457948, 0.19253, -0.401169, -0.16719,
                             0.0882984, -0.404342, 0.287472, 0.0892419, -0.0247571, -0.09523, 0.297106, -0.179904,
                             0.163682, -0.268618, 0.0794898, 0.577081, 0.147539, 0.252565, 0.254594, -0.16961,
                             -0.258307, 0.117669, 0.027733, 0.170235, 0.0306151, 0.387347, 0.388063, -0.30385,
                             -0.368311, -0.452656, 0.31092, 0.254624, 0.0923127, -0.252188, -0.0944352, 0.24217,
                             0.00276458, 0.379371, -0.336765, 0.102926, 0.283746, -0.215359, 0.0458449, -0.201524,
                             -0.203677, 0.167363, 0.143519, -0.655575, -0.249602, 0.213882, -0.151572, 0.00123571,
                             0.343032, -0.34075, 0.0817906, 0.454082, 0.0483159, 0.0896775, -0.2637, -0.337658,
                             -0.102988, 0.407047, 0.24673, -0.259534, 0.352176, 0.0964197, -0.20083, 0.100395,
                             -0.314523, 0.172458, 0.0661472, 0.111116, -0.26601, -0.173811, 0.37056, 0.269827,
                             -0.214049, 0.363435, 0.0388405, 0.00849421, -0.366236, 0.297373, 0.0782616, -0.297002,
                             0.193894, 0.3157, -0.45646, -0.483455, 0.167393, -0.485987, 0.374446, 0.026205,
                             0.322436, -0.0943572, 0.206242, -0.494976, 0.198421, 0.0133637, 0.0703506, -0.130955,
                             0.0493212, -0.570555, 0.0946184, 0.318548, 0.272726, 0.1746, -0.143604, 0.210979,
                             -0.00494274, 0.557435, 0.149744, -0.693788, -0.349541, 0.0504565, 0.117202, 0.0897071,
                             0.152805, -0.472114, -0.324377, 0.861126, -0.417908, 0.214897, 0.290046, -0.310954,
                             0.0250549, -0.412998, 0.220952, 0.0639474, -0.249518, -0.315835, 0.246142, 0.371947,
                             0.287107, -0.125904, 0.0715939, -0.387644, -0.0110099, 0.461656, 0.45482, 0.161439,
                             -0.173169, 0.142107, 0.534606, 0.177814, -0.135199, 0.302926, -0.0824225, -0.265098,
                             -0.0105059, -0.272882, -0.288637, 0.258305, -0.0840569, 0.246328, -0.0813655, 0.264711,
                             -0.262227, 0.496878, 0.0827522, -0.00417655, 0.0652451, 0.0921693, 0.196019, -0.281119,
                             -0.0437784, 0.367516, -0.227424, -0.509357, 0.20291, 0.175652, -0.126858, 0.39913,
                             -0.173741, -0.284222, -0.414582, 0.533318, -0.0983106, 0.22281, -0.302951, 0.24697,
                             0.376337, 0.125977, 0.382303, -0.518097, 0.0638172, -0.320986, 0.292326, 0.213777,
                             -0.118877, -0.0381628, -0.380679, 0.16333, -0.102043, 0.160228, 0.415322, -0.288224,
                             -0.185797, -0.220988, 0.00345984, 0.456253, 0.329734, -0.115563, 0.0415384, 0.212517,
                             -0.250299, -0.377322, -0.518769, 0.206799, 0.0839097, -0.193833, -0.249775, 0.281887,
                             -0.198817, -0.327732, -0.158446, 0.626857, -0.208564, -0.00729195, -0.0975682, 0.346139,
                             0.272321, -0.478148, 0.250496, 0.250403, -0.347611, 0.0468247, 0.271029, -0.239063,
                             -0.202594, 0.46935, 0.163276, -0.900549, 0.0565361, 0.0394198, 0.0141088, -0.296228};


const float dense_b[8] = {-0.0321169, 0.100461, -0.0973799, 0.0883526, 0.0320447, 0.00517749, -0.087226, -0.09602};


const float dense_1_W[8] = { -0.502254,
                             0.492393,
                             -0.803098,
                             0.626003,
                             -0.333782,
                             -1.02643,
                             -0.584208,
                             -0.736677};


const float dense_1_b[1] = {0.114167};



#ifdef __cplusplus
}

#endif
#endif
