/*************
* neural_net_params.h
*
* Neural Network Parameters
* Code Generated using nn4mc
* Hardware Plateform: ESP-32
*
* This file defines the weights used by the neural network implementation.  Weight representations were
* created automatically using nn4mp.
*/

#ifndef __NEURAL_NET_PARAMS_H__
#define __NEURAL_NET_PARAMS_H__

#ifdef __cpluscplus
extern "C" {
#endif



// weight name needs to contain whether it is a weight or a bias
const float W_conv1d_1_W[8] = {-0.0155577, -0.0546991, 0.0462611, 0.00435567, 0.00928311, 0.141622, -0.0159417, -0.0996591};


// weight name needs to contain whether it is a weight or a bias
const float W_conv1d_1_b[32] = {  -0.264959,  0.289063,  0.27963,  0.237889,  2.0464,  -0.206677,  0.222902,  0.247445,
                                                                                                   0.583891,  0.735192,  -0.149053,  0.331579,  1.84095,  0.0240065,  -0.683514,  -0.232186,
                                                                                                   -0.391674,  0.7604,  0.380066,  -0.473754,  1.75641,  0.0348862,  0.246955,  -0.226962,
                                                                                                   0.0556019,  0.880818,  -0.565578,  -0.116668,  1.82383,  -0.296523,  0.290829,  0.0617717};


// weight name needs to contain whether it is a weight or a bias
const float W_dense_1_W[20] = {0.108853, -0.0639452, 0.106576, -0.0562088, 0.202217, 0.0890996, -0.027112, 0.0482515, -0.151479, 0.0761147, -0.102045, 0.400281, -0.0626615, 0.0331639, 0.0528612, 0.0326952, -0.263437, -0.0230289, 0.167111, -0.0132495};


// weight name needs to contain whether it is a weight or a bias
const float W_dense_1_b[31520] = { 0.219941, 0.143271, -0.353415, 0.23391, -0.321432, -0.189536, -0.0369775, -0.154707, 0.187227, -0.0737294, 0.126024, -0.175314, 0.0957066, -0.25721, -0.27702, 0.0796721, 0.243365, 0.0301667, -0.211883, 0.45055,
                                                                                                    0.1062, 0.0497336, -0.114972, 0.152848, 0.331146, 0.00187438, -0.108934, -0.0708587, -0.318003, -0.0752369, -0.228974, 0.828427, 0.22534, -0.0145248, -0.0468314, 0.0485509, 0.0943299, 0.0264088, 0.332451, 0.458884,
                                                                                                    -0.405063, 0.0270086, 0.137977, -0.289568, 0.288175, 0.375271, -0.00886668, 0.0323262, -0.159628, 0.0452581, -0.00729962, 0.0964614, 0.173166, 0.184666, 0.138859, -0.0751393, -0.0709136, 0.00558, 0.147796, -0.274962,
                                                                                                    0.112717, 0.222318, -0.23475, 0.072088, -0.288156, -0.139735, 0.026068, -0.0581087, 0.225965, -0.00567668, 0.0353476, -0.289312, 0.210297, -0.13092, -0.167105, 0.134172, 0.105428, 0.0965958, -0.383225, 0.272903,
                                                                                                    0.164756, 0.283761, -0.0826598, 0.0541523, 0.349453, 0.0495458, 0.102165, -0.0292274, 0.225374, 0.183116, -0.011088, 0.88891, 0.407096, 0.0618802, 0.059027, 0.112412, 0.0557387, 0.0576527, 0.407419, 0.356225,
                                                                                                    0.117832, -0.118566, -0.0070367, 0.0204962, 0.260905, 0.133533, -0.0698148, -0.0791537, -0.359286, -0.0167593, -0.103804, 0.618228, -0.00589143, -0.0816203, -0.0681848, -0.0118626, -0.0145675, -0.0010518, 0.168238, 0.215957,
                                                                                                    -0.0350585, -0.151759, -0.0108928, 0.00624148, 0.346684, 0.215506, -0.19216, -0.00984544, -0.608664, -0.0739987, -0.37196, 0.764136, 0.130904, 0.0986224, 0.0245412, -0.0996742, 0.158955, -0.106373, 0.451161, 0.275365,
                                                                                                    -0.264144, -0.0196972, -0.0656481, -0.101191, -0.336266, 0.0161356, -0.0405942, 0.0215154, 0.0850648, 0.116769, 0.0235888, -0.316785, -0.104724, 0.136034, 0.120875, -0.0274165, 0.0311573, -0.0523132, 0.174724, -0.0449484,
                                                                                                    -0.273837, 0.134215, -0.0371507, -0.149398, -0.0650142, 0.205477, 0.00295922, -0.0132236, 0.136363, -0.0595715, 0.149022, -0.232955, 0.149429, 0.204319, 0.139083, -0.0869486, 0.148667, -0.157555, 0.0573597, -0.198836,
                                                                                                    0.131493, -0.00396752, -0.124109, 0.122705, 0.355717, 0.0969473, -0.178171, -0.0676088, -0.376833, -0.15937, -0.27495, 0.806735, 0.11389, -0.00528714, 0.0473444, -0.0606302, 0.217456, 0.0269921, 0.387683, 0.420904,
                                                                                                    0.28387, 0.0696955, -0.266086, 0.302152, -0.162963, -0.319998, -0.0221459, -0.0739938, 0.0453429, -0.0223264, 0.0892558, 0.0310727, 0.150878, -0.327796, -0.409527, 0.125957, 0.061429, 0.172866, -0.322499, 0.393227,
                                                                                                    -0.0918281, 0.209191, -0.0980976, -0.0351795, -0.126666, 0.0198622, -0.0206688, -0.140536, 0.187443, 0.0340848, 0.0834199, -0.139835, 0.149738, 0.0747737, -0.0406413, 0.0290307, 0.0167094, 0.0720238, -0.136714, 0.149165,
                                                                                                    0.160729, 0.254265, 0.0105798, 0.0996661, 0.298205, 0.0186797, 0.0995357, -0.0227958, 0.31971, -0.0867355, -0.0333712, 0.825708, 0.359028, -0.0364498, -0.0319672, 0.0540164, 0.092631, 0.0768405, 0.379984, 0.376443,
                                                                                                    0.144204, -0.126412, -0.0346735, 0.0419822, 0.299686, 0.0905556, -0.0514991, -0.0280692, -0.330507, -0.110517, -0.138965, 0.710611, -0.0110419, -0.023655, -0.0276335, 0.0132129, -0.0140435, -0.0691714, 0.151004, 0.250757,
                                                                                                    0.187702, -0.128182, -0.244367, 0.141951, 0.274412, -0.0629366, -0.0798, -0.215167, -0.662177, -0.138693, -0.312023, 0.829633, -0.0502922, -0.0421626, -0.104594, 0.00727924, 0.213111, -0.121748, 0.317448, 0.461103,
                                                                                                    -0.153624, -0.0757592, -0.0998861, -0.0705919, -0.36833, -0.00541149, -0.00467503, -0.0102296, 0.124476, 0.0516306, -0.0308368, -0.282103, -0.0735069, 0.0819755, -0.0133978, 0.0172685, 0.0399704, -0.0157416, 0.252793, -0.065347,
                                                                                                    -0.0380053, 0.17408, -0.172411, 0.175487, -0.234798, -0.124857, -0.0627587, -0.0278015, 0.215718, -0.039702, 0.15259, -0.299606, 0.115836, -0.091617, -0.0876769, -0.0414804, 0.456346, -0.11125, -0.15332, 0.164124,
                                                                                                    -0.00838182, -0.148416, -0.0671858, -0.00730349, 0.459806, 0.191462, -0.146073, -0.114201, -0.354233, -0.201781, -0.235779, 0.91984, 0.0419963, 0.0900555, 0.0916374, -0.149949, 0.135192, -0.104983, 0.503899, 0.284324,
                                                                                                    -0.0345006, 0.0933272, -0.0570368, 0.137817, -0.029345, 0.0454979, -0.0357509, 0.068624, 0.0828663, 0.0329442, 0.0651161, 5.62927e-05, 0.136569, -0.105883, -0.0902567, 0.141088, 0.0793523, 0.0412704, -0.219852, 0.0852296,
                                                                                                    -0.0367099, 0.233389, -0.0642543, 0.115274, -0.308828, -0.0923901, 0.026698, 0.105266, 0.376272, 0.0105141, 0.159258, -0.344642, 0.163445, -0.0422173, -0.0812338, -0.000711902, 0.233438, 0.0598059, -0.433417, 0.17755,
                                                                                                    0.126468, 0.196307, 0.0775991, 0.0627576, 0.408868, 0.101339, 0.0488714, -0.00449776, 0.188092, -0.122135, -0.07402, 0.924773, 0.292963, 0.0390196, 0.0815303, -0.0413483, 0.125795, -0.0187177, 0.479539, 0.255775,
                                                                                                    0.0611266, -0.226847, 0.0575975, 0.0626507, 0.259791, 0.137361, -0.0354032, -0.123035, -0.451919, -0.0857563, -0.0427284, 0.639285, -0.0405732, 0.0102278, 0.0562761, 0.0211499, -0.0399561, -0.00857573, 0.211231, 0.198849,
                                                                                                    -0.041183, -0.241535, -0.0972566, -0.0117642, 0.467446, 0.229364, -0.124123, -0.227421, -0.839016, -0.213514, -0.360983, 0.995732, -0.0981856, 0.134744, 0.17176, -0.0817004, 0.201401, -0.222005, 0.573687, 0.298203,
                                                                                                    -0.181387, -0.0714951, -0.125042, -0.0306976, -0.290641, -0.0414731, 0.0229292, -0.0476502, 0.0215084, 0.0187874, -0.00709071, -0.259024, -0.0361777, 0.106035, 0.0360127, 0.0428883, 0.0105999, -0.0842026, 0.250569, -0.071344,
                                                                                                    -0.227251, 0.129264, -0.0911351, -0.047608, -0.120575, 0.0698283, 0.0580442, 0.0351556, 0.18944, -0.0698224, 0.070747, -0.238536, 0.109417, 0.0715279, 0.0168356, -0.0499168, 0.373601, -0.0464963, -0.041206, 0.0190167,
                                                                                                    0.0212276, -0.155878, 0.0529887, -0.0310014, 0.410782, 0.143113, -0.175353, -0.219842, -0.385093, -0.333614, -0.233599, 0.893011, -0.020703, 0.0995187, 0.103663, -0.21377, 0.19916, -0.16768, 0.514669, 0.261971,
                                                                                                    0.00173774, -0.0948602, -0.147505, 0.00187287, -0.00412877, 0.0136548, -0.01381, -0.107205, -0.0660051, 0.030695, 0.0530532, 0.0874125, 0.059488, -0.0911053, -0.173261, -0.0777652, 0.232158, 0.0145136, -0.159233, 0.112063,
                                                                                                    0.0465202, 0.216333, -0.00597498, 0.190735, -0.416077, -0.207271, 0.097174, 0.143994, 0.428652, 0.0737162, 0.212695, -0.4775, 0.225392, -0.195927, -0.129373, 0.0615673, 0.380469, 0.0314456, -0.46458, 0.234472,
                                                                                                    0.0357313, 0.143897, 0.0186679, 0.051482, 0.396069, 0.200235, 0.151976, -0.127973, 0.136711, -0.276412, -0.0759549, 0.97905, 0.282048, 0.0926894, 0.100678, -0.114551, 0.16593, -0.0275393, 0.489694, 0.26437,
                                                                                                    0.14177, -0.179918, 0.0295438, 0.0125592, 0.373265, 0.166442, 0.0016543, -0.118515, -0.449155, -0.0791933, -0.085965, 0.661402, -0.0521758, 0.0976819, 0.0362754, -0.0101126, 0.0449007, -0.100576, 0.166175, 0.177716,
                                                                                                    -0.00173645, -0.298079, -0.103834, -0.0334622, 0.462397, 0.118848, -0.201358, -0.216509, -0.72442, -0.263747, -0.39946, 0.967976, -0.126182, 0.106352, 0.0321243, -0.23359, 0.243283, -0.228989, 0.530329, 0.325222,
                                                                                                    -0.102689, 0.0127437, -0.125403, 0.0281019, -0.369488, -0.155876, -0.055786, 0.00270104, 0.0856409, 0.0695591, 0.0368267, -0.343151, -0.0216967, -0.0691996, -0.0350449, 0.0790921, 0.118134, 0.0252921, 0.147591, 0.0512612,
                                                                                                    -0.184318, 0.0444176, -0.11104, -0.0730174, -0.129467, 0.0763104, -0.0657333, -0.0612526, 0.182606, -0.0169902, 0.0941443, -0.169937, 0.0364952, 0.00667197, 0.0226653, -0.0538225, 0.235489, -0.108501, -0.0572359, 0.00493018,
                                                                                                    0.042617, -0.171235, -0.049914, 0.0187807, 0.454996, 0.19151, -0.162326, -0.165849, -0.394614, -0.293289, -0.247427, 0.970794, -0.114435, 0.159489, 0.0598078, -0.128355, 0.117719, -0.125652, 0.473355, 0.324704,
                                                                                                    -0.0651152, -0.0347874, -0.012571, -0.0750045, 0.128189, 0.0812111, -0.00828457, -0.0900665, -0.133311, -0.0499098, -0.095594, 0.137707, 0.0249688, -0.047349, -0.0273998, -0.00185479, 0.185388, -0.0877867, -0.0898934, -0.0810695,
                                                                                                    -0.224407, 0.135776, -0.0462651, -0.0916895, -0.201264, 0.0695943, 0.0540517, -0.135445, 0.213776, 0.0586444, 0.125035, -0.258125, 0.159016, 0.119192, 0.0154321, -0.230558, 0.304545, -0.160272, -0.130936, 0.00123961,
                                                                                                    0.00231009, 0.113973, 0.00270013, -0.0351808, 0.425373, 0.202742, 0.0528598, -0.0940153, 0.168628, -0.353571, -0.0691695, 0.931971, 0.194727, 0.139971, 0.164727, -0.0968727, 0.0923231, -0.0448968, 0.512843, 0.310685,
                                                                                                    0.0846128, -0.220038, 0.114706, -0.0214929, 0.350072, 0.259436, 0.0198763, -0.0792207, -0.447023, -0.13557, -0.149396, 0.718468, -0.0917855, 0.12729, 0.108543, -0.134354, 0.0428663, -0.155816, 0.25629, 0.174984,
                                                                                                    -0.0251929, -0.266448, -0.0765052, 0.0317519, 0.356606, 0.167884, -0.10365, -0.0828954, -0.692203, -0.1796, -0.316994, 0.880078, -0.177968, 0.0895396, -0.0067385, -0.0464481, 0.205928, -0.123593, 0.426335, 0.39092,
                                                                                                    -0.0373823, 0.0228867, -0.136296, -0.0422351, -0.410636, -0.0680062, 0.0394016, 0.0120326, 0.139264, 0.07602, -0.0345138, -0.268835, -0.104013, -0.0323925, -0.110665, 0.0154131, 0.108292, -0.0585442, 0.170289, 0.00177442,
                                                                                                    -0.114275, 0.189322, -0.104257, 0.0252603, -0.0836244, 0.0703083, 0.0121403, -0.0515025, 0.233182, -0.0596625, 0.0838252, -0.263763, 0.0974776, -0.0119231, 0.0522247, 0.00206502, 0.248653, -0.125796, -0.131783, 0.0294188,
                                                                                                    -0.0466747, -0.0941098, 0.0136572, 0.0465757, 0.390722, 0.255721, -0.222877, 0.0161811, -0.379788, -0.376184, -0.331476, 0.916601, -0.0884634, 0.142768, 0.134646, 0.0137103, 0.174284, -0.0220093, 0.532261, 0.273631,
                                                                                                    0.162009, -0.260111, -0.261076, -0.0384026, -0.0814024, -0.115931, 0.00504949, -0.315299, -0.214102, -0.0655465, -0.128517, 0.337189, 0.0220365, -0.192612, -0.328798, -0.303705, 0.295733, -0.279295, -0.0323644, 0.257168,
                                                                                                    -0.152711, 0.0365175, -0.0840829, -0.177649, -0.171444, 0.111568, 0.00747252, -0.251297, 0.109915, -0.0223324, 0.0814058, -0.0986071, 0.135779, 0.0482974, 0.067227, -0.12815, 0.217018, -0.230397, -0.195508, -0.0525203,
                                                                                                    0.0151662, 0.16531, 0.02826, 0.0295452, 0.484665, 0.30559, 0.0623296, -0.0459787, 0.155706, -0.543818, -0.0457317, 0.902101, 0.212488, 0.12401, 0.172831, 0.0977036, 0.119649, -0.00401609, 0.574962, 0.233255,
                                                                                                    0.116529, -0.261137, 0.0886328, 0.00583941, 0.304119, 0.21959, -0.0970288, -0.108718, -0.381663, -0.095389, -0.161639, 0.684171, -0.187408, 0.0454236, 0.12587, -0.0558373, -0.0205105, -0.0596967, 0.225082, 0.0826588,
                                                                                                    -0.0485283, -0.195732, 0.0503478, 0.0494449, 0.459487, 0.253456, -0.148923, -0.0263797, -0.73115, -0.249965, -0.304519, 0.854926, -0.250699, 0.216322, 0.161268, 0.00858594, 0.204173, -0.0620757, 0.531926, 0.238822,
                                                                                                    -0.0758291, -0.0650716, -0.151128, -0.0578697, -0.361713, -0.0932166, -0.0724943, -0.0639534, 0.107371, 0.0548638, -0.0312724, -0.325582, -0.0370254, 0.0145028, -0.0428189, -0.0548936, 0.1385, -0.0566202, 0.0921032, -0.0757373,
                                                                                                    0.0581672, 0.0427089, -0.1962, 0.0286786, -0.24905, -0.101142, 0.0274632, -0.157154, 0.1823, -0.092943, 0.10511, -0.226171, 0.051995, -0.0938065, -0.171611, -0.0777208, 0.349809, -0.0333045, -0.142648, 0.308839,
                                                                                                    -0.00837183, -0.132555, 0.00718773, 0.0688337, 0.374304, 0.226466, -0.219685, -0.0304543, -0.371999, -0.268922, -0.317474, 0.84446, -0.101954, 0.114826, 0.139273, 0.0881862, 0.126941, 0.0491024, 0.502359, 0.341637,
                                                                                                    -0.294867, 0.137572, 0.119761, -2.17577e-05, 0.175969, 0.319245, -0.0563987, 0.087195, -0.0670116, -0.0753329, -0.0763793, -0.091811, 0.024378, 0.106327, 0.103349, 0.131272, 0.19708, 0.0284193, -0.0653923, -0.175568,
                                                                                                    0.130748, 0.0184047, -0.229233, -0.0954287, -0.270688, -0.20391, -0.0686916, -0.259209, 0.0867244, 0.0125204, 0.072552, -0.0650777, 0.170242, -0.154957, -0.220222, -0.178846, 0.353218, -0.301121, -0.212279, 0.207085,
                                                                                                    -0.052958, 0.13151, 0.0529612, -0.00505725, 0.434729, 0.260529, 0.0606484, -0.01964, 0.226663, -0.490592, -0.0252294, 0.952946, 0.0985782, 0.190455, 0.183965, 0.00835823, 0.0784347, 0.0746541, 0.506186, 0.291825,
                                                                                                    0.0429037, -0.201655, 0.129447, -0.0256238, 0.28289, 0.232042, -0.0101712, 0.0338703, -0.38164, -0.15808, -0.160867, 0.606145, -0.169556, 0.116946, 0.118618, -0.00570258, -0.0518217, -0.00578184, 0.270653, 0.0939048,
                                                                                                    -0.137721, -0.267464, 0.0748627, 0.0170145, 0.450729, 0.285979, -0.149766, -0.000488803, -0.712608, -0.232797, -0.361192, 0.886632, -0.313849, 0.19375, 0.151968, 0.02773, 0.21211, -0.0604944, 0.534254, 0.26584,
                                                                                                    -0.0786679, -0.00879234, -0.114044, -0.116614, -0.278934, -0.165461, -0.0212462, -0.0602135, 0.0389862, 0.0855005, -0.00940043, -0.179162, -0.0484542, -0.0616743, -0.0726296, -0.100543, 0.11502, -0.0101456, 0.0681314, -0.0388097,
                                                                                                    -0.2996, 0.257256, -0.0182491, 0.0342441, -0.147507, 0.225014, 0.058223, 0.067442, 0.29645, -0.0240795, 0.0868027, -0.452109, 0.13201, 0.117307, 0.124453, 0.173945, 0.336038, 0.105984, -0.0796551, -0.185324,
                                                                                                    -0.13692, -0.108203, 0.0642944, 0.12136, 0.409226, 0.345631, -0.11602, 0.172148, -0.271477, -0.314945, -0.306248, 0.834505, -0.123715, 0.208143, 0.210293, 0.0035034, 0.108694, 0.120046, 0.618148, 0.266753,
                                                                                                    0.222928, -0.258945, -0.342875, 0.00746935, -0.131203, -0.181943, -0.023855, -0.275323, -0.244054, -0.0506039, 0.0264733, 0.31951, -0.112748, -0.259921, -0.344652, -0.053295, 0.313582, -0.111611, -0.0999825, 0.408332,
                                                                                                    -0.204455, 0.278736, 0.032206, 0.0309475, -0.220118, 0.231978, -0.052838, 0.0485881, 0.266967, 0.0118127, 0.0369865, -0.411042, 0.10608, 0.0928784, 0.0315885, 0.105312, 0.278356, 0.0289959, -0.212102, 0.0455971,
                                                                                                    -0.0876967, 0.224063, 0.0814534, -0.00326978, 0.432188, 0.269424, 0.0639419, 0.0857292, 0.272108, -0.496039, -0.0644283, 0.877684, 0.154065, 0.101876, 0.237998, 0.118537, 0.0402748, 0.125952, 0.52478, 0.278406,
                                                                                                    0.0308972, -0.190387, 0.0680377, -0.00121492, 0.269826, 0.234165, -0.0214671, -0.00098, -0.34277, -0.062886, -0.132935, 0.564911, -0.177757, 0.128003, 0.121411, -0.0233765, -0.0197147, -0.053214, 0.290337, 0.164682,
                                                                                                    0.00467982, -0.296235, 0.0117771, 0.0487914, 0.394125, 0.120502, -0.104604, -0.0352249, -0.672546, -0.205288, -0.331858, 0.976053, -0.300012, 0.0691392, 0.121969, -0.169863, 0.167317, -0.155794, 0.580091, 0.331375,
                                                                                                    -0.0690635, -0.079603, -0.127708, -0.0361084, -0.261237, -0.11608, -0.0216344, -0.124601, 0.0204378, 0.0750667, 0.014185, -0.15454, -0.0261899, -0.0252835, -0.077763, -0.0612136, 0.129089, -0.01941, 0.0565226, 0.0233392,
                                                                                                    -0.0195764, 0.0696221, -0.116716, 0.0498738, -0.190997, -0.153781, -0.0323282, -0.179596, 0.0987218, -0.069535, 0.0610013, -0.151954, 0.0255962, -0.0344672, -0.12106, -0.135266, 0.302508, -0.0707162, -0.159006, 0.121978,
                                                                                                    -0.0755365, -0.162368, 0.0986456, 0.0239485, 0.400585, 0.359851, -0.171107, 0.0395628, -0.255616, -0.405596, -0.239012, 0.883077, -0.159203, 0.194819, 0.283101, -0.033317, 0.15794, -0.0161093, 0.583968, 0.26727,
                                                                                                    -0.0359205, 0.130737, -0.00266211, 0.156993, -0.0861478, 0.0751544, 0.0456279, 0.235332, 0.189994, -0.0179638, -0.0231466, -0.146184, 0.141696, -0.149288, -0.109552, 0.138981, 0.238194, 0.14396, -0.228507, 0.0822503,
                                                                                                    -0.115196, 0.15998, -0.141482, 0.0318155, -0.23765, 0.0309601, 0.0458806, -0.0634197, 0.215263, -0.199469, 0.118276, -0.262784, 0.102164, -0.0816805, -0.0799788, 0.0862554, 0.321241, 0.000660863, -0.27514, 0.146282,
                                                                                                    -0.0178198, 0.202254, 0.0967182, 0.0271124, 0.464561, 0.363206, 0.00951207, 0.0975615, 0.314207, -0.530769, -0.0423264, 0.803596, 0.143797, 0.224988, 0.174364, 0.0149089, 0.085811, 0.0315908, 0.632162, 0.1595,
                                                                                                    0.0208993, -0.159735, 0.120962, -0.0588542, 0.245232, 0.280316, -0.00540448, 0.0044461, -0.321528, -0.156687, -0.112366, 0.634994, -0.232886, 0.0968077, 0.0847055, 0.00381915, 0.0181303, 0.044207, 0.317614, 0.153689,
                                                                                                    -0.263339, -0.161407, 0.147437, 0.0678001, 0.470662, 0.483216, -0.12463, 0.101974, -0.551176, -0.2516, -0.415646, 0.773225, -0.293108, 0.284775, 0.296727, 0.0657751, 0.17958, -0.00630089, 0.645477, 0.115931,
                                                                                                    -0.113528, -0.0289169, -0.0568605, -0.0683143, -0.255013, -0.137058, -0.0341492, -0.0305293, 0.0767574, 0.09932, 0.00710817, -0.295261, -0.022634, 0.0257261, -0.0588285, -0.00215907, 0.160104, -0.0207416, 0.0823791, -0.0787393,
                                                                                                    -0.112648, 0.210511, -0.0781146, 0.150398, -0.219685, 0.0572473, 0.0118157, -0.00606553, 0.318435, -0.0939527, 0.0533798, -0.280258, 0.118637, -0.0503411, -0.0961064, -0.0627626, 0.330536, -0.00863929, -0.142846, 0.105363,
                                                                                                    -0.0970955, -0.186958, 0.0669942, 0.0928077, 0.438986, 0.295976, -0.122321, 0.0607002, -0.315808, -0.393538, -0.237374, 0.855643, -0.184746, 0.171818, 0.149545, -0.050004, 0.162017, -0.033759, 0.64594, 0.2325,
                                                                                                    -0.346506, -0.204726, 0.143298, -0.324466, 0.258012, 0.366371, -0.0399803, -0.0430325, -0.0876886, -0.000308256, -0.0388428, 0.106944, -0.0564783, 0.267086, 0.19099, -0.165302, 0.217055, -0.130594, 0.0819997, -0.302054,
                                                                                                    0.0286199, 0.126662, -0.137057, 0.127451, -0.341589, -0.0968673, 0.113501, -0.00925251, 0.310967, -0.0819021, 0.0185534, -0.325662, 0.125375, -0.145496, -0.0514685, -0.0896074, 0.243679, 0.0914759, -0.375791, 0.130334,
                                                                                                    -0.0322182, 0.175819, 0.108148, 0.110168, 0.421778, 0.23703, 0.0651209, 0.0817603, 0.222674, -0.496151, -0.054753, 0.831042, 0.111053, 0.198632, 0.127512, -0.0218941, 0.0314767, -0.000893202, 0.527813, 0.263261,
                                                                                                    0.000994636, -0.235351, 0.0867016, -0.0384692, 0.355161, 0.247446, -0.0650003, 0.0572417, -0.373168, -0.161798, -0.162065, 0.607619, -0.149786, 0.178997, 0.0837682, -0.0582793, -0.0805796, 0.00246984, 0.275693, 0.155738,
                                                                                                    -0.0059966, -0.275132, -0.125192, 0.116065, 0.331311, 0.240162, -0.141384, -0.0799351, -0.652821, -0.308325, -0.304726, 0.87573, -0.2716, 0.125184, 0.150451, -0.119895, 0.132027, -0.0643511, 0.643329, 0.323311,
                                                                                                    0.00978322, -0.0608977, -0.192762, 0.0225828, -0.3833, -0.126696, -0.0259027, -0.0165942, 0.058462, 0.0614157, 0.0363598, -0.244897, -0.0967478, -0.0929941, -0.186116, -0.0237285, 0.155305, 0.01992, 0.0341488, -0.00319628,
                                                                                                    -0.373786, 0.0323047, -0.0183041, -0.180793, -0.0140924, 0.228677, -0.0416702, -0.07931, 0.109367, -0.00355692, 0.0566676, -0.219481, 0.023596, 0.181828, 0.179851, -0.0497606, 0.341968, -0.113251, 0.0760985, -0.148511,
                                                                                                    -0.0159858, -0.0777445, 0.0256367, 0.13361, 0.382823, 0.291958, -0.130046, -0.00462046, -0.261239, -0.294836, -0.263108, 0.821648, -0.167533, 0.0811715, 0.212213, -0.0776803, 0.167574, 0.101208, 0.610698, 0.350039,
                                                                                                    -0.0236993, 0.124261, -0.0535731, 0.18057, 0.0166853, -0.00350087, -0.0194631, 0.0833091, 0.10148, -0.0706156, -0.0693258, 0.0179858, 0.0439437, -0.0308044, -0.148251, 0.108955, 0.132671, -0.112927, -0.147592, 0.101663,
                                                                                                    -0.477674, 0.113694, 0.199135, -0.257613, 0.0418285, 0.356323, 0.00283008, 0.107234, 0.322586, -0.0143427, 0.0796096, -0.348826, 0.11528, 0.370922, 0.278545, -0.0974936, 0.20758, -0.139679, -0.0533746, -0.270393,
                                                                                                    -0.0120795, 0.21846, 0.033192, -0.00354877, 0.405399, 0.220773, 0.0433544, 0.0615423, 0.33783, -0.455992, -0.0523657, 0.808498, 0.0916409, 0.103824, 0.170395, -0.131867, 0.0580554, 0.0431041, 0.532882, 0.295721,
                                                                                                    0.0445382, -0.243631, 0.03413, 0.00242043, 0.26271, 0.201491, -0.085913, 0.0318512, -0.371504, -0.125541, -0.0796896, 0.673755, -0.182801, 0.0568456, 0.169519, -0.0958471, -0.0985241, 0.0421128, 0.318525, 0.0874796,
                                                                                                    0.094958, -0.224028, -0.155759, 0.197851, 0.238294, 0.0820758, -0.0829016, -0.0892894, -0.565932, -0.187425, -0.319759, 0.908158, -0.302664, 0.0526545, 0.0146058, -0.176027, 0.104324, 0.0373067, 0.509121, 0.434001,
                                                                                                    -0.10577, 0.0195311, -0.084672, -0.120012, -0.230877, -0.0520195, -0.0140404, -0.0780397, 0.0953713, 0.0597642, -0.024746, -0.237046, -0.0763885, -0.0643015, -0.0821084, 0.0234435, 0.157859, 0.0322247, 0.088538, -0.0108337,
                                                                                                    0.014099, 0.18369, -0.216478, 0.149441, -0.210839, -0.189096, -0.0155968, -0.0580033, 0.275584, -0.0381686, 0.0739129, -0.296628, 0.0611666, -0.105242, -0.144619, 0.03893, 0.210569, 0.0134197, -0.254998, 0.342774,
                                                                                                    0.0155536, -0.0947189, -0.0880767, 0.105625, 0.385411, 0.189729, -0.100078, 0.00871814, -0.286591, -0.295532, -0.219929, 0.792222, -0.157892, 0.0939246, 0.164946, -0.19796, 0.149941, 0.118525, 0.577314, 0.344394,
                                                                                                    -0.228382, -0.0682967, 0.00586857, -0.123084, 0.228057, 0.194304, -0.136953, -0.140522, -0.0904948, -0.0228041, -0.0662346, 0.134029, 0.0234737, 0.11312, 0.119786, -0.0764285, 0.111754, -0.0529011, 0.0688845, 0.0272797,
                                                                                                    -0.153749, 0.17932, 0.0492335, 0.0726314, -0.160947, 0.0918908, 0.0203379, 0.0875824, 0.195585, -0.0607117, 0.0876769, -0.312871, 0.0885177, 0.108492, 0.125097, 0.181047, 0.296185, -0.12508, -0.191582, 0.0296734,
                                                                                                    0.0456112, 0.102725, 0.0303708, 0.0213936, 0.424088, 0.198655, 0.119315, 0.0527762, 0.31019, -0.513481, -0.0382322, 0.882774, 0.149465, 0.0921065, 0.188355, -0.0947601, 0.0324019, 0.0440791, 0.526697, 0.202017,
                                                                                                    0.093167, -0.188436, 0.0661453, 0.00866018, 0.296695, 0.149534, -0.0711713, 0.0418522, -0.385774, -0.0851038, -0.099501, 0.574429, -0.152134, 0.0984392, 0.00920238, 0.0127336, -0.10627, 0.0138109, 0.207168, 0.14914,
                                                                                                    -0.107948, -0.31911, 0.0175176, -0.00915007, 0.370103, 0.361734, -0.0769657, -0.00330487, -0.627288, -0.19083, -0.332316, 0.865825, -0.335807, 0.159395, 0.188111, -0.261455, 0.191839, -0.069602, 0.639114, 0.122693,
                                                                                                    -0.163347, -0.0568492, -0.0604726, -0.0991917, -0.251848, -0.00222163, -0.0394669, -0.115446, 0.0798569, 0.0733385, -0.0296229, -0.210564, -0.0993806, 0.0195197, -0.00142885, -0.0364777, 0.0880568, -0.00482884, 0.167476, -0.165283,
                                                                                                    -0.0463752, 0.061013, -0.15824, -0.0436794, -0.178084, -0.059434, -0.050375, -0.096913, 0.177069, -0.0659738, 0.0402679, -0.177622, 0.0695362, -0.0447178, -0.0615995, -0.145884, 0.319495, 0.0526143, -0.0751209, 0.180339,
                                                                                                    0.0755405, -0.179404, -0.0576011, 0.0881642, 0.26055, 0.166273, -0.104708, 0.0402337, -0.234505, -0.308473, -0.131691, 0.880667, -0.166194, 0.0154316, 0.0123481, -0.170515, 0.166841, 0.0331737, 0.531845, 0.245443,
                                                                                                    -0.0754905, 0.122691, -0.106752, 0.211365, 0.0210631, -0.00818609, 0.0163463, 0.0455576, 0.0101654, -0.0236501, -0.0262985, 0.0240144, -0.00774332, -0.0237852, -0.1872, 0.1161, 0.229571, 0.125185, -0.133008, 0.14934,
                                                                                                    -0.0216551, 0.212742, -0.176507, 0.132857, -0.220823, -0.0939935, -0.0438636, -0.138465, 0.185645, -0.138364, 0.0477999, -0.226007, 0.130956, -0.0528695, -0.106792, -0.0137708, 0.272775, 0.0567838, -0.282023, 0.371339,
                                                                                                    0.0785876, 0.199097, -0.0446482, 0.0523932, 0.321891, 0.185837, 0.0372761, 0.0229444, 0.297859, -0.463422, 0.0503997, 0.866555, 0.199035, 0.0715064, 0.0881342, -0.136329, 0.0411477, 0.0587183, 0.495499, 0.283827,
                                                                                                    0.0969922, -0.191012, -0.0558254, 0.087458, 0.193537, 0.153629, -0.0229347, 0.0948116, -0.307812, -0.116637, -0.121722, 0.634358, -0.168201, 0.0131993, 0.0448933, -0.0576773, -0.0222631, 0.0872401, 0.25405, 0.0816213,
                                                                                                    0.12642, -0.263267, -0.0986604, 0.126586, 0.324079, 0.128314, -0.119357, 0.0824856, -0.582212, -0.232547, -0.296638, 0.866373, -0.234006, 0.0994108, 0.0878234, -0.15952, 0.12699, -0.100634, 0.502772, 0.317315,
                                                                                                    -0.121494, -0.0408676, -0.0618044, -0.0342514, -0.306658, -0.118701, 0.0339846, -0.15116, 0.012425, 0.0844117, -0.0814969, -0.124894, -0.0230183, -0.0236232, -0.0969766, 0.0726026, 0.125962, -0.0601721, 0.131817, 0.0335779,
                                                                                                    -0.189956, 0.125008, -0.113585, -0.0458303, -0.189027, 0.0456811, -0.0352557, -0.0622397, 0.212691, -0.0440876, 0.0497607, -0.268876, 0.102435, 0.0721578, 0.0202344, -0.0436291, 0.399253, -0.0154074, -0.174063, -0.0463372,
                                                                                                    0.0766826, -0.270899, -0.105286, 0.0847299, 0.314779, 0.059502, -0.0817369, 0.01061, -0.284117, -0.391525, -0.141897, 0.908384, -0.132883, 0.093969, 0.0426964, -0.253069, 0.0872572, -0.0300318, 0.579629, 0.259205,
                                                                                                    0.0893085, 0.118825, -0.0755143, 0.191218, -0.114113, -0.100812, 0.00791577, 0.0663597, 0.101537, -0.105759, -0.00449133, -0.00532694, 0.0945586, -0.149863, -0.26186, -0.0209072, 0.268917, 0.0476982, -0.296487, 0.350434,
                                                                                                    -0.193536, 0.252044, -0.00308279, -0.0183024, -0.239726, 0.109102, 0.00491329, -0.0622137, 0.326206, -0.0324444, -0.0406919, -0.367054, 0.100223, 0.0443162, -0.0322691, -0.0074845, 0.34531, 0.137597, -0.253886, -0.0203329,
                                                                                                    0.0430802, 0.138218, -0.0825448, 0.0631667, 0.416595, 0.151115, 0.0235965, 0.0354798, 0.289682, -0.337142, -0.00884154, 0.817947, 0.118258, 0.0120229, 0.125428, -0.170083, 0.0594695, 0.0933824, 0.565732, 0.27915,
                                                                                                    0.0593411, -0.260072, 0.0157093, 0.0244662, 0.164449, 0.228264, -0.0413266, -0.00379649, -0.318679, -0.0423051, -0.0693829, 0.632985, -0.205331, -0.0131017, 0.0199082, -0.0100525, -0.0707501, 0.0471635, 0.255328, 0.093408,
                                                                                                    0.141103, -0.41666, -0.2399, 0.105214, 0.38416, 0.0290254, -0.129598, -0.189528, -0.720275, -0.287595, -0.216891, 0.942961, -0.295911, 0.0763073, 0.111762, -0.291047, 0.0126655, -0.102139, 0.542779, 0.405994,
                                                                                                    -0.154356, 0.00387921, -0.157813, -0.0794748, -0.27691, -0.054183, -0.00351706, -0.125285, -0.0545664, -0.0234015, -0.0372439, -0.189524, -0.0370634, 0.0570046, -0.00141153, -0.0339831, 0.163611, -0.009437, 0.123612, -0.0868333,
                                                                                                    0.0453062, 0.0914014, -0.170194, 0.124969, -0.155501, -0.115625, -0.000908737, -0.0196248, 0.252157, -0.0185927, 0.108189, -0.196422, 0.176469, -0.12056, -0.137305, -0.0605013, 0.206296, -0.10932, -0.177559, 0.126234,
                                                                                                    0.0619716, -0.281764, -0.0551814, 0.0301796, 0.331636, 0.0403856, -0.135151, 0.0149544, -0.295621, -0.325417, -0.188015, 0.857759, -0.245227, 0.0519795, 0.150077, -0.184894, 0.104434, -0.0340433, 0.528658, 0.308336,
                                                                                                    0.0377274, -0.0408038, -0.131607, 0.0448799, -0.0246884, -0.0118278, -0.0496471, -0.123955, 0.0289086, -0.110541, -0.101166, 0.075824, -0.0827399, -0.0819404, -0.203023, -0.159475, 0.318501, 0.00418186, -0.105933, 0.0238758,
                                                                                                    -0.0260865, 0.264556, 0.00697673, 0.171395, -0.417996, -0.0520947, 0.157622, 0.0975825, 0.358915, 0.0368092, -0.0577968, -0.397039, 0.199473, -0.0424434, -0.126736, -0.0461395, 0.437233, 0.0989939, -0.333262, 0.0769177,
                                                                                                    0.0561724, 0.100872, 0.0235548, -0.00353757, 0.318468, 0.169961, 0.038281, -0.018429, 0.340627, -0.305352, -0.00113353, 0.823965, 0.159046, 0.116965, 0.161648, -0.114007, -0.0122757, 0.0560549, 0.583993, 0.150549,
                                                                                                    0.0991367, -0.275076, 0.00816543, 0.0326815, 0.289407, 0.083559, -0.0851653, 0.0688432, -0.335245, -0.121799, -0.126119, 0.667321, -0.195795, 0.0856138, 0.0403628, -0.0865972, -0.0663951, -0.0564299, 0.283172, 0.178136,
                                                                                                    0.0375297, -0.386965, -0.121, 0.0891119, 0.401079, 0.191086, -0.142615, -0.0437594, -0.607481, -0.277022, -0.286073, 0.89522, -0.41046, 0.0693251, 0.156169, -0.168206, 0.029075, -0.0798103, 0.592854, 0.176357,
                                                                                                    -0.175156, 0.0353273, -0.124419, -0.0407396, -0.26461, -0.0697549, -0.0411735, -0.103973, 0.00227232, 0.0969761, -0.0231571, -0.178922, -0.0161388, -0.036971, -0.0439313, 0.0770627, 0.121768, -0.0121615, 0.163329, -0.13271,
                                                                                                    -0.153413, 0.0268445, -0.0783611, -0.0551334, -0.134067, -0.0918177, 0.0178173, -0.13274, 0.137006, -0.0170079, 0.0800076, -0.171539, -0.0157258, 0.0593552, 0.00124446, -0.0988016, 0.248615, -0.0918537, -0.018458, 0.059918,
                                                                                                    0.0868805, -0.221398, -0.07189, 0.00765635, 0.436702, 0.0585282, -0.090351, 0.0244179, -0.273831, -0.257406, -0.079408, 0.939012, -0.234743, 0.154613, 0.137811, -0.112477, -0.029524, -0.014685, 0.568296, 0.275844,
                                                                                                    0.117273, -0.0942594, -0.188619, 0.0857367, -0.173997, -0.0558839, 0.0692125, -0.0166806, 0.124885, -0.0157045, -0.0170836, 0.0525611, 0.0301347, -0.284544, -0.353053, -0.0379639, 0.298881, -0.0620325, -0.261815, 0.277904,
                                                                                                    0.0687342, 0.0941719, -0.241198, -0.0400303, -0.311745, -0.102089, -0.0265125, -0.202561, 0.208452, -0.0176344, 0.00954252, -0.218377, 0.112384, -0.0983265, -0.0915604, -0.211879, 0.26665, -0.15327, -0.265301, 0.175269,
                                                                                                    0.0550986, 0.128011, 0.0231794, 0.033134, 0.442614, 0.111193, 0.117113, 0.098082, 0.334917, -0.312524, 0.0261129, 0.852272, 0.18527, 0.128631, 0.108302, -0.0944595, -0.0417166, -0.0198985, 0.609686, 0.232434,
                                                                                                    0.164874, -0.256626, -0.0133953, 0.0304413, 0.307729, 0.0934843, -0.0232588, -0.0326444, -0.285425, -0.0934159, -0.143004, 0.625106, -0.230178, 0.0204819, 0.102999, -0.0937618, -0.102587, -0.0436792, 0.206131, 0.114373,
                                                                                                    0.0865969, -0.375605, -0.0982687, 0.0859293, 0.354176, 0.155932, -0.0593944, 0.0457374, -0.653707, -0.191939, -0.282184, 0.825682, -0.324332, 0.119155, 0.141808, -0.0698104, 0.0994984, -0.00901317, 0.629547, 0.247657,
                                                                                                    -0.12699, -0.0608935, -0.0802864, -0.0520868, -0.27783, -0.00134706, -0.0447643, -0.108739, 0.0608543, -0.0160856, 0.0157745, -0.181551, 0.0202743, 0.0438589, -0.126059, 0.0377163, 0.150261, -0.0686984, 0.0834336, -0.0838842,
                                                                                                    0.00515509, 0.0967074, -0.163632, -0.0113103, -0.134171, -0.00998748, -0.00666051, -0.0832535, 0.1819, -0.0231049, 0.0147741, -0.277383, 0.119909, 0.00173715, -0.0988781, 0.0582714, 0.178454, -0.072205, -0.112903, 0.10351,
                                                                                                    0.013281, -0.250617, -0.0826105, 0.0598902, 0.386838, 0.0418512, -0.191994, 0.0364151, -0.308289, -0.357987, -0.155634, 0.94496, -0.23133, 0.151656, 0.113619, -0.10167, -0.0337122, -0.000221097, 0.648911, 0.26146,
                                                                                                    -0.0896524, 0.00862799, -0.0255811, -0.0730883, 0.131838, 0.134508, -0.0190383, -0.101512, 0.0138747, -0.0359758, 0.0299778, 0.0923359, 0.0707076, -0.0450839, -0.0591634, -0.101601, 0.186749, -0.009194, -0.136255, -0.0127956,
                                                                                                    0.0562689, 0.0289398, -0.161224, 0.0264189, -0.329272, -0.0382959, 0.0129993, -0.200138, 0.293803, -0.0782586, -0.00297556, -0.162036, 0.0758768, -0.0833061, -0.0601478, -0.125137, 0.216314, -0.188747, -0.264065, 0.0978703,
                                                                                                    0.124478, 0.0334928, -0.0508624, -0.0207347, 0.412779, 0.0491204, 0.0586585, 0.0672602, 0.297049, -0.329573, 0.0799537, 0.910538, 0.0652433, 0.0689393, 0.108464, -0.0675802, -0.0489718, 0.0256597, 0.603653, 0.195994,
                                                                                                    0.13289, -0.242973, 0.0312085, 0.00643566, 0.284573, 0.116165, -0.0515688, 0.080751, -0.33304, -0.0475138, -0.138744, 0.589247, -0.209748, 0.0604271, 0.122698, 0.0147905, -0.0580812, 0.0101067, 0.286798, 0.0781485,
                                                                                                    0.0911815, -0.46034, -0.113307, -0.0273815, 0.353027, 0.0471695, -0.174657, -0.012876, -0.751133, -0.174817, -0.301449, 0.939403, -0.376363, 0.109375, 0.0863351, -0.119009, 0.0384307, -0.103, 0.596493, 0.233954,
                                                                                                    -0.0825327, -0.0210861, -0.156612, -0.070539, -0.346985, -0.126229, 0.00898475, -0.119135, 0.0180606, 0.0238147, -0.0726607, -0.182926, -0.0457984, 0.0166538, -0.0654079, 0.0453603, 0.106373, -0.0376747, 0.104797, -0.0277498,
                                                                                                    -0.151822, 0.0819459, -0.00369432, -0.0854609, -0.155733, 0.0682098, 0.0681585, -0.0308276, 0.217146, -0.0722568, 0.130272, -0.226075, 0.0632951, 0.0420041, 0.0317453, 0.0132606, 0.237202, -0.0579659, -0.0808554, -0.0185806,
                                                                                                    0.0746554, -0.275759, -0.0564158, 0.0657845, 0.372413, 0.12998, -0.17352, 0.138292, -0.284899, -0.309238, -0.145659, 0.849777, -0.273496, 0.179204, 0.20899, -0.0955122, 0.013297, 0.0120117, 0.676562, 0.238071,
                                                                                                    0.00263002, -0.0369727, -0.105635, 0.0664981, -0.0188677, -0.0600337, -0.0561433, -0.113274, 0.0901709, -0.144424, -0.0645495, 0.0633207, -0.0404562, -0.100476, -0.177484, 0.0686937, 0.300892, -0.0744393, -0.212102, 0.125584,
                                                                                                    -0.213971, 0.199743, 0.0534636, -0.0439801, -0.20246, 0.0442967, 0.124297, -0.0400146, 0.282461, -0.114803, 0.0126816, -0.352289, 0.163635, 0.0178829, 0.0760219, -0.0692171, 0.252408, 0.096994, -0.224025, -0.0596363,
                                                                                                    0.120635, 0.0847268, -0.0358518, 0.0412795, 0.357986, 0.12676, 0.0579426, 0.0575699, 0.245797, -0.295986, 0.091769, 0.858458, 0.110766, 0.150528, 0.180132, -0.00528528, -0.0598772, 0.0957902, 0.61138, 0.207764,
                                                                                                    0.081999, -0.295432, 0.0778593, -0.00822296, 0.285552, 0.118439, -0.0925416, 0.0433396, -0.292334, -0.0264401, -0.185542, 0.62669, -0.212272, 0.040601, 0.0948891, 0.0261074, -0.184487, -0.0412258, 0.315124, 0.076005,
                                                                                                    0.047212, -0.42092, -0.134391, -0.00108141, 0.370893, 0.0725986, -0.204081, -0.0270558, -0.696545, -0.171919, -0.268325, 0.944248, -0.452219, 0.107423, 0.158513, -0.176404, -0.0113046, -0.123733, 0.592372, 0.290928,
                                                                                                    -0.159126, -0.0438894, -0.162487, -0.0122404, -0.225964, -0.0105626, 4.56637e-05, -0.0621753, 0.0538069, 0.0500435, -0.051452, -0.172583, -0.0837138, -0.0328641, -0.0623455, -0.037326, 0.202376, 0.0456051, 0.109547, -0.0387018,
                                                                                                    0.0450156, 0.083945, -0.10549, 0.0892483, -0.104403, -0.128758, -0.0634302, -0.12506, 0.237198, -0.102477, 0.0970581, -0.232598, 0.0492262, -0.118582, -0.0489564, -0.0112061, 0.130524, -0.100854, -0.172051, 0.0938003,
                                                                                                    0.025559, -0.29384, -0.059401, 0.0613324, 0.359877, 0.0938651, -0.181612, 0.201663, -0.315527, -0.210593, -0.115547, 0.836439, -0.298612, 0.20247, 0.160626, 0.0513894, -0.0643751, -0.0159133, 0.677423, 0.181453,
                                                                                                    0.000509905, -0.0646776, -0.0952119, -0.0776599, 0.0402379, 0.0622401, -0.0230062, -0.0186085, 0.0633736, -0.0693335, 0.0229995, 0.0468892, 0.0219312, -0.0865397, -0.180592, -0.186804, 0.161204, 0.0255104, -0.0852754, -0.033445,
                                                                                                    -0.0824291, 0.181104, 6.45526e-05, -0.0383712, -0.212743, -0.0355376, 0.06455, -0.112352, 0.280094, -0.0689428, -0.0443047, -0.204247, 0.129445, -0.00894032, -0.0466634, -0.0628861, 0.212847, -0.0385965, -0.244204, 0.130173,
                                                                                                    0.0309033, 0.0495681, 0.0627838, 0.0776284, 0.450343, 0.0463348, -0.00417518, 0.139602, 0.275896, -0.295658, 0.107471, 0.866498, 0.0940637, 0.133607, 0.208918, 0.125531, -0.140458, 0.0183442, 0.583918, 0.139581,
                                                                                                    0.0740831, -0.279933, 0.0953548, -0.0325104, 0.210542, 0.159709, -0.0413243, 0.0739145, -0.376821, -0.107018, -0.153919, 0.639028, -0.243434, 0.0569905, 0.0605285, 0.0132909, -0.131011, -0.00762495, 0.334994, 0.0380394,
                                                                                                    0.00328021, -0.331456, -0.0209877, 0.0204174, 0.338572, 0.0956462, -0.0773847, 0.0351657, -0.722072, -0.213123, -0.295843, 0.89485, -0.37319, 0.213678, 0.211445, 0.0059034, -0.0513961, -0.0543691, 0.687009, 0.156393,
                                                                                                    -0.127737, -0.096351, -0.126375, 0.00548495, -0.233253, -0.098709, 0.0589462, -0.127958, 0.0504224, 0.0661602, 0.0417595, -0.243124, -0.00571799, -0.0496885, -0.0745672, 0.0548896, 0.18217, 0.0428929, 0.11862, -0.0324936,
                                                                                                    -0.123317, 0.151307, -0.153078, 0.0370415, -0.174999, -0.0277757, 0.0278048, -0.0499013, 0.151522, 0.0137192, 0.0336288, -0.252682, 0.124809, -0.0465503, 0.0140029, -0.0593087, 0.155723, -0.0723933, -0.147835, 0.0028786,
                                                                                                    0.0605051, -0.242535, -0.0834382, 0.0826861, 0.371557, 0.0754857, -0.127336, 0.10798, -0.291582, -0.267947, -0.0764123, 0.844039, -0.208766, 0.0755869, 0.158712, 0.0182353, -0.145543, -0.0530781, 0.647529, 0.25818,
                                                                                                    -0.182152, -0.0948772, 0.0284305, -0.220079, 0.174312, 0.231146, -0.112021, 0.0721335, -0.0576359, -0.041728, -0.219518, 0.112458, 0.0373899, 0.12031, 0.0381529, 0.0799264, 0.181538, -0.0527734, 0.0186156, 0.016839,
                                                                                                    -0.0245711, 0.143398, -0.185677, -0.139261, -0.291304, -0.0244949, -0.0284443, -0.143761, 0.262307, 0.0429777, 0.0560835, -0.258758, 0.0122507, -0.0334998, -0.10204, -0.140757, 0.223233, -0.118948, -0.255215, 0.10277,
                                                                                                    0.0887131, 0.072174, -0.0467904, 0.0593505, 0.422203, 0.0459508, 0.0212846, 0.083201, 0.246816, -0.153869, 0.056208, 0.834905, 0.0596263, 0.107759, 0.20759, 0.0775694, -0.147972, 0.0190462, 0.560706, 0.173365,
                                                                                                    0.100874, -0.27042, 0.0418179, -0.0059378, 0.311134, 0.161139, -0.0963003, 0.0996989, -0.316293, -0.102542, -0.162428, 0.682232, -0.264109, 0.0805411, 0.138859, -0.0062925, -0.133378, -0.0588543, 0.265056, 0.0956588,
                                                                                                    0.147957, -0.403765, -0.0701435, 0.177726, 0.353773, -0.119731, -0.137847, 0.00772507, -0.706869, -0.219272, -0.240297, 0.910826, -0.469828, 0.143386, 0.0582664, 0.0644723, -0.0740726, -0.122127, 0.680405, 0.323279,
                                                                                                    -0.117567, -0.0929125, -0.20464, -0.0210624, -0.339062, -0.1027, -0.0136505, -0.139607, 0.0575021, 0.00411673, 0.0291955, -0.12972, -0.0344526, -0.101466, -0.131869, 0.0230412, 0.203656, -0.0589562, 0.0706097, -0.0702434,
                                                                                                    -0.120244, 0.0236276, -0.0231014, -0.0773428, -0.0264466, -0.0256445, 0.0490906, -0.0862651, 0.181374, -0.0899482, -0.0318124, -0.219792, 0.151273, 0.0415842, 0.0176636, 0.0910133, 0.210362, -0.044576, -0.0124703, 0.058734,
                                                                                                    0.0327558, -0.258186, 0.0105221, 0.153064, 0.313964, 0.0749061, -0.191411, 0.11259, -0.359029, -0.134861, -0.169704, 0.835006, -0.225928, 0.180468, 0.205522, 0.0127624, -0.0669142, -0.0376784, 0.708331, 0.258811,
                                                                                                    0.202005, -0.13546, -0.246048, 0.0428698, -0.229831, -0.268949, -0.0458532, -0.11954, -0.033517, -0.165246, 0.130272, 0.108544, -0.0838248, -0.258745, -0.346782, -0.0683858, 0.183297, -0.103805, -0.269842, 0.139369,
                                                                                                    -0.170286, 0.109662, 0.069187, -0.203879, -0.172652, 0.106417, -0.0489431, -0.0160965, 0.244149, 0.0237716, -0.0281528, -0.169424, 0.120011, 0.0900402, 0.0439654, -0.0308587, 0.238873, -0.0270232, -0.193799, 0.0399336,
                                                                                                    0.090978, 0.118963, 0.0582798, 0.039204, 0.362222, 0.110571, 0.100646, 0.144893, 0.30121, -0.107915, 0.0883747, 0.812152, 0.128187, 0.209256, 0.197698, 0.118543, -0.0889331, 0.0888831, 0.638993, 0.233548,
                                                                                                    0.0400801, -0.256833, 0.0681013, 0.0746442, 0.291405, 0.176672, -0.0236561, 0.100545, -0.304166, -0.0711109, -0.126459, 0.658616, -0.284712, 0.0992314, 0.068725, -0.0294396, -0.191409, -0.0940754, 0.281725, 0.0578973,
                                                                                                    0.0623963, -0.3231, -0.0522191, 0.107489, 0.404892, 0.0573671, -0.147265, -0.01128, -0.741564, -0.118172, -0.251865, 0.845963, -0.488, 0.233731, 0.194791, -0.119408, -0.0629744, -0.173289, 0.65614, 0.240763,
                                                                                                    -0.120334, -0.00697505, -0.181693, -0.132594, -0.231382, -0.0377259, 0.0340434, -0.106357, 0.0606648, 0.0056706, -0.0621972, -0.171481, -0.0973061, -0.00443866, -0.138251, -0.0617322, 0.131278, -0.00238551, 0.0625728, -0.097136,
                                                                                                    0.0907339, 0.0979592, -0.123605, 0.124207, -0.236855, -0.295581, 0.0311046, -0.0589299, 0.142041, -0.0609924, 0.269493, -0.2567, 0.045956, -0.202824, -0.195645, -0.0454117, 0.158208, -0.108916, -0.256474, 0.117728,
                                                                                                    0.0757257, -0.264569, -0.0403524, 0.147785, 0.398994, 0.0699891, -0.162014, 0.0488149, -0.378225, -0.190496, -0.164904, 0.894865, -0.269268, 0.170986, 0.26353, 0.0364853, -0.193803, -0.159255, 0.772151, 0.157184,
                                                                                                    -0.261675, -0.0304626, 0.0638519, -0.00381918, 0.0988337, 0.199473, -0.0895601, 0.153872, 0.0830805, 0.0621572, -0.111947, -0.0210537, 0.0758122, 0.100658, 0.0294781, 0.0849264, 0.167256, 0.110713, 0.00562746, 0.0358997,
                                                                                                    0.0236778, 0.0466278, -0.119603, 0.115639, -0.333646, -0.272002, -0.0452598, 0.0292541, 0.264047, -0.17798, 0.249708, -0.219184, 0.116674, -0.230558, -0.200191, 0.00446861, 0.11868, -0.018914, -0.378762, 0.190773,
                                                                                                    0.070662, 0.0483156, 0.0288875, 0.0301229, 0.469757, 0.0346247, 0.162611, 0.185599, 0.277696, -0.110527, 0.062901, 0.880248, 0.099368, 0.116839, 0.237813, 0.0819429, -0.133251, 0.0403382, 0.685028, 0.148711,
                                                                                                    0.113671, -0.249953, -0.0100999, 0.0680096, 0.300537, 0.18847, 0.00879265, 0.0681438, -0.345718, -0.00527545, -0.140484, 0.552692, -0.246811, 0.0863576, 0.193495, 0.0496213, -0.202668, -0.0413293, 0.329726, 0.0616394,
                                                                                                    -0.0341441, -0.347507, -0.0439601, 0.00746754, 0.389217, 0.128805, -0.0511949, -0.040566, -0.846416, -0.187027, -0.382166, 0.91483, -0.436249, 0.205062, 0.325671, -0.112292, -0.119874, -0.164714, 0.759209, 0.201266,
                                                                                                    -0.0709486, -0.129684, -0.185891, -0.113847, -0.266899, -0.153595, 0.0353073, -0.1242, 0.0392362, 0.0191179, 0.00742709, -0.12518, -0.0591608, -0.079218, -0.092692, 0.0269031, 0.189256, -0.00521436, 0.111485, -0.0100363,
                                                                                                    -0.294481, 0.102878, 0.0188801, -0.0275111, -0.0511823, 0.12379, -0.00664423, -0.0743272, 0.1848, -0.0683874, 0.0168801, -0.22107, 0.0468646, 0.10447, 0.0769635, -0.0143648, 0.174061, -0.0171207, 0.0129184, 0.00215479,
                                                                                                    0.0226491, -0.200738, -0.0694634, 0.125554, 0.378397, 0.0082883, -0.120007, 0.0269432, -0.410891, -0.25973, -0.161412, 0.937529, -0.392346, 0.200129, 0.195121, -0.0152062, -0.201462, -0.103783, 0.823765, 0.16874,
                                                                                                    0.215912, -0.14514, -0.227245, 0.142878, -0.171962, -0.294767, 0.0469563, 0.0461986, -0.0663743, 0.0380045, -0.0377242, 0.0744287, -0.0588417, -0.191119, -0.245233, 0.101539, 0.00147306, -0.0473456, -0.289794, 0.132708,
                                                                                                    -0.141793, 0.166198, 0.0423284, 0.137776, -0.400122, -0.047784, -0.0548021, 0.102212, 0.283455, 0.1038, 0.0911014, -0.366547, 0.083819, 0.015871, -0.0320052, -6.12734e-05, 0.146001, 0.190358, -0.28893, 0.15782,
                                                                                                    0.0406358, 0.159634, 0.00525042, 0.0293948, 0.453244, 0.0382134, 0.0993821, 0.00969581, 0.238768, -0.206655, 0.0540977, 0.884522, 0.100482, 0.167777, 0.246558, -0.00563873, -0.196019, -0.0580464, 0.686208, 0.207763,
                                                                                                    0.132997, -0.264553, 0.0557173, -0.0106352, 0.262151, 0.178037, 0.0321685, -0.00622796, -0.359515, 0.017115, -0.13173, 0.60482, -0.262976, 0.0818894, 0.0822174, -0.0418831, -0.160841, -0.0321645, 0.350724, 0.151833,
                                                                                                    0.159188, -0.390331, -0.146988, 0.0921303, 0.388167, -0.0896139, -0.0708939, -0.17026, -0.797112, -0.332615, -0.236708, 1.011, -0.548901, 0.178035, 0.135975, -0.127619, -0.174213, -0.225746, 0.752281, 0.216288,
                                                                                                    -0.0962993, -0.0426776, -0.10703, -0.042917, -0.267493, -0.11934, -0.00657281, -0.0802641, 0.0513991, -0.0467318, -0.0264847, -0.1643, 0.0371585, -0.118804, -0.172797, -0.0501655, 0.207407, -0.0238052, 0.0780303, -0.0608273,
                                                                                                    -0.0872526, 0.0478173, -0.13613, -0.057874, -0.165801, -0.0637038, 0.0259965, -0.0935416, 0.0827468, 0.00525217, 0.108383, -0.155484, 0.000645411, 0.0111583, -0.055651, -0.0857563, 0.106422, -0.133467, -0.141257, 0.0528077,
                                                                                                    -0.00432591, -0.235179, -0.0427979, 0.0392146, 0.445257, 0.0119077, -0.169756, 0.0595509, -0.313157, -0.142758, -0.227314, 0.914196, -0.382599, 0.294454, 0.31613, -0.154214, -0.129614, -0.169719, 0.764701, 0.130207,
                                                                                                    -0.0693531, -0.0407793, -0.0865376, -0.0945337, -0.0398324, -0.0205889, -0.0380589, -0.0262763, -0.182127, -0.28183, -0.153312, 0.0965932, -0.0434567, -0.0533425, -0.13564, 0.021756, 0.044649, -0.0172388, -0.0219702, 0.0238281,
                                                                                                    -0.0769604, 0.0972615, 0.0454776, 0.0326873, -0.246038, -0.0227205, 0.0495753, 0.0288759, 0.183712, 0.118557, -0.0283095, -0.228165, 0.105232, -0.0486827, -0.0682074, 0.0987719, 0.164227, 0.00622084, -0.208106, 0.0466122,
                                                                                                    -0.0255965, 0.0848972, -0.0192211, -0.0185002, 0.478374, 0.103441, 0.148566, 0.132135, 0.243326, 0.0372017, -0.0294365, 0.908604, 0.0624734, 0.277409, 0.312452, -0.0772532, -0.245269, -0.0552326, 0.796921, 0.171329,
                                                                                                    0.0849464, -0.286649, 0.000962387, 0.0472217, 0.291941, 0.0760793, 0.0216165, -0.0208219, -0.325362, -0.000288678, -0.190252, 0.61905, -0.278657, 0.153382, 0.207526, 0.0228964, -0.246888, -0.0364181, 0.317524, 0.101801,
                                                                                                    -0.0495482, -0.406056, -0.0589393, 0.0924089, 0.486221, 0.157238, -0.0923442, -0.0125735, -0.731506, -0.000717104, -0.254611, 0.848714, -0.481822, 0.363665, 0.3337, -0.1202, -0.124088, -0.112418, 0.781983, 0.163858,
                                                                                                    -0.134532, -0.0125384, -0.0942034, -0.12691, -0.239895, -0.0186908, -0.0127817, -0.0287266, -0.0193032, 0.0441497, 0.02432, -0.172405, -0.026572, -0.0480443, -0.0704001, 0.0249469, 0.129512, -0.00953597, 0.0873598, -0.0531954,
                                                                                                    -0.116011, 0.141194, -0.179702, -0.0220495, -0.0806436, -0.0124466, -0.0154014, -0.155566, 0.0920487, -0.113332, 0.0358127, -0.112018, 0.0681699, -0.0328207, -0.0422813, -0.0750956, 0.183928, -0.171461, -0.058943, -0.0339317,
                                                                                                    0.045476, -0.266587, -0.0521898, 0.0859466, 0.394784, 0.0943021, -0.105222, 0.0967698, -0.290815, 0.00568996, -0.100678, 0.838352, -0.448359, 0.24592, 0.181577, -0.0838975, -0.141361, -0.0815802, 0.717131, 0.222961,
                                                                                                    -0.202902, -0.0422998, -0.0790497, -0.026076, 0.079523, -0.067774, -0.0167835, -0.0744772, -0.215437, -0.0918371, -0.199502, 0.132832, -0.0128438, 0.0697208, -0.000607063, -0.0671704, -0.247733, -0.215628, 0.0557924, 0.110833,
                                                                                                    -0.039928, 0.162879, -0.195487, -0.0349741, -0.245969, -0.0779349, 0.151852, -0.192592, 0.132097, -0.265217, -0.0242283, -0.107784, 0.146268, 0.00439533, -0.0551243, 0.0207955, 0.0397182, -0.117844, -0.101022, -0.0225619,
                                                                                                    0.0975991, 0.140166, 0.0215046, 0.0665003, 0.409412, 0.0160554, 0.20053, 0.0058609, 0.30886, -0.00233107, 0.0626839, 0.84602, -0.0542911, 0.221987, 0.270113, -0.0781776, -0.217693, -0.0471509, 0.746679, 0.160496,
                                                                                                    0.0461148, -0.260448, 0.104302, -0.0298756, 0.239098, 0.116095, 0.011539, -0.0031719, -0.387668, 0.00522721, -0.104067, 0.591236, -0.330643, 0.123407, 0.116279, -0.0600897, -0.178401, -0.103372, 0.353734, 0.127284,
                                                                                                    0.072545, -0.533406, -0.0586736, 0.112023, 0.386319, -0.0366779, -0.0470754, 0.0456024, -0.670737, 0.10268, -0.165392, 0.791149, -0.592651, 0.236168, 0.203526, -0.0540936, -0.14809, -0.162956, 0.730064, 0.18477,
                                                                                                    -0.100646, -0.00458778, -0.134825, -0.0619858, -0.326868, -0.0573638, -0.000716076, -0.134984, -0.0518302, 0.0137093, -0.0412255, -0.146734, -0.0224289, -0.0224231, -0.166077, 0.0445234, 0.135662, -0.0204353, 0.0863856, -0.0607141,
                                                                                                    -0.169613, 0.103561, -0.0177975, -0.0877209, -0.092866, -0.0676142, -0.036152, -0.0329239, 0.163615, 0.089228, 0.108258, -0.215724, 0.0945332, 0.0294328, 0.105339, -0.0477127, 0.101986, -0.0318157, 0.0050575, 0.0709722,
                                                                                                    0.158783, -0.339924, -0.0638961, -0.00689214, 0.347856, 0.00358665, -0.114491, -0.00224434, -0.198603, 0.0349247, -0.0490902, 0.835871, -0.45592, 0.0808734, 0.0961622, -0.0900412, -0.0743442, -0.0397134, 0.649446, 0.114922,
                                                                                                    -0.211751, 0.0419637, 0.102162, 0.0956664, 0.193784, -0.0789134, 0.0279997, 0.124804, -0.0409396, -0.0557119, -0.082994, -0.0250414, 0.0270718, 0.192231, 0.0689513, -0.0129773, -0.334621, -0.0715837, 0.0203856, 0.0190971,
                                                                                                    -0.348096, 0.176142, -0.0555562, -0.0293527, -0.0507531, 0.0169075, 0.0442862, -0.124668, 0.10126, -0.113112, -0.0247967, -0.114018, 0.210981, 0.157912, 0.207983, -0.176741, -0.124176, -0.0391905, 0.00344235, 0.124315,
                                                                                                    0.104009, 0.00934155, -0.0337858, 0.0821268, 0.366699, 0.0197096, 0.0747244, 0.0623028, 0.346628, 0.0709421, 0.00977943, 0.892579, -0.0583932, 0.169033, 0.211963, -0.0490306, -0.167932, -0.0606293, 0.731398, 0.15867,
                                                                                                    0.0696271, -0.29774, 0.02277, 0.0103965, 0.254464, 0.113799, -0.0706642, 0.00462348, -0.270014, 0.0656007, -0.0690335, 0.644693, -0.289104, 0.0723742, 0.0681355, 0.0341434, -0.171183, -0.0114741, 0.306916, 0.0518786,
                                                                                                    0.173467, -0.561792, -0.119191, 0.0376877, 0.303249, 0.0476001, -0.144432, -0.109067, -0.704057, -0.0940549, -0.253265, 0.941661, -0.652593, 0.0603964, 0.0375105, -0.11743, 0.00771526, -0.211217, 0.72474, 0.103827,
                                                                                                    -0.0825916, -0.0405023, -0.200684, -0.132395, -0.320534, -0.0520298, 0.0511449, -0.0851345, -0.0723642, -0.0212585, -0.0487528, -0.146636, 0.0309502, -0.0741839, -0.146687, -0.00382904, 0.135299, -0.0294785, 0.174358, -0.0036586,
                                                                                                    -0.107687, 0.0801227, -0.109727, 0.0680673, -0.116412, -0.0566918, 0.0678767, 0.0277827, 0.232182, 0.0534942, 0.0834231, -0.208737, 0.034415, 0.0018831, 0.050802, 0.0437519, 0.0750955, -0.0293365, -0.137486, 0.0483937,
                                                                                                    0.281119, -0.410903, -0.0376899, 0.00254971, 0.319903, -1.32581e-05, -0.0844331, -0.0797408, -0.171059, 0.036656, -0.0301551, 0.881897, -0.474769, 0.0516503, 0.0267516, -0.113203, -0.0073043, -0.14907, 0.631072, 0.118977,
                                                                                                    -0.196607, -0.05798, 0.00841492, -0.0134467, 0.100167, 0.0220148, 0.0239083, -0.0434636, 0.0244299, 0.00759839, -0.135569, 0.108368, 0.04743, 0.142349, -0.0207874, -0.0615351, -0.217007, 0.0010963, 0.0322363, 0.102086,
                                                                                                    -0.322566, 0.204441, 0.223233, 0.149313, -0.179069, -0.0221145, 0.0648779, 0.209181, 0.302557, 0.102013, 0.039325, -0.370152, 0.176498, 0.249651, 0.230104, -0.0664472, -0.217922, 0.11703, -0.112608, 0.0796316,
                                                                                                    0.135092, 0.0274829, -0.000418056, 0.00331368, 0.431091, 0.0455931, 0.0200368, 0.0251449, 0.332023, 0.227345, 0.100625, 0.808415, -0.0375518, 0.0412291, 0.15907, 0.00669086, -0.100232, 0.00890293, 0.65487, 0.108924,
                                                                                                    0.238185, -0.254882, 0.0166015, 0.0455077, 0.273106, 0.0731866, 0.0190987, -0.00858166, -0.284155, 0.0673363, -0.141917, 0.538215, -0.320083, -0.00223183, 0.1139, -0.0208659, -0.084019, -0.0442869, 0.218092, 0.0701292,
                                                                                                    0.256281, -0.520567, -0.155182, 0.0286261, 0.303446, 0.0410971, -0.159635, -0.217101, -0.76244, 0.0666985, -0.173497, 0.952871, -0.603147, 0.131899, 0.0383741, -0.215249, 0.030487, -0.181938, 0.668616, 0.139229,
                                                                                                    -0.123841, -0.0101625, -0.134007, -0.109344, -0.260088, -0.00524935, -0.00778867, -0.0531214, -0.0495056, -0.0117868, -0.077374, -0.0822372, 0.0690614, 0.0704536, -0.0239167, -0.00988681, 0.124959, 0.0314032, 0.204738, 0.0193073,
                                                                                                    0.0431693, 0.113333, -0.191261, -0.104619, -0.170932, -0.0197871, 0.0658864, -0.0781859, 0.197479, -0.0643154, 0.105304, -0.224472, 0.0258444, -0.0299714, -0.0727711, -0.0561795, 0.415687, -0.0240198, -0.147442, -0.00572962,
                                                                                                    0.266705, -0.330335, -0.0832533, 0.0591269, 0.29712, 0.0338428, -0.0871831, -0.0873875, -0.179331, 0.147263, -0.0667809, 0.788558, -0.48513, 0.0343154, 0.0803333, 0.0666922, -0.0130436, -0.117645, 0.647976, 0.0989106,
                                                                                                    0.00412579, -0.189755, -0.25049, -0.00483091, -0.0336988, -0.146163, -0.057197, -0.148407, -0.0456731, -0.0981457, 0.105322, 0.182675, -0.0934966, -0.0504687, -0.208768, -0.211604, -0.109777, -0.0757644, -0.0979201, 0.000703595,
                                                                                                    -0.0696193, 0.127392, 0.0335943, 0.0411747, -0.211545, -0.050181, 0.0335939, -0.00367212, 0.308562, 0.046552, -0.0672457, -0.298259, 0.118596, 0.0600266, 0.0397426, 0.00965327, -0.0461576, 0.0400336, -0.259784, 0.0556789,
                                                                                                    0.279888, -0.0088579, 0.0143594, 0.0677954, 0.340607, 0.0492803, 0.0827172, 0.023819, 0.398025, 0.236307, 0.0709703, 0.814985, -0.0850061, 0.0326183, 0.0879346, 0.074487, -0.0540872, -0.0989982, 0.573302, 0.0406987,
                                                                                                    0.206827, -0.270777, -0.0313593, -0.0404757, 0.210257, 0.134505, 0.0308866, -0.0277036, -0.264113, 0.0101731, -0.135426, 0.55579, -0.392628, 0.00561919, 0.0166405, -0.0162593, -0.0971228, -0.0305604, 0.200489, 0.00989842,
                                                                                                    0.21267, -0.501608, -0.0647884, 0.0727918, 0.338785, 0.0273797, -0.151718, 0.047003, -0.683426, 0.122243, -0.160157, 0.832113, -0.620233, 0.147051, 0.0826224, -0.0309352, -0.00402583, -0.182086, 0.655275, 0.141059,
                                                                                                    -0.152951, -0.035811, -0.111369, -0.0653109, -0.293897, 0.0446362, -0.0485979, 0.0400353, 0.0220854, 0.053328, -0.070312, -0.131906, 0.0469634, 0.0517292, 0.0269403, -0.0383776, 0.0588595, -0.0522849, 0.135451, -0.0695888,
                                                                                                    0.00434859, 0.0969996, -0.102758, -0.0210936, -0.149253, -0.0157328, 0.0777715, -0.116937, 0.113352, -0.129598, 0.0984628, -0.167435, 0.0750589, -0.0653745, -0.0952114, -0.0874639, 0.37818, -0.114747, -0.0186637, 0.0487161,
                                                                                                    0.179544, -0.441274, -0.0243885, 0.04731, 0.310678, 0.0499598, -0.0663303, -0.156101, -0.260451, 0.128949, -0.0385407, 0.920191, -0.550976, 0.0390593, 0.0841617, -0.0321041, -0.00235532, -0.158993, 0.630042, 0.0901696,
                                                                                                    0.294028, -0.0562385, -0.188807, 0.134166, -0.243455, -0.318442, -0.0480335, 0.135431, 0.227666, 0.249268, 0.0688362, -0.109295, 0.0160777, -0.322716, -0.451587, 0.132551, 0.12827, -0.00886868, -0.310192, 0.0493201,
                                                                                                    0.190654, 0.074441, -0.284923, -0.120706, -0.387198, -0.166378, 0.0315457, -0.26872, 0.148351, -0.282812, 0.127672, -0.0931779, 0.0303384, -0.165655, -0.211688, -0.216956, 0.39003, -0.0741764, -0.299104, 0.0524798,
                                                                                                    0.269084, 0.0116697, -0.0495514, 0.0290053, 0.391567, 0.0814135, 0.103055, -0.0548894, 0.300725, 0.191633, 0.058551, 0.929527, -0.0730382, 0.0187715, 0.107714, 0.00576937, -0.0584277, -0.0963686, 0.647858, 0.0564336,
                                                                                                    0.164935, -0.330573, 0.0668113, -0.0535849, 0.228854, 0.127953, -0.021469, -0.00783438, -0.253152, 0.0336652, -0.145226, 0.547697, -0.435894, -0.0334666, 0.00722549, -0.010012, -0.173882, -0.0870193, 0.242488, 0.0685752,
                                                                                                    0.193164, -0.540132, -0.0628105, 0.0383045, 0.346334, 0.0892611, -0.045171, -0.191174, -0.651581, 0.0677398, -0.185652, 0.856908, -0.685267, 0.134519, 0.165901, 0.0369516, -0.0106776, -0.165878, 0.737199, 0.167345,
                                                                                                    -0.133527, -0.0833592, -0.123004, -0.132933, -0.275751, -0.0402684, 0.0101673, 0.0147953, -0.00275173, -0.0124132, -0.0114349, -0.148284, 0.00409781, 0.036256, -0.0257591, -0.12541, 0.182393, 0.00365213, 0.21449, -0.00433892,
                                                                                                    0.0148662, 0.165809, -0.0774232, 0.0606046, -0.156543, -0.132793, 0.0401488, 0.0348893, 0.253009, 0.0879177, 0.0972815, -0.275265, 0.116999, -0.0328176, -0.0700578, 0.0468828, 0.211986, -0.0637036, -0.121662, 0.0945207,
                                                                                                    0.114119, -0.342874, 0.00513098, 0.0242264, 0.441942, 0.0819449, -0.147551, -0.208832, -0.221022, 0.00438457, -0.0700526, 0.863936, -0.533452, 0.122593, 0.171822, -0.0934701, 0.0396604, -0.0868462, 0.765465, 0.070715,
                                                                                                    -0.00581937, -0.210969, -0.138216, 0.0269424, -0.0938449, 0.0144583, -0.0259734, -0.135296, 0.00526506, -0.0386395, -0.0292314, 0.107716, -0.152423, -0.0571445, -0.121277, 0.0566013, 0.0497048, -0.0570287, -0.0237532, 0.0756278,
                                                                                                    0.209267, 0.163225, -0.0873761, 0.0204194, -0.492674, -0.321403, 0.0694545, 0.152874, 0.375167, 0.155835, 0.184024, -0.284666, 0.175797, -0.192626, -0.255748, 0.191149, 0.231843, -0.0723621, -0.419956, 0.0751086,
                                                                                                    0.239241, 0.0699032, 0.0352115, 0.0396625, 0.392896, 0.0943708, 0.14555, -0.118612, 0.349769, 0.0448417, 0.0897785, 0.88243, -0.11488, 0.0949936, 0.18024, -0.0655864, -0.00226638, 0.00263991, 0.651958, 0.136917,
                                                                                                    0.180936, -0.278686, -0.00875031, -0.0148606, 0.30334, 0.136803, -0.0292273, -0.0874509, -0.279612, 0.0841933, -0.0805241, 0.661302, -0.341068, 0.0593682, 0.0269554, 0.0182538, -0.192597, 0.018995, 0.24207, 0.00343644,
                                                                                                    0.201782, -0.623236, -0.145276, 0.0139961, 0.428132, 0.15256, -0.0507836, -0.439575, -0.804696, -0.214758, -0.234295, 0.982807, -0.706581, 0.127399, 0.184914, -0.376956, 0.0411028, -0.144438, 0.727459, 0.0611558,
                                                                                                    -0.139725, -0.0689247, -0.191085, -0.135804, -0.304658, -0.0369737, 0.0166871, -0.0752842, -0.0832734, -0.067149, -0.0612575, -0.105496, 0.00892116, 0.00500853, -0.144656, -0.055161, 0.275627, 0.00661743, 0.152866, 0.017614,
                                                                                                    -0.184027, 0.0880799, -0.092149, 0.0467301, -0.0266451, -0.00679314, 0.00529579, -0.108416, 0.119933, -0.0550669, -0.00729037, -0.133805, 0.00851235, 0.0922827, 0.105146, -0.0100539, 0.119858, -0.116074, -0.0224011, 0.0488911,
                                                                                                    0.253894, -0.425652, -0.114719, 0.0784537, 0.389264, 0.00228655, -0.167238, -0.135858, -0.18893, 0.0586357, -0.0801167, 0.791983, -0.548477, 0.0994443, 0.11086, 0.0540171, 0.0209689, -0.0663937, 0.646755, 0.0788686,
                                                                                                    -0.288064, -0.0869175, 0.0987372, -0.147937, 0.159744, 0.20791, -0.0582091, -0.139019, -0.0307131, 0.066914, 0.120364, 0.0711551, -0.0953426, 0.214231, 0.101228, -0.22383, 0.17948, -0.17288, 0.103604, -0.0454438,
                                                                                                    -0.210212, 0.129152, 0.041542, -0.0110521, -0.119167, 0.0474804, 0.045285, 0.0227102, 0.293939, 0.157196, 0.00173116, -0.250574, 0.124614, 0.0811444, 0.0398815, 0.182426, 0.0924513, -0.197782, -0.186266, 0.00863857,
                                                                                                    0.189278, 0.0457619, -0.0307342, 0.0819788, 0.373869, 0.0939414, 0.134339, -0.0827857, 0.294379, 0.0502474, 0.0507857, 0.863825, -0.120669, 0.122981, 0.0978834, 0.0451544, -0.0823649, 0.0436244, 0.605383, 0.105117,
                                                                                                    0.156755, -0.335721, 0.0406194, 0.0172984, 0.259189, 0.103027, -0.0136878, -0.0943222, -0.379707, 0.0184846, -0.109132, 0.542342, -0.354395, 0.144436, 0.0935875, 0.00719963, -0.182454, -0.0631566, 0.238545, 0.108232,
                                                                                                    0.237612, -0.566033, -0.0812647, 0.128616, 0.240417, -0.110482, -0.0923737, -0.00216333, -0.666983, 0.132077, -0.186616, 0.79085, -0.572419, 0.0489823, -0.0198111, 0.0893725, 0.0142927, -0.112562, 0.535342, 0.144648,
                                                                                                    -0.0837265, 0.015826, -0.132078, -0.0802588, -0.343568, -0.0363756, -0.0173764, 0.032978, 0.0348446, -0.00306059, -0.0565665, -0.188912, 0.105047, -0.00404465, -0.10199, -0.00947025, 0.179768, -0.0655849, 0.153173, -0.0449676,
                                                                                                    -0.109186, 0.0989898, -0.0382695, -0.0978518, -0.0118318, 0.08464, 0.0741753, -0.177142, 0.0949821, -0.0726494, 0.111997, -0.215341, 0.038257, 0.136618, 0.126439, -0.183281, 0.25584, -0.154104, -0.00812036, -0.0355845,
                                                                                                    0.2524, -0.350845, -0.0446153, 0.0767084, 0.299059, -0.074108, -0.0858023, 0.00594889, -0.182188, 0.0900203, -0.0802434, 0.765218, -0.528556, 0.0542518, 0.14238, 0.0395471, 0.0351163, 0.0361128, 0.647012, 0.184067,
                                                                                                    0.100873, -0.212037, -0.130711, 0.114589, -0.0369781, -0.112655, -0.0815907, -0.150423, -0.12361, -0.0925606, -0.0708992, 0.180054, -0.101454, -0.055115, -0.169428, 0.0111018, 0.0749112, -0.0162811, -0.133349, 0.0440509,
                                                                                                    -0.411284, 0.0383803, 0.0667096, -0.2496, 0.0705978, 0.392404, -0.0101258, -0.358848, 0.0127678, -0.118564, 0.0987372, -0.138261, -0.00768283, 0.297941, 0.325189, -0.311847, 0.175442, -0.267268, 0.182667, -0.0461198,
                                                                                                    0.156461, 0.0224036, 0.0597372, -0.0181617, 0.415599, 0.0322016, 0.0800421, -0.0418377, 0.309182, 0.0282777, 0.0139175, 0.864463, -0.154989, 0.106163, 0.161801, 0.0765772, -0.0901071, 0.107376, 0.605135, 0.0582776,
                                                                                                    0.152141, -0.368859, 0.00785133, 0.0103528, 0.150581, 0.118593, -0.0474645, -0.0068382, -0.281316, 0.0714101, -0.146549, 0.580625, -0.386168, 0.0536319, -0.000245565, 0.111987, -0.194502, -0.0248471, 0.321214, 0.080632,
                                                                                                    0.181682, -0.587168, -0.13712, 0.138709, 0.238242, -0.0946999, -0.0473273, 0.0290623, -0.683824, 0.0739779, -0.254826, 0.778884, -0.638382, 0.0649895, 0.0489477, 0.313388, 0.000836644, -0.0261917, 0.660669, 0.137431,
                                                                                                    -0.161198, -0.0875617, -0.026661, -0.0534627, -0.285834, -0.0106443, -0.0257677, 0.0289311, -0.0889882, 0.023384, -0.0138263, -0.0355949, 0.0402249, 0.0522976, -0.00891465, -0.122319, 0.131186, -0.015166, 0.207602, -0.0743506,
                                                                                                    0.0953904, 0.117521, -0.235371, 0.122387, -0.231731, -0.306651, -0.0265312, 0.0506182, 0.116812, -0.0442487, -0.0442135, -0.166295, 0.090572, -0.200937, -0.167411, 0.0897636, 0.176881, -0.0934988, -0.187842, 0.0811569,
                                                                                                    0.291332, -0.38931, -0.0347328, 0.0128535, 0.246891, -0.0856246, -0.0592905, -0.114637, -0.230311, 0.149091, -0.157882, 0.751568, -0.508868, 0.0969545, 0.0741582, 0.134761, -0.00355738, 0.0225047, 0.654413, 0.140588,
                                                                                                    -0.0812588, -0.0315696, 0.0124904, -0.107501, 0.0480594, 0.242217, -0.0539125, 0.0247072, 0.078428, -0.0466355, 0.0721359, -0.0408541, -0.0337776, 0.0987289, -0.068869, -0.01336, 0.120357, -0.0565521, -0.0134255, 0.0294861,
                                                                                                    0.104384, 0.104157, -0.23041, -0.0469075, -0.400213, -0.198101, -0.0144738, -0.213255, 0.145689, -0.209883, -0.0173274, -0.168992, 0.0632568, -0.207603, -0.118758, -0.117642, 0.155964, -0.0459225, -0.312713, 0.0244633,
                                                                                                    0.225933, 0.0155842, -0.0317977, 0.0114591, 0.383491, -0.0586173, 0.121269, -0.0284222, 0.318175, 0.0380553, -0.0204206, 0.84371, -0.0759536, 0.0298271, 0.11354, 0.169107, -0.0466023, 0.120421, 0.553004, 0.103997,
                                                                                                    0.229542, -0.29729, -0.0138119, 0.0432179, 0.179095, -0.00645199, -0.0249017, 0.0096113, -0.320983, 0.0565289, -0.108724, 0.57833, -0.373473, 0.0520507, 0.0291959, 0.158233, -0.190473, 0.0229583, 0.192335, 0.132091,
                                                                                                    0.0687753, -0.490289, -0.0161672, 0.0147929, 0.412282, 0.1072, -0.0878427, -0.169025, -0.713597, 0.0481681, -0.198979, 0.83123, -0.729859, 0.265964, 0.284503, -0.0767577, 0.0156673, -0.109463, 0.729874, 0.0445194,
                                                                                                    -0.163803, -0.0810221, -0.107388, -0.0546886, -0.217558, -0.00157701, 0.076138, -0.0942159, -0.0486407, -0.117376, 0.0209187, -0.0841968, 0.0485321, 0.0838166, -0.0226726, -0.151122, 0.192469, 0.050973, 0.237791, -0.0379821,
                                                                                                    -0.0374884, 0.0997998, -0.0881279, 0.0406371, -0.223824, 0.0705144, 0.0731109, 0.0338352, 0.182229, 0.00562554, 0.0755861, -0.334689, 0.135903, -0.0175763, -0.0271464, 0.0664642, 0.347143, -0.0288484, -0.152793, 0.0409804,
                                                                                                    0.193097, -0.378409, -0.0313891, 0.0847717, 0.324263, -0.031636, -0.0860624, 0.000653003, -0.153905, 0.061806, -0.0646231, 0.763688, -0.521801, 0.0267635, 0.094619, 0.110791, -0.00666138, 0.0125618, 0.622483, 0.128786,
                                                                                                    0.246614, -0.0865699, -0.121432, -0.00657886, 0.0091757, -0.226086, 0.00829822, -0.0716413, -0.0220124, 0.24287, -0.178449, 0.0785562, -0.0306912, -0.0874626, -0.262102, 0.149894, -0.050613, -0.00324862, -0.104891, 0.0247055,
                                                                                                    0.15157, 0.191761, -0.127472, 0.135046, -0.412681, -0.143342, -0.0163728, 0.149554, 0.368695, 0.162448, -0.0219285, -0.37182, 0.0905992, -0.114045, -0.119875, 0.174521, 0.13736, -0.00584737, -0.338989, 0.0721596,
                                                                                                    0.218408, 0.0156939, -0.0188433, 0.026842, 0.247862, -0.0795276, 0.126212, -0.0046001, 0.392793, 0.0574621, -0.00606725, 0.772913, -0.127426, 0.00157916, 0.116276, 0.231464, -0.0259454, 0.117664, 0.552069, 0.121093,
                                                                                                    0.225692, -0.364806, 0.0719846, -0.0141871, 0.242522, -0.0106504, -0.0145794, -0.0329547, -0.270343, 0.0947064, -0.17921, 0.605147, -0.346279, 0.0793383, -0.0057462, 0.0403115, -0.210356, -0.0543711, 0.288473, 0.101093,
                                                                                                    0.211164, -0.549019, -0.186978, 0.0621151, 0.212132, -0.0885153, -0.0573584, -0.0935195, -0.730247, -0.111865, -0.162266, 0.80812, -0.674297, -0.0102887, -0.00588401, -0.00498818, 0.0430865, -0.134093, 0.667925, 0.150515,
                                                                                                    -0.0710899, -0.0609378, -0.161623, -0.0116425, -0.330682, -0.0607618, 0.0639743, 0.0213136, -0.0656206, 0.0164231, -0.052516, -0.0652862, 0.0989287, -0.051134, -0.167412, -0.0475295, 0.242962, 0.027255, 0.0955304, 0.018347,
                                                                                                    -0.101771, 0.0919875, -0.123277, -0.0644476, -0.00712329, -0.0201769, 0.00847166, -0.134735, 0.0560642, -0.0195723, -0.0598777, -0.182769, 0.0084212, 0.118547, 0.109174, 0.00283504, 0.128312, -0.0948845, 0.0194224, 0.0564124,
                                                                                                    0.0893324, -0.415231, -0.0230665, 0.067786, 0.304661, 0.000412723, -0.0592597, -0.110399, -0.175107, -0.0374521, -0.0118261, 0.793015, -0.586877, 0.0634188, 0.0912608, -0.0157973, 0.0339342, 0.0393062, 0.588409, 0.126547,
                                                                                                    0.11891, -0.156942, -0.0895339, 0.0308263, -0.0445999, -0.0687721, 0.0139654, -0.0266984, -0.01037, -0.019214, -0.202094, 0.11904, -0.153786, -0.0570981, -0.140573, 0.0902239, -0.101238, -0.13191, -0.0219851, -0.00625448,
                                                                                                    0.0207696, 0.140734, -0.0482731, -0.0409747, -0.110533, -0.0614423, 0.0885205, -0.0312245, 0.214771, 0.291816, -0.0342954, -0.24973, 0.112813, 0.0543795, 0.038433, 0.175523, -0.00253801, -0.0342116, -0.160997, 0.0883353,
                                                                                                    0.199958, 0.0585614, -0.0309571, 0.081037, 0.356265, 0.0555681, 0.121041, -0.0875179, 0.383442, -0.0235293, 0.051273, 0.79872, -0.0649735, 0.0416775, 0.0634887, 0.0781509, 0.0150482, 0.0255395, 0.617303, 0.118234,
                                                                                                    0.139564, -0.306085, 0.0168215, 0.0650943, 0.239174, 0.044049, 0.0200693, -0.0930065, -0.30883, -0.0374037, -0.0910361, 0.578075, -0.410677, -0.00544425, 0.0829186, 0.0343413, -0.0696485, -0.0363511, 0.195359, 0.0322825,
                                                                                                    0.13258, -0.580833, -0.0996745, 0.116568, 0.218334, -0.00413265, -0.0929471, -0.0806753, -0.635649, -0.136992, -0.130952, 0.816821, -0.643462, 0.0384773, -0.00738988, 0.080811, 0.109555, -0.128924, 0.626945, 0.119889,
                                                                                                    -0.154283, -0.0180407, -0.135725, -0.0309249, -0.235754, 0.0348119, 0.0759694, 0.0169769, 0.0170619, -0.0248896, -0.0488522, -0.110455, 0.0317449, 0.0328606, -0.0263752, 0.0237209, 0.19371, -0.0286607, 0.190988, -0.00171481,
                                                                                                    -0.103532, 0.10843, -0.174072, 0.0879903, -0.192094, -0.108198, -0.00120433, 0.0237632, 0.0997717, -0.0785428, 0.081593, -0.141386, 0.0210212, -0.0503762, -0.0660961, -0.0021969, 0.332417, -0.0836901, -0.0939628, 0.0414144,
                                                                                                    0.104247, -0.330868, -0.118792, 0.0587149, 0.270926, 0.0175894, -0.139626, -0.125929, -0.260046, -0.149479, -0.0762728, 0.841326, -0.605024, 0.0760397, 0.0408471, -0.19423, 0.0567311, -0.0318608, 0.621029, 0.0788295,
                                                                                                    -0.0214548, -0.121424, -0.0747773, 0.087862, 0.0252367, -0.0494329, 0.0542023, -0.0924456, -0.0620892, 0.0200243, -0.218022, 0.0755436, 0.0690836, 0.0344473, -0.0985931, 0.214812, 0.0109, 0.00475029, -0.125965, 0.015547,
                                                                                                    0.00522778, 0.0837267, -0.00909193, -0.0874612, -0.197096, -0.162654, 0.0352652, -0.0210075, 0.145948, -0.0510384, -0.0201878, -0.136954, 0.0215788, -0.0387456, 0.0128397, 0.0937535, -0.0639558, -0.0387408, -0.13755, 0.0825912,
                                                                                                    0.0948284, 0.0113781, -0.000205669, 0.0123639, 0.310856, 0.0156604, 0.0586306, -0.090346, 0.284996, -0.0618164, 0.0639359, 0.897485, -0.0607458, 0.099972, 0.0883387, -0.0155412, 0.0550516, 0.0651045, 0.618226, 0.156996,
                                                                                                    0.135366, -0.275697, -0.0111978, 0.0751862, 0.223335, 0.018474, 0.00859402, -0.0432923, -0.296028, -0.0423077, -0.125915, 0.53962, -0.436458, -0.0409735, -0.0111489, 0.0562083, -0.109422, -0.0353649, 0.233236, 0.10797,
                                                                                                    0.104725, -0.534391, -0.115442, 0.00470181, 0.355319, -0.00228422, -0.0766835, -0.185848, -0.697445, 0.0502866, -0.110996, 0.831838, -0.670252, 0.145191, 0.047513, -0.0640778, 0.0905254, -0.0519569, 0.717509, 0.0774322,
                                                                                                    -0.0628199, 0.0161604, -0.143605, -0.0773976, -0.227494, -0.0278025, -0.00582332, -0.0189754, -0.0145295, 0.00166809, -0.0985451, -0.0781651, 0.0328946, 0.059025, -0.0345441, 0.0220213, 0.147573, 0.0375893, 0.159611, -0.0564711,
                                                                                                    -0.0713074, 0.151529, -0.0558463, 0.113355, -0.15357, -0.030283, 0.00183504, -0.0361479, 0.254381, -0.0636422, 0.0676282, -0.306924, 0.167308, -0.0393702, -0.0496415, 0.0610346, 0.438296, 0.0153191, -0.13468, 0.0698414,
                                                                                                    0.021791, -0.316837, -0.00589185, 0.0214598, 0.290245, 0.153118, -0.141014, -0.0386736, -0.134008, 0.244731, -0.0179219, 0.694364, -0.618596, 0.050384, 0.0822685, -0.0664359, 0.152176, -0.108452, 0.73959, 0.0701808,
                                                                                                    0.213471, -0.153304, -0.326492, -0.119914, -0.081585, -0.251651, 0.0264516, -0.360501, -0.276673, -0.352904, -0.166832, 0.366522, -0.0325843, -0.227189, -0.314663, -0.156391, 0.0819162, -0.0980947, -0.0908301, -0.00627785,
                                                                                                    -0.0427253, 0.111736, -0.0588102, 0.113818, -0.383993, -0.0537673, 0.0496715, 0.00174264, 0.269594, -0.240732, -0.0260088, -0.245207, 0.226927, -0.0730398, -0.0505085, 0.133211, 0.234326, 0.0290638, -0.238091, 0.0235276,
                                                                                                    0.0658521, 0.104149, 0.0508844, 0.0156914, 0.351193, 0.115129, 0.0340069, 0.0401686, 0.304407, 0.0531992, 0.0608899, 0.748341, -0.0418848, 0.0963851, 0.128397, -0.0373846, 0.0743099, -0.0191378, 0.661717, 0.041961,
                                                                                                    0.0838706, -0.25655, 0.0216613, 0.0545725, 0.238254, 0.143832, -0.0685161, -0.0509066, -0.278039, 0.0823794, -0.0927222, 0.63301, -0.444846, -0.00601245, 0.0273455, 0.0314174, -0.0781729, -0.00804165, 0.203963, 0.0739442,
                                                                                                    0.057855, -0.483059, -0.0708812, 0.0063125, 0.234582, 0.154699, -0.112423, 0.0411823, -0.663578, 0.2562, -0.0427047, 0.78331, -0.753052, 0.166967, 0.0987788, -0.17249, 0.1284, -0.243769, 0.77324, 0.0832553,
                                                                                                    -0.07104, -0.0105679, -0.11502, 0.00933664, -0.283632, -0.0919849, 0.0452894, -0.0146081, -0.0564747, -0.0592534, -0.0514622, -0.109015, 0.0837492, -0.0551046, -0.114487, -0.0311928, 0.120127, -0.00610067, 0.181336, -0.0752917,
                                                                                                    0.00408277, 0.101923, -0.230217, 0.0185209, -0.19527, -0.118739, 0.0853921, -0.157649, 0.000748108, -0.149384, -0.0184268, -0.00752736, 0.077669, -0.0791288, -0.1033, -0.159688, 0.325125, -0.0764187, -0.114079, 0.0832979,
                                                                                                    0.0293799, -0.359064, -0.0313304, 0.0829457, 0.297724, 0.165988, -0.148435, -0.124564, -0.263223, -0.00327421, 0.047378, 0.835997, -0.573584, 0.0654033, 0.0492351, -0.15307, 0.180644, -0.0516644, 0.699731, 0.137141,
                                                                                                    -0.228913, -0.139215, 0.140346, -0.0715227, 0.109243, 0.181628, -0.018605, 0.306405, 0.184735, 0.530665, 0.0767238, -0.163256, -0.127789, 0.146614, 0.0873575, 0.094206, -0.245066, -0.00849286, -0.0483706, -0.0327646,
                                                                                                    0.142622, 0.170165, -0.218423, -0.0446096, -0.351648, -0.239058, 0.0219507, -0.249992, 0.0905018, -0.195487, -0.0198555, -0.140911, 0.0888871, -0.188085, -0.197203, -0.114402, 0.14553, -0.0360742, -0.344273, 0.0517192,
                                                                                                    0.0458839, 0.0413157, 0.0293314, -0.00830994, 0.314518, 0.176915, 0.0256333, -0.0136911, 0.274912, -0.0518363, 0.0610422, 0.785136, -0.011695, 0.109251, 0.0684109, -0.0780329, 0.0698595, 0.0879009, 0.558742, 0.0604609,
                                                                                                    0.139039, -0.353899, 0.013818, 0.0413957, 0.135606, 0.153011, -0.0701599, -0.0269238, -0.296584, 0.0325088, -0.0443704, 0.541413, -0.462513, 0.0591795, 0.0275896, 0.012744, -0.0866139, -0.066062, 0.24578, 0.0659789,
                                                                                                    0.0277966, -0.482114, -0.0842754, 0.0666116, 0.293145, 0.212731, -0.0560792, -0.0240801, -0.631341, -0.0966701, -0.0462645, 0.754758, -0.578072, 0.133053, 0.107727, 0.0237338, 0.221703, -0.0310347, 0.617949, 0.133381,
                                                                                                    -0.0954902, 0.000449695, -0.0581205, 0.00217626, -0.323123, -0.0972432, 0.0502981, -0.0957918, -0.0239573, -0.145333, -0.0948973, -0.123665, 0.0936801, -0.103301, -0.137986, 0.024568, 0.15506, -0.0586722, 0.144225, -0.0519604,
                                                                                                    -0.225899, 0.064088, 0.0439697, 0.087447, -0.137237, 0.152022, 0.0404697, 0.0984326, 0.261645, 0.306564, 0.125036, -0.333935, 0.00144531, 0.0703466, 0.111713, 0.0348745, 0.202419, -0.0572386, -0.0636303, 0.0435028,
                                                                                                    0.00754522, -0.403793, -0.0209843, 0.0846281, 0.268614, 0.144715, -0.100127, -0.12477, -0.199348, -0.0149083, 0.0621402, 0.801877, -0.46693, 0.0229948, -0.0230917, -0.0440022, 0.146904, -0.197298, 0.601019, 0.0719255,
                                                                                                    -0.100906, 0.00542675, -0.0347452, 0.0789714, 0.245008, 0.0505165, 0.0455804, -0.106676, -0.204483, -0.17786, -0.141282, 0.194861, -0.0963963, 0.17462, 0.0770859, -0.0255404, -0.0585815, 0.0512348, 0.137379, -0.0223925,
                                                                                                    -0.21095, 0.0994606, 0.17512, -0.0897949, -0.144038, 0.00585522, 0.0307697, 0.226157, 0.276421, 0.433504, 0.139841, -0.397197, -0.0487983, 0.178692, 0.221809, -0.0634518, -0.0790709, -0.068365, -0.104238, 0.0154508,
                                                                                                    0.13397, 0.102504, 0.066237, 0.00342369, 0.316914, 0.19307, 0.0501967, -0.0359244, 0.318694, -0.0252518, 0.177227, 0.820934, -0.0156766, 0.0200221, 0.0560007, -0.026923, 0.156148, 0.00912994, 0.581832, 0.119124,
