/*************
* neural_net_params.h
*
* Neural Network Parameters
* Code Generated using nn4mc
* Hardware Plateform: ESP-32
*
* This file defines the weights used by the neural network implementation.  Weight representations were
* created automatically using nn4mp.
*/

#ifndef __NEURAL_NET_PARAMS_H__
#define __NEURAL_NET_PARAMS_H__

#ifdef __cpluscplus
extern "C" {
#endif



const float conv2d_1_W[20] = {   -0.162143,   0.643318,   0.0949629,   0.322286,   0.420247,
                                 -0.778362,   0.249893,   0.0126267,   0.275692,   -0.21596,
                                 0.011934,   0.109595,   0.761946,   -0.47147,   0.859891,
                                 0.769195,   1.19723,   -0.00187101,   0.193268,   0.721714};


const float conv2d_1_b[5] = {0.111239, 0.00322347, 0.0565346, -0.0683526, 0.117071};


const float conv2d_2_W[60] = {   -0.119021,   -0.622779,   -0.225148,
                                 0.648285,   0.0951993,   0.131389,
                                 0.272287,   0.322635,   -0.11419,
                                 0.580065,   0.401692,   0.162549,
                                 0.337693,   0.166934,   -0.42479,
                                 -0.143278,   -0.54034,   0.205447,
                                 0.847184,   -0.227324,   -0.183183,
                                 0.156331,   0.191048,   -0.0489339,
                                 0.535016,   -0.700722,   -0.35914,
                                 0.426419,   0.102328,   0.0188911,
                                 -0.171633,   -0.958565,   -0.23987,
                                 -0.552038,   0.264973,   0.11224,
                                 -0.831565,   0.0173413,   0.0754686,
                                 0.960864,   0.373547,   -0.0644134,
                                 -0.717084,   0.519636,   -0.319435,
                                 -0.487118,   -1.3491,   0.161138,
                                 -0.523743,   0.2019,   -0.401653,
                                 -0.338898,   0.527115,   0.267374,
                                 0.452212,   -0.343955,   -0.384571,
                                 -0.942087,   -0.122407,   -0.322555};


const float conv2d_2_b[3] = {-0.0988828, -0.0311521, -0.00728115};


const float dense_1_W[5070] = { -0.0317281, 0.0145423, -0.0906672, -0.0457391, -0.0567307, 0.0887388, 0.0988852, 0.0381832, -0.0796752, -0.0100097,
                                -0.0969565, 0.03234, -0.094327, -0.00743804, 0.101288, 0.0143402, -0.0410485, -0.078616, 0.079646, -0.00230609,
                                -0.0072893, -0.0265368, -0.0487714, 0.0301772, 0.040877, -0.0324393, 0.0516915, 0.0129492, 0.0240432, -0.0506348,
                                0.04858, -0.0183458, 0.0952781, -0.0306771, -0.0178025, 0.0144293, 0.0865244, 0.0251205, 0.0164635, 0.107433,
                                0.04621, 0.0234185, -0.0666073, -0.101086, -0.0634258, -0.0839503, -0.0603366, -0.096755, 0.0848314, 0.0862306,
                                -0.092852, -0.0492745, 0.0671888, 0.0645508, -0.0416465, 0.02053, -0.024357, 0.0835397, -0.00770447, -0.0204757,
                                0.0802353, 0.00275997, -0.0715998, -0.0166214, -0.00604404, -0.0920003, 0.0271671, -0.0597229, -0.046867, 0.0850177,
                                -0.0281711, 0.0148565, 0.0246206, -0.0871092, -0.101942, -0.03393, -0.0860567, -0.0542265, 0.00369086, -0.033458,
                                0.0508296, -0.0658879, -0.0691409, -0.0357828, -0.0356726, 0.0575458, -0.0656196, -0.0128971, -0.0327555, 0.0648887,
                                0.0787205, 0.0417241, 0.0591612, -0.0398982, -0.0118291, 0.0480191, -0.0140759, 0.0765946, 0.0750936, -0.0487342,
                                -0.0587065, 0.214833, 0.00663642, 0.0531388, -0.0389471, 0.0972585, -0.0764284, 0.0578399, 0.0128362, -0.118957,
                                -0.0251139, -0.0575462, -0.0266975, 0.0973542, 0.0790101, -0.0979177, 0.0109352, 0.0300855, 0.0572981, -0.0469758,
                                -0.00618312, -0.000106394, -0.068053, -0.0977433, -0.0682635, -0.0860536, -0.0625502, 0.089854, 0.0739817, 0.0422336,
                                -0.0758905, 0.375856, -0.10567, -0.204585, -0.0474411, 0.0245258, 0.0398936, -0.0426162, -0.0198984, -0.0326913,
                                -0.0511742, 0.10139, -0.0572651, -0.0134925, -0.0919643, 0.0310309, 0.0771817, 0.073297, -0.0318575, 0.042921,
                                -0.0216672, 0.133291, 0.00754358, -0.138459, 0.0297716, -0.0449548, -0.0768279, 0.0199212, -0.0405669, 0.0628664,
                                -0.0636738, 0.317379, -0.0562466, -0.210733, -0.0717567, 0.0929203, -0.0885007, -0.0661674, -0.0902677, -0.147113,
                                0.0862516, -0.0153544, -0.0723464, 0.0283148, 0.00210924, -0.00748967, -0.101901, 0.0531801, 0.0310496, -0.101654,
                                0.0376925, 0.241286, -0.070358, -0.061871, 0.0566925, -0.065821, -0.071359, -0.0411583, -0.0290757, 0.0165516,
                                -0.00135863, 0.458755, -0.104887, -0.280478, -0.0251739, 0.0718395, -0.0424488, -0.113216, -0.117399, -0.177263,
                                0.00998388, 0.00266086, 0.0440828, -0.0657334, -0.03477, -0.0656806, 0.0232356, 0.0490481, 0.0340535, -0.0864525,
                                -0.0252042, 0.0861607, -0.0403227, 0.033793, -0.0464853, -0.0155659, 0.00849724, 0.061296, -0.0843089, -0.0335164,
                                -0.137687, 0.431613, -0.0906738, -0.240862, -0.0816669, 0.0161177, -0.0418385, -0.0673732, -0.184176, -0.0136795,
                                0.0362281, -0.0117681, -0.0198158, -0.0623136, 0.0554322, -0.0354085, -0.102284, 0.0516928, -0.0581128, -0.0861229,
                                -0.0262738, 0.211659, -0.162681, -0.0226485, -0.0283659, 0.0902077, -0.118773, 0.0500229, -0.133124, -0.0796455,
                                -0.0541184, 0.556991, -0.244802, -0.202927, -0.03019, -0.0681597, 0.0291595, -0.193293, -0.107446, -0.19926,
                                -0.0641018, -0.0901532, 0.0771733, -0.0592633, -0.0646517, -0.0609167, -0.0865337, -0.010458, -0.0961456, 0.0269876,
                                -0.0574008, 0.222869, -0.0969019, 0.0598438, -0.0319011, 0.031224, -0.032238, 0.0235922, -0.124583, -0.0940261,
                                -0.0472477, 0.591972, -0.133708, -0.141698, -0.117081, -0.0975872, 0.00694188, -0.0787811, -0.254745, -0.208512,
                                0.0212918, 0.0186817, 0.1051, -0.0712099, -0.00268821, 0.00774528, 0.0171917, 0.0675055, -0.0155206, 0.0904457,
                                0.04808, 0.214271, -0.0163249, -0.0413726, 0.010902, 0.0521623, -0.0343991, 0.0607723, -0.0338174, 0.038905,
                                0.0278218, 0.56335, -0.153706, 0.0400418, 0.0275959, 0.0965545, -0.00752705, -0.181748, -0.180597, -0.171585,
                                -0.0338227, 0.0518765, -0.0671192, -0.0120201, -0.0201301, -0.100993, -0.0632304, 0.076279, -0.0688319, -0.0294013,
                                -0.0565618, -0.0174918, -0.101289, 0.0529121, -0.0379711, -0.0816782, 0.0591292, 0.102168, -0.065291, -0.0344868,
                                0.0479802, 0.24855, -0.000992154, -0.0411248, -0.101695, 0.0512124, 0.105034, -0.0885903, -0.0680608, 0.0601058,
                                -0.0761876, -0.0862794, -0.0141864, -0.0762828, -0.0977962, 0.0792686, 0.00590619, 0.0255667, -0.0647989, 0.0711819,
                                0.0885454, 0.0538626, 0.0423976, 0.108515, 0.0374132, 0.0849168, 0.0279681, 0.0596038, -0.00316971, 0.0607168,
                                -0.00511967, 0.0898348, -0.0460636, 0.0638133, 0.0938831, -0.0246755, 0.105355, -0.0827048, -0.117563, 0.0909748,
                                0.0281473, 0.0836833, -0.0864878, 0.0398745, 0.0353586, -0.0379213, 0.01136, 0.0127724, -0.100751, 0.0045855,
                                0.0971302, 0.00749796, 0.0650219, 0.0129792, -0.081731, 0.0192781, 0.0485641, 0.0552572, 0.121093, 0.095331,
                                -0.0027196, -0.100973, -0.0985106, -0.0159266, -0.0316715, -0.0043966, -0.0502674, 0.054522, -0.0765619, 0.029507,
                                0.0686118, -0.0418032, -0.0596539, 0.0174616, -0.0644995, 0.00011915, 0.00773986, 0.0495518, 0.0535614, -0.0437531,
                                0.10613, 0.00288195, 0.0194029, -0.0110369, -0.0697277, -0.0305992, -0.0965874, 0.119644, 0.0219988, 0.106296,
                                -0.0682771, -0.0872579, -0.0357447, -0.0792794, 0.058674, 0.106531, -0.0523734, 0.123577, 0.00637701, -0.0548747,
                                -0.0285536, -0.0558893, -0.0759627, 0.027744, 0.0665027, 0.0774867, -0.04422, 0.0537666, 0.0850943, -0.00749072,
                                0.0981912, 0.141891, 0.039049, -0.10926, -0.0729074, 0.0233488, 0.0859267, -0.0975043, -0.0211901, 0.0912858,
                                -0.00252317, 0.018714, 0.0166292, 0.0970364, 0.058399, 0.0374366, -0.0292537, 0.0726813, -0.00358409, -0.00527491,
                                -0.0110956, -0.0975492, -0.00364771, -0.0413297, 0.0457996, -0.046999, 0.0448136, -0.0687742, -0.00762867, 0.0681863,
                                -0.0444722, -0.0251749, 0.251591, -0.103835, -0.0490781, 0.0467753, 0.0601514, 0.122942, 0.194876, -0.0574057,
                                0.0150688, 0.0960311, 0.035356, -0.126359, -0.0530815, -0.0568811, 0.00322112, 0.0566773, 0.0734699, -0.10758,
                                0.0214641, 0.0173891, 0.00218447, 0.0391616, 0.0320901, 0.090386, -0.0873821, 0.0655644, 0.00521849, 0.0860313,
                                -0.0842195, -0.0384727, 0.196804, -0.198731, -0.0712267, -0.0172686, -0.12092, -0.0746932, 0.216026, -0.00211611,
                                -0.0998576, 0.0310352, 0.107665, -0.104146, -0.140846, 0.0653508, -0.0243902, 0.00464142, 0.108037, 0.0088674,
                                -0.0228233, -0.00453334, -0.0921169, -0.065669, 0.059831, 0.0665595, 0.00490594, 0.073094, -0.076543, -0.074752,
                                -0.0559946, -0.0796538, 0.356053, -0.240546, -0.0603801, 0.0432909, -0.138377, 0.13749, 0.2068, -0.113602,
                                0.0597864, 0.0675043, 0.149139, -0.110757, -0.161325, -0.0382168, -0.194758, 0.00691825, 0.119288, -0.0356511,
                                -0.0906058, -0.0142651, 0.104921, 0.0259509, -0.0778555, 0.029459, 0.0762228, -0.0529444, -0.0102883, 0.00752755,
                                -0.0970686, -0.167081, 0.280561, -0.295729, -0.0564046, -0.0579353, -0.0633712, 0.0484855, 0.0989381, -0.0458278,
                                0.0875773, 0.0875202, 0.148248, -0.246999, -0.243112, 0.00774745, -0.235539, 0.0674555, 0.116307, 0.0164075,
                                0.093665, 0.00948021, -0.0526405, 0.0658457, 0.0205625, 0.0701993, -0.0957498, -0.0500805, 0.0688187, 0.047127,
                                -0.106644, 0.028119, 0.0616046, -0.233049, -0.0335046, -0.0565389, -0.119858, -0.0884987, 0.0671153, -0.173051,
                                0.0212594, 0.0727252, 0.123142, -0.172033, -0.332285, 0.0840132, -0.236364, 0.0236504, 0.0873615, -0.0236726,
                                0.0865641, -0.0473493, -0.0146892, -0.0353871, 0.0140414, 0.0570565, 0.076968, 0.0366617, -0.0640622, -0.0195846,
                                -0.0543521, 0.263366, -0.0182979, -0.240035, -0.0289908, 0.0844671, -0.164419, -0.177946, -0.0761938, -0.137965,
                                0.01791, 0.0857819, 0.0324524, -0.00419074, -0.312616, 0.0555617, -0.150052, 0.0290378, 0.0378589, 0.0375118,
                                -0.0341823, -0.054461, -0.0979102, -0.0917654, -0.0172552, 0.00999698, -0.106917, -0.0266396, -0.0292924, -0.0102686,
                                -0.13998, 0.353217, -0.216743, -0.0857129, -0.138166, 0.0912907, -0.114464, -0.132723, -0.194397, -0.129039,
                                0.00684486, 0.180021, -0.0418672, 0.0442167, -0.189311, 0.0194112, -0.0212908, 0.060648, 0.00621569, 0.000689101,
                                -0.0472058, -0.0385215, 0.0136695, -0.0359185, -0.0339821, 0.107412, 0.0343443, -0.0284459, 0.0993938, -0.0328423,
                                -0.00332509, 0.406417, -0.263464, -0.0335912, -0.0499928, -0.0746328, 0.0619537, -0.0182224, -0.228562, -0.0439419,
                                -0.00524411, 0.181899, -0.0734125, 0.0655213, -0.169169, -0.0252884, 0.067964, -0.0472395, 0.00598832, -0.00215201,
                                0.0863347, -0.0227383, -0.01131, 0.0200427, 0.0552269, -0.0672651, 0.0112769, 0.0563489, 0.0196121, 0.062885,
                                -0.0115194, 0.276639, -0.191548, -0.00778267, -0.116516, 0.023122, 0.0714348, -0.0349895, -0.0473699, -0.0373113,
                                0.144958, 0.0994278, -0.235985, 0.213501, -0.14272, -0.0767149, 0.12942, 0.0376781, -0.0701862, -0.0261156,
                                -0.0454331, 0.040215, -0.0952748, 0.0826395, -0.0740418, -0.0560357, -0.0124612, -0.106399, -0.0881216, -0.104346,
                                0.086114, 0.0800557, 0.040704, -0.00217299, 0.0466394, 0.00652597, 0.0129474, -0.00893542, -0.103389, 0.0226025,
                                -0.0657418, 0.0456109, -0.0229177, 0.0199465, -0.0263124, 0.0323254, 0.115597, 0.0213739, -0.174563, -0.0923809,
                                0.0815639, -0.0959263, -0.0366563, -0.0732757, 0.0669444, -0.0395521, 0.0840169, 0.0693155, 0.0998986, 0.0775285,
                                0.0896506, 0.0398087, -0.0595146, 0.0314437, 0.0935252, 0.0667066, -0.000148796, 0.0519669, 0.0147264, -0.0634288,
                                -0.0525425, -0.0503227, 0.0694866, -0.057112, 0.05611, -0.0050223, 0.0711603, 0.0629419, -0.0414338, -0.063203,
                                -0.0244646, -0.0105026, -0.107648, 0.0252314, 0.0535811, 0.0728092, -0.0676426, -0.0552925, 0.0609904, -0.0675448,
                                0.0284487, 0.0988513, 0.200682, -0.0260765, 0.0954421, -0.106032, -0.0187118, 0.0254107, 0.0737194, -0.0745621,
                                -0.0530751, 0.0648727, 0.280675, -0.0128779, 0.0155892, 0.063431, -0.0493334, 0.246033, -0.0577883, 0.0788825,
                                0.107123, 0.0603582, -0.0386244, -0.0760704, 0.0914386, 0.039835, -0.0805428, 0.0407411, -0.0654594, 0.00176748,
                                -0.0547985, -0.0711892, 0.374329, 0.0265249, 0.0352624, -0.107405, -0.0377171, 0.119061, 0.146752, -0.0534338,
                                -0.0314066, 0.0459279, 0.134593, -0.0201254, 0.017743, 0.0201003, -0.040817, 0.0868778, -0.00132275, -0.140447,
                                0.0136726, -0.055388, 0.0975639, -0.036345, 0.0324457, 0.0404373, 0.0990265, 0.0803373, -0.0222543, -0.0770285,
                                -0.123893, -0.1187, 0.548675, 0.0290159, -0.00429203, -0.0137809, 0.0970495, 0.0884596, 0.128058, -0.177584,
                                -0.135454, 0.0706841, -0.027654, 0.0256809, -0.0745109, -0.0848007, 0.00467403, -0.015817, -0.0610225, -0.158554,
                                -0.104202, -0.0552, -0.0136201, 0.0223793, -0.0769401, 0.0704452, -0.00244518, -0.0194291, -0.0132499, -0.107588,
                                -0.104472, -0.158033, 0.466131, 0.00185942, 0.0177768, 0.0755097, -0.0363772, 0.112451, 0.139317, -0.148938,
                                -0.132281, 0.0173088, 0.00360651, 0.0085755, -0.104132, 0.0166846, -0.00110221, -0.0230839, -0.0750314, -0.0935453,
                                0.102148, -0.0880823, -0.0407883, 0.00678544, -0.0204356, -0.0721613, -0.0457039, -0.00534472, 0.0542676, -0.000950739,
                                -0.0898494, -0.231869, 0.297001, 0.0289491, -0.0439672, -0.0893656, -0.127139, 0.0815532, 0.125505, -0.099155,
                                -0.00727355, 0.0105564, 0.0647387, -0.050312, -0.119539, -0.015006, -0.042597, 0.0154347, 0.0161837, -0.0503541,
                                0.0697694, -0.0279105, 0.00597532, 0.0881714, 0.0370037, -0.0680118, 0.0840823, -0.0182318, 0.0925416, -0.0153888,
                                -0.110914, -0.287696, 0.142114, -0.0797262, -0.122594, -0.0965871, -0.0782425, 0.0473496, 0.0663159, -0.0124751,
                                0.0323018, 0.00839028, 0.0735089, -0.0766774, -0.0398036, -0.109, -0.0569355, 0.00833637, 0.0333797, -0.0455686,
                                0.107449, 0.0729428, 0.0553186, 0.102101, 0.0852495, -0.00951907, -0.0397755, -0.00151468, 0.0116579, -0.0162544,
                                -0.208301, -0.246487, 0.113174, -0.0825979, -0.225866, 0.0469407, -0.0946627, 0.0115752, 0.0497024, 0.00981228,
                                -0.0191402, -0.0229422, 0.0748762, -0.0693365, 0.0043827, -0.116675, -0.0632911, 0.00865755, 0.0224534, -0.0795563,
                                -0.0436253, -0.0765168, 0.0586281, 0.0276678, -0.0688472, -0.0994812, -0.0262665, -0.0856936, 0.0801337, -0.0205984,
                                -0.208025, -0.130496, -0.0135943, -0.103166, -0.229213, -0.0508374, -0.141407, 0.0129081, 0.0192621, 0.0396698,
                                -0.032593, -0.00150311, 0.0371256, -0.0744545, -0.033101, -0.056407, -0.0473877, 0.0106475, -0.0100629, -0.0357413,
                                0.0273671, 0.039075, 0.0553123, -0.0788316, 0.0827256, 0.0686267, -0.027766, 0.0179552, -0.100994, -0.0553788,
                                -0.0879866, 0.0145729, -0.10819, -0.024272, -0.233226, -0.0855573, -0.0880774, 0.0397067, -0.0487937, -0.0173182,
                                -0.00175405, 0.0397123, 0.00578174, -0.0246518, -0.145845, -0.0647563, -0.0547064, -0.00308535, 0.019789, -0.0108341,
                                0.0188483, 0.0650566, 0.0806376, 0.000873748, -0.0956929, 0.030028, -0.00148441, 0.093805, -0.0760589, 0.0419852,
                                0.0920068, 0.0680183, -0.347703, 0.0550169, -0.291114, 0.0271181, -0.0570824, 0.062236, -0.0556248, -0.0838547,
                                0.0626601, 0.0251686, -0.0652304, 0.0312434, -0.210427, 0.0559393, -0.0253422, -0.00794008, 0.0484351, -0.0168647,
                                -0.00117459, -0.0178955, 0.0935195, -0.0554453, -0.0305437, -0.0809194, 0.104475, 0.0594023, 0.0992073, 0.0157527,
                                -0.00620493, -0.0372064, -0.218817, 0.241705, -0.0623993, -0.000589959, -0.096676, 0.0634102, -0.0908725, -0.0935636,
                                -0.0555181, 0.092568, -0.199644, 0.115561, -0.230107, -0.00315347, 0.0132273, -0.0344644, -0.079221, -0.0249808,
                                0.0982829, -0.0598072, 0.007091, 0.00367393, -0.0725166, -0.00568314, -0.0744634, -0.0278016, -0.00621229, -0.0639,
                                -0.121955, 0.079215, -0.0710951, 0.0300138, -0.0260517, -0.0037114, -0.0389061, 0.0938211, -0.0953229, -0.0690957,
                                0.0172207, 0.0427642, -0.0802416, 0.101093, -0.198902, 0.0371033, -0.0373796, 0.113751, -0.101581, -0.113474,
                                -0.102723, -0.0121024, -0.0313326, 0.0616303, -0.0722787, 0.0604843, -0.027952, -0.0381344, -0.0466853, -0.0484396,
                                -0.0325123, 0.0499327, 0.118111, -0.0748394, 0.0367735, -0.073056, 0.0322756, 0.0718257, -0.0443694, -0.030537,
                                -0.102135, -0.00140806, 0.110823, 0.0588757, 0.176452, 0.0367693, 0.0889594, 0.0815999, -0.0263164, 0.106481,
                                0.0859416, 0.0489452, -0.00733852, -0.0174057, 0.0446371, -0.0671901, -0.022917, 0.0874453, -0.0907389, 0.0297868,
                                -0.0788136, 0.062163, 0.430321, -0.0313092, 0.0575476, 0.092359, 0.109904, 0.225999, 0.0390461, 0.0973795,
                                -0.0898272, 0.0340341, 0.183781, 0.0462132, 0.0327898, -0.0627742, 0.104344, 0.196841, -0.0224593, 0.0665143,
                                0.100197, -0.0488722, -0.0652039, -0.0975566, 0.0532714, 0.0878832, 0.105727, -0.0679882, -0.01774, -0.0613255,
                                -0.0540762, -0.129581, 0.424656, 0.0800356, 0.0611066, -0.0718239, 0.0298143, 0.223819, 0.0720064, 0.0792644,
                                -0.107295, -0.0194564, 0.0989987, 0.075119, 0.00703696, -0.0647575, 0.0305019, 0.0682232, 0.00324266, 0.0139091,
                                0.00965728, 0.0434737, -0.00728527, -0.0661987, 0.0524806, 0.0469477, -0.0610081, 0.0247775, 0.05125, 0.0112329,
                                -0.112939, -0.0990686, 0.412943, 0.044052, 0.0577812, -0.0196254, 0.0288372, 0.134603, 0.101565, 0.00960154,
                                -0.0646902, 0.0315858, -0.0352276, 0.056522, -0.0404368, 0.0837829, -0.000302224, -0.00734146, -0.0378287, 0.0246948,
                                -0.0512416, -0.0448999, -0.0616657, -0.0220369, 0.0456493, 0.0317183, -0.0037861, -0.101273, -0.023824, -0.106259,
                                -0.0943111, -0.166689, 0.374269, -0.00348309, 0.0940967, -0.0399383, 0.00623141, 0.199223, 0.128276, -0.0106262,
                                -0.0664207, -0.000881477, -0.022838, 0.057107, -0.0585763, -0.0887053, -0.0148403, 0.00671263, -0.0431226, 0.0027337,
                                0.0745637, 0.0166589, -0.0381891, 0.0464589, 0.102324, -0.0335229, 0.0959772, 0.077614, 0.0325548, -0.067178,
                                -0.0917093, -0.213628, 0.247038, -0.0297172, 0.105124, -0.0742464, 0.00983823, 0.135178, 0.101796, -0.00942405,
                                0.0303634, -0.0470841, 0.00890661, 0.0205151, 0.0265005, 0.0104806, 0.00751091, -0.0044522, -0.00324784, 0.00433053,
                                -0.0608528, 0.0846405, 0.0267985, 0.0987572, -0.0529839, -0.0338213, -0.0601507, 0.0394275, -0.0532549, 0.0124949,
                                -0.191532, -0.283608, 0.120068, -0.0496092, 0.145237, -0.0442667, 0.0492365, 0.0757922, 0.0036657, -0.0251853,
                                0.013228, -0.0409344, 0.0153675, -0.0309186, 0.0612415, -0.0745963, -0.00359626, -0.01536, 0.0115135, 0.0166844,
                                -0.0205398, 0.101538, 0.105573, 0.0440616, -0.000306965, -0.072594, 0.102032, -0.0922397, 0.103694, -0.0911542,
                                -0.337098, -0.288349, 0.0442797, -0.0854898, 0.172307, 0.0240099, 0.032357, 0.029038, -0.0449477, 0.0145571,
                                0.00560901, -0.046531, 0.0677696, -0.0450023, 0.0974278, -0.0376632, -0.0155066, 0.0323995, 0.0287645, 0.0215291,
                                -0.0556379, 0.104461, 0.0312952, -0.0755544, -0.0757271, 0.10429, -0.0770825, 0.0862855, 0.105081, 0.0303252,
                                -0.215107, -0.198719, -0.0635872, -0.0983897, 0.123815, -0.00945258, -0.0227893, 0.0114785, -0.0484007, 0.0354628,
                                0.00505067, -0.0688299, 0.122076, 0.0459736, 0.0632525, -0.0946197, 0.0251265, 0.035511, 0.0301585, 0.0878049,
                                0.0900954, -0.00294344, -0.0425591, 0.0339376, 0.0979145, -0.00528508, 0.107576, 0.00114469, 0.0398572, 0.0861395,
                                -0.0564538, -0.0879856, -0.130837, -0.0961315, 0.012766, 0.0643563, -0.0874851, 0.0428674, -0.0465137, 0.0391803,
                                -0.0322804, -0.0597917, 0.111957, 0.0286708, -0.0197617, 0.0366275, -0.00374859, -0.00892348, 0.0475075, 0.0533057,
                                0.0596912, -0.00730493, 0.0604236, 0.0491226, -0.0902609, 0.0802848, 0.0100182, 0.0389698, -0.0986937, -0.0431942,
                                -0.00565727, -0.016552, -0.250639, -0.0541638, -0.159301, -0.0103384, -0.0753516, 0.110453, -0.117651, 0.0369624,
                                -0.0249429, -0.00190613, 0.101056, 0.0264755, -0.0486969, 0.0107611, -0.0212586, -0.00256436, 0.011007, 0.0374317,
                                0.0656061, -0.00966416, -0.0780187, 0.00183492, 0.0996622, -0.0726286, 0.0340103, -0.0346206, -0.0591294, 0.0640174,
                                -0.0841039, 0.0431564, -0.419588, -0.0523839, -0.202421, -0.100929, -0.113602, 0.197536, -0.158913, -0.0565789,
                                -0.0344419, 0.0127095, -0.0470903, -0.0265048, -0.191201, -0.0721009, -0.0537616, -0.0282442, 0.00161207, 0.0400824,
                                -0.104351, 0.0870634, -0.0223844, 0.0110741, -0.0867501, -0.0595873, 0.0321053, 0.0722384, 0.0333003, 0.0604757,
                                -0.0192318, -0.113011, -0.159769, -0.100997, -0.274389, -0.0147162, -0.0822189, 0.333421, -0.35819, -0.021929,
                                -0.186689, -0.105688, -0.205081, -0.0805386, -0.266764, 0.0925633, -0.132533, 0.147912, -0.237985, -0.129198,
                                -0.0406948, 0.104113, 0.0706521, -0.0858097, 0.104068, -0.103019, 0.0241932, -0.0677813, -0.0828911, -0.0238249,
                                0.0618006, -0.0880206, 0.112617, 0.120587, 0.102094, 0.0863815, 0.144731, 0.18004, 0.00890995, 0.098795,
                                0.0329814, -0.0196058, 0.113348, 0.131632, 0.100639, 0.023517, 0.131408, 0.238123, -0.0261031, 0.11666,
                                -0.0230479, 0.0336875, -0.0659543, -0.0851941, -0.0513993, -0.0825618, -0.0145077, 0.0214925, -0.086117, 0.0168655,
                                0.0526525, -0.180788, 0.403207, 0.0817102, 0.138519, -0.0182609, 0.0643732, 0.23137, 0.146267, 0.00269549,
                                0.0158738, -0.128451, 0.208022, 0.107893, 0.141759, 0.0762829, 0.0201554, 0.253319, 0.0587444, 0.110942,
                                0.0558155, 0.100997, 0.0636313, 0.0215065, -0.028416, -0.0216625, 0.0199659, -0.044288, -0.0140988, 0.0480897,
                                -0.0230689, -0.176168, 0.373487, 0.0764181, 0.00256381, 0.0340232, 0.0524955, 0.206857, 0.122465, 0.0495377,
                                -0.0643635, 0.0413127, -0.0345162, 0.0811595, 0.0843262, 0.0668495, 0.0146774, 0.0654283, 0.049896, 0.050384,
                                0.0723475, 0.0791321, -0.0911827, -0.0349225, 0.0830837, 0.0463511, -0.103184, -0.0544069, 0.03384, -0.0918069,
                                -0.128441, -0.223695, 0.268267, 0.026127, 0.0209408, -0.0127092, 0.0116269, 0.0998383, 0.120248, 0.13591,
                                -0.0241118, 0.0104631, -0.156342, 0.0335177, 0.0503166, -0.0614024, 0.0284203, -0.0181236, 0.0211285, 0.0682145,
                                -0.0130291, 0.00284319, -0.0893017, 0.0114473, -0.0409231, -0.101103, 0.00109955, 0.0806318, 0.0251954, -0.0504214,
                                -0.149694, -0.245127, 0.198547, 0.0126736, 0.099648, -0.0657608, 0.00980674, 0.158355, 0.132033, 0.0645856,
                                -0.136184, 0.00454991, -0.152615, 0.067511, 0.0554747, 0.0389075, 0.0537266, -0.0302633, -0.0256914, 0.0744876,
                                0.099386, 0.00605901, 0.0975221, -0.0221416, 0.0501079, -0.0949286, 0.0377177, 0.0116037, -0.0524878, 0.0526683,
                                -0.0370608, -0.218511, 0.203271, -0.0059938, 0.128019, 0.0592816, 0.0352164, 0.218536, 0.135094, 0.00419906,
                                -0.054683, -0.0422363, -0.151536, 0.0998765, 0.0734647, -0.0227923, 0.0472947, -0.0567079, -0.106629, 0.0872068,
                                0.0541018, -0.0991192, 0.018764, 0.0883913, 0.049666, 0.0261172, 0.000574947, -0.0509516, 0.0837698, -0.0766497,
                                -0.0944492, -0.20631, 0.195209, -0.032844, 0.126643, -0.00449085, 0.051269, 0.109568, 0.110899, 0.0345813,
                                0.0182701, -0.0232154, -0.0348755, -0.0098545, 0.116924, -0.0242788, 0.0250013, 0.0492206, -0.0387226, 0.113895,
                                0.0338406, 0.0241998, -0.0836451, 0.0398926, -0.0705379, -0.0498933, 0.0116111, -0.010888, -0.0558909, 0.0851112,
                                -0.132081, -0.221306, 0.153044, -0.0622192, 0.138506, 0.0487262, -0.00628232, 0.0526802, 0.00170351, 0.145855,
                                0.115804, 0.0204132, 0.118749, -0.0298906, 0.135329, -0.0597383, 0.024133, 0.125557, 0.0867043, 0.0750646,
                                -0.0835305, -0.0984777, 0.0617558, -0.0799873, -0.0317454, -0.0202803, -0.0379141, -0.0971712, -0.0457073, -0.0868512,
                                -0.0765512, -0.16011, 0.0515363, -0.115643, 0.0602079, -0.0413878, -0.0560312, 0.107779, -0.00631097, 0.109052,
                                0.0298785, -0.0233811, 0.169178, 0.120535, 0.0644879, -0.124964, 0.125248, -0.0122309, 0.0465411, 0.11284,
                                -0.0235241, 0.0490528, -0.0124336, 0.0722786, -0.0730068, 0.103064, -0.101409, -0.0986358, -0.00379092, 0.0487147,
                                -0.0474804, -0.137669, -0.104613, -0.0859808, -0.0498635, 0.0559848, -0.108915, 0.060966, -0.114833, 0.0532551,
                                0.00255119, -0.06493, 0.151527, 0.0951073, 0.0149456, 0.0432579, 0.0572893, -0.0448838, 0.0619927, 0.11009,
                                -0.0493358, -0.102194, 0.0895126, 0.0506033, -0.0746722, -0.106906, 0.106209, 0.0698943, 0.0565552, -0.00176595,
                                -0.0717865, -0.0163516, -0.251838, -0.0809929, -0.12523, 0.0365541, -0.123186, 0.128, -0.112139, -0.0435046,
                                -0.0358396, -0.0587725, 0.14511, 0.00486464, -0.0156692, -0.0571676, 0.0011942, -0.0890309, 0.0500859, 0.0639861,
                                0.014029, 0.0310735, 0.049788, -0.0990932, -0.0456369, -0.0798261, -0.0256037, 0.070066, 0.0688967, 0.0660397,
                                -0.174732, -0.064703, -0.350072, -0.10317, -0.153545, 0.0685725, -0.188475, 0.225638, -0.166812, -0.0221188,
                                -0.142785, -0.131432, 0.061957, -0.0542963, -0.0965796, -0.0209756, -0.116018, -0.0274356, -0.0603596, 0.124451,
                                -0.0852363, 0.0933992, -0.0615897, 0.0843642, -0.0589331, 0.0938473, 0.0444644, 0.0905303, 0.04197, -0.00460303,
                                -0.0414491, -0.0397288, -0.264498, -0.167941, -0.280634, -0.109923, -0.263315, 0.35947, -0.313227, -0.132138,
                                -0.170091, -0.161122, -0.0226343, -0.197193, -0.119548, 0.0862239, -0.226975, 0.264997, -0.239372, -0.157672,
                                0.0946445, -0.0959941, -0.00241472, 0.0183383, 0.0919547, 0.0343128, 0.101352, 0.0218026, -0.0287027, 0.0299902,
                                0.0159907, 0.0666172, 0.074905, 0.00386445, 0.178244, 0.0917123, 0.00588024, 0.13721, 0.0566921, 0.100604,
                                0.0348055, 0.0284722, 0.0349673, 0.0820359, 0.158091, 0.0761856, 0.154477, 0.219829, 0.100327, 0.00640973,
                                -0.0115745, 0.0966954, 0.00675388, -0.0695487, 0.0725483, 0.0676799, 0.0834481, 0.026084, 0.0846877, -0.0976511,
                                0.0600713, -0.163544, 0.28366, 0.06032, 0.07222, -0.0219287, 0.0133959, 0.272873, 0.243178, 0.0375281,
                                0.00499564, -0.175948, -0.0353846, 0.122304, 0.139278, -0.0378274, 0.113397, 0.263353, -0.126331, 0.124065,
                                0.0395745, -0.0847947, 0.0720452, -0.106421, 0.000399679, 0.0523456, 0.10472, 0.00814185, -0.0141391, -0.079736,
                                -0.00599257, -0.162272, 0.0649145, -0.00421712, 0.0600126, -0.0453405, -0.0394145, 0.200069, 0.241288, 0.078663,
                                -0.0438498, -0.0513745, -0.24656, -0.020761, 0.0322737, 0.0498411, 0.0633862, 0.0347257, -0.226497, 0.0653794,
                                0.0859317, -0.0546127, 0.0547108, 0.0395503, -0.0615358, -0.0909853, 0.0324533, 0.0306185, -0.10029, -0.0723244,
                                -0.0721852, -0.181085, -0.0783463, -0.0592005, 0.0428772, -0.0784701, -0.0434396, 0.0623605, 0.252327, 0.020708,
                                -0.0801943, 0.0321852, -0.208236, 0.0843871, 0.0563177, -0.0901133, 0.0844517, -0.0238806, -0.241847, 0.0337406,
                                0.04729, 0.0324978, 0.0836268, -0.0573289, -0.00353438, 0.0948892, 0.0563951, -0.0359821, -0.106927, 0.10769,
                                -0.140538, -0.280925, -0.138159, 0.00723701, 0.0558407, 0.0223575, -0.00754715, 0.0704648, 0.174942, -0.0496466,
                                -0.178757, 0.0343557, -0.186917, 0.107507, 0.0329933, -0.0832559, 0.0595105, -0.0514551, -0.25176, 0.0494055,
                                0.0683775, -0.0678852, 0.0685608, -0.0037229, -0.0456108, 0.0876312, 0.0533292, -0.0989946, 0.0134855, 0.0611329,
                                -0.11159, -0.219155, -0.194795, 0.040261, 0.108782, -0.0504783, 0.0441598, 0.112381, -0.0495324, -0.00861099,
                                -0.105758, -0.00719407, -0.131475, 0.0977563, -0.026295, -0.0458618, 0.0489919, -0.0538524, -0.289116, 0.088653,
                                0.0726257, -0.0652541, -0.0648086, -0.0814065, 0.0847094, -0.0482194, -0.00897067, -0.0267514, -0.059935, -0.0422331,
                                0.0145874, -0.126425, 0.00743869, -0.0287438, 0.121521, 0.000956041, -0.0149738, 0.16131, -0.146441, 0.050058,
                                0.0880688, 0.0229137, -0.148078, -0.132718, -0.0547873, 0.00803502, -0.0705404, 0.171052, -0.0620853, -0.0132193,
                                0.0796109, 0.0395368, -0.037854, 0.0659407, 0.0870222, -0.0317527, 0.00628286, 0.0450487, 0.0513206, 0.0485655,
                                0.0450102, -0.125538, 0.125587, -0.0951892, 0.12627, -0.0148693, -0.0247876, 0.263555, -0.0329466, 0.0579496,
                                0.116482, 0.00315954, -0.081777, 0.040262, 0.108488, -0.0634484, 0.0625762, 0.108175, 0.0397612, -0.0791913,
                                0.103415, 0.0722569, -0.0929634, 0.066764, -0.00465043, 0.0269871, -0.00676294, -0.0264586, -0.0192404, 0.0105171,
                                -0.042899, -0.116814, 0.0107277, -0.0299307, 0.0188512, -0.102184, -0.0874367, 0.172128, -0.0786868, -0.00612382,
                                0.0235836, -0.00555831, 0.0325168, 0.15186, 0.0952716, -0.0622181, 0.130093, -0.0550789, 0.0236288, 0.0121899,
                                0.00714659, -0.0752186, 0.0826014, -0.0634698, 0.0797829, -0.0904394, -0.00119049, -0.0847578, 0.1034, 0.00283247,
                                -0.0728174, -0.0533466, -0.093203, -0.0834915, -0.0438079, 0.0729814, -0.0537533, 0.0734736, -0.147408, 0.0329924,
                                -0.043252, -0.0199959, 0.0242234, 0.101969, 0.0872893, -0.0807029, 0.120022, -0.122464, 0.0474272, 0.0375387,
                                -0.0609526, -0.106211, -0.062093, 0.0431001, -0.0395641, -0.00805988, 0.0685962, 0.0888668, 0.0369044, -0.063339,
                                -0.174759, -0.0233845, -0.147636, -0.0950132, -0.0481815, -0.0460985, -0.069817, 0.124578, -0.0339717, -0.030457,
                                -0.0286017, 0.0106014, 0.0586438, 0.00985751, 0.100785, 0.0549058, 0.0911229, -0.246801, -0.0268853, 0.0837269,
                                -0.0180855, 0.0190249, -0.100921, 0.0474055, 0.080975, -0.0415269, 0.0997314, 0.038312, -0.0312224, -0.0349856,
                                -0.0153397, -0.171329, -0.1234, -0.119197, -0.0599037, 0.0916548, -0.0626045, 0.178589, -0.0447401, -0.0837644,
                                0.0190084, 0.0617978, 0.0297292, -0.109713, -0.123141, 0.033732, -0.118421, -0.234311, -0.140378, 0.152191,
                                0.0406687, -0.0238636, 0.0546522, -0.102299, 0.0436916, -0.0904199, -0.0852096, -0.0125989, -0.0943504, -0.0874419,
                                -0.0571005, -0.18706, -0.0886387, -0.173318, -0.119309, -0.0941279, -0.177979, 0.323829, -0.12758, -0.0331977,
                                -0.0444296, -0.112438, 0.117738, -0.257347, -0.105362, -0.0197522, -0.113892, 0.0565339, -0.0535936, 0.0689954,
                                0.0685162, -0.00124458, 0.03161, 0.0543043, 0.10088, -0.0493168, 0.100002, 0.107342, -0.0132719, 0.0127003,
                                0.0202595, 0.0303855, 0.0900045, 0.104678, 0.254805, -0.0957656, 0.0605086, 0.0782026, 0.0913341, 0.127649,
                                0.0515384, -0.0183823, -0.0524366, 0.100214, 0.0256637, -0.0409208, -0.0419429, 0.148307, -0.108542, 0.0374627,
                                0.0258054, 0.0555721, 0.0484087, -0.0196751, 0.08606, -0.0273997, 0.0263641, 0.0198936, 0.0458664, -0.0186218,
                                0.0777901, -0.0692374, -0.0579148, 0.0383573, 0.271605, -0.0716808, 0.106933, 0.304021, -0.235348, -0.00532416,
                                -0.046382, -0.038129, 0.00892246, 0.0570427, 0.181731, -0.0530532, 0.165843, 0.00929673, -0.125385, 0.00636157,
                                0.00464832, 0.022308, -0.0897914, 0.0348214, -0.084362, 0.0250325, -0.0633871, -0.0484515, -0.0549378, -0.0944755,
                                -0.0285762, -0.0554719, -0.280332, 0.0130242, 0.0842431, 0.0424518, -0.00523779, 0.114083, -0.375707, -0.0124147,
                                -0.0288341, 0.0860798, -0.12111, 0.0877513, 0.0368282, -0.0330156, 0.0943336, -0.22885, -0.403997, 0.10597,
                                0.0266829, 0.00801348, 0.0184476, 0.0164417, -0.107483, 0.00619566, -0.0275883, -0.0787675, 0.086784, 0.0659411,
                                -0.100225, -0.0404463, -0.181045, -0.00819651, 0.0234062, -0.119117, 0.00506079, 0.0673966, -0.469169, -0.0558656,
                                -0.142062, 0.0667173, -0.123781, 0.10508, 0.0196941, 0.0235367, 0.113591, -0.114251, -0.284038, 0.0600562,
                                -0.0309395, -0.0918945, -0.0840358, 0.0329952, 0.00983977, -0.0593062, 0.103932, 0.0733287, 0.0243243, -0.0669318,
                                -0.248779, -0.0845444, -0.083187, 0.0548504, 0.0185188, -0.0996276, 0.0334666, 0.0557658, -0.311307, -0.0913962,
                                -0.140667, 0.054518, -0.0746677, 0.109489, -0.0119358, -0.0305422, 0.0575249, -0.116871, -0.22382, 0.106296,
                                0.0674401, -0.0478742, -0.0150439, -0.0265114, 0.042894, 0.00620171, 0.0717236, 0.104496, 0.0526097, -0.07094,
                                -0.230326, -0.105127, -0.0412239, 0.0202066, -0.147427, -0.0462114, 0.0259161, 0.0485568, -0.221435, -0.0885929,
                                -0.0623551, -0.0286993, -0.0608368, -0.029961, -0.139875, -0.0676349, -0.0629688, -0.0664572, -0.154148, -0.00709489,
                                -0.0839993, -0.0188644, -0.0946259, 0.0585706, -0.0631765, 0.0606956, 0.0822973, 0.0328284, -0.0301164, 0.0676291,
                                0.0604168, -0.0361228, -0.0883301, -0.0420474, -0.14347, -0.107772, 0.0367727, 0.0966967, -0.123959, -0.171005,
                                0.0783981, 0.0521706, -0.143965, -0.152508, -0.0855435, 0.0664168, -0.0895725, 0.0772053, 0.0200722, -0.261451,
                                -0.0447258, 0.0879356, -0.0647403, 0.0863719, -0.035543, 0.0895693, -0.00921721, -0.0998844, 0.100806, -0.0675652,
                                0.00174189, -0.0110463, -0.0983239, -0.0752646, 0.0208825, -0.0814784, -0.0112423, 0.208594, -0.121994, -0.301843,
                                0.115068, 0.07593, -0.121698, 0.0234574, 0.0534773, -0.0097394, 0.0540441, 0.0678769, 0.0461712, -0.127743,
                                0.0301912, -0.079552, 0.0333663, 0.0478236, 0.0546392, 0.0676414, -0.0294605, 0.0126325, -0.0771461, 0.0976955,
                                -0.0262429, 0.0463517, -0.161691, -0.0767309, -0.0619676, -0.0213583, -0.10194, 0.177292, -0.17111, -0.166225,
                                -0.0285675, 0.0202916, -0.0194899, 0.179642, 0.125186, -0.106972, 0.149276, -0.0535922, -0.0267485, -0.028427,
                                0.0775867, 0.0043955, -0.0438065, 0.0696061, -0.0368738, 0.0896987, 0.10005, 0.109143, 0.0463302, -0.0936878,
                                -0.174848, 0.0708312, -0.180876, 0.00227181, -0.0601797, 0.076845, -0.0151955, 0.0599494, -0.0897951, -0.132702,
                                -0.106297, 0.0109287, -0.0123949, 0.100871, 0.0795311, 0.0640533, 0.118818, -0.0720269, 0.0161643, -0.0189974,
                                -0.028374, 0.105277, -0.00237911, 0.0589065, 0.0187252, -0.0484514, 0.00494907, -0.0571187, -0.10133, -0.0975413,
                                -0.116147, 0.0866251, -0.21669, 0.00964515, -0.0357838, -0.117664, 0.0162866, -0.169075, 0.0387039, -0.0729219,
                                -0.113999, 0.0686219, -0.0681671, 0.0603971, 0.0799888, -0.10636, 0.0410197, -0.198223, -0.09192, 0.0643342,
                                -0.0533318, -0.0410175, 0.0554485, 0.0426154, 0.0982741, 0.102079, 0.0140709, -0.0360954, 0.0138505, -0.0207247,
                                0.0491022, 0.0601818, -0.0537667, -0.14781, -0.0498559, -0.0969361, -0.0562917, -0.241562, -0.106052, -0.00322071,
                                -0.0310799, 0.154882, -0.0329641, -0.104343, -0.0418044, -0.0980845, -0.0744633, -0.339295, -0.195548, 0.157577,
                                -0.0927327, -0.0319198, -0.0964743, 0.0441224, 0.090737, 0.0980242, -0.0828453, -0.0177077, 0.101185, -0.0399128,
                                0.0453397, -0.105289, 0.034691, -0.115274, -0.114029, -0.0177676, -0.167618, -0.0512324, 0.126644, 0.0119611,
                                -0.0912794, 0.0157296, -0.0275085, -0.295251, -0.0611166, -0.0818292, -0.130987, -0.0624323, 0.083155, 0.124803,
                                -0.0189431, -0.044344, -0.0502988, -0.0442019, 0.0438138, -0.0718661, -0.0728685, -0.0614544, -0.0939009, -0.0851561,
                                -0.0181419, 0.109732, 0.0137323, 0.116355, 0.123888, -0.0187082, -0.0762823, 0.14566, -0.0242262, -0.07781,
                                0.0153781, 0.0580857, 0.0267707, 0.0527987, 0.0757186, 0.0347225, 0.0958239, 0.100079, -0.0572874, -0.0680867,
                                -0.0758456, 0.0324886, -0.0111881, 0.0262487, 0.103586, 0.0186879, 0.0892251, 0.00426922, -0.045575, 0.0330228,
                                0.0949908, 0.0430471, -0.0555795, 0.180796, -0.0011357, 0.0219263, 0.09273, 0.123683, -0.143899, -0.0925722,
                                0.093689, -0.114522, 0.0664256, 0.0266179, 0.0385544, 0.0222652, 0.0464834, 0.0134693, 0.0900185, 0.102083,
                                -0.0608264, -0.0156799, -0.0938373, -0.0469978, -0.0278844, 0.0864898, 0.0482369, 0.0937181, 0.0789312, 0.0859401,
                                -0.00777885, 0.0166406, -0.0567186, 0.111667, -0.032939, 0.0649707, 0.0778859, 0.0284157, -0.250052, -0.108445,
                                -0.0344116, 0.00951499, 0.00726528, 0.119285, -0.0561555, -0.0332948, 0.0112031, -0.317878, 0.0369052, 0.102372,
                                0.0273243, -0.0438947, 0.00592944, -0.0643937, -0.0897411, 0.0206583, -0.106953, -0.0552758, -0.0637604, 0.0925145,
                                0.0211883, 0.0149346, -0.0196245, 0.0235914, -0.0415122, -0.0674099, 0.0509082, 0.112251, 0.0228222, -0.1113,
                                -0.0955801, 0.05607, 0.0135011, 0.0307198, -0.0387501, -0.124956, 0.0726371, -0.249832, 0.0281107, 0.108456,
                                0.0918069, 0.00971075, -0.0718583, -0.0219745, 0.0839065, 0.10034, 0.0867025, -0.0641427, -0.0208281, 0.0418573,
                                -0.208906, -0.0358013, -0.00591483, 0.0374802, -0.0318645, 0.0387317, 0.0832465, 0.017289, 0.0137265, -0.107315,
                                -0.114405, 0.0214817, 0.0080073, 0.0216452, -0.0138423, -0.0385761, -0.0100482, -0.226316, -0.0372795, 0.093227,
                                0.101447, -0.0588943, 0.0924158, -0.0526282, 0.0706963, -0.0109653, -0.0723032, -0.0227896, 0.0875446, -0.0103765,
                                -0.129618, -0.0412157, -0.00832493, 0.0516872, -0.0799274, -0.00202483, 0.0776822, -0.0111398, -0.0287481, -0.254072,
                                -0.0347912, -0.030578, -0.091656, -0.0708058, -0.0929613, -0.0410163, -0.0154375, -0.120109, -0.0253893, -0.125223,
                                -0.0146321, 0.0033082, 0.0696226, -0.0545201, 0.0803038, 0.0725301, -0.0472337, -0.00650037, -0.055685, 0.0200571,
                                -0.0178778, 0.0739908, -0.0883669, 0.000610638, -0.0713252, -0.00721274, 0.0296278, 0.0509946, -0.0442317, -0.43494,
                                0.0791726, 0.106249, -0.173028, -0.0534891, -0.0558143, -0.0272192, -0.00978542, 0.00414161, 0.0957363, -0.246502,
                                -0.0411099, -0.107778, 0.0506313, -0.0762736, 0.0698008, -0.0562164, -0.0697486, -0.0847651, -0.0474193, 0.0625751,
                                0.0825416, 0.0685435, -0.104395, -0.0339657, -0.0484593, -0.0161307, 2.02371e-06, 0.133351, -0.0873085, -0.265468,
                                0.0591678, 0.100051, -0.113215, 0.0907291, 0.0738802, -0.0583389, 0.0521383, -0.00094676, 0.0650213, -0.103439,
                                -0.0709302, 0.00147409, 0.101903, 0.0636794, -0.0115022, -0.0415141, -0.0929131, -0.00855337, -0.0973508, -0.077022,
                                -0.148851, 0.0405715, -0.0241206, 0.120713, -0.0317578, -0.0626882, 0.0425519, 0.0994778, -0.0928072, -0.149715,
                                -0.140883, -0.00348037, 0.0110224, 0.148393, 0.0815656, -0.0357326, 0.135623, -0.0503087, -0.0401518, 0.00117532,
                                0.0695836, -0.0416711, -0.00447804, 0.0746387, 0.0698837, 0.0887198, 0.0109503, -0.105378, 0.00383631, 0.0739117,
                                -0.171528, 0.0797788, 0.0239445, 0.201225, -0.0649812, 0.027802, 0.0469903, 0.0912165, 0.0518879, -0.122573,
                                -0.17506, 0.0274627, 0.0215772, 0.0897233, 0.0356094, -0.111557, 0.053225, 0.0341646, -0.0596797, 0.0148179,
                                -0.024313, 0.0968541, -0.0159, 0.0323455, -0.104164, -0.0304498, -0.0727971, -0.0721661, -0.0846648, -0.0874006,
                                -0.0144622, 0.0236617, -0.060846, 0.100958, -0.0493774, -0.110195, -0.00866361, -0.235406, 0.0451538, -0.0418507,
                                -0.0486163, 0.0800847, -0.0541111, -0.0266002, 0.0406936, 0.0284987, -0.010371, 0.042596, -0.154269, 0.0679078,
                                0.0595844, 0.0709924, -0.0112027, 0.0931699, -0.0230411, -0.0513635, -0.0117999, 0.0347086, 0.000895974, 0.040355,
                                -0.017189, -0.0216504, 0.00448157, -0.120155, -0.0797906, 0.0254304, -0.104979, -0.370897, 0.0749656, 0.0801575,
                                -0.0163478, 0.0318086, -0.0695783, -0.16367, -0.0251497, -0.108887, -0.180935, -0.0724757, -0.14979, 0.0877497,
                                0.0478287, 0.0816719, 0.0237077, 0.0805467, -0.0989318, -0.0557951, -0.00409579, -0.0977256, -0.030252, 0.0641064,
                                0.00346992, -0.105455, 0.0325918, -0.0899221, -0.0118959, 0.0300422, -0.0727274, -0.170417, 0.106469, 0.0969799,
                                0.146144, -0.0257717, 0.043854, -0.0957906, -0.00902157, 0.0941623, -0.15543, -0.126306, 0.0614686, 0.117323,
                                -0.0935854, -0.0568693, -0.084365, -0.0742201, -0.0467381, -0.0179197, -0.00725777, 0.0752153, -0.0855121, -0.0717363,
                                0.0788051, -0.100967, 0.0713361, -0.0287665, 0.0231399, 0.0206979, -0.0459433, 0.139098, 0.0160818, -0.0565319,
                                0.0411299, -0.0205712, 0.138041, 0.0411189, -0.0404309, 0.104819, -0.0916303, 0.262877, -0.0418117, -0.131725,
                                -0.091283, -0.0587636, 0.0856684, 0.103848, 0.0977628, -0.0623141, -0.0957631, -0.0931862, 0.0817618, 0.0443079,
                                -0.0815182, 0.0143157, 0.197337, 0.0771092, 0.0274974, -0.00465854, 0.0551128, 0.0680127, -0.0617014, -0.0307939,
                                -0.0392521, -0.134832, 0.352084, 0.0606639, -0.138213, -0.00360507, -0.159418, 0.150087, 0.0883555, 0.047309,
                                0.0329161, 0.104797, -0.0625541, 0.0357532, 0.0997056, 0.0078576, -0.0121487, 0.0233318, 0.0866753, 0.0699582,
                                -0.00246669, 0.0328131, 0.0739954, 0.089773, -0.0350096, 0.0332459, 0.0745851, 0.040175, -0.00246684, -0.135317,
                                -0.0770491, -0.0298956, 0.0645739, 0.0590048, -0.0742229, 0.0542827, 0.0179388, -0.172679, 0.0862571, 0.0851319,
                                0.0271101, 0.0312883, -0.011313, -0.0365614, -0.0712912, -0.0965723, 0.0254653, -0.0486833, 0.0922454, -0.0760948,
                                -0.119993, 0.00552412, -0.0682845, 0.0957355, 0.0338329, 0.040452, 0.0967499, 0.0790061, 0.00620498, -0.0803046,
                                -0.0121719, 0.000200276, 0.0192824, 0.0687739, -0.018902, 0.0634795, 0.0224916, -0.261898, 0.0400507, 0.0698385,
                                0.0573175, -0.0846363, 0.0641005, -0.0584494, 0.00981402, 0.0190772, 0.0231526, 0.10295, 0.0773624, -0.0925195,
                                -0.194975, -0.0531928, -0.100191, 0.0725038, 0.0234162, -0.068291, 0.115174, 0.0152085, -0.0727495, -0.157713,
                                -0.0342462, 0.0144486, 0.00531167, -0.0260647, -0.0570545, -0.0463761, -0.00612793, -0.281772, 0.00148714, 0.0538042,
                                -0.0772546, 0.0303493, -0.0562872, 0.0443562, 0.0230742, 0.0970367, 0.0952683, 0.0715962, 0.00772578, -0.0904234,
                                -0.106735, -0.0533264, -0.138066, 0.0204212, -0.0288153, -0.0592111, 0.0910675, 0.0814369, -0.040455, -0.368152,
                                0.0108968, 0.0498376, -0.0745576, -0.0998889, -0.105391, -0.0106931, -0.0811717, -0.177036, 0.0384171, -0.168059,
                                -0.0769193, 0.0503191, 0.0762454, 0.0115475, 0.105599, 0.0700101, -0.0670949, 0.0867363, 0.00527998, -0.0653275,
                                0.0629471, 0.0563962, -0.116356, 0.0353376, -0.0748675, 0.0570057, 0.0398883, 0.088691, 0.0275108, -0.407251,
                                0.0926196, 0.126153, -0.0973233, 0.026457, -0.0179089, -0.122169, 0.0250071, -0.0160662, 0.134624, -0.11517,
                                -0.0839777, -0.0262027, -0.0632007, -0.0716273, 0.057145, -0.0593931, 0.0342039, -0.100527, 0.0342622, 0.100862,
                                0.0164162, 0.00737958, -0.0467093, 0.0695654, -0.0688389, 0.0152605, 0.0453738, 0.0144271, 0.0366886, -0.112304,
                                -0.00123202, 0.0525265, -0.0392243, 0.0927786, 0.0351263, -0.052244, 0.089225, -0.0271066, 0.0436224, -0.0287944,
                                -0.0114719, 0.0594685, 0.0543917, 0.0641587, 0.006132, 0.0602127, -0.0248844, -0.0516893, 0.0424839, 0.00551363,
                                -0.33477, -0.0203326, 0.125614, 0.0475908, -0.0105383, 0.0289399, -0.00856635, -0.0358708, -0.0088481, -0.0403953,
                                -0.178328, -0.0297676, 0.068162, 0.054168, 0.0223833, -0.0322675, 0.0221888, 0.00691221, -0.0697477, -0.0178302,
                                -0.0430842, -0.0973098, -0.107089, -0.0910085, 0.0397647, -0.0780006, 0.0971835, 0.0940738, 0.00979083, -0.102148,
                                -0.199928, 0.0794624, 0.124257, -0.0163923, -0.0550902, -0.110806, -0.0377961, -0.0800873, 0.082439, -0.0258272,
                                -0.161457, 0.00280213, 0.0625629, -0.0611407, -0.0490302, -0.0671514, -0.0664295, 0.0720367, -0.0964222, 0.00240943,
                                0.0347293, -0.0620903, -0.0246688, -0.0911936, 0.0072517, 0.0540598, 0.0609662, 0.037294, -0.0477047, -0.074759,
                                -0.07134, 0.0907114, 0.0457429, 0.0520979, -0.0881102, -0.0434603, -0.106829, -0.162284, 0.128542, 0.00107765,
                                -0.070368, 0.0194127, -0.0336549, -0.0486858, -0.107912, 0.0735168, -0.0131084, 0.136698, -0.0984771, 0.00859957,
                                -0.0756144, -0.0971885, -0.0613631, -0.0547608, -0.0791167, -0.0275605, -0.0435606, 0.0875855, -0.0439155, 0.069447,
                                0.0191025, -0.0403106, 0.0908132, -0.107755, -0.120007, 0.0409245, -0.248941, -0.293908, 0.217033, 0.00449223,
                                0.144168, 0.00370078, 0.0371414, -0.25678, -0.126522, -0.0781387, -0.155458, -0.0670117, 0.00856495, 0.0336706,
                                0.0199932, 0.0277797, 0.0206279, -0.048801, 0.0394785, -0.0595142, -0.0524154, -0.106519, -0.0497494, -0.0593663,
                                -0.0274816, -0.168875, 0.302085, -0.110108, -0.0500256, -0.105083, -0.089046, -0.238162, 0.319447, -0.053401,
                                0.102793, -0.174929, 0.153269, -0.243694, 0.0628261, -0.0886707, -0.25215, -0.235737, 0.0741293, 0.0950429,
                                -0.102648, -0.0164484, -0.0892241, -0.0861919, 0.0922281, 0.034783, -0.0749289, 0.084654, -0.0484747, 0.0446814,
                                -0.0595181, 0.0436758, 0.195294, 0.0819747, 0.0427668, -0.0700563, -0.051161, 0.354379, 0.0554043, -0.0270225,
                                0.0727588, 0.0520808, 0.200962, 0.00683356, 0.0612042, 0.0883613, -0.0522042, 0.263196, -0.0731976, -0.161607,
                                0.0208121, -0.0457711, 0.0441061, -0.0890375, -0.0246939, 0.0915238, 0.0415829, 0.0645458, 0.0537582, 0.100194,
                                -0.0124152, -0.263764, 0.16275, -0.147594, -0.045136, 0.0787283, 0.0226373, 0.255633, 0.0656178, -0.0398065,
                                -0.0303644, -0.229517, 0.435467, -0.176311, -0.0232601, 0.0149786, -0.105003, 0.161351, 0.0798834, -0.0213639,
                                -0.0379469, 0.0704341, -0.00104777, 0.0168932, 0.0583355, 0.0146134, -0.0370562, 0.0111694, -0.0681449, 0.0690386,
                                -0.203723, -0.179831, 0.141339, -0.0255025, -0.185694, -0.00115107, -0.0765514, 0.26043, 0.0423711, -0.0954057,
                                -0.0729765, -0.176762, 0.141807, -0.163632, -0.0613032, 0.0227205, -0.150887, 0.00178524, 0.0704797, 0.0610088,
                                -0.0264771, 0.0890139, 0.0405784, 0.0200718, 0.0964142, -0.0475824, -0.0671864, 0.0247089, 0.0958589, 0.0548113,
                                -0.0435983, -0.0398755, -0.0422412, -0.0298471, -0.0852183, -0.0875352, -0.101404, 0.0898614, -0.0125857, -0.0578917,
                                -0.0212448, -0.0961905, 0.055745, -0.178266, -0.0531154, 0.00871175, -0.209993, -0.063721, 0.0366885, -0.00585529,
                                -0.00216236, 0.069829, 0.0311314, 0.0681487, 0.103838, 0.0234892, -0.0940711, 0.0811576, 0.0880954, -0.0585283,
                                -0.162488, -0.0210714, -0.110804, -0.103834, 0.0027904, 0.0625982, -0.0732384, -0.0972584, -0.102493, -0.0819864,
                                -0.0357203, -0.0219026, 0.0176696, -0.17039, -0.123122, 0.00804124, -0.128493, -0.108466, 0.00526733, 0.0141632,
                                -0.100402, 0.030992, -0.0842787, 0.0294469, 0.0181954, 0.0726345, 0.0730306, 0.103735, -0.0289893, 0.100137,
                                -0.0201022, 0.00195114, -0.100799, -0.111608, -0.00273258, 0.055477, -0.106986, -0.0402665, -0.012954, -0.209168,
                                0.0321044, 0.044583, -0.0159726, -0.0931259, -0.0281565, -0.0207444, -0.0571489, -0.0943718, 0.0374634, 0.0154232,
                                0.0697695, 0.0653655, 0.0719658, 0.0802455, -0.023015, -0.0417643, -0.101839, 0.0204588, 0.0795318, -0.00982474,
                                0.0930398, 0.0590428, 0.0254238, -0.053043, -0.0434118, -0.0222261, -0.0322739, 0.00930517, 0.134528, -0.0621023,
                                0.0543763, 0.100204, -0.0157221, 0.0465361, 0.0255758, -0.106236, 0.00567122, 0.00674117, 0.0796491, -0.0069688,
                                0.10589, 0.085054, 0.062578, 0.0893459, -0.077012, -0.0298686, -0.0475309, 0.0668256, -0.0966933, -0.0304829,
                                -0.100938, 0.0122478, 0.131593, -0.026288, -0.0499145, -0.120371, -0.0479552, -0.106017, 0.0390096, -0.000507008,
                                -0.0158002, 0.0369599, 0.0247527, 0.051082, 0.0270678, -0.133983, 0.0284641, -0.0298327, -0.0111273, -0.0146717,
                                -0.00764438, 0.0935252, 0.064619, -0.0617378, -0.0799305, -0.0883669, -0.0683089, -0.100083, 0.0330068, 0.0781841,
                                -0.298728, 0.0486394, 0.203397, -0.158808, -0.0929492, -0.0958782, -0.167327, -0.103966, 0.0531443, -0.0293603,
                                -0.0853421, -0.00431258, 0.0707176, -0.0358272, -0.0454059, 0.0180279, -0.0701593, -0.00628998, -0.0276227, -0.0381546,
                                -0.0128862, 0.00733442, 0.0531381, -0.0238525, -0.0293111, -0.0710889, 0.0154331, 0.00278449, 0.0329949, -0.0455554,
                                -0.0241218, 0.098101, 0.178789, -0.202933, -0.160264, 0.0266562, -0.180708, -0.193, 0.186572, -0.0475234,
                                -0.0333519, -0.0399891, 0.0495146, -0.0884068, -0.110149, -0.00380719, -0.108819, 0.0206227, -0.0179272, -0.0134183,
                                -0.0128354, 0.104491, -0.0430456, -0.0742497, 0.0409039, 0.0231529, -0.0923615, -0.0577134, 0.0887705, -0.0509716,
                                -0.0530167, 0.0537286, 0.164893, -0.240278, -0.178616, 0.0560631, -0.23546, -0.191628, 0.1652, -0.0721831,
                                -0.0736439, -0.0991146, 0.00895116, -0.175717, -0.141515, 0.0368361, -0.172016, 0.050378, -0.0126584, -0.0028707,
                                -0.0499061, 0.0214944, -0.011853, -0.021303, 0.0627125, -0.0614961, -0.0396858, 0.065508, 0.0973163, -0.102804,
                                0.130195, -0.0506128, 0.147616, -0.126227, -0.0746771, -0.104522, -0.161912, -0.247072, 0.157046, -0.0439506,
                                -0.0342925, -0.0565236, 0.0588405, -0.18816, -0.0944892, -0.0262601, -0.196137, -0.230808, 0.105829, -0.0710224,
                                0.0536457, 0.0406594, 0.0927507, -0.0011352, -0.0449153, 0.0364994, -0.0133869, -0.052618, 0.0866401, 0.00958145,
                                -0.0432826, 0.00601088, 0.300684, -0.178903, -0.00984506, 0.0691738, -0.201322, -0.447294, 0.367424, 0.064062,
                                -0.0428562, -0.187806, 0.306158, -0.0293592, -0.0236041, -0.00859852, 0.00704872, -0.426053, 0.260967, -0.0487657,
                                -0.0879284, -0.00751563, -0.0934395, -0.0105899, -0.099569, -0.0358012, 0.0351927, 0.00922899, 0.043419, 0.0634721,
                                0.103618, -0.0316552, 0.299598, 0.0185907, -0.0598846, -0.0653016, 0.0967247, 0.238026, -0.0362778, -0.194095,
                                0.00892903, 0.0988519, 0.310597, -0.0644517, -0.0903829, -0.046058, -0.0884496, 0.263571, -0.0429006, -0.0896783,
                                -0.0977813, 0.0441141, 0.0423494, -0.0931989, -0.0972145, 0.107141, -0.0733939, -0.0799598, -0.0873095, -0.0148146,
                                -0.0165943, -0.217233, 0.284753, -0.0562209, -0.144912, 0.0125811, -0.0405883, 0.205185, 0.0854432, -0.114138,
                                -0.0803806, -0.22887, 0.432505, -0.182308, -0.0720663, -0.0928796, -0.0755288, 0.220037, 0.0249142, -0.0399082,
                                0.00336847, 0.0561503, -0.0135829, -0.00513386, 0.0640064, -0.00298281, 0.0348087, -0.10533, -0.0435613, 0.0558354,
                                -0.0169407, -0.312451, 0.112553, -0.178556, -0.240664, 0.037069, -0.193277, 0.125456, 0.0279566, -0.0483075,
                                0.0212439, -0.279181, 0.144653, -0.247766, -0.140854, 0.027794, -0.146277, 0.0093143, 0.021682, -0.0176872,
                                -0.105329, -0.0830233, -0.000582963, 0.0103221, 0.0396883, -0.0557601, -0.100024, 0.0230794, 0.0794837, 0.0915958,
                                -0.063735, -0.190834, 0.0677502, -0.323737, -0.21329, 0.053589, -0.262936, 0.0871472, 0.00816816, -0.0551778,
                                0.0451574, -0.0846712, 0.0780878, -0.0525398, -0.0620349, 0.0593383, -0.00452264, 0.0227173, 0.0172794, -0.0244361,
                                0.0114318, -0.0383764, 0.0136082, -0.0797219, -0.0665823, -0.0741095, 0.0835156, -0.0604364, 0.0357519, 0.0712379,
                                -0.0617743, -0.0325229, 0.0337984, -0.306103, -0.214032, 0.00079949, -0.207582, -0.00964645, -0.0192576, 0.0259666,
                                -0.0225085, -0.0229594, 0.0440746, -0.055959, 0.0100164, -0.0868595, -0.0199647, 0.0437472, 0.00879201, 0.0399313,
                                -0.0560879, 0.093627, 0.0468314, -0.0404526, 0.0781084, 0.0234403, -0.0197461, -0.069292, 0.0150868, 0.019053,
                                -0.0554257, 0.0586592, -0.012072, -0.204806, -0.136191, -0.0426922, -0.147474, -0.0418382, -0.0577512, 0.057379,
                                -0.00123587, 0.0103029, 0.0245156, 0.00269005, 0.0205086, -0.0913717, -0.00995701, 0.023874, -0.00814618, 0.0532019,
                                0.0987071, 0.0359311, 0.0507272, 0.0685044, -0.10126, 0.094825, 0.0811722, 0.00748269, 0.0542198, -0.000603722,
                                -0.0545132, 0.077856, 0.00318965, -0.116033, -0.073981, -0.0926609, -0.110256, -0.0529449, -0.0439025, 0.0316383,
                                -0.0171337, 0.0281205, 0.0176736, -0.00060845, 0.0250078, 0.00212762, 0.0082911, 0.00674778, -0.0326654, 0.0434529,
                                -0.0108365, -0.094889, 0.0284912, 0.0213873, 0.0664393, -0.0274507, -0.0114247, 0.0430387, 0.0466994, 0.0777607,
                                -0.0907941, 0.0769476, 0.0464317, -0.17465, -0.115556, 0.0465458, -0.169483, -0.0843558, -0.0394904, -0.0625297,
                                -0.0219756, 0.00139687, 0.0167612, -0.0180159, -0.0466562, -0.021539, -0.0028166, -0.0139382, -0.0263185, -0.00917464,
                                0.10324, -0.102402, 0.0688772, 0.107348, -0.0877276, -0.0442928, -0.0466213, 0.00141562, 0.0632315, -0.00435815,
                                -0.0199322, 0.0418578, 0.0705387, -0.194872, -0.233059, 0.0190145, -0.223344, -0.12101, 0.0388095, -0.0493996,
                                0.0152938, 0.0207263, 0.0555674, -0.0657539, -0.0652468, 0.0105031, -0.0403478, -0.0266978, -0.00520821, -0.0136504,
                                -0.0705336, 0.0886211, 0.0691176, 0.0593571, -0.0210771, 0.042802, 0.0237919, 0.104396, 0.0267427, -0.0364571,
                                -0.0460736, -0.0519681, 0.0736603, -0.152354, -0.235459, -0.102664, -0.243626, -0.126902, 0.131236, -0.0768558,
                                -0.0731862, -0.064433, -0.0386028, -0.10896, -0.0912738, 0.01584, -0.06898, -0.0455483, 0.0264974, -0.042305,
                                -0.0497877, 0.000780998, -0.0466978, 0.0500243, 0.00657782, -0.091585, -0.0092121, 0.00942681, 0.00583882, 0.0694883,
                                0.0109257, -0.159752, 0.136706, -0.199217, -0.253094, 0.0659133, -0.0989041, -0.19998, 0.133519, 0.00951111,
                                0.00724569, -0.0923273, -0.0186806, -0.0621331, -0.0702305, -0.0469021, -0.12383, -0.148403, 0.00887168, -0.0477083,
                                0.104964, 0.0818741, 0.00581905, 0.0665872, 0.0804896, -0.00760401, 0.0745899, 0.0273879, 0.00760421, -0.064094,
                                0.0624039, -0.0656831, 0.21193, -0.0762776, -0.123918, -0.0422729, -0.128375, -0.410902, 0.207778, -0.0777189,
                                0.00615599, -0.169201, 0.148362, 0.0107104, -0.0832722, -0.0154381, 0.0350887, -0.356926, 0.188736, -0.103405,
                                -0.0895643, 0.035941, -0.0730786, -0.0172843, 0.0899238, 0.0355627, -0.0751171, -0.0675033, -0.10044, 0.0714981,
                                0.0654077, -0.0442972, 0.27834, 0.101396, -0.109817, -0.0288879, -0.0803037, -0.242291, 0.451097, 0.0576986,
                                -0.0413844, -0.0332892, 0.238162, -0.0543897, 0.0938502, -0.0485593, 0.0846, -0.170958, 0.189346, -0.0739992,
                                0.0463601, 0.00724593, 0.0841985, 0.050818, 0.0660909, 0.0274659, -0.0647018, 0.0985679, -0.0559886, 0.00153226,
                                -0.0428075, 0.0960764, 0.0988027, -0.0226098, -0.0793333, 0.0442666, 0.0784914, 0.22592, -0.0231183, -0.0434328,
                                -0.026182, -0.0739264, 0.0330514, -0.107125, -0.0393699, 0.0135265, 0.0659711, 0.10486, -0.0431021, -0.108858,
                                0.0372247, -0.0681539, -0.0674742, -0.0575311, -0.0699446, -0.0810643, 0.0922159, 0.0710255, 0.021698, -0.0362061,
                                0.154423, 0.0144632, 0.357503, -0.08868, 0.0556787, 0.0702734, 0.0271011, 0.170936, 0.0704503, -0.0395666,
                                0.0243041, 0.0110814, 0.297376, -0.125915, -0.0366163, -0.0607503, 0.0323315, 0.290301, 0.0644754, -0.0863925,
                                0.00531147, 0.0834693, 0.0781601, 0.104748, -0.00834195, 0.0496603, -0.0975269, -0.0717946, 2.46838e-05, 0.0912698,
                                0.0834364, -0.111283, 0.146401, -0.17847, -0.0998602, -0.089702, -0.0538927, 0.0683035, 0.0580432, -0.0144513,
                                0.120961, 0.0383889, 0.0981139, 0.000456273, 0.138444, 0.0087898, 0.0217228, 0.133501, 0.0134226, -0.0192698,
                                -0.0480666, -0.0055631, 0.0406406, -0.0906657, -0.0291126, 0.097121, 0.0571018, 0.012352, -0.00800883, -0.0706236,
                                0.0740725, -0.00719491, 0.0852181, -0.145305, -0.13859, -0.061019, -0.0740056, 0.0740614, -0.0261038, -0.0312255,
                                0.0105939, 0.0366798, 0.0456238, -0.00776416, 0.0328343, 0.0122848, 0.010683, 0.0856298, 0.0283581, 0.0295511,
                                0.0090502, -0.0243141, 0.0814115, 0.0668039, 0.0534885, -0.105121, 0.00277095, 0.0157099, -0.0640557, -0.0204646,
                                -0.00490426, -0.0510423, 0.0330583, -0.12824, -0.178109, 0.0333615, -0.0690527, 0.0924514, -0.0231075, 0.0149984,
                                -0.00360733, 0.0110909, 0.0471056, -0.0252628, -0.0343979, -0.0785843, -0.00336078, 0.0991146, 0.00523709, 0.0493582,
                                0.0836179, -0.0131436, 0.0980341, -0.0433036, 0.0286377, 0.0577888, -0.00368002, -0.0387649, 0.106303, -0.063203,
                                -0.0255387, -0.0558961, 0.0165323, -0.124315, -0.222613, 0.0463349, -0.126167, 0.0504109, -0.0573429, 0.0324121,
                                -0.00219513, -0.0497945, 0.0399281, -0.0589547, -0.0319118, 0.0542153, -0.0326974, 0.111722, -0.0170322, 0.0462025,
                                0.0294932, 0.0808404, -0.0327067, 0.0268601, -0.0127289, 0.0645935, -0.0122348, -0.091224, -0.0220715, -0.0414822,
                                -0.00773392, -0.0514464, -0.0185194, -0.106146, -0.223076, 0.0458221, -0.121346, 0.0436276, -0.0353678, 0.041383,
                                0.0152734, -0.017727, 0.0218221, -0.0491954, -0.0530222, 0.0374332, -0.0337081, 0.0705624, -0.00452702, 0.0286461,
                                0.0228796, 0.0267495, 0.0118335, 0.0664854, 0.0543224, 0.0393184, 0.0308343, 0.0615037, 0.0835982, -0.0626745,
                                0.0890087, -0.00329393, -0.0252676, -0.0768721, -0.206105, -0.0892604, -0.0988857, 0.000155368, -0.0262886, 0.0305525,
                                0.0445273, 0.00120476, 0.0215454, -0.0304644, -0.0465684, -0.0511055, -0.0369659, 0.0290422, 0.0491468, 0.0215658,
                                0.0930162, -0.0892942, 0.0333211, -0.0755068, -0.0397327, 0.107395, 0.062506, -0.00736111, 0.022316, -0.0564686,
                                0.137477, 0.0147816, -0.0171417, -0.0400876, -0.192063, 0.0707284, -0.0953349, -0.0366587, 0.00839216, -0.00789154,
                                0.15417, 0.0119156, -0.0718427, -0.0372748, -0.0268146, 0.0317796, 0.000636653, 0.00417939, -0.0406939, 0.00316374,
                                -0.0412628, 0.0736584, 0.0827534, -0.016317, 0.0755103, 0.0789988, -0.0377133, -0.0682662, -0.0649904, -0.0727819,
                                0.0415399, 0.0213786, -0.026555, -0.0152616, -0.176109, 0.00551436, -0.0516382, -0.111832, 0.0465232, -0.10414,
                                -0.0851565, -0.0161075, -0.117697, 0.0113933, -0.0315493, 0.00568592, -0.0444928, -0.0976499, -0.0219031, -0.062765,
                                -0.0131006, 0.0382204, -0.0825609, -0.0462311, -0.0762205, -0.0368694, 0.0718856, 0.00416325, 0.0892889, -0.104359,
                                0.00987286, 0.0380121, -0.0200789, 0.0410331, -0.224589, 0.0623032, 0.0242884, -0.222795, 0.0968951, -0.0499824,
                                -0.132559, 0.0110302, -0.198621, 0.0677115, 0.0416635, -0.00638954, -0.011491, -0.235504, 0.0270083, -0.126131,
                                0.0712482, -0.0589253, -0.0360742, -0.0485093, 0.0619951, -0.102058, -0.0968275, 0.0414142, 0.0750514, -0.0781164,
                                -0.0565235, 0.0511229, 0.105375, 0.0787828, 0.026313, -0.0613559, 0.106472, -0.245729, 0.161126, 0.00956956,
                                -0.0271957, -0.00547438, 0.0431694, -0.0224823, -0.057717, 0.0275948, 0.0419658, -0.304254, -0.0262013, -0.129503,
                                0.05848, 0.0287648, -0.0542073, 0.0490316, 0.0612372, -0.0721993, 0.0351138, 0.0385632, -0.063164, -0.0530192,
                                -0.0370163, -0.0237854, 0.00681736, 0.0831306, 0.00481907, -0.0585542, 0.0617451, -0.136751, 0.16733, 0.0424989,
                                0.0599385, -0.0396127, -0.0760054, -0.0768694, -0.0312642, -0.101164, -0.00230368, 0.037601, 0.102813, 0.0993648,
                                0.0225493, 0.00290812, 0.101083, -0.0328812, -0.0600362, 0.0780323, 0.0858475, 0.0240924, 0.0347112, -0.0696137,
                                0.1043, 0.0805615, 0.0871372, -0.0973746, -0.00574408, -0.0430377, -0.0873446, 0.125085, 0.00560203, 0.0797749,
                                0.0359235, 0.0786681, -0.0737712, -0.0508339, 0.0706717, -0.103988, -0.108706, 0.0543953, 0.033046, -0.0850352,
                                -0.0635351, 0.0999384, -0.0895076, -0.0267656, 0.0427916, 0.0507209, 0.0189334, -6.0387e-05, 0.0215214, 0.070264,
                                0.00580415, -0.0436881, 0.125471, -0.0496555, 0.182836, -0.0776829, 0.137797, 0.140946, -0.123505, -0.0453996,
                                0.0860472, -0.072749, 0.107364, 0.035706, 0.135161, 0.104624, 0.00391086, 0.0119426, 0.0398506, -0.0600032,
                                0.100976, -0.0769804, 0.0914308, -0.0217102, 0.0380335, 0.0492652, 0.00107186, -0.0536982, -0.0455923, -0.0230467,
                                0.045652, -0.0813642, 0.182643, 0.0892095, 0.195045, 0.0786707, 0.136873, 0.196514, -0.02239, 0.0624865,
                                0.0598238, -0.138263, 0.125734, 0.183942, 0.0812176, -0.0746339, 0.146284, 0.0582551, -0.048933, 0.0331704,
                                -0.0824271, 0.023424, -0.0694641, -0.00834463, 0.0881183, 0.0154153, 0.0504574, 0.101212, -0.0562446, 0.0806036,
                                -0.0489193, -0.0606923, 0.0854606, 0.0351156, 0.0791255, -0.0655336, 0.0909593, 0.160293, -0.0195821, 0.0575351,
                                -0.0608933, -0.0670884, 0.232188, 0.167391, 0.199857, -0.0754252, 0.200078, 0.246259, 0.00886872, 0.210165,
                                -0.0743724, 0.0856582, -0.0923177, 0.0394529, -0.0440356, 0.0239432, 0.0598775, 0.0135515, -0.0314999, 0.0724098,
                                -0.043474, -0.059925, 0.0748056, 0.00763327, 0.0110637, -0.00807656, 0.000952944, 0.101896, -0.0109746, 0.0184699,
                                -0.0398221, -0.25593, 0.232534, 0.115182, 0.10435, -0.0224097, 0.0739675, 0.170824, -0.0446722, 0.138226,
                                -0.00655607, 0.0838398, 0.0369159, 0.0442697, -0.0256631, 0.0509706, -0.00403387, 0.0479995, 0.104313, 0.0414209,
                                -0.0817979, -0.0349084, 0.019297, -0.0474127, -0.0269926, -0.0808492, -0.0534825, 0.0321404, -0.0533659, -0.00987142,
                                -0.179836, -0.189673, 0.2439, 0.0732069, 0.112471, -0.0394138, 0.0874337, 0.184699, 0.0849788, 0.12616,
                                0.0121767, 0.0772366, 0.0950266, 0.00261478, 0.0486778, 0.0877842, 0.0681284, 0.0414834, -0.0880911, 0.0354609,
                                -0.101197, -0.0108043, 0.0453012, -0.0699306, -0.0598386, -0.0302598, -0.0787147, 0.037171, -0.0328077, 0.0020787,
                                -0.131551, -0.222833, 0.192425, 0.0341681, 0.0937452, 0.0120294, 0.104876, 0.153785, 0.0284034, 0.171131,
                                0.0749448, -0.108728, -0.0581449, 0.0386702, 0.00196825, 0.0923429, -0.0813919, 0.0593094, -0.0290283, 0.0462377,
                                -0.0205253, -0.0244309, -0.028866, -0.0673689, -0.00628337, -0.000757722, -0.0962532, -0.0312629, -0.0534477, 0.0160029,
                                -0.155147, -0.157883, 0.235987, 0.0516803, 0.137646, -0.0896531, 0.0805448, 0.0904952, -0.0445786, 0.180762,
                                0.0246459, 0.00314802, 0.00604995, 0.0904795, 0.062301, -0.0810296, -0.0831664, -0.0984538, 0.107785, 0.0193018,
                                0.0407956, -0.0176715, -0.101167, -0.0489397, 0.0357682, -0.0274499, -0.00157762, -0.0741918, -0.0702553, 0.00215088,
                                -0.0361803, -0.245968, 0.120453, 0.0242027, 0.166365, 0.0386857, 0.118279, 0.0506553, -0.00583056, 0.125327,
                                0.0365602, -0.00546938, 0.0349477, 0.0598078, 0.0889379, 0.0804774, 0.0622225, 0.0537622, -0.103334, -0.0847358,
                                0.0826237, 0.0174443, -0.348624, -0.0357794, 0.0687195, 0.0349981, 0.116894, -0.0887231, -0.141616, 0.0105155,
                                -0.0257853, -0.178049, -0.174468, 0.0215679, 0.158164, 0.00949045, 0.177623, -0.0993998, -0.0668174, -0.0370978,
                                -0.0436286, 0.00752001, 0.00267537, 0.102629, -0.0767009, 0.0650162, 0.0697388, 0.0826083, 0.0362745, 0.105337,
                                0.0640533, -0.0650488, -0.19348, 0.0285287, 0.134092, 0.0308031, 0.122936, -0.134794, -0.00954722, -0.134863,
                                -0.0789777, -0.0584458, -0.117337, 0.031587, -0.00559976, 0.0631079, 0.172026, -0.0688308, -0.0442447, -0.0745047,
                                0.0667287, -0.0804116, 0.0863804, -0.00447143, 0.0219438, -0.0649628, 0.0776204, 0.0640214, 0.0439321, 0.076088,
                                0.0309149, 0.0498946, -0.0661013, 0.0272946, -0.0306088, 0.060696, 0.1308, -0.0665792, -0.0421679, -0.125338,
                                0.0496269, -0.0407001, -0.0570807, -0.082709, 0.115125, 0.000463518, 0.105854, -0.0467442, 0.0268523, 0.0556645,
                                -0.0423909, -0.0649103, -0.104532, -0.0556662, 0.0985, 0.0434712, -0.0867787, -0.0975878, -0.052021, -0.104453,
                                0.097676, -0.0939441, -0.0201962, -0.0560062, -0.0464889, 0.00324252, 0.0216198, -0.0359943, 0.115898, -0.031238,
                                0.0690039, -0.0721716, 0.0206765, -0.0848735, 0.00834179, -0.0404653, -0.106747, -0.00611085, 0.0542178, 0.106619,
                                -0.0592461, -0.0559657, 0.0605412, 0.0413393, 0.0565878, -0.0300151, 0.0155737, -0.0151663, -0.00734825, -0.0273299};


const float dense_1_b[10] = {0.397115, 0.948872, -0.0526672, 0.449607, 0.192956, -0.0431106, 0.252397, -0.104002, 0.526053, 0.332758};


const float dense_2_W[100] = { -1.06551, 1.07286, -0.355867, -0.80649, -0.803843, -0.825153, -0.584691, -0.337195, -0.25189, -0.682844,
                               -0.346421, 0.482306, -0.104667, -0.730388, 0.443788, -0.463372, 0.613512, -0.679856, -0.341668, -0.642621,
                               0.324902, -0.102936, 0.406707, 0.413393, -0.688575, -0.0183499, -0.229033, 0.362866, 0.0140997, -0.0920399,
                               -0.704818, -0.452406, -0.22841, -0.289828, 0.628766, -0.415043, -0.512825, 0.579892, -0.258664, 0.533988,
                               -0.782202, -0.376446, -0.353152, -0.265041, -0.309527, -0.71979, -1.51935, 0.356716, -0.469657, 0.278464,
                               -0.00217671, -0.0383923, -0.19867, 0.302096, 0.217633, 0.0992046, 0.210919, -0.202063, 0.440145, 0.520312,
                               -1.06794, -0.494639, -0.588231, -0.213425, 0.393379, -0.527594, -1.12296, 0.40183, -0.367251, 0.433115,
                               -0.729433, 0.0648926, -0.257783, 0.270517, -0.530298, 0.194821, -1.14123, 0.16592, 0.0621896, -0.0398527,
                               -1.13326, 0.275551, 0.413352, -0.00539105, -0.965348, -1.08665, -0.838042, 0.268946, -0.330645, -0.90088,
                               0.441595, -1.13187, -0.26051, -0.504733, -0.837425, -0.178251, -0.21234, 0.338344, -0.544051, -0.401943};


const float dense_2_b[10] = {0.365382, -0.371631, -0.213549, -0.211536, -0.127355, 0.684148, 0.670354, -1.90734, 0.924962, -0.314761};



#ifdef __cplusplus
}

#endif
#endif
