/*************
* neural_net_params.h
*
* Neural Network Parameters
* Code Generated using nn4mc
* Hardware Plateform: ESP-32
*
* This file defines the weights used by the neural network implementation.  Weight representations were
* created automatically using nn4mp.
*/

#ifndef __NEURAL_NET_PARAMS_H__
#define __NEURAL_NET_PARAMS_H__

#ifdef __cpluscplus
extern "C" {
#endif



const float conv2d_1_W[72] = {   -0.231237,   0.0987501,   -0.368585,   -0.22862,   -0.637971,   0.590943,   0.0853903,   -0.198742,
                                 -0.00733496,   0.21219,   -0.600779,   0.195667,   -0.18904,   -0.0240427,   0.264466,   0.269413,
                                 0.279155,   0.385141,   -0.395539,   0.364548,   0.3085,   0.191913,   0.417113,   0.071324,
                                 0.246399,   -0.51825,   -0.0383781,   0.340072,   -0.261091,   0.206213,   0.223953,   -0.06489,
                                 0.102321,   0.098173,   0.274164,   0.00188053,   -0.0367463,   0.167215,   -0.114741,   0.164751,
                                 0.445511,   0.286944,   -0.0742622,   -0.18981,   0.410626,   -0.170617,   0.0864798,   -0.203759,
                                 0.400957,   -0.217639,   0.425698,   -0.197478,   -0.307198,   -0.264841,   -0.320743,   0.566473,
                                 0.286423,   0.0337502,   0.337396,   0.0443443,   -0.0285492,   -0.313801,   -0.297805,   0.283793,
                                 0.207995,   0.178459,   0.358619,   -0.0915026,   0.493393,   -0.455655,   -0.122494,   0.182646};


const float conv2d_1_b[8] = {-0.0028523, -0.00486028, 0.0192778, 0.0717208, 0.00226719, 0.117234, 0.0190833, 0.0268744};


const float conv2d_2_W[576] = {   -0.165587,   0.229359,   -0.114324,   -0.185212,   0.0542584,   -0.0474629,   -0.0707279,   -0.104733,
                                  -0.255206,   0.325521,   -0.0194183,   0.216383,   0.10459,   -0.331562,   0.292994,   0.188059,
                                  0.243672,   0.01247,   0.0422177,   -0.00954502,   0.0171028,   -0.193211,   -0.357669,   0.103595,
                                  -0.166125,   0.331195,   -0.191124,   -0.332004,   0.0736926,   0.052639,   -0.041237,   -0.341465,
                                  -0.414465,   0.521074,   -0.357832,   0.0387219,   0.0422705,   0.0912341,   0.258508,   0.188995,
                                  -0.158545,   0.405707,   -0.0951125,   -0.557961,   -0.028343,   0.401549,   -0.518228,   -0.149634,
                                  -0.167687,   0.182788,   0.0377734,   -0.208646,   0.01377,   0.05694,   -0.0854854,   -0.140789,
                                  0.183444,   -0.0298709,   -0.120345,   0.151062,   -0.0654807,   -0.0805915,   0.0201264,   -0.129441,
                                  0.113461,   -0.016583,   0.176532,   0.0394322,   0.149684,   -0.339003,   -0.0660851,   0.127377,
                                  0.103154,   -0.0344793,   0.142951,   -0.0069167,   0.0741321,   -0.43202,   -0.0246614,   0.243892,
                                  0.224353,   0.0765951,   0.298335,   0.019681,   0.162088,   0.0374749,   -0.423572,   0.205493,
                                  -0.258532,   0.0310764,   -0.00612117,   -0.122256,   0.10655,   -0.135719,   -0.121917,   -0.183982,
                                  -0.367502,   0.285798,   -0.350878,   0.0852758,   0.040023,   0.256335,   0.319767,   -0.0987336,
                                  -0.169474,   0.114924,   0.00848307,   -0.477443,   -0.134516,   -0.114396,   0.115481,   -0.354039,
                                  -0.292013,   -0.0940584,   0.0197328,   -0.205758,   0.135555,   -0.349706,   -0.34652,   -0.0404791,
                                  -0.106441,   0.184428,   -0.0214686,   0.161063,   0.0050788,   -0.0944452,   0.171402,   0.0712582,
                                  0.0555435,   -0.373315,   0.0296531,   0.174243,   0.138392,   -0.292334,   -0.171365,   0.063581,
                                  -0.0769044,   -0.560998,   -0.0394707,   0.0365625,   -0.0502175,   -0.513362,   -0.122886,   0.126673,
                                  -0.0220953,   -0.211112,   0.408538,   -0.223177,   0.143659,   0.287905,   -0.690835,   -0.335059,
                                  0.200152,   -0.179544,   -0.2836,   0.170367,   -0.0709304,   -0.592072,   0.236617,   0.230965,
                                  -0.00153175,   -0.0277899,   -0.166135,   -0.0809974,   0.152151,   0.138916,   0.382293,   -0.298559,
                                  -0.30819,   0.0213532,   -0.182436,   -0.31379,   -0.0527758,   -0.234545,   0.199138,   -0.0388981,
                                  -0.289945,   -0.260509,   -0.190032,   -0.0875942,   0.041482,   -0.49421,   -0.0393,   -0.140536,
                                  -0.0819144,   -0.126159,   0.220279,   -0.11969,   -0.0150818,   -0.258392,   -0.0432176,   0.116222,
                                  0.0724297,   -0.271382,   -0.235393,   0.052834,   -0.122135,   0.0169099,   0.195446,   0.270533,
                                  -0.228728,   0.217112,   -0.197267,   0.00725598,   -0.0742579,   -0.236112,   0.208427,   -0.221401,
                                  0.138391,   -0.0262626,   0.28082,   0.12302,   0.114871,   -0.332078,   -0.316461,   0.23764,
                                  0.101292,   0.0556946,   -0.0443596,   0.028116,   0.108886,   0.0986766,   0.00013796,   0.0185965,
                                  -0.384198,   0.000536958,   -0.249473,   -0.169387,   0.115825,   0.267698,   0.315532,   0.12653,
                                  -0.108923,   0.275044,   0.0219398,   -0.406761,   -0.0618212,   0.525211,   -0.26124,   -0.486286,
                                  0.310775,   0.299359,   0.28298,   -0.0874443,   0.274479,   0.265006,   -0.487795,   -0.299655,
                                  -0.134388,   -0.208074,   0.11679,   0.144206,   -0.482872,   -0.253366,   0.161481,   0.0691463,
                                  0.138124,   -0.160346,   -0.0114718,   0.188771,   0.114097,   0.0379301,   0.2077,   0.055397,
                                  -0.115509,   -0.356756,   0.104707,   0.0227572,   -0.055318,   -0.122109,   0.0896168,   -0.0980387,
                                  0.244135,   -0.0490169,   0.236095,   -0.236472,   0.397514,   -0.190641,   -0.453611,   -0.282001,
                                  -0.101926,   0.142522,   -0.0899072,   0.136351,   0.0503309,   -0.298151,   -0.0247199,   0.225614,
                                  -0.337413,   -0.169048,   -0.249178,   0.00574842,   0.102084,   0.379402,   0.214266,   0.195129,
                                  -0.198326,   0.337969,   -0.0622304,   -0.186744,   0.0130883,   0.308943,   0.086944,   -0.00150074,
                                  -0.124924,   0.192158,   0.365291,   -0.196212,   0.144376,   -0.243309,   -0.229853,   0.0998939,
                                  -0.00110445,   -0.0640794,   -0.0213636,   0.114407,   -0.21231,   0.0318943,   -0.09507,   0.136048,
                                  0.108917,   -0.553501,   0.0313237,   0.0631012,   -0.149258,   -0.0987136,   -0.168561,   -0.161759,
                                  -0.23635,   -0.635811,   -0.0601916,   0.0680379,   0.121382,   -0.184168,   -0.0846741,   -0.116442,
                                  0.130282,   0.028989,   0.0846788,   -0.337512,   -0.0813429,   0.153661,   -0.511492,   -0.48361,
                                  0.214798,   0.0759109,   0.0985623,   0.238291,   0.190199,   -0.498292,   0.229538,   0.160114,
                                  0.0316519,   -0.0703052,   -0.347591,   -0.140448,   -0.117708,   0.470266,   0.552831,   0.0414427,
                                  -0.0667056,   0.0211634,   -0.0775713,   -0.0152875,   0.229164,   -0.202643,   -0.00822672,   -0.0469869,
                                  -0.123021,   -0.037835,   0.246908,   0.139335,   0.296465,   -0.455012,   -0.424428,   0.189464,
                                  0.120389,   -0.0251428,   0.203066,   0.170852,   -0.00328007,   0.0756569,   -0.0229544,   -0.0783328,
                                  -0.04001,   -0.682574,   -0.0429185,   0.0979873,   -0.44773,   -0.162049,   -0.113414,   -0.0734223,
                                  -0.00790097,   0.106413,   -0.140934,   -0.182325,   0.115757,   -0.157868,   0.284002,   -0.179757,
                                  0.173818,   -0.292819,   0.246173,   -0.0742171,   -0.343655,   -0.466542,   0.0226237,   -0.287284,
                                  -0.0362611,   -0.0368239,   0.0854796,   -0.0284388,   -0.193653,   -0.0577796,   -0.0725436,   0.217305,
                                  -0.436816,   -0.23867,   -0.432904,   -0.176043,   0.219987,   0.253715,   0.283949,   -0.0101084,
                                  0.219359,   0.0971894,   0.0361598,   -0.285357,   -0.0428868,   0.53753,   -0.238245,   0.199286,
                                  0.275178,   0.191072,   0.326472,   0.110264,   0.174558,   0.270321,   -0.389412,   0.0306027,
                                  -0.0818241,   -0.517875,   -0.342277,   0.16653,   -0.430606,   -0.375468,   0.11657,   0.184142,
                                  0.00626512,   -0.494906,   0.0235583,   -0.0267303,   -0.109084,   -0.00940069,   0.0196385,   -0.193713,
                                  -0.0426122,   -0.0905476,   0.00750277,   -0.0564932,   0.201604,   -0.00369463,   -0.01391,   -0.138339,
                                  0.19969,   0.0784781,   0.00773938,   -0.353256,   0.0187694,   -0.26763,   -0.475448,   -0.412795,
                                  0.23719,   0.0327051,   0.13013,   0.0549192,   0.0686668,   -0.223984,   0.170376,   0.119261,
                                  0.0805598,   -0.0710714,   -0.0721309,   0.144742,   -0.406958,   0.297231,   0.491721,   0.333247,
                                  -0.0208867,   0.241961,   0.0476973,   -0.293654,   0.0891845,   0.154305,   -0.217037,   0.130299,
                                  0.0282261,   -0.101128,   0.334778,   0.0352614,   0.149188,   -0.405187,   -0.29834,   0.251205,
                                  -0.0170926,   -0.0466067,   -0.217581,   0.00467246,   -0.357022,   0.118673,   0.240135,   -0.235342,
                                  0.117306,   -0.0428141,   0.0939379,   0.101881,   -0.552655,   0.210575,   -0.0170534,   0.129379,
                                  0.0631793,   -0.197041,   0.315091,   -0.0319653,   -0.24668,   0.198793,   -0.212461,   0.160242,
                                  0.0647961,   0.112197,   0.121423,   -0.443598,   -0.10002,   0.101573,   -0.441237,   0.00780505,
                                  0.203471,   -0.173364,   -0.0217096,   -0.212905,   0.192018,   -0.0131262,   -0.042382,   -0.341725,
                                  -0.024927,   0.199101,   -0.203561,   0.0344899,   -0.349705,   0.412839,   0.557829,   0.402335,
                                  0.025068,   0.162071,   0.0752273,   -0.202141,   0.166708,   -0.159255,   -0.137993,   -0.312384,
                                  -0.332213,   -0.0175493,   -0.131646,   -0.0904103,   -0.0255121,   -0.0832305,   -0.221078,   -0.188012,
                                  0.127242,   0.215476,   -0.0386013,   0.0230696,   -0.434122,   0.00992652,   0.185968,   -0.17171};


const float conv2d_2_b[8] = {0.0335348, 0.104824, -0.0436383, -0.210128, -0.0691359, 0.0326434, -0.035214, -0.0371515};


const float dense_1_W[115200] = { 0.0388501, 0.0086097, -0.0482275, -0.0507357, -0.0544933, -0.0679651, -0.0340708, 0.00814638, 0.0454042, 0.0428779, -0.00129471, 0.0659977, 0.0162392, 0.0667479, -0.0438861, 0.022257, 0.0111828, -0.0708345, 0.0223976, -0.0264092, 0.0390253, -0.00781224, 0.0434881, -0.0415503, -0.00706938, 0.0608318, 0.0400507, -0.0518199, -0.0561181, 0.0300257, -0.0136291, -0.0643629, 0.0175605, 0.0289301, -0.0417486, 0.0178509, -0.0443343, 0.0481706, 0.0295218, 0.0336335, -0.0665936, -0.0103919, 0.0521289, 0.0217441, -0.0607203, -0.023329, 0.0259611, 0.00180969, 0.0375549, 0.0588655, 0.0468928, -0.0100635, -0.0281791, -0.0582197, 0.057767, 0.0590139, -0.0198513, -0.0545586, -0.047595, 0.0398491, -0.0253709, -0.0358552, 0.0247152, 0.0086952, 0.0262651, 0.00718752, -0.0502003, -0.0580154, -0.0551588, -0.00892833, 0.0145115, 0.0300939, -0.040436, -0.00756289, 0.0431188, -0.0132688, -0.0474203, -0.0366083, -0.0561513, -0.0640062, 0.0665411, 0.0331782, -0.0163495, 0.0442946, -0.00224408, -0.0514884, 1.97373e-05, 0.0236783, 0.0149798, -0.000868924, 0.0415131, 0.0388506, 0.0416009, -0.0236274, 0.0689746, -0.061601, 0.0251051, -0.0279316, -0.00820305, 0.0413337,
                                  -0.0755722, -0.121303, -0.0980344, -0.0368608, 0.0297105, -0.085443, -0.117295, -0.0450025, -0.0203342, -0.0329712, -0.0366182, -0.045339, -0.00505039, -0.0366889, -0.0208356, -0.0136658, -0.0759684, -0.0251364, -0.0300017, -0.00888637, -0.0547712, -0.0886431, -0.000645513, -0.0158781, -0.0724132, 0.0338775, -0.0645928, 0.0186379, -0.0209498, -0.00180159, -0.038094, -0.0243087, 0.0032281, -0.084379, 0.017094, -0.0691329, -0.0768859, -0.0331409, -0.0270857, -0.0831481, -0.0317787, -0.0195084, -0.0658291, -0.0642438, -0.0908059, -0.113962, -0.097325, -0.00887746, -0.0485302, 0.00593059, 0.0454164, -0.0788175, -0.0258114, -0.0248457, 0.00110131, -0.0164474, -0.0196846, 0.00571843, -0.015897, -0.0843538, -0.0321191, -0.0730956, 0.0202346, -0.0302536, -0.0193842, -0.00597328, -0.0727009, -0.102716, -0.0131592, -0.0358536, -0.0553008, -0.0687266, -0.0141302, -0.0897257, 0.0295713, -0.0778944, -0.0428744, 0.0126129, 0.0241286, 0.00248223, -0.00984684, -0.0187066, -0.0580849, -0.0951117, -0.0650736, -0.0234751, -0.0856552, -0.0143619, -0.0829024, -0.0177628, -0.0972172, -0.0580205, -0.100347, -0.0119532, -0.0910892, -0.0336769, 0.0355884, -0.0472624, -0.109879, -0.0591437,
                                  -0.0617018, 0.0641744, -0.0609488, -0.00796757, 0.0498294, -0.0368119, -0.0703759, -0.00220802, -0.00276027, -0.0048387, 0.0699489, 0.0353169, -0.0543518, 0.0308885, -0.0304377, 0.0177713, 0.0345949, 0.00818433, -0.00828095, -0.0448789, 0.0154379, -0.0213892, -0.00756163, -0.0407682, -0.0383152, -0.0102391, -0.0331274, 0.0362475, 0.00228215, 0.0673781, -0.0031155, -0.023585, 0.0177315, -0.0590277, 0.0569198, -0.00917048, -0.0286055, 0.0433148, 0.0360296, -0.0082141, 0.0557359, -0.0538488, 0.0336261, 0.051642, -0.0557125, 0.0605672, -0.0657025, 0.0370763, -0.0482968, -0.0178818, -0.0281326, -0.0161693, 0.00445536, 0.00172443, 0.0475185, 0.0137612, -0.0645445, -0.0194057, -0.0177506, -0.0332578, -0.00412347, -0.0485952, -0.00325642, 0.0658308, 0.0269568, -0.0425297, -0.0181143, 0.0267975, 0.020132, 0.0647369, 0.0507321, -0.047767, -0.0439118, 0.0475836, 0.0623755, 0.0283044, 0.0485974, -0.0576911, -0.0593525, 0.0443633, 0.0211324, 0.0480734, -0.0275616, 0.0497041, -0.0562132, -0.0263992, -0.054403, -0.00249789, 0.0191177, 0.0184698, -0.0147733, 0.0494938, 0.0472449, 0.00538073, 0.0381693, -0.0286596, 0.0153453, -0.00800401, -0.0167792, 0.0576069,
                                  0.0372417, 0.0267125, -0.0444737, -0.051417, -0.040128, 0.00876203, 0.0606933, -0.0545639, -0.06114, -0.0104494, 0.0493026, 0.0589281, -0.027899, 0.024175, 0.00903254, 0.0463837, -0.01454, -0.0541974, -0.0292002, -0.0286601, 0.0518462, -0.00366082, 0.0167184, -0.0211465, 0.0563133, -0.052148, 0.0645719, 0.0582976, -0.0143856, 0.0626528, 0.052242, 0.0440468, 0.0319634, 0.0104397, 0.0590634, 0.0606774, 0.00537817, 0.0548354, -0.0561941, -0.0503609, -0.0354163, 0.0444922, -0.0295226, 0.00370623, 0.0125134, -0.0412137, -0.0542737, -0.0555318, 0.0253787, 0.0420544, -0.054419, 0.0280115, -0.0115968, -0.0372942, 0.025527, 0.0165782, 0.0437575, 0.0635316, 0.0286734, 0.0319689, -0.0299142, 0.0651276, 0.0223059, -0.0509835, 0.0632463, 0.0416532, -0.0125022, 0.0530738, 0.0262832, 0.0458388, 0.0545817, 0.067476, 0.0344993, 0.0576067, -0.03377, 0.0280188, -0.0451283, 0.00455782, -0.0231435, 0.00622919, 0.0360885, 0.0451053, 0.065662, -0.0351287, 0.0140404, 0.0486993, 0.055653, -0.0346199, -0.050033, -0.0251496, -0.02288, -0.00290587, 0.0436789, 0.0523965, 0.00320387, -0.053764, -0.0466241, 0.0412052, -0.0396978, -0.00448192,
                                  -0.0199144, -0.0193571, 0.0503458, 0.0117481, 0.0497366, -0.0206208, -0.0332714, 0.00182419, -0.0467602, 0.0610264, -0.00334715, -0.0152525, 0.027023, 0.0118107, 0.0681561, 0.0666016, -0.058747, -0.0345204, 0.0322131, -1.73594e-05, -0.0107662, 0.00366247, 0.0104061, -0.0120307, 0.0471728, 0.0391187, 0.027912, -0.0295461, -0.063123, -0.0512128, -0.00637693, -0.00827043, -0.068251, -0.0214778, -0.0184688, 0.0632492, 0.0317299, -0.0487287, 0.0664292, -0.0447138, -0.0135766, -0.0504681, -0.0539434, 0.0643712, -0.0630914, -0.00587636, 0.0651353, 0.0324191, 0.041098, -0.016055, -0.0523573, 0.0168251, 0.0626539, 0.0295271, 0.0118799, -0.0581595, 0.067199, 0.00694877, 0.0640349, -0.0221474, 0.055889, 0.00994319, -0.00145425, 0.0194604, -0.0411732, -0.067942, -0.0225857, -0.0350598, 0.0352527, 0.0438764, -0.00394755, 0.00720912, 0.0395222, -0.0140098, -0.015644, -0.0661587, -0.0679733, 0.0669823, -0.0347119, 0.0543187, 0.00930211, -0.00756448, 0.0172819, -0.0153815, -0.0268398, 0.0676435, -0.0196359, 0.0344288, 0.0292719, -0.0112687, 0.0532773, -0.0209058, -0.0119261, -0.0272581, -0.0523187, -0.0409402, 0.0136382, 0.0405068, 0.00798922, 0.0519892,
                                  0.0282044, 0.0306076, -0.0554735, 0.0400027, -0.00935019, -0.0384726, -0.0622274, -0.0413604, -0.104115, -0.0574306, -0.0474355, 0.0468688, 0.0215783, 0.0171106, 0.0102685, -0.0148341, -0.0725406, 0.0501416, 0.0518048, -0.0222687, 0.0316062, -0.0732834, 0.046273, -0.0605654, -0.0177581, -0.0227512, -0.0712433, -0.054663, 0.0101534, 0.0262463, -0.0294499, -0.0577298, -0.0648324, 0.0739875, 0.00454536, -0.0244253, -0.0526142, -0.0495286, -0.0330504, -0.0130098, -0.0670506, -0.0301418, -0.0160067, -0.0694133, -0.0559223, -0.0110402, 0.0413475, 0.0188133, -0.0236588, -0.0536916, 0.0733447, -0.054129, 0.0950016, -0.0682628, 0.0376237, -0.0659237, -0.0296664, -0.0625787, 0.0255449, -0.0452076, 0.0301255, -0.0600252, -0.0270718, -0.00988253, 0.0110368, -0.0644353, 0.0457503, -0.0654052, -0.0487436, -0.0582172, -0.0436974, -0.0101729, -0.059519, -0.0552519, 0.0563621, -0.0678178, 0.00721005, -0.0369366, 0.0178046, 0.0310362, -0.000473323, -0.00885142, -0.0103952, 0.00674182, 0.0653919, -0.0343586, 0.00436405, -0.0106513, 0.00144002, 0.0810999, -0.0714246, 0.0288099, 0.0473351, -0.0427777, 0.0636374, 0.0464845, 0.0627065, -0.0517077, 0.0507672, -0.0646832,
                                  -0.0660421, 0.0315903, 0.0600042, -0.0285491, 0.0391038, 0.049507, 0.00587555, -0.0559402, -0.0616867, 0.00020759, -0.0153105, 0.0135213, 0.0254298, -0.00716308, -0.0713424, 0.0443985, 0.0103976, -0.0258774, -0.0133742, -0.0224183, -0.01286, 0.0555256, 0.00388349, 0.0431376, -0.0613367, 0.0175413, 0.0267337, -0.0473806, -0.0281372, 0.0481345, -0.0716511, -0.0163474, 0.0444583, -0.059864, -0.0492892, 0.00430248, 0.037102, -0.0482996, 0.0598985, -0.0265736, 0.042854, 0.00276507, -0.051802, -0.0593303, -0.0598728, -0.0196471, -0.0143734, 0.0355143, 0.0107489, -0.0513059, -0.020364, 0.00218519, 0.0266779, 0.0105473, -0.00439015, -0.00645945, 0.0320728, 0.0373552, 0.0542601, 0.0355734, -0.0214116, -0.0357553, -0.0480735, -0.013716, -0.0597074, -0.0438677, 0.0540539, 0.00773627, 0.0171099, -0.0214771, -0.0232342, -0.0284918, 0.019816, -0.0544894, -0.0477074, -0.0374885, 0.0429711, 0.0644993, 0.0287177, -0.0269896, -0.023067, -0.0222216, 0.00732413, -0.0478408, 0.0527834, -0.0215305, -0.00312125, -0.027041, -0.0110604, 0.0320579, -0.00788643, -0.0315911, 0.0217949, 0.06445, -0.000232054, -0.0480828, 0.0304896, -0.0541607, 0.028485, 0.0306008,
                                  -0.0211194, -0.0450194, 0.00433768, -0.0617566, 0.0386301, 0.0620137, 0.0399641, -0.0283813, 0.0557872, -0.0204574, 0.0432392, 0.0243327, -0.0215708, 0.0139004, -0.0104149, -0.0210695, -0.000291469, 0.00112561, 0.0292471, 0.0257507, -0.058543, -0.0510649, 0.0272747, -0.0281334, -0.00669972, -0.0635109, -0.0595248, -0.0211826, 0.0533005, -0.0293288, -0.0483817, 0.0405718, -0.00424513, -0.00182711, 0.0542231, -0.047269, 0.0371972, -0.0522606, 0.0492865, 0.0407508, 0.0217667, -0.0321944, -0.0302344, -0.05014, -0.0253504, -0.0161409, 0.058508, 0.0625184, -0.00965766, 0.00971126, -0.0516321, 0.00397148, -0.0121571, 0.0145583, -0.0252139, 0.0403433, -0.0221853, 0.00568901, 0.00311943, 0.0199858, 0.0343766, -0.00701292, 0.0575557, -0.0366952, 0.0170019, 0.0467315, -0.00907659, 0.0597943, -0.0338659, 0.0110735, 0.0619135, -0.0204939, -0.0217417, -0.0252004, 0.0430197, 0.00996287, 0.0560998, -0.0581368, 0.028363, 0.0201623, -0.0646238, 0.0575375, -0.066948, -0.0272879, -0.0211503, -0.0430974, -0.00161554, -0.0311724, -0.00975907, 0.00249617, -0.0215068, 0.00803516, -0.0448217, 0.0390912, 0.00562116, 0.0665326, -0.0351321, 0.0164959, 0.0629132, -0.0217019,
                                  -0.0177776, 0.0518813, -0.0129148, 0.00571646, 0.0707106, 0.0411238, 0.0372502, -0.0229445, -0.054513, 0.0653313, -0.0484711, -0.00817806, -0.0321492, 0.0533759, -0.0626448, -0.00383572, -0.0383052, -0.0161922, -0.02224, 0.00717155, 0.0178095, -0.0713185, 0.0334199, -0.0723935, -0.0209161, 0.00760528, -0.0701437, -0.0199423, 0.00960888, -0.0246633, -0.0676692, -0.0462907, -0.00975079, 0.0175651, 0.0544054, -0.00870673, 0.0469383, 0.0453249, 0.001289, 0.0534631, -0.0591755, 0.00238429, 0.0365489, 0.00385134, 0.0538217, 0.0147641, -0.0673933, -0.0418803, 0.0914081, -0.0135102, 0.0183578, -0.0410672, 0.0259144, -0.0382505, 0.0309417, 0.0325594, -0.039579, 0.0614462, -0.0306789, 0.000792109, -0.043788, 0.0569182, -0.0634143, 0.0131076, 0.0145958, -0.00625289, -0.0524382, -0.0141829, 0.045935, -0.0637048, 0.00211601, 0.0197616, -0.0180339, -0.0251522, -0.00347192, 0.0203004, 0.044347, -0.0540246, 0.0248353, 0.0630961, -0.0394074, 0.046985, -0.00494018, 0.0170416, -0.0277323, -0.041594, 0.00161159, 0.0035811, -0.0409953, 0.012461, -0.0340014, 0.0813647, 0.0369505, -0.0175536, 0.0610154, 0.0597114, 0.0228035, 0.00945956, 0.0385332, -0.0529817,
                                  -0.0249313, 0.00492359, -0.100107, 0.00767423, -0.0821725, -0.092808, -0.0454344, 0.0176584, -0.111075, -0.0980995, -0.0515675, -0.0626614, -0.036905, -0.0638724, -0.0380019, -0.0480048, 0.00409799, 0.0193546, -0.00941413, -0.0589443, -0.0178779, -0.0381212, -0.103881, -0.0666771, 0.00543884, 0.00990119, 0.0264938, -0.0482213, 0.0415341, -0.0717008, -0.0407923, -0.0324894, -0.116407, -0.0556947, -0.0798995, -0.089279, 0.00607425, 0.00397546, 0.0317432, -0.00800734, -0.044218, -0.0501786, 0.033176, -0.0161517, -0.0934285, -0.129795, -0.0281039, -0.0754557, -0.102938, -0.0245573, -0.0866863, -0.0449067, -0.0226055, -0.0421908, -0.0167215, -0.0122657, -0.0362339, 0.0200269, -0.0617975, 0.0454858, -0.0442442, -0.0921144, -0.00578828, 0.0226794, -0.0579109, -0.0409236, -0.0721477, -0.076775, -0.0332478, 0.00146836, 0.029278, -0.000307544, -0.0958141, -0.0576604, -0.0190175, -0.0364022, -0.0209809, -0.00336727, -0.0821875, 0.0331309, -0.0190484, -0.0324484, -0.0038334, -0.0198444, -0.0970259, -0.021891, 0.0311794, 0.0206688, 0.00359016, -0.00227076, -0.0527953, -0.0773707, 0.00684417, -0.0336392, 0.032416, -0.0160493, -0.00838895, 0.0177603, 0.0109698, -0.018741,
                                  -0.0276888, 0.0186187, -0.0439411, -0.0649366, -0.00341092, -0.0179586, 0.0529705, 0.0211909, -0.0291528, -0.0361101, -0.05474, 0.0110166, 0.0130924, 0.0615268, 0.0532091, 0.0534169, 0.0432484, 0.00154977, -0.0135617, 0.0359459, 0.0444539, -0.0384718, 0.0403827, -0.00388893, 0.0527333, 0.050135, -0.0624079, 0.0176704, 0.0503736, -0.0501847, -0.0531757, -0.0457628, -0.0570903, -0.0279516, -0.0271805, 0.0122943, -0.0428486, -0.0453222, -0.0507521, 0.0374117, -0.0569627, 0.062826, -0.028147, -0.0374816, -0.0141819, -0.0387283, 0.0420554, -0.0404561, -0.0372609, 0.04772, -0.0135647, 0.0286779, 0.0527305, 0.031542, -0.000272515, 0.00611058, -0.0281885, -0.0639316, 0.0381433, -0.0254631, -0.0168954, 0.0630467, 0.0100258, 0.00953514, 0.0448529, 0.0120337, -0.0553593, 0.0419259, -0.0118733, -0.0217704, 0.0621959, 0.000549493, -0.0686858, 0.0538378, 0.0489289, -0.0136899, 0.0144097, -0.0120234, 0.0551985, -0.0479722, 0.0457737, 0.0242447, 0.0570202, 0.0569593, 0.0108398, 0.00843886, -0.0493183, 0.0254224, 0.000346118, -0.0631549, 0.015313, 0.0280882, 0.0673152, -0.0372439, 0.0473329, -0.05422, 0.0152032, 0.0202655, 0.025821, 0.0189814,
                                  0.0058609, 0.0517115, 0.0427475, 0.0376372, 0.040442, 0.00977483, -0.00339948, -0.0183458, -0.0488322, -0.0595392, 0.0402093, 0.0358404, -0.0165056, -0.0325964, -0.0167893, -0.0379068, 0.0386622, 0.0161867, -0.03864, -0.0286388, -0.0130747, 0.0254656, -0.0265789, 0.0170322, 0.060785, 0.0118342, -0.0234263, -0.0385463, 0.0204092, 0.00073335, 0.0355599, -0.0663561, -0.0563281, -0.052618, 0.0349294, -0.0456207, -0.0453961, 0.046149, -0.0229827, 0.0603924, 0.0525115, 0.0314575, 0.0241146, -0.0306036, 0.0235058, -0.0352668, -0.00687959, -0.0181394, 0.00997028, -0.0443402, 0.0656242, -0.0241444, 0.0294361, -0.00955047, 0.0607543, -0.00255819, -0.0285237, -0.0351223, 0.0372137, -0.0671264, 0.0618074, 0.0606252, -0.028104, 0.00817725, 0.00133055, -0.0459973, 5.26221e-05, -0.00819695, 0.0599056, -0.0252547, 0.0669289, 0.0573493, 0.0576505, 0.0200971, 0.0462219, 0.0490039, -0.0393252, -0.0428469, 0.0525353, -0.0260349, 0.0556473, 0.0295575, 0.00779104, -0.0478526, -0.0491648, 0.0614541, 1.71885e-05, -0.0624561, -0.0554808, 0.00369819, 0.0174423, -0.0529012, 0.0220052, 0.0640713, 0.0327733, -0.0277831, 0.02561, -0.0110912, -0.0406164, 0.0413868,
                                  0.059286, -0.0427139, 0.00170557, -0.0272122, 0.0595946, 0.044035, 0.0252665, -0.0655166, -0.0492416, -0.0633664, -0.0617758, 0.0442252, 0.0348081, 0.0551979, -0.0507361, 0.0468674, 0.0666648, -0.0549519, -0.0244985, 0.0536601, -0.00394985, 0.0118199, -0.0404579, -0.063573, 0.012911, -0.000339169, -0.033932, 0.0112103, 0.00243185, 0.0106516, -0.0685447, -0.0314067, -0.0221781, -0.0472312, 0.053506, 0.0235858, 0.0267028, 0.0474196, -0.00936469, -0.00892923, 0.0547651, -0.0425837, 0.0458529, 0.0498346, -0.0295589, 0.0399446, 0.0543476, -0.0490012, 0.0625343, 0.00733152, -0.00462687, 0.0673416, -0.0390479, -0.0477598, -0.0541941, 0.0552161, 0.0682283, 0.0529193, -0.0278474, 0.0666557, 0.00595583, -0.0161998, -0.0193972, -0.0394128, 0.0110231, 0.00232121, 0.051105, 0.0111189, 0.00186556, -0.0424519, 0.014347, -0.00890821, 0.0464386, -0.0521246, -0.00927562, 0.0259665, 0.0356421, -0.0434284, 0.0626424, -0.0151497, -0.0320568, 0.00735277, 0.0372385, 0.0324571, 0.015155, 0.0242078, 0.0616423, -0.0171034, 0.00105937, -0.0347982, 0.0515853, -0.0254199, 0.0091082, 0.0264353, -0.0340873, -0.00206336, 0.0114592, -0.00670722, 0.0317886, 0.0518968,
                                  -0.00992268, 0.0038811, 0.00176583, 0.0261908, 0.00462518, -0.0380852, 0.0233658, -0.0939751, 0.017252, 0.00866809, -0.0319879, 0.0314363, 0.0602693, 0.0521772, -0.00628545, 0.0217039, 0.00443283, -0.0741042, -0.00430908, 0.041553, 0.0152945, -0.00477694, -0.00530311, -0.0708666, -0.0607838, 0.0181505, -0.0919814, 0.0410664, -0.039989, 0.0588389, 0.0310691, 0.0201926, -0.0127218, 0.036281, 0.0176733, 0.0367546, 0.0380581, 0.0134437, -0.0449506, -0.00581764, 0.0019066, -0.0542569, -0.0227227, 0.0148546, -0.0121013, -0.00846482, -0.0277449, -0.00830897, 0.0386825, -0.0324361, 0.0361851, -0.0423362, -0.0400389, -0.0406779, 0.0326919, 0.0203852, -0.0301982, 0.0399182, -0.0351645, 0.0203654, 0.0534495, 0.0573785, -0.00274523, 0.0235888, 0.0235787, -0.020938, 0.0434613, -0.00537902, -0.0515186, 0.0135701, -0.0253305, 0.0276746, -0.05711, -0.0140888, -0.0560759, 0.0511326, -0.0142323, -0.0690165, 0.0207372, 0.00519091, -0.0586444, -0.0888476, 0.0401214, 0.0355931, 0.0198614, 0.00955652, -0.0807805, 0.00428078, -0.0187794, -0.0188637, -0.0480806, 0.022119, -0.0246494, -0.0546132, 0.08198, -0.0183455, -0.035732, -0.0631758, -0.0320225, -0.0201515,
                                  0.00451112, -0.0374243, -0.0288377, -0.0589738, 0.0463031, -0.0471864, -0.00290406, 0.0560652, 0.0307826, 0.0215378, -0.0179886, 0.0174965, 0.051574, -0.0635901, -0.0131433, 0.0468625, -0.0645436, 0.0226121, -0.0554542, 0.00580399, 0.00929829, -0.0337638, -0.0033861, 0.0467813, 0.0328313, 0.0316863, 0.00743696, 0.0599661, 0.00738729, -0.0127528, 0.0124687, -0.0160069, 0.0347532, -0.0471698, -0.061974, -0.0456428, 0.0115755, -0.0600032, -0.0290241, 0.036366, -0.0336569, 0.0154845, 0.0591635, -0.0322277, 0.0176364, 0.04484, 0.0223582, -0.0215711, 0.0454362, 0.0279787, -0.0297224, -0.00652034, -0.0071192, -0.0535247, -0.0289235, 0.0662463, -0.020831, -0.0536775, -0.00481941, -0.0442851, 0.01695, 0.0188115, -0.0269917, 0.00105157, 0.00845495, -0.0182129, -0.0119263, -0.00102896, -0.00938719, -0.0356359, 0.072275, 0.0174091, 0.00464092, 0.0389158, 0.0185516, 0.0206025, -0.0247903, -0.0479729, -0.00813841, -0.0523076, 0.00917842, -0.0696275, -0.0141598, -0.0567551, -0.0259004, -0.0588074, 0.0458677, 0.068544, -0.0321091, -0.0420179, 0.0126565, 0.0558781, 0.0549386, -0.0227458, 0.00988504, -7.03766e-05, 0.0601307, -0.0600362, -0.0129587, 0.0390679,
                                  -0.0293274, -0.023017, -0.0379342, -0.067279, -0.0682003, 0.0090105, 0.00825716, 0.0646842, 0.0228233, -0.0598348, 0.0434456, 0.0120889, -0.028404, -0.0408985, 0.0578413, 0.00267852, -0.0601403, 0.0399626, -0.020568, 0.0497646, 0.0208931, 0.00320378, -0.0337029, -0.0441609, -0.010605, 0.0187439, -0.00212061, 0.0144288, -0.00974404, 0.0592221, 0.0394529, 0.00823605, -0.00780034, 0.0559859, 0.0465025, 0.00628765, 0.00643359, -0.0460798, 0.0312454, 0.0651553, 0.0589086, 0.0132008, -0.057847, -0.0169039, -0.014084, 0.0378295, 0.00893571, 0.037611, 0.062005, -0.0557363, 0.065276, 0.0703011, -0.0676815, 0.0426402, -0.0536349, -0.0675484, -0.00921437, -0.0488729, 0.0636173, 0.00615953, 0.0101628, 0.049801, -0.0741705, 0.0114389, -0.00934402, -0.0551573, 0.0470391, -0.0585366, -0.0274963, -0.0189089, 0.0545166, -0.038832, -0.0468389, -0.0136723, 0.0534809, 0.00213266, 0.0296716, 0.0171097, 0.0606512, 0.0199047, 0.0146297, 0.0137281, -0.0604837, -0.00854114, -0.0477834, 0.00637802, 0.011715, -0.0487385, -0.0606575, 0.02347, 0.0221232, 0.00502209, 0.0265726, 0.0339972, 0.00400389, -0.0618807, 0.0512707, -0.0529246, -0.0110264, -0.00595113,
                                  -0.0480145, 0.00539301, 0.0172738, 0.0420225, 0.0193935, 0.0305054, 0.0504401, -0.0607543, -0.00751354, 0.0652598, -0.00609432, 0.044725, 0.112734, -0.00159752, 0.0529373, 0.0721225, -0.0556262, -0.128113, -0.0536327, 0.0297076, 0.0277074, -0.0385297, -0.0341565, -0.0665016, -0.0326443, 0.0743041, -0.0493238, 0.0798877, -0.0498941, 0.00791198, -0.00890882, 0.0256695, -0.0313748, -0.0547671, 0.00241668, -0.0959024, -0.0605397, 0.0617759, 0.0224694, 0.044882, -0.0577566, -0.0559513, 0.0416666, 0.0208015, -0.00972335, 0.0329516, 0.000384772, -0.0570876, -0.0178722, -0.0260971, 0.00350043, 0.0887724, 0.0506647, -0.111411, 0.109812, -0.0123911, 0.0124959, -0.0529483, 0.0127716, -0.0144925, 0.00284351, -0.0608376, -0.00987911, 0.0301416, 0.0205341, 0.0777876, -0.0129016, -0.00567031, -0.034857, -0.011485, 0.0207834, -0.0825114, -0.0147895, -0.00998273, 0.00851461, -0.0608843, -0.0239949, 0.0156219, 0.0178792, -0.053943, 0.0359551, 0.0158256, -0.0144839, 0.0117319, 0.023677, -0.0811927, 0.016086, 0.0519254, 0.0174549, 0.0372419, -0.011772, 0.0533189, 0.0227986, 0.042646, 0.0128055, 0.0109991, 0.045163, -0.00986765, -0.0654101, 0.058046,
                                  0.0286153, 0.0482234, -0.0351181, -0.0239911, -0.0949124, -0.0120171, -0.0136317, 0.00948966, -0.056499, -0.0887111, -0.0134171, -0.0959442, -0.0658367, -0.017985, 0.0349731, -0.0453073, -0.00135176, -0.01442, -0.0235464, -0.0761935, -0.0578432, -0.0828832, -0.051253, 0.00203499, -0.0856483, -0.00521589, -0.0458572, -0.013162, -0.00609833, -0.03685, -0.00978705, -0.003745, -0.0234221, 0.0250771, -0.040157, -0.0602971, -0.0586511, -0.00735915, 0.0244862, -0.0489427, -0.0320472, -0.0685976, -0.00260947, -0.0571589, -0.0531059, -0.0408902, -0.0838218, -0.0664554, 0.00819651, 0.0312588, 0.035933, -0.0756933, -0.0416509, -0.0103603, -0.0433722, 0.0462436, 0.0435633, 0.0264928, -0.0685489, -0.0204919, -0.0167341, -0.0291809, -0.0215228, -0.0199719, 0.0300523, -0.0285899, -0.0323933, -0.0812287, -0.0360681, -0.0424353, -0.101716, 0.0357929, 0.0263351, -0.00955236, 0.0173328, 0.0297348, -0.010885, 0.016706, -0.00601536, 0.019446, 0.00852984, -0.078253, -0.032064, -0.0174379, -0.0264872, -0.0602156, 0.028329, -0.116535, 0.00966211, -0.00370394, 0.0164241, 0.00404469, -0.00324775, -0.0181115, -0.00960469, -0.0937897, 0.00832541, 0.0328746, -0.0449942, -0.0805627,
                                  0.0605946, -0.0141406, -0.0305061, 0.0567233, -0.055981, 0.00343477, 0.0558968, 0.00803617, -0.0268396, 0.0283887, -0.0510817, -0.038389, 0.0769317, -0.000507817, 0.0354449, 0.0721337, -0.0250867, 0.0239707, 0.0228195, 0.0513778, -0.00395251, -0.019578, -0.0244819, -0.00435414, 0.00974941, -0.00556636, 0.0342928, 0.0827855, 0.00369683, -0.0596256, -0.0446564, -0.012473, -0.0605729, -0.0316622, -0.0232611, -0.025626, -0.011352, 0.00306084, 0.0130568, 0.0529871, 0.00745584, 0.0390107, -0.000803085, 0.0601145, -0.0418924, 0.0339043, -0.0579058, 0.00833437, 0.0833187, -0.0133054, -0.00643342, -0.0542768, 0.0390609, 0.00441663, 0.0230247, -0.0602601, -0.000402993, -0.0722482, 0.0266924, -0.0128266, 0.0270197, -0.0547552, 0.0207797, -0.0463122, -0.0123833, 0.0682038, -0.046375, -0.0210073, -0.0145488, -0.0550857, -0.0300147, 0.0573316, 0.0271016, 0.0536982, -0.0177966, -0.0185221, 0.0125992, 0.0392309, -0.0536692, 0.0335103, 0.0377354, -0.0370702, 0.0140184, 0.00175406, -0.0230687, -0.0866367, -0.0819094, -0.0162511, 0.0299428, 0.0478208, 0.0464908, 0.0579219, 0.064028, 0.0540896, -0.004542, -0.0348236, 0.0558079, 0.0102546, -0.00407259, -0.0443667,
                                  0.00417019, -0.00815845, -0.0090706, 0.0265011, 0.0277666, -0.0561241, 0.0393547, 0.0288743, 0.0567072, -0.024241, 0.00961537, 0.0788376, 0.0389529, -0.0281298, -0.0142843, -0.0247321, -0.0460034, -0.0349212, -0.0191693, -0.00328337, -0.0617263, -0.0505814, -0.00986128, -0.0427841, -0.0655948, 0.0655141, -0.0302733, -0.000832492, -0.0240893, -0.0374072, -0.0417385, 0.000117171, 0.0336676, -0.046826, -0.023187, 0.0171342, 0.017562, 0.00741168, -0.0604598, 0.0303918, -0.0903748, -0.0505261, -0.0256287, 0.015162, 0.0654811, 0.0503542, -0.0424138, 0.0540625, -0.00297277, 0.00835782, -0.0253709, 0.051795, 0.00641335, -0.0466616, 0.0206025, -0.0084229, -0.0874129, 0.0328859, -0.031704, 0.0413507, 0.0562947, 0.0244696, -0.0141161, -0.0221747, 0.0652916, 0.056618, -0.0486508, 0.0138907, -0.00588499, 0.050182, 0.0562796, 0.0271796, -0.0253226, 0.00988585, 0.0630144, -0.0520915, -0.0458183, 0.0281947, -0.0663144, -0.0664848, 0.00608639, -0.0543228, 0.0505106, -0.03767, 0.0335137, 0.0207124, -0.0716939, 0.0864696, -0.0551603, -0.0398925, -0.0295502, -0.0488037, -0.0223105, -0.0318535, -0.0180716, -0.00248116, 0.000119099, -0.0469214, 0.0589933, 0.0360115,
                                  0.0588486, 0.0194614, 0.0400105, 0.0663247, 0.0451026, 0.0279487, 0.00767547, -0.0485757, 0.0628248, -0.0275792, -0.0355345, 0.0230565, -0.024481, -0.0432343, -0.00814207, 0.0217564, 0.0164585, -0.0548832, 0.0645091, 0.0361105, -0.0510593, -0.0600687, -0.0561063, -0.00223566, -0.0248343, 0.0208258, -0.00830613, -0.0351736, 0.00534202, -0.062508, -0.0439323, -0.0471496, -0.0397809, -0.0315536, 0.0472093, -0.0366839, 0.0048758, 0.0679861, 0.0570361, 0.0520407, -0.0691432, -0.0597712, 0.0379706, -0.0181443, 0.0398333, -0.0350238, -0.0366578, 0.0623022, 0.0499113, -0.0463184, 0.0656016, -0.0396251, 0.00497629, 0.0589341, -0.0257085, 0.0146084, 0.0169797, -0.0579459, -0.0541782, -0.0420599, -0.0462499, 0.0574695, 0.0496245, 0.0424032, 0.0221932, 0.0233188, -0.0629599, 0.0563372, 0.0434931, -0.0266652, -0.0048058, 0.0200473, -0.0160654, 0.0278427, -0.0242513, 0.0200123, -0.0019486, -0.0558144, 0.0495139, -0.0590328, -0.0389059, 0.0302507, -0.0414053, -0.0647287, -0.0292793, 0.028406, 0.0234686, 0.0148139, 0.0154432, 0.0461444, 0.068663, -0.0462859, -0.0584756, -0.0242211, -0.00643802, -0.028063, 0.0358867, 0.019668, 0.0208861, 0.0444135,
                                  0.0540849, -0.0662795, -0.0569022, -0.0351528, -0.017361, 0.0633315, -0.00717836, 0.00986351, -0.0217466, 0.0386525, -0.0704735, -0.0281118, 0.0515018, -0.0142589, 0.0423421, 0.0323328, 0.0332639, -0.0481702, 0.0631671, -0.0207142, -0.0545671, 0.0864068, 0.00225117, -0.0225216, -0.0707361, -0.0113626, -0.0141796, 0.0262614, 0.0581606, 0.0382709, -0.0648512, -0.0503047, -0.000839359, -0.0211306, 0.0612299, 0.0321671, -0.0925993, -0.0474174, -0.0220615, -0.0221262, 0.00159627, -0.0466259, 0.0952283, 0.0148197, 0.0289953, 0.0991506, -0.0125196, -0.0559623, -0.00345914, -0.0551129, 0.0580163, 0.0035615, -0.0276745, -0.0126945, 0.0205846, -0.0505038, -0.0783123, 0.0436267, -0.0436706, -0.0105873, 0.00255088, 0.0142347, -0.0287943, -0.0864501, -0.0200037, 0.0441318, 0.0492169, 0.0246328, 0.0396819, 0.0769694, -0.0481039, -0.0457007, -0.0291058, -0.0418776, -0.0342679, 0.0348178, -0.0524532, 0.0382818, 0.0293757, 0.0575774, -0.0905382, 0.015625, 0.0722427, -0.0217479, 0.0392674, -0.021705, -0.0357148, 0.00279388, 0.0172666, 0.00471923, -0.0573134, -0.0379566, 0.134475, 0.000228078, -0.0520329, 0.0428908, 0.0381939, 0.0669163, -0.0559577, -0.0330587,
                                  0.0258663, -0.0327953, -0.0511301, 0.00607864, -0.00656248, 0.0537226, -0.0285411, 0.0320473, 0.0492597, 0.0186411, 0.000527925, -0.0444735, -0.0292056, 0.038075, 0.0403585, -0.0130743, -0.0740498, 0.00651525, 0.0170613, 0.0958982, 0.0415501, 0.0210807, -0.0463794, 0.00291506, -0.0461883, 0.0607499, -0.0703606, -0.0315909, -0.0583051, -0.0279192, 0.0111089, 0.00386657, -0.00422872, 0.0735136, -0.0684007, -0.0352863, -0.0209393, 0.0597322, 0.0573718, 0.0442462, -0.00924077, -0.0148639, 0.0464561, -0.00640312, 0.0703589, -0.0315303, 0.001011, -0.0402553, 0.0390318, 0.018037, 0.0777133, 0.0641758, 0.013748, 0.0371476, 0.0425204, -0.0385697, -0.0864213, 0.0583275, 0.0482304, -0.0233247, 0.011954, 0.0521458, -0.0961785, -0.0346779, 0.102317, -0.0242519, 0.0237004, 0.0358934, 0.0697219, -0.0295866, 0.0920397, 0.052362, 0.0416397, -0.0959408, 0.0442851, 0.0461272, -0.00824203, -0.0884404, -0.0698173, -0.0631643, 0.0110071, -0.011477, 0.0353887, -0.0474089, -0.0351274, -0.0287378, -0.0872706, 0.0248772, 0.00117742, -0.0171755, -0.0534313, 0.0689095, 0.0437568, 0.0421268, -0.00732074, -0.0231301, 0.041877, -0.0382945, 0.026996, 0.0219923,
                                  0.0249222, 0.025625, -0.0201776, 0.058829, 0.00797424, 0.00258848, -0.0178381, -0.0374918, 0.014468, 0.053823, -0.0500644, 0.0588272, -0.0467653, -0.0326256, 0.0260056, -0.0223902, -0.065701, -0.0753467, -0.0527286, -0.0246476, -0.0704068, 0.0249075, -0.0541396, -0.0706984, 0.0111848, -0.0215526, -0.044718, 0.0318344, -0.0160371, -0.0547783, -0.0103816, 0.0445507, -0.0332204, -0.0034312, 0.0147307, -0.0242788, -0.0727388, -0.00176359, -0.0497301, 0.000252352, -0.0618949, -0.020126, 0.01213, 0.00647389, 0.00255586, -0.0157346, 0.0221666, -0.0632801, 0.0597801, -0.062397, -0.0301557, 0.01721, -0.0571224, -0.0272874, -0.0431905, -0.0023747, -0.0171628, -0.0566894, -0.0264332, -0.024047, 0.0515958, -0.0489938, -0.0257134, 0.0127214, 0.0722033, 0.0747068, -0.0476452, 0.00161074, 0.0244455, -0.0303275, 0.0189927, 0.00380577, -0.0501816, -0.0747787, 0.0386174, -0.027207, -0.0690655, -0.0308674, 0.0142907, -0.0318208, 0.0581384, -0.0508513, 0.0268379, 0.0259681, -0.0254947, -0.0258713, 0.0562329, 0.0106425, -0.00912529, -0.0656246, -0.065772, -0.0614274, -0.019041, -0.0505693, -0.0374458, -0.0629547, -0.0550418, 0.0428858, -0.026547, 0.0491509,
                                  0.0165075, -0.0725982, -0.0199801, 0.0647896, -0.0823221, 0.0583158, 0.0738492, -0.0399073, -0.00748851, 0.0292608, 0.0110909, 0.105986, 0.0837802, 0.101893, -0.0132419, 0.0293545, 0.028358, -0.0647579, 0.0525516, 0.0341901, -0.00469788, 0.0118777, 0.0250336, -0.0486137, -0.00818633, -0.00374516, 0.0031341, 0.035492, -0.0295734, -0.018082, -0.0737544, -0.139235, 0.0103692, -0.0298515, 0.0548445, 0.00829856, -0.0460938, 0.0186958, 0.0540273, 0.0722171, -0.0696642, -0.0638707, -0.0462011, 0.112683, -0.00326237, 0.0830052, 0.0234364, -0.0492195, 0.0378074, -0.0485048, 0.136326, 0.0540076, 0.0415298, -0.100519, 0.0546317, -0.0753514, -0.0106357, -0.0601973, -0.0444905, -0.0560819, -0.0388394, -0.0339449, 0.018724, -0.0181165, 0.0309366, 0.00747572, -0.0228813, 0.0639261, 0.044181, -0.0388425, 0.0833853, 0.0252511, 0.117635, -0.0587428, -0.00526636, -0.0705056, -0.0119063, -0.0752575, -0.097893, -0.0777242, -0.00112431, -0.0407484, 0.0299193, -0.0417356, -0.00888307, -0.105836, -0.0190562, 0.00586786, -0.0701198, 0.0653006, 0.0217576, 0.0754895, 0.137762, 0.0165491, 0.00542306, -0.0475998, -0.0232366, 0.0297391, 0.0343633, 0.0104041,
                                  0.0170407, 0.0192504, 0.0390004, -0.0827908, -0.0110367, -0.111005, 0.00603976, 0.0375051, -0.0881854, -0.103451, 0.0240634, -0.0200284, -0.0383674, 0.0115125, -0.0150911, -0.0541406, -0.0633149, -0.00158191, 0.00344074, -0.0818712, -0.0918549, -0.0252212, -0.0167629, -0.0181715, 0.0202019, -0.0215378, -0.0593681, -0.00544383, 0.00986384, -0.0524672, -0.0579786, 0.0464559, -0.0255545, -0.102007, 0.0333046, -0.0158344, -0.0641291, -0.00488622, -0.0260765, -0.0474762, 0.0235142, -0.00533798, 0.00918766, -0.0541417, -0.0907239, -0.0875589, -0.0794453, -0.125025, -0.0408154, -0.038689, -0.0474158, 0.0341133, 0.0274783, -0.0548448, -0.10085, -0.00269221, -0.00904341, -0.0122626, -0.0172824, -0.0246288, 0.0314455, -0.0710171, -0.00438043, -0.0414386, -0.00394737, -0.0630613, -0.0126682, -0.0421339, -0.0593801, -0.0671007, -0.0956605, -0.0553546, 0.00688373, -0.0185953, 0.0384053, -0.0759642, 0.0226584, -0.0496668, -0.0422247, -0.0105576, 0.032707, -0.0632207, -0.0778375, -0.0657473, -0.0802267, -0.0325602, -0.0530159, 0.0277156, -0.0485072, -0.0931561, -0.0203373, 0.0108726, -0.0352524, -0.0278952, -0.0206653, -0.00416536, -0.0870691, 0.0359233, 0.000396845, -0.0473149,
                                  -0.0904404, 0.0231653, 0.0572822, -0.06437, -0.0422451, -0.00692767, -0.0164045, -0.0309898, -0.0559933, 0.000415363, 0.0220029, 0.096434, 0.089958, -0.00561342, -0.00858271, 0.0762087, -0.0601614, -0.0986847, -0.0108167, 0.0689676, -0.0190276, -0.0334455, 0.0416221, 0.0247945, -0.0250446, 0.0539304, 0.0366184, 0.0866796, -0.050953, -0.0274463, -0.0568243, 0.00971534, -0.0746788, 0.001878, -0.0247311, -0.00410265, 0.050935, -0.0197074, -0.0349505, 0.0095073, 0.0166419, -0.03511, -0.000777661, 0.0789616, 0.0393702, 0.017037, 0.0614746, -0.0345459, -0.00125973, 0.00282895, 0.107504, -0.0193767, -0.013284, -0.0536917, -0.00976432, -0.0663988, -0.0515969, -0.0160637, -0.0596327, 0.000527608, -0.0262096, -0.0657416, 0.0186707, -0.0626005, 0.0395924, 0.0789601, 0.037054, 0.0546098, 0.0296924, 0.0785557, 0.126222, 0.0334078, 0.035443, 0.0151273, -0.00989648, 0.00494759, -0.042671, 0.0468523, 0.0240212, -0.00750113, -0.00109137, 0.0536887, 0.0149291, -0.0982605, -0.00898383, -0.118518, 0.0410322, -0.00745196, -0.048084, 0.0590258, 0.0154238, 0.0473095, 0.0745681, 0.0453186, 0.0622291, -0.000862179, -0.0301, -0.0137003, -0.0622133, 0.028279,
                                  -0.0715471, -0.0165123, 0.0361046, -2.54754e-05, 0.0379147, -0.073987, 0.0260354, 0.0194806, 0.00509097, -0.0188975, -0.00512663, 0.0690347, 0.00699426, -0.0099957, -0.0714136, 0.0234651, -0.0489428, -0.0572243, -0.0436183, 0.110013, -0.0318828, 0.0329351, -0.0101154, 0.0259807, -0.0582899, 0.0123701, 0.0120274, 0.096593, 0.0411339, 0.0693305, -0.0106933, -0.0241292, -0.0748788, 0.0399596, 0.0280886, 0.0427478, -0.00566513, 0.0229547, -0.0296581, 0.044401, -0.0224065, 0.0375397, -0.0303522, 0.088271, -0.0120613, 0.0303097, 0.061213, -0.06691, 0.0611045, -0.0134558, 0.00992193, 0.0532422, 0.0190472, -0.0355427, 0.0204248, 0.0595126, 0.00512774, -0.0127817, 0.0302429, -0.0304342, -0.0525906, 0.0092916, -0.00123246, 0.0052734, 0.0648926, -0.025439, -0.0580271, 0.0561689, 0.0607256, 0.0228841, 0.0751996, 0.0514422, -0.0365388, 0.0217842, 0.0141748, 0.0197379, 0.0259514, -0.0338917, -0.0847715, -0.022186, 0.0108178, -0.0892004, 0.0172655, 0.0173231, 0.0484773, -0.0550034, -0.0400974, 0.0478413, -0.0140554, 0.0453805, -0.0271855, 0.0250155, 0.107984, -0.0127621, 0.0529311, 0.00127776, 0.000491749, 0.020996, -0.0241817, 0.0112524,
                                  -0.0449087, 0.00763842, 0.0217594, -0.0544342, 0.0578695, -0.0712192, 0.0249205, 0.0440233, 0.0518763, 0.0218476, 0.00917616, 0.0473865, 0.0222674, -0.0106915, 0.0423308, -0.035593, 0.00849873, -0.00285697, -0.00868168, -0.0509249, 0.0467502, 0.0118941, -0.0533292, 0.00433946, -0.0166345, -0.0142633, 0.0425951, 0.0167428, -0.0222517, -0.000286545, 0.072243, -0.0153407, -0.0053233, 0.0720168, 0.00665546, -0.0230988, 0.0607457, 0.020182, -0.0355174, -0.0297314, -0.0708203, 0.0618559, -0.000483144, -0.0430947, 0.013432, 0.00550426, 0.0561556, 0.0535252, -0.0244507, 0.0525937, -0.0279165, 0.0307259, -0.0575215, 0.0236221, -0.050329, 0.0217024, -0.0395777, -0.0148456, -0.0752393, 0.0275788, -0.0221352, -0.0531339, -0.0713095, -0.0270202, -0.0547059, 0.0602951, -0.0643564, 0.048777, 0.0523525, 0.0738317, 0.0196334, -0.049262, 0.0125287, 0.00898647, -0.0171971, -0.0552115, 0.0512181, -0.0300012, -0.0676156, -0.0157082, 0.0329088, -0.0121579, -0.000535282, 0.0470574, 0.0216827, 0.0390099, -0.0173246, 0.00750288, 0.0243991, 0.0168221, 3.44151e-06, 0.0723325, -0.00940671, 0.0179503, 0.0267553, -0.0254847, 0.0327923, 0.00377474, -0.051829, 0.0208928,
                                  -0.0570586, -0.0333651, 0.0980095, -0.0224434, 0.0140847, 0.00163267, 0.097709, -0.0221853, -0.00739093, -0.0137953, -0.0240532, -0.00100629, 0.0293466, 0.0400572, 0.0448464, 0.0826824, -0.0697171, -0.0841822, 0.00732898, 0.0456008, -0.0346554, 0.00419186, 0.0470277, -0.0207996, 0.0440179, -0.0063754, -0.0284222, 0.0650112, -0.0284128, 0.019536, -0.051323, -0.0426254, -0.0356224, 0.0324687, 0.0570496, -0.00178028, 0.0449222, 0.0320028, -0.00819021, 0.0109206, 0.0135358, 0.0273963, 0.0381205, 0.0690124, -0.0103244, -0.0306917, 0.0217857, -0.0443996, -0.0147492, 0.0270269, 0.0676377, 0.0524669, 0.000635707, -0.07026, 0.0195341, -0.0037404, 0.0286949, 0.0350671, -0.0269676, -0.00458411, -0.0144763, 0.073248, -0.0591204, 0.0328959, 0.107195, -0.0174063, -0.00560345, 0.0368673, -0.0505283, -0.0186707, 0.0171244, -0.0273782, -0.00873158, -0.100463, 0.0586169, -0.0953452, -0.0550931, -0.0444339, -0.0730041, -0.0777057, 0.0113023, -0.0344512, -0.026358, -0.000456272, 0.0472746, 0.0602319, 0.0228646, -0.0135167, -0.0720583, 0.0481497, 0.0581232, -0.0220675, 0.0545106, 0.0426227, 0.0382946, -0.081053, 0.00517978, 0.00746997, 0.0532979, -0.0470856,
                                  -0.0429934, 0.029826, -0.031855, -0.061523, -0.0972843, -0.0497887, 0.103188, 0.0388799, 0.00162472, 0.00161663, 0.0452857, 0.034153, 0.0365406, 0.0112668, 0.0172287, 0.0779129, -0.0907208, -0.0412667, 0.0704188, 0.0183165, -0.0520153, 0.0475347, 0.0572395, -0.0549672, -0.0747166, 0.0625434, -0.0670187, 0.0387891, 0.045959, 0.0192943, -0.0141053, -0.0716716, -0.0455662, 0.0979429, -0.012783, -0.0201522, -0.0454092, -0.0527325, 0.0514302, 0.088447, -0.0833537, -0.0250906, 0.0512972, 0.0450931, 0.0220706, 0.00399195, 0.0620536, 0.0331619, 0.0752366, -0.0433391, 0.108215, 0.0515097, 0.0124208, -0.0169098, 0.020567, 0.0400657, -0.0315801, -0.05474, -0.0609572, -0.0464608, -0.0393661, -0.0315906, -0.0758917, -0.0219822, 0.157113, 0.0482611, -0.0503638, 0.112263, 0.0519084, -0.00718564, 0.0830877, -0.016372, 0.0367794, 0.0024202, -0.0506347, 0.0496851, -0.00783394, -0.0291268, -0.0959606, -0.0920152, -0.0558651, -0.0879276, -0.0218875, -0.0766292, 0.0321975, -0.080128, -0.0193995, 0.0483529, 0.0621972, -0.00454751, -0.0276964, 0.0795345, 0.00498112, -0.0401384, 0.0409293, -0.00773565, 0.0618873, 0.0235256, -0.0350757, 0.0509539,
                                  0.0205544, -0.0162353, 0.0656101, 0.0431318, 0.00353633, 0.00770148, -0.0269438, -0.0257395, -0.0250275, -0.00568547, 0.00958231, -0.0329672, -0.0363895, 0.0328327, 0.0284568, -0.0331219, -0.0478176, -0.0272811, 0.0608314, 0.0513399, -0.0131847, -0.0184546, 0.0735107, -0.0091451, 0.0364857, -0.0240404, -0.0494848, 0.0780144, 0.0287251, 0.0325924, 0.00838957, -0.084993, 0.0339374, 0.0144315, -0.0641878, -0.0758676, 0.00188607, 0.0277773, -0.0378645, 0.070457, -0.0623594, -0.0301903, 0.0353723, 0.105977, -0.0308675, 0.0201615, -0.00667785, -0.0526418, 0.0519622, -0.000882955, 0.0655724, -0.0258661, -0.0189463, 0.0454664, 0.09466, 0.0401193, 0.0450239, -0.0119683, 0.0227051, -0.0182221, 0.0284754, -0.0567158, -0.0275653, -0.0690169, 0.0864116, 0.000160379, -0.0534796, 0.063555, -0.022783, 0.0505574, 0.0708786, 0.0539484, 0.0597025, 0.0582815, -0.019625, 0.0192884, 0.0399913, 0.0154226, -0.0851412, -0.0115848, 0.0330013, -0.0670412, -0.0647592, -0.0744506, -0.00190565, -0.0781688, 0.00857501, 0.00919133, -0.0234513, -0.0438615, 0.0104992, 0.0614593, 0.0660245, 0.00799443, -0.0457633, -0.0101853, -0.0444018, 0.0148377, -0.000766685, 0.0491736,
                                  -0.0343908, -0.100565, 0.0222083, 0.0383312, 0.0107702, 0.0919827, 0.0717141, 0.0833711, -0.0106897, 0.030205, -0.0540222, 0.0660477, -0.00831759, -0.00187544, -0.0534743, 0.0538486, -0.000142821, -0.0658697, -0.00633393, 0.022565, -0.00367763, 0.043095, 0.0519662, -0.0618733, 0.004574, 0.0276695, -0.0435503, 0.0601159, 0.00946695, -0.0206603, -0.000668692, 0.0269864, -0.018513, 0.0415877, 0.00713642, -0.0364778, 0.0340349, -0.0657844, -0.0193442, 0.0505313, -0.0583884, 0.0227181, -0.0218703, 0.091499, -0.0536304, 0.111463, -0.0209912, -0.00668861, -0.0416437, -0.0512167, 0.0359887, 0.0153008, 0.0195457, -0.0963216, -0.0251621, 0.00186485, -0.00762408, 0.0677498, 0.00760486, -0.0557282, 0.0223312, -0.0347527, -0.0264916, 0.0351713, 0.123587, 0.0947486, 0.0130449, 0.0244997, 0.00629439, -0.0362736, 0.0492922, -0.0244512, 0.0368052, -0.0631046, -0.0332928, -0.0313354, -0.0593096, -0.016341, -0.0677304, -0.097671, -0.0245258, -0.0604428, -0.00808434, -0.062923, -0.00703855, -0.0270253, -0.0274871, 0.0528462, -0.083724, 0.0611772, 0.01262, -0.0141315, 0.140739, 0.0303342, 0.0782169, -0.00158818, 0.0488754, 0.00133559, -0.0448431, 0.0787111,
                                  0.0283118, -0.0502593, -0.0662309, -0.0922212, -0.00121018, -0.0615992, -0.0104368, 0.00327661, -0.0768654, -0.0362452, -0.00496752, -0.00330939, -0.00382263, -0.0107967, -0.0303288, -0.0664582, -0.0936643, -0.0680692, -0.0607587, 0.0249569, 0.00541945, -0.0104148, 0.0423079, 0.0300186, -0.00576518, -0.00610309, -0.0721738, 0.0200919, 0.0214566, -0.101228, 0.0327978, 0.0286013, -0.0634317, -0.027653, -0.102037, 0.0126832, -0.05198, 0.0193141, -0.0431343, -0.0104271, 0.002165, -0.0829214, -0.0338289, -0.0174323, -0.0654766, -0.0418872, -0.061436, -0.0404256, -0.0437925, -0.0385211, -0.0503025, 0.0033995, 0.0267635, 0.00690182, -0.0783566, -0.0695566, -0.0455436, 0.0262193, -0.0397651, -0.0562105, -0.0988325, -0.0810365, 0.00927456, -0.0601843, 0.0251277, -0.0872269, -0.0207823, -0.0647772, -0.0159708, -0.0703964, -0.0795491, -0.0447217, -0.0925388, 0.0326932, -0.0042479, -0.00908676, 0.0128806, -0.0484455, -0.021788, -0.0602, -0.0562382, -0.0334259, 0.000932911, -0.0329476, -0.0863944, -0.0564897, 0.0334721, 0.0135847, -0.0598576, -0.0760328, -0.0772668, -0.0913849, -0.115137, 0.0174528, 0.0204603, -0.00539491, -0.0718495, 0.0684884, 0.00200463, -0.09355,
                                  -0.0903851, -0.0470521, 0.0801252, 0.0020654, 0.0308063, 0.0473503, 0.0629137, -0.0154832, 0.0145547, 0.100342, 0.0145825, 0.0909174, 0.104905, 0.0632687, -0.0443726, 0.00351731, 0.0618053, 0.0170037, 0.0244051, 0.0735456, -0.0864787, 0.0335145, -0.00945726, -0.0527795, 0.0516916, 0.0765883, 0.0538266, 0.0889743, -0.0749125, -0.0535042, -0.0400372, -0.02109, -0.00644535, 0.0230296, -0.00323, -0.00549408, 0.00390112, -0.035642, -0.0562897, 0.103494, -0.0981902, 0.0711935, 0.00824999, 0.0405908, 0.0191738, 0.0177254, 0.138764, -0.0790717, 0.0359075, 0.0356064, -0.0326361, -0.0130315, -0.033718, -0.0633141, 0.061609, 0.0227729, 0.0131595, 0.0128269, -0.0147884, 0.025385, 0.0170279, -0.00782981, -0.0228966, -0.0741904, 0.103136, 0.0509754, -0.043738, -0.0207016, 0.0748799, 0.0942864, 0.0798763, 0.0198634, 0.101878, -0.015549, -0.0563503, 0.0433846, -0.0142135, -0.0578063, -0.059993, -0.0772526, -0.0618652, -0.0323741, 0.0667258, -0.101548, -0.00801642, -0.0863306, -0.00633309, 0.0720044, -0.0493681, -0.0475422, 0.00510554, -0.0372302, 0.0759988, -0.0385967, 0.0530839, -0.000368853, -0.0471884, -0.0359063, -0.0852225, 0.0845861,
                                  -0.00816607, -0.0381012, 0.0599627, 0.0995066, -0.0646215, -0.00428334, 0.116638, -0.0363976, 0.0558528, 0.0237145, 0.0227797, 0.03611, 0.0679975, -0.0141591, 0.0156408, -0.00312485, 0.0164223, -0.10659, 0.0273622, 0.0953768, -0.0323521, 0.060373, -0.0503239, 0.0282536, -0.0903399, 0.0375572, -0.00938822, 0.0317415, 0.0294323, -0.0499763, 0.00138542, -0.000457815, 0.00940266, 0.0470072, 0.0317395, 0.0313739, 0.0272646, -0.0808087, 0.0439252, 0.0328142, 0.0286232, 0.0428144, -0.0153949, 0.00377699, -0.0391674, 0.0885877, -0.00115801, -0.00156429, -0.0168656, 0.0313682, 0.0168131, -0.0308904, 0.0127544, -0.121522, -0.000577002, -0.00285233, -0.00919761, -0.0083112, 0.0242687, -0.080211, 0.0626348, -0.0224485, 0.00297696, -0.00139774, 0.105082, 0.0284014, -0.00900208, 0.0320677, 0.0905158, 0.0239407, 0.0833769, -0.0414291, 0.0630675, -0.0984595, 0.0145896, 0.0123398, -0.0473469, -0.000597678, -0.0786656, -0.0159288, -0.0137669, -0.0840539, 0.000572337, -0.00833667, 0.00547276, -0.0128486, 0.0354178, 0.0454294, -0.0502967, 0.0255774, -0.00177853, -0.0582909, 0.025564, 0.0617172, 0.0779915, -0.0758899, -0.0703959, -0.074677, -0.0109095, 0.0659671,
                                  -0.0258967, 0.0194189, 0.000856457, 0.0223252, -0.0534035, -0.0391352, -0.036868, 0.0293585, -0.012064, 0.00412959, 0.0577043, -0.0330654, -0.0137665, 0.0238732, -0.0170465, 0.050742, -0.0191676, 0.0358043, -0.0210593, -0.0222428, 0.0211411, -0.0355455, 0.00428772, 0.0125342, -0.00284492, -0.0078238, 0.0513389, 0.041929, -0.0774192, -0.0380199, 0.0393742, -0.0796513, 0.0447211, 0.0774752, 0.0292749, -0.0136864, 0.0280617, 0.0268782, 0.022576, 0.0624171, 0.00390956, -0.0439564, 0.0288911, -0.00690944, 0.0802526, 0.0525466, 0.028339, 0.0225545, 0.0694177, 0.051896, 0.0835557, 0.0557906, -0.00881456, -0.000713038, -0.0223607, 0.0255182, -0.0807635, -0.0163555, -0.0022507, 0.0420634, 0.0562691, 0.0362802, -0.0664595, -0.057809, -0.0122741, -0.00276953, 0.0141113, -0.061671, 0.0782353, 0.0270426, 0.0597137, 0.0643158, 0.0166662, 0.0174771, 0.0312603, 0.0404476, 0.0113408, 0.0148308, -0.0308076, 0.0143305, 0.0243594, -0.0225573, 0.0489435, -0.0236843, 0.0358214, -0.0485269, 0.0316888, -0.0388749, 0.0338067, 0.0404024, -0.038201, 0.0780751, 0.0546221, -0.00881142, 0.0109573, -0.043697, -0.0280413, -0.014064, -0.0305878, -0.010527,
                                  -0.0838128, -0.0379207, 0.0413728, 0.0188004, -0.0298749, 0.05324, 0.0524195, 0.0478788, 0.0829285, 0.136799, -0.0733097, -0.03155, 0.0383902, 0.113976, -0.0457923, 0.0688615, -0.00444948, -0.00972482, -0.00963026, -0.0520215, 0.0343943, 0.0158869, 0.0210833, 0.0805216, -0.00607137, 0.164563, 0.0197688, 0.0397049, 0.0173882, 0.000902213, -0.0142631, 0.0330372, 0.046149, -0.0423743, 0.0112186, -0.0243227, 0.0476608, 0.084113, 0.0622379, 0.113288, -0.0116302, 0.0822057, -0.0586118, 0.0726072, 0.00726284, 0.0187222, 0.0489205, -0.00982708, 0.0945826, 0.0802904, 0.100236, -0.0287236, 0.0517731, -0.078127, 0.00456478, 0.0285719, -0.0598343, 0.0963257, 0.025011, -0.00605521, 0.0204744, 0.0631869, 0.0353914, 0.0758611, 0.0761915, -0.02609, 0.0308479, 0.0310426, 0.0231442, -0.0584544, 0.129334, 0.019931, -0.00861513, 0.00986607, -0.016504, 0.0182701, 0.0491972, 0.03085, -0.0221589, -0.0685058, -0.0382242, -0.0461542, 0.0204477, -0.0286286, -0.00019023, 0.0227346, -0.0360163, 0.0450998, -0.0930805, 0.0856625, 0.0518047, 0.0651933, 0.0103515, 0.046793, 0.0379543, 0.0236191, 0.0115583, 0.0319072, -0.0301444, -0.0650395,
                                  0.0743141, -0.0552478, -0.0153401, 0.0066243, -0.0125574, 0.0892615, -0.00986044, 0.0184007, 0.0410581, -0.0359131, -0.0894622, 0.0875871, 0.100432, 0.0145045, 0.0191035, 0.0654326, -0.0603049, -0.118783, -0.00703715, 0.0676198, -0.0799765, 0.0152215, 0.161508, 0.0455372, -0.0255306, 0.00883607, 0.0146046, 0.0410016, -0.0298909, 0.0300183, -0.0844889, -0.102563, 0.0474676, 0.121799, -0.0377578, 0.0352401, -0.0848032, -0.0234447, -0.0090823, 0.0409842, -0.0647307, -0.0182582, -0.00613617, 0.090419, 0.0700455, 0.012291, 0.0588742, -0.0145497, 0.10454, 0.0420693, 0.0691471, 0.0643717, -0.00336079, -0.0530248, 0.0800275, -0.0141838, -0.0169086, -0.050442, -0.058357, 0.0053578, -0.00700004, -0.0463999, -0.0877778, -0.0199983, 0.0416245, -0.00688338, 0.0397085, 0.0743407, -0.0363245, 0.0155533, 0.0705279, -0.0421301, 0.0396515, -0.0584923, 0.0586515, -0.0289037, -0.00199423, -0.0761371, -0.0202897, 0.0160259, -0.0344539, -0.0601711, -0.032753, 0.00324593, 0.0465518, -0.0409836, 0.00807453, -0.0114786, 0.0352891, 0.0503169, -0.00833956, 0.0194774, 0.0662066, -0.00383743, -0.0564156, -0.0256593, 0.0574034, -0.0962646, -0.0571003, -0.0666886,
                                  0.030707, -0.040315, 0.0393659, 0.0248306, -0.0144434, -0.0130228, 0.0332168, -0.0769453, 0.0415396, 0.0529846, -0.0795741, 0.0219362, 0.0906431, 0.0267414, 0.0260433, 0.00731987, 0.0560318, -0.0836354, 0.0380876, 0.105326, 0.0183106, -0.0440813, 0.0485253, -0.00836691, 0.0532245, -0.0133087, -0.0581024, 0.0907626, 0.0006817, 0.0456163, -0.0296094, -0.0878285, 0.0490164, -0.056353, -0.0224, -0.0427876, -0.0876819, -0.035112, 0.0201905, 0.0267963, 0.00670423, -0.0391289, 0.0121749, 0.0547129, -0.0256871, 0.0164169, 0.0249696, -0.0506382, 0.0827021, 0.0578059, 0.0538147, -0.0280195, -0.0482423, 0.0224103, 0.0999785, -0.0205053, 0.00653101, 0.05499, -0.0666536, 0.0595626, -0.0512225, -0.083559, 0.00128474, -0.046584, 0.0714387, -0.0359672, 0.0333715, 0.0529783, -0.00231325, 0.00998359, 0.00622716, -0.00378113, 0.0504597, -0.0786117, 0.00402891, 0.0279206, -0.0481322, -0.00918259, 0.00279433, 0.0169865, 0.0478806, -0.000751273, -0.0508301, -0.0561793, 0.0185372, -0.066738, -0.0586224, 0.0461075, -0.0126084, -0.0605218, -0.0432001, 0.0614001, 0.103425, -0.0551599, -0.0163569, -0.0165652, 0.0124096, 0.00627411, -0.024705, -0.00710113,
                                  -0.0572378, -0.0908398, 0.0329809, -0.0451345, -0.00654486, 0.0731618, 0.0209023, -0.00626657, 0.0509378, 0.0308115, -0.0313847, 0.0449882, -0.0084804, -0.00250718, -0.0334272, -0.012289, 0.0396259, -0.0801166, -0.0234529, 0.064055, -0.090645, 0.0536989, 0.0383692, -0.0205169, -0.0179945, -0.0179069, 0.0308343, -0.0512421, -0.0930429, -0.0390862, -0.0342976, -0.131164, 0.0515293, -0.0281984, 0.018609, -0.0956475, -0.0476649, 0.0408659, -0.0835821, 0.0688241, -0.030454, 0.0581055, -0.0614858, 0.0176622, -0.0346328, 0.018732, 0.0567726, -0.0535086, -0.085983, -0.00565971, 0.0346608, -0.00627199, 0.0366926, -0.0950136, 0.087125, 0.00947301, 0.031784, 0.0400132, -0.025792, -0.061564, 0.0807395, 0.0465129, -0.0125799, -0.0281603, 0.095277, 0.10577, 0.000698222, -0.0196477, 0.0786902, -0.0217645, 0.000738724, 0.0614366, 0.151819, -0.0740451, 0.0777148, -0.0183211, -0.0487079, -0.0216486, 0.0596845, -0.0522939, -0.0370311, -0.0628113, -0.00395899, 0.015425, 0.0158233, -0.0517173, 0.11168, 0.0410285, -0.136074, 0.00526231, 0.029098, -0.00106676, 0.0590554, 0.0123582, 0.0172971, -0.0490552, -0.00891826, -0.0449172, 0.00254418, 0.0350898,
                                  -0.0383284, -0.0891586, -0.0427506, -0.0531823, -0.0611682, -0.0448363, -0.00337021, -0.0497521, -0.024476, -0.0143963, -0.0811369, -0.0567507, 0.0161212, -0.10403, -0.0184988, 0.012961, -0.091525, 0.017092, -0.0172899, -0.0225026, -0.0348907, -0.0981727, 0.00403445, 0.0102203, 0.00670233, -0.0435799, -0.0661396, -0.0156033, -0.059134, -0.00636541, -0.028032, -0.0446492, -0.0562287, -0.0533334, 0.00498614, -0.0434037, -0.053169, 0.00153329, 0.0087206, -0.0545959, -0.0317678, -0.00521804, 0.00800618, 0.0122397, -0.111406, -0.105442, -0.0563736, -0.0917025, -0.0126505, -0.0179197, 0.0315622, -0.0558001, -0.0383466, -0.0672517, -0.0473109, 0.0436058, -0.0614164, 0.029303, 0.039984, -0.082166, 0.0180422, -0.0765927, -0.0401797, -0.0179713, -0.0242712, -0.0947289, 0.0303422, -0.0510633, -0.0895785, 0.0164212, -0.0251954, -0.0145661, 0.0078951, -0.0869282, 0.00936853, -0.0308098, 0.0333386, 0.00606564, 0.0499145, 0.0295165, 0.0438806, 0.00590032, -0.0501691, -0.0267215, -0.10317, 0.0191662, -0.0523438, -0.0304717, -0.000393441, -0.0275449, -0.0554497, 0.00881945, -0.05992, -0.0112387, -0.0967346, 0.0556672, 0.00171791, 0.0553204, -0.0432902, -0.00613273,
                                  -0.0135212, -0.0198744, 0.0467792, 0.01438, -0.0578252, 0.0436785, 0.0329158, -0.0196613, 0.0447466, 0.0569598, -0.0470543, 0.093847, 0.0637841, -0.0336134, -0.0310401, 0.0275196, 0.0616521, 0.00988696, -0.0461111, 0.0655324, -0.0721203, 0.131957, 0.0194977, 0.0404588, 0.00995664, -0.00820057, -0.0666071, 0.0105347, -0.0107625, -0.0013739, -0.079605, -0.0376867, -0.0529661, 0.0105507, -0.0188028, 0.00987179, -0.0662113, -0.0315173, 0.00846343, 0.0552736, -0.0297101, 0.0723391, -0.0578636, 0.0806927, -0.0339851, 0.108743, 0.179457, -0.0690376, -0.0558377, 0.0445422, -0.024456, -0.00265035, -0.0528293, -0.110818, 0.0234887, 0.0793093, -0.00727039, 0.00851725, -0.00903587, 0.0322176, 0.00715337, 0.00105927, -0.0332473, 0.0127217, 0.0955868, 0.050811, -0.0563273, 0.0270538, 0.182529, 0.0634018, 0.0755445, -0.0205628, 0.123557, -0.0354841, 0.0526154, 0.0236135, 0.0471903, -0.0432973, 0.0468048, 0.0101889, -0.00506197, -0.0975258, -0.0470906, -0.0680155, -0.00615763, -0.00328905, 0.118079, 0.0581984, -0.00429077, 0.0175566, 0.0873284, -0.0336718, 0.0700129, 0.0925576, 0.0979837, -0.0838486, 0.0263599, -0.0885273, 0.00292784, 0.0934907,
                                  -0.0213786, -0.019553, 0.012534, -0.000827988, -0.0175746, 0.0545088, 0.0779371, 0.0745431, 0.0202466, 0.0679691, -0.0798881, 0.0824927, 0.00487613, -0.0170871, -0.00213179, 0.0535251, -0.0635311, -0.0626674, 0.0253115, -0.00145125, -0.0221406, 0.056026, 0.00928425, -0.0350158, 0.0384401, 0.0294131, 0.00314699, -0.00889192, 0.0313031, -0.0206835, -0.0441576, -0.0846636, 0.00655133, -0.0182389, -0.0155401, -0.00985088, -0.0259078, 0.0147358, 0.0139302, 0.00514527, -0.00439875, 0.075814, -0.0441723, -0.0317034, -0.0793358, 0.00326093, 0.0572817, -0.00769763, 0.00507079, -0.049102, 0.0844358, -0.0457878, 0.0130211, -0.0339693, 0.0883571, 0.0549121, -0.0223616, -0.0435985, 0.0524126, -0.0161967, 0.0295733, 0.0244705, 0.00767153, 0.037449, 0.0384546, -0.0661037, -0.0614969, 0.0574686, 0.0784541, 0.0225551, 0.0299906, -0.0494879, -0.00305609, 0.0248796, -0.0137609, -0.0396002, -0.013441, -0.103156, -0.0329471, 0.0105298, -0.0545666, -0.0981484, 0.00505857, -0.104464, 0.0661644, -0.0625662, -0.0202943, 0.0432214, -0.0307288, 0.0217426, -0.00982836, -0.0577482, -0.0250385, 0.0466151, -0.000367455, -0.0606299, -0.0565061, -0.0805928, 0.0106759, 0.0696221,
                                  0.0910636, 0.0148142, -0.00479738, -0.0611406, -0.0326659, -0.0179627, 0.0345055, -0.0242552, 0.0759061, 0.0602311, -0.0541182, 0.00217143, 0.0708586, -0.0502226, -0.0110302, 0.0196335, -0.070929, -0.0755498, 0.0518153, 0.0743132, -0.0404709, 0.00758852, -0.0149077, -0.0383387, -0.0490676, 0.0610839, -0.0427815, 0.11924, -0.0783877, 0.00602953, 0.0547165, -0.0219783, -0.0290641, -0.0301884, -0.0259204, -0.0123206, -0.0642953, 0.0349087, -0.0585675, 0.00595925, 0.0352877, -0.0603676, 0.000955989, 0.0833453, -0.025852, 0.0809743, -0.0264013, 0.0467648, 0.0601071, -0.0580963, -0.0344866, 0.0677944, -0.073454, 0.0431371, 0.0872057, 0.0553658, 0.024048, -0.0728384, 0.018679, -0.0479473, -0.0357191, 0.0448848, -0.0774449, -0.0109061, 0.0717297, 0.0449428, 0.00399524, -0.0130181, -0.00473158, -0.00671857, -0.00159542, -0.0146315, 0.0174141, 0.0441385, -0.0455339, 0.0614191, -0.00537732, -0.0955888, -0.0453144, -0.00587416, 0.00973287, 0.000319007, -0.00974855, -0.0815159, 0.0225576, -0.0808348, 0.0461054, 0.034318, 0.0524348, 0.0668421, 0.0678981, -0.0502296, 0.0677277, 0.0317054, 0.0707508, 0.0471043, 0.012921, 0.0208738, 0.0121037, 0.0653612,
                                  -0.031451, -0.0185207, 0.0510589, -0.00594192, 0.0365103, 0.0531524, 0.0386617, -0.013838, 0.0423179, 0.00326037, -0.0548745, -0.0583436, 0.0319344, -0.0272024, -0.0783817, 0.0154066, 0.0307625, 0.105953, -0.0523824, 0.0230733, 0.0721246, -0.0380011, 0.0853066, 0.115582, 0.0514874, 0.0243849, -0.0337257, 0.0300643, -0.0637574, -0.0975888, -0.074095, -0.0355911, 0.0829622, 0.0379021, -0.0488402, -0.0283814, -0.0361159, 0.0722302, -0.00367448, 0.042342, -0.0339165, 0.0777765, 0.0317991, -0.0483964, -0.0366068, -0.0432152, 0.0231485, -0.115096, -0.00154379, -0.0161687, 0.0654696, -0.0577207, 0.0903698, -0.0807111, 0.0579904, 0.094616, -0.00963954, 0.0255689, -0.0759056, 0.0379592, 0.0849787, 0.0310531, 0.0503337, -0.043617, -0.0626863, -0.0817745, 0.0724911, -0.0634183, 0.0192001, 0.0544452, 0.0435131, 0.0446896, 0.0354417, 0.00762667, -0.00516718, -0.0223187, -0.0574342, 0.0799952, 0.0373047, -0.000868927, 0.0597195, -0.032727, 0.0790834, 0.00135286, -0.085623, -0.0255999, -0.0788585, 0.0139478, -0.0306175, 0.0650305, 0.0193253, 0.00901038, 0.019469, 0.0520978, 0.0108243, -0.0358135, 0.023496, 0.0725683, -0.0228472, -0.0262361,
                                  0.0740621, -0.0331806, 0.0647611, 0.0700529, -0.0331834, -0.024791, 0.00303587, -0.0496726, -0.00447326, -0.0218391, -0.10135, 0.000758172, 0.0675189, -0.0377524, 0.0536797, 0.0477147, -0.0797077, -0.0844679, 0.0583563, -0.0329581, -0.0900161, -0.048163, 0.019832, 0.0391129, 0.0437378, 0.073498, -0.015902, 0.128086, 0.123548, -0.0129068, -0.0299313, -0.0589492, 0.0192367, 0.133702, -0.104372, 0.0386584, -0.0461421, -0.0397979, -0.0637708, 0.00139965, -0.0708819, 0.0172589, 0.00651916, -0.000461368, 0.014039, 0.000651555, -0.0106531, 0.052309, -0.0137774, 0.0745412, 0.107535, -0.0256745, 0.0159696, -0.0912825, 0.00433351, 0.00555584, -0.0241978, -0.0557405, -0.0716455, 0.0479719, -0.0079948, 0.0148491, -0.0167186, -0.0423699, -0.0262999, -0.098551, 0.0165314, 0.132916, 0.0690505, 0.0122057, -0.0125432, 0.00185958, 0.00309948, 0.0294978, -0.0593783, -0.0153093, -0.065289, -0.0387848, -0.0314185, -0.0881353, -0.0316441, 0.0144539, 0.0461991, -0.0278149, -0.107584, -0.134092, -0.0272952, -0.0185886, 0.0418185, 0.0750645, 0.0427511, 0.0913599, 0.0197925, -0.0168707, 0.0162305, 0.00258275, -0.0207901, -0.0470165, -0.0649146, -0.0746507,
                                  -0.0269717, -0.0424403, -0.0601625, -0.0568161, -0.0460805, 0.0484399, 0.0938359, 0.0663467, 0.0325781, 0.0248869, -0.101529, 0.117699, 0.0517838, 0.0363308, -0.0420962, 0.0586926, 0.0293902, -0.111309, -0.0485694, 0.0785339, -0.0148762, 0.0141784, 0.0623139, 0.00595489, -0.0131364, 0.0347807, 0.0424641, 0.0565151, 0.0269529, 0.0182996, -0.0641132, -0.0980846, 0.00678182, 0.08083, -0.0428505, -0.0591027, -0.0136158, -0.0606094, 0.0101839, 0.125072, -0.00688485, 0.0302327, -0.0623626, 0.0751131, 0.0390654, -0.0509526, 0.0935291, -0.00767926, -0.0150996, 0.0511458, 0.108736, -0.0202205, -0.0171183, 0.0103437, 0.127997, -0.0398502, -0.0173381, -0.0786514, -0.0856246, -0.0428628, 0.0287247, -0.0727319, 0.0083131, -0.0426756, 0.078762, 0.0148937, -0.00691233, 0.0583094, 0.025007, -0.0300096, 0.015207, -0.0349289, -0.0245498, -0.00844012, 0.0454315, -0.0216683, -0.0360631, -0.0237203, 0.000359351, -0.0763325, -0.0562099, -0.0204367, 0.0568507, -0.105584, -0.0027841, -0.00816758, -0.000770671, -0.0173889, -0.0368345, -0.00528849, -0.0179303, 0.0742996, 0.0456403, -0.0500054, 0.0784753, 0.0362823, 0.0115228, -0.110096, 0.0273066, 0.00409725,
                                  -0.0449266, -0.0263023, -0.00185262, -0.0383975, -0.0352099, 0.0865109, 0.0285885, -0.031448, 0.0232517, 0.104961, -0.073538, -0.00453661, -0.0478268, 0.00852998, 0.0700851, -0.0246706, 0.0489815, -0.0554085, -0.0633589, 0.0661176, -0.0116049, -0.00162387, -0.0781891, -0.0325092, -0.0213471, 0.0461308, 0.0422883, 0.0194076, 0.0203164, -0.0206996, 0.0314297, 0.0314805, 0.0341181, -0.0518547, 0.0642345, 0.031266, -0.0197917, -0.0363214, -0.0405241, 0.0129365, -0.0195756, -0.0146213, -0.0705725, -0.00729001, -0.0186875, -0.00910168, 0.0511119, -0.0529287, -0.0216704, -0.0155393, -0.0414553, 0.0152211, 0.00150757, -0.0147538, 0.010561, 0.0644478, 0.0154487, 0.0220482, 0.0847526, 0.00171372, 0.00523641, -0.0293011, -0.0149339, -0.0377858, 0.0476948, 0.0507854, 0.0152274, -0.0641085, 0.0642871, -0.02085, 0.0724448, -0.0686004, 0.0967389, -0.0330062, -0.00489703, 0.0328334, -0.0760576, 0.0107145, 0.0024446, -0.00673238, -0.0606623, -0.0370767, 0.00580413, -0.0386243, 0.0590627, 0.0404688, 0.0245128, -0.00760225, -0.0958782, 0.066424, 0.091738, -0.0790857, 0.0724133, -0.00243713, 0.076252, -0.0953869, -0.00972971, -0.0524032, -0.0942022, 0.0418111,
                                  0.0227239, -0.076616, -0.0129135, -0.0190175, -0.0374387, -0.00474578, -0.0537894, -0.0497816, -0.0816661, -0.111737, -0.0290952, -0.04639, 0.0148428, -0.0193925, -0.0530753, -0.0108002, -0.081738, -0.0405907, -0.0741747, -0.0624388, 0.0117224, -0.0985059, 0.00455671, 0.0128336, 0.0107173, 0.00246087, -0.017409, -0.00144649, -0.0254591, -0.0667495, -0.066755, -0.0200005, -0.0126337, 0.0721919, 0.0107361, -0.0216541, -0.0149245, -0.0363125, -0.0383888, -0.0447655, 0.00289409, -0.122334, -0.00613567, 0.0132136, 0.0173714, -0.0596015, -0.0290309, 0.0263963, 0.0672049, -0.0136195, 0.104881, -0.025455, -0.0656057, 0.0233964, 0.0162638, -0.0866811, -0.0908612, -0.0258637, -0.109505, -0.0827743, 0.0136617, -0.081107, -0.0551189, -0.00731435, 0.0559978, -0.0207292, -0.0400677, 0.0337704, 0.00421933, -0.0889726, -0.067978, 0.0635357, 0.0209969, -0.0193187, 0.000758975, 0.0303014, -0.0736221, -0.00900872, -0.0257021, 0.0183814, -0.0302003, 0.0160296, -0.0113067, -0.0198552, -0.0911121, -0.0190438, 0.0253445, -0.0543999, -0.0240037, -0.00710386, -0.0694254, 0.0410728, -0.0889665, 0.00709361, -0.0125276, 0.00965517, -0.0725801, -0.0219627, -0.0131301, -0.0938929,
                                  0.0132899, -0.0790506, -0.0522537, 0.0518799, -0.111979, 0.0406443, -0.0918391, 0.0236723, 0.0129809, 0.124594, -0.0800797, 0.0189115, 0.0184491, 0.0161897, -0.0382543, 0.0524938, -0.0188138, -0.0356398, -0.0221218, 0.0806892, -0.106418, 0.00673002, -0.0332464, 0.0187943, -0.0927136, -0.0609395, 0.0522625, -0.0662433, -0.0178284, -0.0550387, 0.032513, -0.0488354, -0.0258308, 0.0821417, 0.027117, -0.00319586, -0.0558564, -0.0975201, -0.086543, 0.115258, 0.0070039, 0.0633946, -0.00469367, 0.0521021, -0.0927799, 0.0363056, 0.106524, 0.0340925, -0.0640743, 0.0737702, -0.00952585, -0.096676, -0.0863397, -0.0097498, 0.0348181, -0.00280257, 0.0464484, -0.0371099, -0.0231293, -0.026104, 0.0184705, 0.00127507, 0.0179427, -0.0166118, 0.0518233, 0.0986872, 0.0244341, -0.0497156, 0.0429147, 0.0477452, 0.0697643, 0.0152356, 0.124994, -0.0164324, 0.0711663, -0.0275096, -0.00630618, -0.0791306, -0.0431895, -0.0364757, -0.0488316, -0.0416874, -0.0647598, -0.102866, 0.0127436, -0.0865554, 0.0353503, 0.00610778, -0.0537366, 0.0860562, 0.0491277, -0.00328395, 0.062431, 0.0527015, 0.0726956, -0.0560126, -0.0180862, -0.13516, -0.0831098, -0.0489686,
                                  0.0708385, -0.0583224, 0.0133331, 0.047772, -0.0488134, 0.109095, 0.0513137, -0.00111793, -0.0257422, 0.0370686, -0.015705, 0.0439912, 0.0349749, 0.059678, 0.050716, 0.0295705, -0.0121637, -0.0150588, -0.0369169, 0.0420891, -0.0773226, 0.0341113, 0.0117875, 0.0488652, -0.039573, -0.00935557, 0.0278009, 0.0407629, 0.00404335, -0.0029693, -0.0455761, -0.0590606, 0.00868974, 0.043509, 0.052569, 0.0688732, -0.0792899, 0.0505874, -0.0735962, -0.012247, -0.0625846, -0.0469371, 0.0116922, 0.0323555, -0.065113, -0.00629415, -0.0297008, -0.0208119, 0.041853, -0.0642473, 0.0181271, -0.083511, 0.0799517, -0.121807, 0.108092, -0.0175236, 0.0128504, 0.0154943, 0.0396776, -0.0821573, -0.017834, -0.00520223, 0.014846, -0.0185815, 0.0160122, 0.0596769, -0.0209034, 0.0279899, 0.0446508, 0.0483673, -0.0191868, -0.0237087, -0.0533454, -0.00949811, 0.0415518, -0.0817235, 0.00503018, -0.0973624, -0.00290079, -0.0201314, -0.037218, -0.0546375, -0.0164452, 0.0274144, 0.0384523, -0.0239849, -0.0146101, 0.088693, 0.025562, 0.134211, 0.0630346, -0.0345828, 0.0846294, 0.0808679, 0.0571797, -0.00176218, -0.00652732, -0.0338316, -0.0315956, 0.0111501,
                                  0.0403646, -0.0190772, 0.00225844, 0.0109053, -0.0747853, 0.0363801, 0.084218, 0.0723325, 0.0155671, 0.0586573, -0.0168794, 0.0416583, 0.065105, -0.0702087, -0.00140896, 0.00659056, -0.00885957, -0.0671735, 0.0595599, 0.0394045, -0.0143978, -0.0243404, 0.0591346, 0.0119033, -0.0165788, -0.0638599, 0.0258657, 0.0880348, 0.0816264, 0.0495624, -0.0150169, -0.0871571, -0.0336432, 0.0179381, 0.0408457, 0.0449058, 0.0115903, 0.0565452, -0.0124817, 0.0769238, 0.0122888, 0.045676, -0.0239099, 0.0503701, 0.0765963, -0.0144355, 0.0735049, 0.00640276, -0.0530758, 0.0527156, 0.0156043, 0.0426523, -0.0443672, -0.0125743, 0.0576369, 0.0547855, 0.00592927, -0.00956927, 0.0071448, -0.0409413, -0.0662094, 0.0173509, 0.0204043, -0.0439999, 0.0522586, 0.0557319, -0.0318543, 0.103408, 0.00601406, -0.0333291, 0.0359237, -0.0602947, 0.0440132, 0.0831139, 0.0635528, 0.0522205, 0.00439111, -0.0142195, -0.0382641, 0.0324424, 0.0631573, -0.0445705, 0.0540443, -0.0628115, -0.0217354, -0.0861567, 0.0365471, -0.0667569, 0.0731029, -0.0252904, -0.0108838, -0.0473789, -0.0499977, -0.0318876, 0.0710102, 0.0435428, 0.00727852, -0.0390624, -0.0703632, -0.0247299,
                                  0.102405, -0.0300702, 0.0809278, 0.0415546, 0.0247923, 0.0550002, 0.0389807, -0.0495638, -0.0341409, 0.00201894, -0.0453923, 0.0230429, -0.050905, -0.0101802, -0.0199922, 0.0602819, -0.0141048, 0.0207932, -0.0497613, 0.00169159, 0.0107884, -0.084573, 0.0163882, 0.0160581, 0.0896683, 0.00962106, -0.0797054, 0.0230561, 0.0179067, -0.00458513, 0.019481, 0.0566748, 0.143075, 0.165984, 0.0638185, -0.0242023, -0.0466294, -0.0577475, -0.0450845, 0.0326737, 0.019539, 0.00469281, 0.0169628, -0.0585519, 0.0356875, -0.0114138, 0.00617508, -0.0862594, 0.0439161, -0.0624368, 0.0316904, -0.0540299, 0.0265417, 0.0509765, -0.0756118, 0.103213, 0.0484991, 0.0266736, -0.0539874, 0.0072717, 0.0785207, -0.00686041, -0.00614214, -0.0678687, 0.0214014, -0.0387597, 0.0346864, -0.0449585, -0.0764203, -0.0170116, 0.0186915, -0.0100599, 0.00122424, 0.0326369, 0.0382893, 0.0383702, -0.0596789, 0.0927109, 0.11032, 0.067926, 0.0834161, -0.0287284, 0.0495228, -0.0097455, -0.0278131, 0.0329416, -0.024615, -0.060297, 0.000649331, 0.0435562, 0.0372778, -0.0242432, 0.00922566, -0.037975, -0.0231358, 0.00750446, 0.000609321, 0.100127, -0.0147487, -0.0137861,
                                  0.0257987, -0.0185064, -0.0632991, -0.0317184, -0.00718534, 0.0365483, -0.00893956, -0.0279581, -0.0454131, 0.036324, -0.0665497, -0.0147153, 0.0540709, -0.0352045, 0.0206232, 0.0432846, -0.0555016, -0.0151684, 0.0398751, 0.0482818, -0.00263475, -0.0424214, 0.0874112, 0.0448274, -0.0119496, -0.0792649, -0.04854, 0.0628915, 0.0859292, -0.0717328, -0.107442, -0.058485, 0.0673135, 0.135334, 0.0166183, 0.0647938, -0.120295, -0.00864688, -0.0317882, 0.0245718, 0.0177784, -0.0906303, 0.0299171, 0.0836199, 0.00315641, 0.0367327, -0.0351208, -0.0540488, 0.0731672, -0.0056388, 0.0468857, -0.00282757, 0.116255, 0.029636, 0.0413063, 0.0343739, -0.0839182, -0.0417941, -0.0206862, 0.00491687, 0.0298725, 0.0614621, -0.0183253, -0.00183584, -0.0215785, -0.00801621, 0.00348655, 0.0870895, -0.0547734, 0.0887341, 0.0610955, -0.0276228, -0.000210438, -0.0437035, 0.0035191, -0.00601526, -0.0869158, -0.0498343, -0.0702369, -0.0293894, -0.0613479, -0.0987805, 0.0736951, -0.0627836, -0.104831, -0.00688494, -0.0249899, 0.0408921, 0.0424474, 0.0562428, -0.00923607, 0.00724227, -0.0238022, -0.00760867, 0.0604579, -0.00213521, 0.0982441, 0.0181329, -0.0927985, -0.0164896,
                                  0.0397476, -0.0597719, -0.0773485, 0.0292782, -0.0168706, 0.0628061, 0.0214856, 0.0558528, -0.00384465, 0.011612, -0.0976541, 0.0425583, 0.0801738, -0.0200457, -0.0478515, 0.0610831, -0.0800249, -0.00508832, 0.0161706, 0.0841191, -0.0702758, -0.0312687, 0.0490824, 0.0149246, 0.0273228, 0.0327321, -0.0032255, 0.0629842, 0.0889947, 0.0777133, -0.00117284, 0.0104614, 0.0640299, 0.0831512, -0.0189273, 0.0505123, -0.063742, -0.0536326, -0.0332968, 0.0122343, -0.0640271, -0.00291617, 0.00879753, 0.0629371, -0.00410296, 0.00708288, -0.00936468, 0.0278015, -0.0818968, 0.0601644, 0.0139252, -0.0421808, 0.0614916, 0.0180945, 0.155197, 0.0208986, -0.041337, -0.0241013, 0.0500381, -0.0107323, 0.0177979, -0.0127415, -0.0361068, -0.0425857, 0.0727184, 0.0853507, 0.00302345, 0.0878965, 0.115031, 0.0560367, 0.071834, 0.0415763, 0.04278, 0.0177705, 0.0477226, 0.0507579, -0.0475362, -0.10119, 0.0315363, -0.0226454, 0.0121276, -0.00960456, -0.0600838, 0.00238202, 0.00404486, -0.151295, -0.0473568, 0.0295319, 0.0378077, 0.0655098, 0.0774193, 0.0311158, 0.0567627, -0.0425764, 0.0316724, -0.0170882, 0.0215244, -0.108714, -0.066201, 0.0284584,
                                  0.0185938, 0.0283607, 0.026638, 0.0896159, -0.0456741, 0.0833438, -0.0332121, 0.0859483, 0.0184073, 0.0146145, -0.134335, 0.00566075, 0.0229191, -0.0538984, 0.0225939, 0.051414, 0.0249858, -0.0308506, -0.0175713, 0.0730781, 0.0430203, 0.0548783, 0.0352828, -0.0226575, -0.0282648, -0.0560977, 0.087593, -0.0156299, 0.049889, -0.0909711, 0.0294096, -0.05829, 0.0162512, 0.0459758, -0.0021401, 0.0773234, -0.113815, -0.130863, -0.115586, -0.0320289, 0.0540867, -0.0718158, -0.0652567, 0.028384, -0.0607365, 0.00283616, 0.00290327, -0.0962294, -0.0728673, 0.0236292, -0.00675678, 0.00119052, 0.0564972, -0.0189841, 0.0019527, 0.0453258, -0.0504709, 0.00763602, 0.104296, -0.013038, -0.00474388, 0.0708987, -0.0075843, -0.0403093, 0.00619173, -0.0293234, -0.0571778, 0.0375112, 0.0396854, -0.0119746, 0.0460389, 0.0229099, 0.0281114, -0.040861, 0.074344, 0.01, -0.0103928, -0.000927731, 0.0333935, -0.00397818, -0.0161958, -0.0746158, 0.0408405, -0.0614738, -0.0470235, 0.0110467, 0.0524074, 0.0117521, -0.00660905, 0.000283751, 0.0586434, -0.0724017, 0.00783789, -0.00837288, 0.0378936, 0.00950327, -0.0180377, -0.00757236, -0.131672, -0.060477,
                                  0.0448407, -0.0816528, -0.00572467, -0.133717, 0.00858761, -0.0453628, -0.00926263, -0.00878986, -0.0881381, -0.0770292, -0.00126868, 0.0202602, 0.00696303, 0.0232213, -0.00765458, -0.0142011, -0.0411974, -0.0254106, -0.0228596, 0.00964866, -0.0755671, -0.0434433, 0.0616923, 0.0273248, 0.0126232, 0.104332, -0.0746897, 0.0122205, 0.000774865, -0.0848318, -0.068131, 0.0241604, -0.0309783, -0.0312511, -0.0394057, -0.0517108, -0.0175708, -0.0034132, -0.0133753, -0.0573023, -0.0615777, 0.0250254, 0.0264198, 0.0333078, -0.00794352, -0.074629, 0.0257164, -0.0842746, -0.0298634, -0.0284703, -0.0182023, 0.0201814, 0.0445433, -0.0486836, -0.0606627, 0.0437136, 0.059965, 0.027845, 0.00997836, -0.044049, -0.0292783, -0.0789935, -0.0120162, -0.0514679, 0.0422417, -0.0572828, 0.0124766, 0.00486224, -0.0528183, -0.0528573, -0.00453346, -0.0654667, 0.043134, -0.0706363, -0.045216, 0.0177153, 0.021776, 0.0287, -0.0446293, -0.0758963, 0.0568572, 0.010683, -0.00366125, -0.147947, -0.060558, -0.0218491, -0.0734621, -0.0687191, 0.000821248, -0.00229004, -0.0158066, 0.0924869, 0.000511849, -0.0588974, -0.0645067, -0.00905946, -0.0794437, -0.00859998, -0.0427028, -0.0874432,
                                  -0.00426848, -0.00194538, -0.0444356, 0.0401723, -0.102964, 0.0526793, -0.0481149, 0.117679, 0.00885149, 0.0717189, -0.0845298, 0.042618, -0.0263977, -0.0552938, 0.0651212, -0.0127041, 0.0433992, -0.0592688, -0.0120598, 0.0447828, -0.0273622, 0.00629763, 0.0130284, -0.0765712, 0.00470361, 0.0514711, 0.0362246, 0.0289821, 0.0421228, 0.00515732, 0.0325687, -0.070712, 0.032381, -0.0106824, -0.0755266, 0.0368254, 0.0100073, -0.0267065, -0.0501609, 0.0363459, 0.0578386, 0.0173806, -0.0800124, 0.00972266, -0.0127044, 0.0268554, 0.0665888, -0.0458302, -0.0246985, 0.0419142, -0.000858924, 0.0133216, -0.0661738, -0.0292588, 0.0933273, 0.0699568, 0.0232047, -0.0422772, 0.109191, -0.00239368, 0.0204866, 0.0319641, 0.0257731, -0.0209399, 0.056746, 0.0190384, -0.0550943, 0.0497269, 0.0790261, 0.055507, 0.0699, 0.0123088, 0.0214386, 0.0401345, 0.072444, 0.0324344, 0.0124427, -0.0388647, 0.00203626, -0.0105184, -0.0239717, -0.0446724, 0.0180367, -0.0616285, -0.00327926, -0.104084, -0.0181629, 0.065446, -0.0715081, 0.000761106, 0.0859743, 0.0433584, 0.0271292, -0.0080142, 0.041671, 0.054339, -0.05406, -0.0714599, -0.0584398, -0.038623,
                                  0.0960066, -0.103041, -0.0930169, 0.00828339, -0.0874753, -0.0284067, -0.0893962, 0.0502095, -0.0610159, 0.0150428, -0.103359, 0.0726009, -0.000347153, -0.0360573, 0.0568833, -0.0487508, -0.0112584, -0.0882043, -0.0544394, 0.0538916, -0.0449067, 0.0437787, 0.0241542, 0.00657016, -0.036095, 0.0600146, 0.00156293, -0.0121497, 0.00396478, -0.0742158, -0.025978, -0.0560489, 0.0475033, -0.0204204, -0.0207596, -0.00781832, -0.0682965, 0.0202183, -0.0589988, 0.0174811, 0.00276592, -0.050293, 0.0476031, 0.00745879, -0.0194942, 8.63124e-05, 0.0503603, -0.0991811, -0.0204596, 0.0579584, 0.0294457, -0.0635659, 0.0212317, -0.0898484, 0.0800755, -0.0424103, -0.0510485, -0.0795255, 0.105626, -0.0145857, -0.0260683, -0.021218, -0.0311299, 0.0302786, 0.0782799, 0.0247979, 0.05958, 0.0303998, -0.0406365, 0.0065779, -0.0221392, -0.0157849, -0.0629069, -0.0698287, 0.0196404, -0.0515366, -0.036307, -0.0993303, 0.0618597, -0.0619217, -0.0586607, -0.0394696, 0.0733701, 0.0143981, -0.00627579, -0.0155918, 0.00634125, 0.0273226, -0.000452639, 0.123392, -0.0212981, -0.070881, 0.0127342, -0.0264578, -0.0235842, 0.000540198, -0.00319842, -0.0376626, -0.0293271, 0.0346353,
                                  0.106126, 0.0217184, 0.0238114, -0.0480571, -0.0910267, -0.0182148, 0.0348495, 0.07883, 0.0770926, 0.0182594, -0.0769266, -0.0270761, -0.0160452, -0.0253994, -0.0152814, -0.0179912, -0.0466332, -0.0565428, 0.0159271, 0.0572695, -0.0218487, 0.0268886, 0.0272543, -0.0447498, 0.00324819, -0.0614039, -0.0216589, 0.0972663, 0.0694356, 0.0508726, 0.0136231, -0.0568574, 0.0671217, 0.107114, -0.0263288, 0.0255476, -0.0849283, -0.0532576, 0.0202871, 0.0346802, 0.0214065, -0.0482267, 0.00645465, -0.0454875, 0.0422082, -0.053517, -0.0761823, -0.0750209, -0.0395247, 0.0186882, 0.0173088, 0.062633, -0.0206313, -0.00601321, 0.0062466, -0.0342029, -0.0495543, 0.0331681, 0.0428134, 0.0101581, -0.0326467, -0.0955678, 0.047828, -0.0312912, 0.0221527, -0.00891338, 0.0610257, 0.0994641, 0.054237, 0.0226441, -0.099135, -0.0246546, 0.0133358, 0.0750014, 0.0191142, 0.0443724, 0.0479134, -0.04479, -0.0292222, -0.0679806, -0.0118238, -0.0266776, 0.0708331, -0.0255937, -0.0359843, -0.0913317, -0.0154663, 0.0284747, 0.0820551, 0.0483125, 0.0841738, 0.0566926, -0.0407602, -0.0695814, 0.0322527, -0.0228487, 0.0508304, -0.0216898, -0.0447869, -0.0657243,
                                  0.0328759, -0.0249636, -0.0282823, -0.00419801, 0.0449284, 0.00995489, 0.0669348, 0.0660868, 0.0374696, -0.0673703, 0.0270113, -0.0759018, 0.0445381, -0.0137079, -0.0249569, 0.115903, -0.0259283, 0.0586833, -0.0249667, 0.0530074, 0.0191908, 0.0404233, 0.137352, -0.0345408, 0.0978122, 0.0622491, -0.0667479, 0.0660052, 0.0245893, -0.0203938, -0.0566997, 0.0114832, 0.110676, 0.13472, 0.0387053, 0.0275119, 0.0181079, 0.0350297, 0.0435114, 0.092723, 0.0369565, 0.0417142, 0.0223591, 0.027458, 0.0863629, 0.0172353, -0.0499188, 0.0260773, -0.00509752, -0.0203402, 0.0882938, -0.0545519, 0.0390028, 0.0202244, -0.026921, 0.0795492, 0.0122199, -0.0721543, -0.0697519, -0.000472202, 0.0444141, -0.0823812, 0.0407324, -0.00894017, -0.0353085, -0.120784, 0.0570377, -0.0506424, 0.0142501, 0.0343633, -0.0889171, -0.0126922, -0.0425781, -0.0346026, 0.0666884, -0.00612873, -0.0993205, -0.0353669, 0.0187706, 0.0115666, 0.0153308, 0.0731599, -0.0284405, 0.00436352, 0.0161767, 0.0936358, 0.0422308, -0.06473, 0.0691602, 0.0110678, 0.0860931, -0.0270477, -0.0379729, -0.00660439, 0.0792615, 0.13088, 0.166569, 0.0733044, 0.0445555, -0.010758,
                                  0.108732, -0.060515, -0.0322654, 0.00908816, -0.0589595, 0.00168325, -0.0563214, -0.00356084, 0.0261363, -0.0771914, -0.0689792, 0.00319113, 0.00143574, -0.039639, -0.042664, 0.122164, -0.0548867, 0.0109666, 0.0230882, 0.0803848, -0.0645406, -0.0815472, 0.0419108, -0.0604199, 0.0419177, 0.0243543, 0.0280977, 0.0608584, 0.13435, -0.0299577, -0.0529266, -0.0915389, 0.0238238, 0.140255, 0.0254123, 0.0395224, -0.0199676, -0.00187048, -0.0607753, 0.00503884, 0.0297678, -0.00181923, 0.00786295, 0.0471002, 0.0370572, 0.0228077, -0.0392644, -0.0578271, -0.0587982, -0.0456327, 0.090595, 0.0332047, 0.109853, -0.0300192, -0.0154606, 0.019251, -0.0359714, 0.013917, -0.0139497, 0.0649481, -0.0316311, -0.0384684, -0.082905, -0.0229047, 0.0708907, 0.00439846, -0.0127433, 0.0937415, -0.027129, 0.0678898, -0.00439734, 0.0124453, -0.0148014, -0.0314945, 0.0536899, 0.0959954, -0.0916694, 0.00649314, -0.0805148, -0.0713214, 0.00280633, -0.0134121, 0.0512677, 0.00147903, -0.096984, -0.0993886, -0.102844, -0.0604879, 0.0793871, 0.169155, 0.0011094, 0.00147432, -0.0181079, 0.0356034, 0.0316231, 0.0739121, -0.0286224, -0.0792576, -0.0670025, 0.0162516,
                                  0.0850128, -0.0858204, -0.0703993, 0.0795356, -0.1021, 0.00888521, -0.0100925, 0.0764917, 0.0990621, -0.0456674, -0.0796917, -0.0115963, 0.108264, -0.101567, 0.019922, 0.0600736, -0.071305, -0.0188619, -0.0314835, 0.0215721, 0.0143696, 0.0124715, 0.0496508, 0.0404158, -0.0364128, -0.0613659, -0.02389, 0.00024816, 0.0816733, 0.0342158, 0.0274056, -0.0909078, 0.076627, 0.0853462, -0.0101667, 0.0412892, -0.0194048, 0.00438658, 0.0433977, -0.0318443, 0.0223071, -0.0100808, 0.0269178, 0.0659609, 0.122007, 0.0683511, -0.0592052, 0.0314555, -0.054314, 0.0339125, 0.00888022, 0.049512, 0.116153, -0.0647178, 0.102177, 0.0923328, -0.0972873, -0.0341193, -0.0899512, -0.00137498, -0.09937, -0.0695651, -0.0910434, -0.0626114, 0.0674036, 0.0284057, -0.0446567, 0.16539, 0.022943, 0.0907549, -0.025578, 0.0245264, -0.0441635, -0.0193781, -0.000574089, 0.0405039, -0.00750661, -0.0659573, -0.0424855, 0.048752, -0.0111115, 0.0150663, 0.0215687, -0.00216352, -0.0216815, 0.0104833, -0.0410683, 0.0070015, 0.0884584, 0.164416, 0.0885865, 0.089724, -0.0187521, -0.0430837, -0.0251618, 0.015321, 0.0594486, 0.0017997, -0.0750657, -0.0795652,
                                  0.015182, 0.0056956, -0.0267229, -0.0309612, -0.145662, 0.122641, 0.0150213, 0.0556944, -0.0246535, -0.0113965, -0.0224721, 0.0899416, 0.035086, -0.10911, -0.020807, 0.0736589, -0.0253806, -0.00325322, 0.0198696, 0.0681013, -0.0085103, -0.0750745, 0.0344588, -0.0294063, 0.0291686, -0.000309391, -0.0398653, 0.0481843, 0.0181112, -0.0705153, 5.32738e-07, -0.0105303, -0.042166, 0.0364167, -0.0355468, 0.0558271, -0.125911, -0.0794216, -0.0483452, 0.054181, -0.0174769, -0.00432532, 0.0139575, 0.0442025, 0.0591221, 0.0717547, -0.0205123, -0.0850392, -0.086107, 0.0140883, 0.0284359, 0.0138563, 0.0165071, 0.0194605, -0.0531441, 0.061904, 0.0146548, -0.0236795, -0.000160698, -0.0446977, -0.0230988, -0.0163629, -0.105156, -0.0418545, -0.0126167, 0.041279, -0.0307937, 0.0637793, 0.0024735, 0.0465968, 0.0502683, -0.0304394, -0.0246778, -0.0435541, 0.0228069, -0.0367324, -0.0283475, -0.0411989, 0.058335, -0.0883639, -0.0196822, -0.0764218, 0.0713796, -0.0341001, 0.0372448, -0.00807844, 0.00289338, 0.0669419, 0.0428973, -0.00294606, 0.0862729, 0.0405926, -0.0377201, -0.0801032, 0.0788876, -0.0275075, -0.107485, -0.102153, -0.0957179, 0.0526777,
                                  0.0586307, -0.0961136, -0.07967, -0.0614767, -0.00281659, -0.104989, 0.0378021, 0.0350457, -0.0114722, -0.0440049, -0.0646283, -0.101057, -0.0193952, 0.0728736, 0.0117658, -0.00273969, -0.0518352, 0.0111664, -0.03062, -0.0160544, -0.0854859, 0.00259937, 0.0861824, -0.0487324, -0.0377569, -0.0036421, -0.0877444, -0.0762344, -0.0475058, -0.0896071, -0.0303449, -0.0636522, -0.0740459, -0.0502757, 0.0381698, -0.0708584, 0.0289817, -0.00425607, -0.0316454, 0.0383599, -0.0662685, 0.0100618, 0.0275857, -0.0919252, -0.00546169, -0.0714179, -0.01288, 0.00966142, -0.0556256, -0.058059, 0.0341252, -0.0354678, 0.0586023, -0.0630256, -0.101807, 0.0184572, -0.035421, -0.0324108, 0.022028, 0.0159743, -0.0999118, -0.0852185, 0.0129633, -0.0567033, -0.0482505, -0.00353987, -0.0277189, 0.0266262, 0.0381173, -0.0812696, -0.00629056, -0.0762066, -0.026665, 0.00931795, -0.0674654, 0.0265191, -0.012401, -0.057857, -0.0458789, -0.0297626, 0.0641907, 0.0195361, 0.0372149, -0.0960547, -0.0307707, -0.0125281, -0.0421916, -0.0753703, 0.0501614, -0.0497255, 0.0119269, -0.0537183, -0.105883, 0.0265519, 0.0261136, -0.0899581, 0.0257279, 0.0399995, -0.0433603, -0.0389231,
                                  0.00427838, -0.0597534, -0.049361, -0.0494293, -0.0327611, 0.0653789, 0.0196396, -0.016029, 0.0582582, 0.0847671, -0.0179394, -0.00369724, -0.0417814, -0.0125209, -0.0130576, 0.008831, -0.0304205, 0.00435108, 0.0320649, 0.0860757, 0.0464055, -0.0710107, 0.00374754, -0.0348871, -0.0365473, -0.00986789, 0.0194427, -0.0257575, 0.148357, -0.0331616, 0.00250271, -0.0811296, -0.0370875, 0.100759, -0.11243, 0.0561891, 0.0135335, -0.00678394, -0.0178014, -0.0377068, -0.00567383, 0.0167896, 0.0616913, -0.0605315, 0.0376243, 0.0503923, 0.0389697, -0.0500859, 0.0269646, 0.0285966, -0.00802367, -0.0793999, 0.0210334, 0.0226995, 0.0103426, -0.0118331, -0.0176506, -0.0460858, -0.0544573, 0.0571855, -0.0041024, -0.028616, -0.0634426, -0.0101054, -0.0444885, 0.0274745, -0.00456925, 0.0851614, -0.0145372, 0.0373005, 0.0592942, -0.054045, 0.019389, 0.0337449, -0.00359142, 0.0409359, 0.00996363, -0.0228088, -0.0125146, -0.0182048, -0.0771083, 0.0218624, -0.032498, 0.0235896, 0.00741437, -0.0219817, -0.00198953, -0.0388229, -0.0397261, 0.0183619, -0.0240932, -0.0314022, 0.0215875, 0.0354003, 0.0588737, -0.00825379, -0.0640896, -0.032771, -0.0196794, 0.034212,
                                  0.00955198, 0.0334261, -0.0370108, 0.0250265, -0.111072, 0.00370816, 0.0217714, -0.0207735, -0.0359171, -0.0542748, -0.100813, 0.0913418, 0.0116004, -0.0386783, -0.0422777, 0.000809973, -0.0392953, 0.00793266, 0.085128, -0.025191, -0.0367084, -0.0490436, 0.0113856, -0.0545422, -0.0117303, 0.0290836, 0.0287629, 0.109774, 0.113255, -0.0534016, -0.0044245, 0.0149608, -0.0428372, -0.00430642, -0.0583066, 0.0362755, -0.0952253, -0.06034, -0.00467343, 0.0844344, 0.00533882, 0.022579, -0.0112506, -0.00117818, 0.0211102, -0.0772761, 0.0429834, -0.0260895, -0.020875, 0.00938642, -0.0385579, -0.0911243, 0.0788511, -0.0226943, -0.0214635, 0.0200236, -0.0608647, -0.0547214, 0.0633461, 0.00946447, 0.0199056, -0.0515556, -0.0525907, 0.0121365, -0.00408994, -0.0234438, -0.0629519, 0.000552506, 0.0101274, 0.0463783, -0.00615045, -0.0533905, -0.0043006, 0.0361518, 0.0644908, 0.0545152, -0.0345931, -0.0583551, -0.00459417, -0.0815719, -0.017343, -0.0337932, 0.0681551, -0.0449311, 0.0347221, -0.0948341, -0.000122926, 0.00517257, 0.0625736, 0.0788156, 0.0657545, 0.0318652, 0.0585507, 0.0615564, 0.075435, 0.078132, 0.032054, -0.0719996, -0.0234545, -0.00254903,
                                  0.0186818, 0.0550898, 0.0365338, -0.0099046, -0.0509573, -0.058057, -0.0328254, 0.0732518, 0.0704921, -0.0492156, 0.0356833, -0.0361637, 0.066397, 0.00857919, 0.0679622, 0.0266691, -0.0409595, -0.0291241, 0.020527, 0.0168814, -0.0077572, -0.0262458, -0.0182892, 0.00979311, -0.0771459, -0.0530321, 0.0421863, 0.0805555, 0.0260307, 0.0668706, 0.0456025, -0.0321435, 0.0982563, 0.0934251, 0.0332662, 0.113172, -0.0519509, 0.0449717, 0.0186292, 0.0644782, -0.0537644, -0.0931983, 0.0948122, -0.0044793, 0.075599, -0.0251295, -0.0423041, 0.00574813, 0.0157212, -0.0419398, 0.0400119, -0.053843, -0.0158663, -0.0474701, 0.103812, 0.0868183, -0.101148, -0.0632956, -0.03193, 0.0305637, -0.00991513, -0.00773301, 0.0136194, 0.0026335, -0.038498, -0.0471198, 0.0113886, 0.0974142, 0.0170784, 0.00132769, -0.0678234, -0.0249219, -0.00730416, 0.00698593, -0.0444459, 0.106213, -0.013483, -0.0127284, -0.0505763, 0.0643177, -0.00375331, 0.0353604, 0.00765336, -0.0413121, 0.0654329, 0.0100546, 0.000423741, -0.058852, 0.0567859, 0.00143984, -0.0107516, 0.0649797, -0.0672665, -0.0236886, -0.0127153, 0.126899, -0.0715835, 0.0486124, 0.00436755, -0.0717223,
                                  0.0330926, -0.055794, 0.0562407, -0.035132, -0.0408, 0.0323151, 0.0659946, -0.0126425, 0.0155858, -0.0357103, -0.0641976, -0.137625, -0.00257635, -0.0634209, -0.0268536, 0.0831302, 0.0165191, -0.0175302, 0.0179148, -0.0592886, 0.0375392, -0.0458076, 0.0935282, -0.0446194, 0.10065, -0.0199882, -0.0456169, 0.0773048, 0.0956599, -0.0438545, -0.0377825, 0.0376378, 0.142902, 0.0962977, 0.0432493, 0.0749449, -0.00561181, 0.128076, 0.0130987, 0.066512, 0.0602697, 0.0858853, 0.0492455, -0.0228265, -0.00646723, 0.0818896, -0.0242317, -0.0568329, 0.068371, -0.0121864, -0.0160367, -0.0404889, 0.0353607, -0.0056933, -0.0701371, 0.0878795, -0.0246312, 0.0819969, -0.140553, -0.041286, 0.038789, 0.0215013, -0.0454671, -0.0206231, 0.0639833, -0.129337, -0.0795109, 0.0721648, -0.109697, 0.0613263, -0.0722464, 0.0680536, -0.0510785, 0.0616807, -0.0918791, -0.0289372, 0.0333887, 0.068833, 0.0114787, 0.0816031, -0.0333464, 0.0219954, -0.0193876, -0.0666388, -0.0640795, 0.0195378, -0.0415561, -0.0845855, 0.0346632, 0.0655204, 0.093782, 0.193067, -0.0541581, -0.0537055, -0.0111208, 0.115713, 0.103515, 0.125413, -0.0163474, -0.0897832,
                                  0.0929746, -0.0831568, 0.0206289, -0.0720956, 0.0037902, -0.021067, -0.0191887, -0.0518048, 0.081051, 0.0192158, 0.00593352, -0.0685678, -0.000139156, 0.0146229, -0.0424314, 0.0582135, 0.0400728, -0.0329977, 0.0367896, -0.0309593, 0.0476991, 0.0253563, 0.0686246, 0.0348175, 0.0422552, 0.0601723, -0.100994, 0.10243, 0.0911405, -0.0364707, -0.0171603, 0.0569871, 0.0729168, 0.0705632, 0.0384101, 0.113854, 0.0436758, 0.0417577, 0.0359684, -0.0498588, -0.010831, 0.0268029, -0.0223992, 0.0116284, 0.106192, 0.0643883, -0.057702, -0.0951141, 0.0340169, -0.0621233, 0.10146, -0.0747877, 0.0875668, -0.047921, 0.00792271, -0.0173371, 0.0418122, -0.0497813, -0.0572275, 0.056812, -0.0565757, -0.0242443, -0.0365316, -0.00269942, -0.0376549, -0.023503, -0.000757223, 0.115127, -0.0876216, 0.0582672, -0.0385399, -0.000569134, 0.0125711, 0.0637895, 0.0318658, 0.103899, -0.0629407, 0.0657105, -0.0608533, -0.0280261, 0.03131, 0.0489455, 0.00472867, -0.0506332, 0.00335467, -0.00849349, -0.0660403, 0.00624611, 0.0681112, -0.0140297, 0.0347073, -0.000371529, 0.0417245, -0.0825288, -0.0124707, 0.139204, 0.0543327, -0.0109463, 0.054771, -0.0103016,
                                  0.0276952, -0.0445186, -0.0828894, -0.00331424, -0.0259769, 0.0554157, 0.0259283, 0.080022, 0.0192953, -0.0681678, -0.0726638, -0.0553946, 0.0891326, 0.0170445, 0.0252146, 0.138535, -0.0677416, -0.0903127, 0.0762435, -0.0358439, -0.000835015, -0.00574246, 0.100382, -0.0377783, -0.0200542, 0.0208563, -0.0166596, 0.0782689, 0.125841, 0.103479, -0.0245003, -0.0436576, 0.120365, 0.0965937, 0.0382539, 0.0110295, 0.0149021, -0.0389302, 0.0485921, 0.0954669, -0.0347626, -0.0312801, 0.0850734, 0.0354331, 0.0809659, -0.0149095, -0.019097, -0.0454543, -0.00649826, -0.0260332, 0.140349, -0.044192, 0.0938161, -0.00907874, 0.0231931, 0.103292, -0.0817332, -0.0838874, -0.0850718, -0.0636775, -0.063516, -0.0955202, -0.0800031, 0.0535059, 0.0658713, -0.0640852, 0.0381525, 0.1513, 0.0201867, 0.0132798, -0.0511362, 0.0171339, -0.109107, 0.0358681, 0.0081174, 0.0579355, -0.0411713, -0.104637, -0.0155713, -0.0529686, -0.0361485, -0.0211247, 0.0183262, 0.0274933, -0.0694585, -0.000353327, -0.0505327, 0.0488827, 0.0302781, 0.0288535, 0.0448486, 0.12352, -0.083366, -0.0273712, -0.0274931, 0.0570073, 0.0223517, -0.00259922, 0.038368, -0.131019,
                                  0.117986, -0.0246888, 0.0227707, -0.070645, -0.114463, 0.0180092, 0.0353246, -0.0539029, -0.0118745, 0.0465521, -0.0733093, -0.0560995, 0.0529831, -0.0929651, -0.00918835, 0.0691416, -0.0747209, -0.032479, -0.065355, -0.0153692, 0.017953, -0.0346954, 0.00927325, -0.0770227, 0.0703731, -0.0667448, 0.0100288, -0.0228865, 0.0294784, -0.0111164, -0.0500653, -0.0175398, 0.0365983, 0.0152396, -0.034671, 0.0385304, -0.0994925, 0.0569278, 0.0188008, 0.00775748, 0.0162706, 0.0118977, 0.0331202, 0.0171261, -0.0386542, 0.0489725, -0.0392233, -0.00832857, 0.0752521, 0.0680424, 0.00806523, 0.0205699, 0.00869246, -0.0348953, -0.00389146, -0.059027, 0.00982407, -0.00948458, 0.0574452, -0.0376721, -0.00792476, -0.0119427, -0.0435966, -0.0268634, 0.0377584, -0.0603546, -0.0342382, 0.0133545, -0.0739012, 0.0908362, 0.0126902, -0.0477782, -0.0404217, -0.00631239, 0.0300741, 0.074106, -0.0862081, 0.0187843, 0.00129403, -0.0130762, -0.0706311, -0.0236667, -0.014925, -0.0851604, 0.0281666, -0.0428525, -0.030602, 0.0203367, 0.0265358, -0.0138036, 0.0294486, 0.0600762, -0.0401204, 0.0696712, 0.0566336, 0.105268, -0.0145436, -0.0667704, -0.0495083, 0.0194298,
                                  0.0188196, -0.0578841, -0.080392, 0.0544169, -0.00276222, -0.0504897, -0.00831882, -0.106042, -0.0684964, -0.0951164, -0.104103, -0.0508388, -0.0545197, 0.0367996, -0.0347607, -0.0537915, -0.086469, -0.010378, 0.0393814, -0.0839041, -0.098709, -0.046152, -0.0588125, 0.0650086, -0.00651108, -0.022265, -0.0360443, 0.019743, -0.0640978, -0.0311671, -0.082565, 0.0177281, -0.065738, 0.0245584, -0.053528, -0.101573, -0.0207869, -0.00865344, -0.031829, -0.00815165, -0.0453887, -0.0159187, 0.0355141, -0.0340806, -0.053304, -0.00556823, -0.0322529, -0.0739293, -0.0644467, -0.0750552, 0.0221458, -0.0779103, -0.0835976, 0.0113649, -0.0724502, -0.0794511, -0.0136733, -0.0659847, -0.00856176, -0.0128973, -0.0483826, -0.0975669, 0.0498101, -0.0702413, -0.0809643, -0.0436093, -0.0507046, 0.0412722, -0.0136586, -0.047518, -0.00453757, -0.0197817, -0.0276416, 0.0139942, -0.0151099, 0.0354726, -0.00315087, -0.079684, -0.0532192, -0.00871847, 0.0562816, -0.0233849, 0.00938168, -0.0697601, 0.0120495, 0.0565277, -0.0301979, -0.0493047, -0.0200758, -0.0506861, 0.012441, 0.00575273, -0.0116129, -0.042739, 0.00375298, -0.0836249, -0.00315441, 0.0239679, -0.0656914, -0.0507758,
