/*************
* neural_net_params.h
*
* Neural Network Parameters
* Code Generated using nn4mc
* Hardware Plateform: ESP-32
*
* This file defines the weights used by the neural network implementation.  Weight representations were
* created automatically using nn4mp.
*/

#ifndef __NEURAL_NET_PARAMS_H__
#define __NEURAL_NET_PARAMS_H__

#ifdef __cpluscplus
extern "C" {
#endif



// weight name needs to contain whether it is a weight or a bias
const float W_conv1d_1_W[8] = {0.0797103, -0.18561, 0.168876, 0.466217, -0.514368, -0.158927, -0.276894, -0.08986};


// weight name needs to contain whether it is a weight or a bias
const float W_conv1d_1_b[64] = {  3.03271,  2.25466,  -2.87249,  0.405068,  0.513954,  -1.86005,  0.00723512,  -1.43746,
                                                                                                   -0.785181,  -0.131111,  0.0827967,  -1.56601,  0.527272,  2.17092,  0.797064,  1.26714,
                                                                                                   -0.371271,  0.0651112,  0.108537,  0.252806,  0.742389,  -0.635041,  0.529429,  -0.85254,
                                                                                                   -0.0368698,  -0.20215,  0.143776,  0.0534891,  0.151973,  -0.125415,  0.559132,  0.0168944,
                                                                                                   0.184618,  0.344209,  0.117204,  0.317836,  -0.11438,  -0.944339,  0.180464,  -0.749046,
                                                                                                   -0.124333,  -0.157424,  0.242,  0.120427,  0.0943489,  -0.347377,  0.521588,  0.0909997,
                                                                                                   0.28239,  0.174584,  -0.360201,  0.378882,  0.00245139,  -0.465458,  0.344052,  -0.755997,
                                                                                                   -0.285665,  -0.328437,  0.333589,  0.0080701,  -0.328252,  -0.170629,  0.0615043,  0.04609};


// weight name needs to contain whether it is a weight or a bias
const float W_conv1d_2_W[8] = {0.155789, -0.0982316, -0.533263, 0.243795, -0.208101, 0.0427617, -0.540887, 0.582679};


// weight name needs to contain whether it is a weight or a bias
const float W_conv1d_2_b[256] = {  -0.120072,  -1.44633,  1.12735,  0.569354,  -1.42108,  0.672674,  0.956816,  -1.31157,
                                                                                                    -0.355358,  -0.423095,  1.66989,  -0.32225,  -0.255941,  -0.187283,  1.42415,  -0.575184,
                                                                                                    0.747379,  0.456858,  -1.22002,  -0.0332624,  0.634751,  -0.378055,  -1.18299,  0.184736,
                                                                                                    0.945503,  -0.0682711,  -1.06409,  -0.00600585,  -0.328809,  0.393086,  -1.28298,  -0.207926,
                                                                                                    -0.574289,  -0.0124707,  1.26736,  -0.422664,  0.238276,  0.0658373,  0.934176,  0.411945,
                                                                                                    -1.5703,  0.763355,  0.741205,  -0.0307087,  0.865559,  -0.277128,  0.817348,  0.959129,
                                                                                                    -0.240156,  0.500967,  0.184341,  -0.199539,  0.663339,  -0.427913,  0.601743,  0.982967,
                                                                                                    -0.584031,  0.690139,  0.148656,  0.474235,  0.433928,  -0.682345,  0.570764,  0.697839,
                                                                                                    0.5785,  -0.231276,  -0.317038,  0.477743,  -0.528195,  -0.388411,  -0.545837,  0.670632,
                                                                                                    -0.278329,  -0.252354,  0.203399,  0.30635,  -0.159029,  0.16375,  0.472655,  0.250529,
                                                                                                    -0.317868,  -0.102124,  -0.101325,  0.0931347,  0.438842,  -0.136223,  0.00618266,  -0.691699,
                                                                                                    -0.214229,  0.21414,  -0.133358,  -0.359257,  0.145011,  0.171144,  -0.0682043,  0.0621888,
                                                                                                    -0.63042,  0.364642,  1.01917,  -0.399233,  0.473177,  -0.20558,  0.964646,  0.356013,
                                                                                                    0.395722,  -0.148774,  -0.560688,  -0.10529,  -0.262186,  0.113947,  -0.394775,  -0.227028,
                                                                                                    -0.0516924,  -0.261144,  0.622168,  -0.288777,  0.319755,  -0.0556217,  0.362223,  0.731009,
                                                                                                    -0.0730295,  -0.0356512,  -0.355643,  0.522211,  0.204282,  -0.027556,  -0.595051,  -0.891878,
                                                                                                    0.84,  0.144577,  -0.432169,  0.855112,  -0.197429,  -0.455876,  -0.568624,  1.0107,
                                                                                                    0.0120831,  0.0832248,  -0.0594356,  0.379077,  -0.155578,  0.0321963,  -0.0977959,  0.762956,
                                                                                                    -0.0715766,  0.00383387,  0.0524052,  0.318391,  0.0635629,  0.0947266,  -0.192389,  -0.411127,
                                                                                                    -0.163484,  0.0895205,  -0.0285545,  -0.197296,  -0.132382,  -0.0159278,  0.178912,  0.00589129,
                                                                                                    -0.458267,  -0.130556,  0.832507,  -0.330563,  -0.0867028,  0.0318747,  0.9085,  -0.124517,
                                                                                                    0.13027,  -0.114544,  -0.120744,  0.26056,  -0.122686,  0.0368319,  -0.432012,  -0.68561,
                                                                                                    -0.132126,  0.17798,  0.254237,  0.00613989,  -0.247752,  0.254888,  0.441118,  0.694943,
                                                                                                    -0.202086,  0.126537,  -0.586856,  0.349992,  0.182031,  0.0811959,  -0.0428442,  -0.320748,
                                                                                                    0.703716,  0.184389,  -0.622769,  0.0047216,  0.004112,  -0.249564,  -0.425858,  0.998975,
                                                                                                    0.241318,  0.100926,  0.443929,  0.0604102,  -0.229091,  -0.130578,  0.14022,  0.69054,
                                                                                                    -0.561204,  -0.0516061,  -0.0931571,  -0.245801,  0.243634,  0.179638,  -0.198984,  -0.349192,
                                                                                                    0.0539324,  0.148436,  0.299345,  -0.133624,  -0.030856,  -0.0785953,  -0.0542672,  0.185002,
                                                                                                    0.0898231,  -0.391811,  -0.221411,  0.769955,  -0.33992,  0.13224,  -0.0277236,  0.156311,
                                                                                                    0.0868488,  -0.111147,  -0.0240459,  -0.215788,  0.17698,  0.141861,  -0.00122221,  -0.432016,
                                                                                                    0.213198,  -0.0244012,  0.054773,  0.180348,  -0.0909736,  -0.0128568,  -0.151014,  0.533108,
                                                                                                    -0.383505,  0.0730241,  0.0892517,  -0.233534,  -0.288482,  0.149559,  0.0252875,  -0.630496};


// weight name needs to contain whether it is a weight or a bias
const float W_dense_1_W[64] = {-0.467355, 0.342827, -0.294939, -0.163573, 0.172954, -0.716961, 0.41572, 0.0675509, -0.287744, -0.337706, 0.055038, -0.411004, -0.439204, -0.457858, -0.601818, -0.206351, -0.393289, -0.54111, 0.328777, -0.521352, 0.0212303, -0.102596, -0.0896585, 0.985618, -0.378303, -0.406432, -0.0864886, -0.472289, -0.41654, -0.230248, -0.0278365, -0.350187, -0.529383, -0.473544, -0.343877, -0.361022, -0.266315, -0.276756, -0.52466, -0.560743, 1.13405, -0.189852, -0.433811, 0.771791, 0.696666, 0.53747, -0.510641, -0.432912, -0.339241, -0.24744, 0.0491142, 0.629443, 0.666963, -0.649708, -0.663541, -0.445213, 0.575873, 0.567646, -0.432825, -0.421797, -0.426613, -0.322508, 0.650247, -0.17819};


// weight name needs to contain whether it is a weight or a bias
const float W_dense_1_b[22528] = { 1.39421, -4.59227, -0.0740791, -0.218307, -0.307065, 1.29235, 0.0334157, -0.0664616, 0.172768, 2.71601, 0.864206, 0.119309, 0.786426, 1.19841, 0.462176, -2.86668, 0.922903, 0.233466, -3.24631, 0.744156, 0.157807, -4.38848, 2.1504, -7.91297, 0.246582, 0.534068, 3.32572, 1.04988, 1.15857, 0.933677, -0.0133461, 1.05066, 3.69121, -0.0264969, 0.379288, 0.249287, -1.19786, 0.141212, 2.48921, 1.9882, -7.2376, -2.3853, 4.93464, -7.2537, -0.547129, -0.937619, 0.555496, 0.361436, 0.333007, -0.0921865, -0.800022, 0.154509, -0.473952, 2.02176, 2.12631, -0.234583, -0.266452, -5.49542, 1.47482, 0.25757, 1.20962, 0.133931, -1.00186, 0.0286192,
                                                                                                    5.00017, 3.09814, -1.44953, -1.47192, -3.03431, 2.14339, -5.98303, -4.13691, -1.79012, 0.789649, -3.61929, 0.476326, 1.03088, 5.96825, -0.875795, 4.17058, -0.707423, 5.59309, 1.24681, 0.182674, -1.55809, 1.29935, 5.61799, 1.82968, 0.663163, -0.831759, 6.04575, -0.862991, -0.0631548, -1.23836, -2.76362, -1.64963, 3.75871, 4.18206, 0.855183, -0.836042, 3.10819, -1.87408, 6.58107, -0.242619, 0.667085, 4.26331, 5.10638, 2.03979, -6.56861, -7.25997, -1.62462, -0.989653, -1.27991, -1.59179, -2.6413, -7.99928, -7.81925, -0.614284, -0.270313, 2.28978, -7.524, 1.48784, 1.28787, -1.79363, -0.694119, -0.415452, -6.56955, -2.31262,
                                                                                                    -1.57106, 3.17186, 0.87173, 0.46881, 1.87998, -1.29341, 1.43355, 1.07455, 0.934702, -0.646854, 1.39844, 0.162391, -0.476903, -1.95523, 0.965057, 0.759891, 0.102285, -0.353277, 2.41547, 0.586087, 1.27576, 5.28839, -2.61533, 5.07791, -0.240229, 0.697574, -3.14204, 0.0502987, 0.0766607, 0.647374, 0.755016, 0.487983, -2.71581, 0.553244, 0.240667, 0.303673, 1.38044, 0.8481, -2.37391, -0.18082, 4.87362, 1.17531, -3.71462, 4.41553, 1.50896, 1.9057, -0.201148, 0.401011, 0.755013, 0.781822, 1.7346, 0.406103, 1.18889, -0.679603, -0.610237, 0.388321, 1.24839, 3.32916, -0.34943, 0.234371, -0.0789814, 0.27034, 1.83266, 1.00087,
                                                                                                    -0.576282, -1.57048, 0.456695, -0.866659, -0.18839, -0.373521, 0.368023, 0.216865, -0.546653, -0.20078, 0.00260064, 0.395392, 0.422368, -0.0308766, -0.450024, -1.39201, -0.35125, -0.11387, -0.791222, 0.669622, -0.0741169, -1.72493, 0.142156, -0.159324, 0.931027, -0.130076, -0.402809, 0.244786, -0.288861, -0.439212, -0.144551, 0.186731, 0.223389, -0.182671, -0.668773, -0.451852, -0.778064, 0.454519, -0.101262, -0.420338, -0.416826, -0.52075, -0.208291, -0.137385, 0.0280465, 0.346713, -0.779138, -0.620208, -0.442661, -0.758021, 0.273155, -0.081494, 0.25824, -0.391069, 0.335626, -0.704176, 0.279038, 0.216647, -0.151927, -0.12375, -0.415294, 0.259095, -0.507399, -0.245055,
                                                                                                    4.09704, 4.35567, -1.34557, -1.31885, -2.81711, 1.68462, -4.92677, -4.19145, -1.94077, 0.602328, -3.26051, 0.225352, 0.989798, 4.57872, -0.444297, 4.74857, -0.653007, 5.2899, 1.78695, -0.447341, -2.3867, 2.04619, 3.74922, 2.84167, 0.469521, -1.35021, 3.80201, -1.82624, -0.242816, -1.12412, -2.4503, -2.08328, 2.04929, 3.64929, 0.688946, -0.297186, 3.77471, -2.1166, 4.44683, -0.909413, 1.83445, 4.64066, 2.68583, 3.09002, -5.33438, -5.36033, -1.41605, -1.22863, -1.10555, -1.03734, -1.87159, -6.43929, -6.13255, -0.801589, -0.585657, 2.84361, -5.41516, 1.88625, 1.36818, -1.18275, -1.22487, -0.376534, -5.06664, -1.39415,
                                                                                                    -2.02865, -4.36829, 1.11601, 0.269979, 2.37508, -1.06138, 3.76728, 2.69928, 1.66033, -0.186818, 2.47068, -0.484649, -1.04738, -3.38168, 0.798942, -2.87579, 1.21467, -2.75206, -0.908937, -0.0810086, 1.23861, -1.74957, -2.99562, -2.9235, -0.612135, 0.958918, -2.55563, 0.835231, -0.0471577, 1.466, 0.964537, 1.19877, -0.766847, -1.86466, 0.316743, 0.759212, -2.18241, 1.48301, -2.98765, 0.977382, -2.19665, -2.65131, -1.00603, -3.02467, 3.67343, 3.52954, 1.26637, 0.448376, 0.747932, 1.87684, 1.32497, 4.5619, 3.88361, 0.135604, 0.0818798, -1.26843, 4.08268, -1.39073, -0.0304336, 1.55733, 1.0461, 0.760306, 3.73858, 1.72327,
                                                                                                    -1.21371, 3.8039, 0.68642, 0.45316, 1.31435, -0.663531, 0.593087, 0.467916, 0.509885, -0.917658, 0.776565, 0.225004, -0.511204, -1.59331, 0.525107, 1.23009, 0.0144225, -0.15044, 2.80803, 0.392554, 0.721105, 6.09474, -2.4641, 5.4133, -0.178036, 0.330405, -2.74946, 0.000919917, -0.0827559, 0.490803, 0.175787, 0.227304, -2.47171, 0.568173, 0.25326, 0.468571, 1.59674, 0.484851, -1.98504, -0.302417, 5.26022, 1.47367, -3.39989, 4.67567, 0.7677, 1.15455, -0.355722, 0.37956, 0.502671, 0.625875, 1.24848, -0.00980018, 0.759045, -0.417512, -0.658517, 0.581908, 0.533675, 3.49898, -0.427782, 0.103544, -0.373086, 0.213756, 1.37335, 0.667648,
                                                                                                    2.85346, 2.63761, -1.12891, -0.775354, -2.45411, 1.13025, -3.94341, -2.96401, -1.97281, 0.0448578, -2.93608, -0.0353466, 0.636037, 3.71552, -1.14738, 3.05875, -1.33264, 2.62818, 0.602798, 0.123429, -1.75906, 1.30538, 3.65853, 2.18926, 0.819562, -1.4533, 3.8635, -0.585252, -0.704216, -1.88285, -1.55965, -1.71501, 1.7256, 2.25384, -0.0206621, -1.03453, 1.47548, -1.66879, 3.8156, -0.81118, 1.45787, 2.57636, 2.37245, 2.2053, -4.08357, -3.81789, -1.35622, -0.738309, -1.35642, -1.67738, -1.49638, -4.61304, -4.27377, -0.625463, -0.859517, 1.52065, -4.31868, 1.49276, 0.265746, -1.43803, -1.23197, -0.639063, -4.02369, -1.52846,
                                                                                                    0.662499, -0.100453, -0.547628, -0.443159, -0.763198, 0.294984, -0.485485, -0.639736, -0.432214, 0.136582, -0.43156, 0.0934822, 0.414894, 0.120664, -0.407446, 0.223897, -0.0907372, 0.470268, 0.342912, -0.0143835, 0.352327, -0.166414, -0.436146, -0.184456, 0.319147, -0.0722934, 0.0765693, 0.187093, -0.0130944, -0.611165, -0.240023, -0.411529, 0.391911, 0.427371, 0.382503, -0.358709, 0.923538, 0.0697719, 0.718371, -0.313077, -0.46179, 0.116883, 0.506923, -0.330651, -0.484321, -0.490327, -0.304119, -0.35803, -0.535261, -0.689655, -0.487712, -0.614799, -0.79274, -0.2555, -0.74119, 0.152848, -0.840221, 0.559904, 0.561159, 0.238051, 0.199761, 0.299113, -0.548409, -0.599872,
                                                                                                    -0.0372681, -0.0288252, -0.109709, 0.39917, 0.50536, -0.0586072, -0.522411, -0.386742, 0.511305, -0.539526, -0.0688363, 0.948577, 0.551571, 0.58179, -0.533829, 0.721112, -0.362673, 0.521834, 0.397394, 0.0386883, -0.816064, 0.549956, 0.493758, 0.161577, -0.772186, 0.672776, 0.566874, -0.446009, 0.244961, -0.371679, -0.961685, -0.487157, 0.0307135, 0.739404, -0.898594, 0.107245, -0.41933, -0.896632, 0.780013, -0.167146, -0.0378356, 0.40175, 0.518152, 0.829501, -0.604424, -0.651109, -0.602482, -0.286571, 1.13178, 0.347591, 0.0214423, -0.757042, -0.396867, -1.11452, 0.104277, 0.060623, -0.467137, 0.029009, 0.46367, -0.454037, -1.43751, -0.657782, -0.481686, 0.337516,
                                                                                                    -0.404973, 0.362622, 1.12833, 0.45766, 0.159727, -0.542108, 0.207573, -0.107049, 0.492664, -0.482689, -0.133115, 0.35027, -0.179456, 0.413145, 0.0189885, 0.623242, -0.465673, -0.605365, 0.0103379, 0.319149, -0.779475, 0.252662, 0.199669, 0.540809, 0.0800284, -0.277755, -0.530641, -0.0552448, 0.150036, 0.612189, 0.272576, 0.438923, -0.152305, -0.168887, 0.0363964, 0.388881, -0.401334, 0.216473, -0.409313, -0.044609, 0.412434, 0.33198, -0.305337, 0.828696, -0.111121, 0.468829, -0.208661, 0.140108, 0.362054, 0.726119, 0.393402, 0.211594, 0.618115, 0.22801, 0.082308, -0.485736, 0.394264, 0.114722, -0.816665, 0.415495, -0.498072, -0.397087, -0.0455366, 0.920766,
                                                                                                    -0.0495795, 0.389187, 0.685183, -0.65769, -0.19983, 0.36427, 0.163403, -0.10845, 0.0132599, 0.495411, -0.139454, -0.014403, -0.106194, 0.026107, 0.107585, 0.0495228, -0.167067, 0.0858434, -0.02473, 0.556358, 0.864743, -0.0859208, -0.245591, 0.00305001, 1.08279, -0.694877, -0.194972, 0.486576, 0.337684, -0.453259, 0.780616, 0.429766, 0.076355, -0.0314738, -0.36403, -0.447843, 0.406466, 0.203738, -0.281805, -0.408299, 0.152826, 0.502385, -0.118143, -0.452806, 0.195123, 0.114995, 0.396615, 0.00843854, -0.568133, -0.101398, -0.0640025, 0.0789847, -0.33597, 0.729997, -0.0539396, 0.015542, 0.332221, 0.385253, -0.380485, -0.146593, 0.769427, 0.365621, -0.0412144, -0.133726,
                                                                                                    0.0831962, -0.0768972, -0.179464, 0.704198, 0.618657, 0.317668, -0.919218, -0.564363, 0.446882, -0.352016, -0.190258, 0.793526, 0.667926, 0.430179, -0.722122, 0.490799, -0.516946, 0.28844, 0.345595, -0.502174, -1.21656, 0.470805, 0.157958, -0.130683, -0.645492, 0.229091, 0.595118, -0.846662, 0.098514, -0.132222, -0.792437, -0.594628, 0.144781, 0.637108, -0.322043, 0.0670042, -0.0954829, -0.962292, 0.372566, -0.225794, -0.161496, 0.679705, 0.246092, 0.802458, -0.669679, -0.741372, -0.24119, 0.0514677, 0.986153, 0.990543, 0.0338647, -0.745306, -0.274927, -0.516779, 0.198778, -0.0631262, -0.592248, 0.0635029, 0.247852, -0.259015, -1.00148, -0.113157, -0.561925, 0.11246,
                                                                                                    0.315242, -0.18578, 0.457181, -0.195457, -0.767624, 0.108089, -0.429306, 0.305417, 0.317111, 0.412933, -0.484251, -0.431301, -0.298344, -0.024341, 0.449493, 0.0503918, -0.376545, -0.144593, 0.130336, 0.56296, 0.521243, -0.22504, -0.304669, -0.151385, 0.0831829, -0.411681, -0.278043, 0.0703982, -0.587515, 0.127103, 0.331887, 0.421577, 0.409864, 0.552751, 0.985468, 0.014647, 0.415587, 0.475958, 0.242178, 0.208738, -0.195845, -0.0364972, 0.0849999, -0.600775, -0.288455, -0.113399, 0.465705, 0.3258, -1.12333, -0.0973008, -0.44498, -0.151525, -0.256089, 1.00944, -0.255722, 0.214004, 0.157572, 0.177952, 0.0574189, 0.237334, 0.647229, -0.125003, -0.160781, -0.388991,
                                                                                                    -0.453531, 0.450019, 1.29355, 0.277494, 0.185861, -0.493697, -0.0627477, 0.152931, 0.433906, -0.565932, -0.182834, 0.448035, -0.134728, 0.354092, 0.104668, 0.481729, -0.544245, -0.43076, -0.00736163, -0.151309, -1.07468, 0.259172, 0.249345, 0.322208, -0.0746427, -0.527183, -0.319048, -0.416132, 0.210868, 0.483302, -0.0972017, 0.409962, -0.171447, -0.318841, -0.136143, 0.366589, -0.33297, -0.329648, -0.286611, 0.0120924, 0.380147, 0.30625, -0.371921, 0.744607, -0.0959549, 0.215278, -0.131737, 0.268649, 0.263423, 1.11594, 0.195391, 0.0269055, 0.517171, -0.0425483, 0.386467, -0.390781, 0.308757, 0.384663, -0.737499, 0.229054, -0.472061, -0.583859, -0.127061, 0.53278,
                                                                                                    -0.412411, 0.248109, -0.0935981, 0.0198472, 0.75232, -0.259369, 0.430512, 0.238896, 0.140204, -0.325127, 0.559213, 0.0922236, -0.010098, -0.414018, -0.55014, -0.00616875, 0.348942, -0.370627, -0.0818121, -0.423519, -0.0769801, -0.022735, -0.0792865, 0.348971, -0.389159, 0.60438, -0.24459, 0.246744, 0.208245, 0.0623627, -0.0969905, -0.24365, -0.448586, -0.131993, -0.904578, 0.240518, -0.880239, -0.639738, -0.329921, -0.262603, 0.398883, -0.470729, -0.386083, 0.455484, 0.571036, 0.413105, -0.0699779, -0.30664, 0.780459, -0.150995, 0.336989, 0.581164, 0.451777, -0.817768, -0.155632, -0.00140823, 0.325154, -0.425018, -0.34946, -0.183267, -0.0665507, -0.184319, 0.697308, 0.555509,
                                                                                                    0.180291, 0.15045, 0.144168, 0.260556, -0.0486225, -0.248456, -0.44216, -0.183502, -0.0388591, -0.0912654, -0.485317, -0.0355656, -0.117573, 0.110218, 0.213597, 0.607286, -0.116434, -0.350087, 0.598142, 1.06188, -0.313167, 0.171851, -0.195628, 0.158131, -0.407756, 0.355181, -0.171796, -0.203209, 0.104596, 0.177283, -0.798648, -0.238111, 0.0242414, 0.338168, 0.401049, 0.0965281, 0.219198, 0.0373633, 0.518466, 0.165155, -0.161784, -0.319226, 0.253601, 0.29672, -0.37388, -0.521428, -0.81663, -0.826104, 0.174891, 0.238954, -0.364163, -0.538464, -0.689516, -0.904682, -0.995119, -0.0527459, -0.569631, 0.555059, -0.0145217, 0.182827, -0.166472, 0.258546, -0.583887, 0.868662,
                                                                                                    0.581507, 0.264988, -1.42784, 0.635146, 0.378964, 0.101391, -0.258942, -0.665314, -1.01613, -0.992529, -0.432652, -0.555296, -0.369036, 0.827233, 0.14544, -0.366803, 0.462824, -0.0647378, -0.0234804, -0.683015, -0.667307, 0.304525, -0.056462, -0.127452, -0.189828, -0.286906, 0.635881, -0.385269, -0.297401, -0.450845, 0.543886, -0.744406, 0.375396, -0.637609, 0.743524, -0.226895, 0.177818, -0.376716, 0.587834, 1.62408, -0.0346617, 0.661481, 0.527716, 0.110959, -0.213758, -0.496542, -0.842686, -0.894745, -0.878074, 0.700865, 0.19489, -0.875664, -0.810188, -0.0249735, -0.241767, -0.587244, -1.0808, -0.379546, 0.725752, -0.0432533, 1.18545, 1.4483, -1.23908, 0.629432,
                                                                                                    -0.180964, 0.183032, 0.382439, -0.55123, 0.08678, -0.340364, 0.233975, 0.236453, 0.632078, -0.590211, 0.294526, -0.278008, -0.00957376, -0.245612, 0.622425, -0.146356, 0.430204, -0.00385334, 0.195501, -0.620822, -0.0136545, 0.218021, -0.467617, 0.708832, -0.0803026, 0.647609, -0.494868, 0.142073, 0.315872, -0.0440157, 0.839308, 0.119322, -0.593396, -0.667273, 0.182328, 0.688132, 0.105106, 0.231674, -0.662854, -0.0919317, 0.387674, 0.0307885, -0.615303, 0.30794, 0.160284, 0.287101, 1.11234, 0.900869, 0.366514, -0.346746, 0.149401, 0.249788, 0.227074, 0.294768, 0.268693, 0.394268, 0.337432, -0.200344, -0.39003, -0.256062, 0.268695, 0.0493801, 0.130244, -0.690657,
                                                                                                    -0.787111, -0.183352, 0.824618, 0.152145, -0.66799, -0.507969, 0.44987, 0.407767, 0.00565304, 0.0263947, -0.0132365, 0.32492, -0.633848, -0.225825, -0.326005, 0.25263, -0.104645, -0.121969, 0.0789435, 1.13823, -0.395064, 0.153118, -0.111748, -0.136529, 0.610423, -0.294879, -0.286621, 0.140278, -0.539587, 0.483757, 0.130311, 0.200971, -0.0701718, 0.139348, 0.0967489, 0.64231, -0.666027, 0.51178, -0.375025, -1.53933, 0.116663, 0.0215391, -0.020929, 0.586531, -0.168022, 0.0773289, -0.776107, 0.424615, 0.274735, -0.440143, -0.499651, 0.0505419, 0.668591, 0.00509571, -0.202417, 0.137145, -0.259093, 0.181054, -0.595372, 0.420189, 0.496152, -0.85649, -0.177946, 0.0570312,
                                                                                                    0.74489, -0.102764, -1.42096, -0.0236102, -0.203873, 0.435572, -0.498405, -0.740536, -0.662538, -0.482917, -0.494849, -0.201164, 0.077723, 0.750261, 0.290632, -0.112535, -0.0270908, 0.467295, 0.106812, -1.24657, -0.574871, 0.228869, 0.359167, -0.22122, -0.0539744, -0.386485, 0.846263, -0.780621, -0.696981, -0.41144, 0.130548, -0.807892, 0.545001, 0.078001, 0.846778, -0.670282, 0.818918, -0.501936, 0.590939, 1.48141, -0.434163, 0.586745, 0.909594, -0.112737, -0.378698, -0.48476, -0.292405, -0.456714, -0.94197, 0.346188, -0.189049, -0.981118, -0.927989, -0.029624, 0.280148, 0.0972057, -0.930103, 0.0884165, 0.915507, 0.134052, 0.583488, 0.703835, -0.990963, 0.203721,
                                                                                                    0.360099, -0.158563, 1.04352, -0.328193, -0.142428, -0.0211064, -0.531031, 0.168634, 0.264106, 0.0799172, 0.414743, -1.0804, 0.381056, 0.126345, -0.0636027, 0.138912, 0.452415, 0.212495, 0.253202, 0.707663, 0.00343827, -0.0584186, 0.319542, 0.350727, -0.268869, 0.523184, -0.00513459, -0.332023, 0.47677, 0.501764, -0.34076, 0.562019, 0.176227, 0.440001, -0.506585, 0.727368, -0.0475229, 0.0460825, 0.258254, -0.888134, 0.0533996, -0.156847, 0.0815919, -0.121554, -0.337399, -0.155879, 0.471723, -0.04877, 0.548806, -0.985205, -0.276794, -0.239639, -0.134839, -0.179252, 0.368726, 0.142626, -0.0380839, 0.274374, -0.365285, -0.11948, -0.529439, -0.823278, 0.101777, -0.54087,
                                                                                                    -0.0463684, 0.255477, 0.197655, -0.631207, 0.0898471, 0.0340801, 0.317144, 0.213167, 0.53231, -0.698296, 0.154576, -0.327969, -0.456144, -0.248618, 0.611005, -0.00175834, 0.336028, 0.0785766, 0.186018, -0.716457, 0.103555, 0.36521, -0.430012, 0.709982, 0.262658, 0.522869, -0.417053, 0.354335, 0.397234, -0.416497, 1.01866, 0.390076, -0.500753, -0.428664, 0.401501, 0.592049, 0.0449451, 0.185378, -0.608903, 0.00718697, 0.415569, 0.25165, -0.664409, 0.307083, -0.067964, 0.343649, 1.28564, 0.647868, 0.27373, -0.20869, 0.0912692, 0.196828, 0.335391, 0.464972, 0.386896, 0.215211, 0.197682, -0.184176, -0.221055, -0.41728, 0.292629, 0.277303, -0.15134, -0.667456,
                                                                                                    -0.58055, 0.0904498, -0.863553, 0.212034, 0.239586, -0.011695, 0.498746, -0.0123983, -0.296332, -0.235127, -0.185203, 0.487843, -0.398841, -0.366559, 0.0394022, -0.492143, -0.380308, -0.5781, -0.180506, -0.396042, 0.0508158, -0.0663746, -0.252731, -0.0443049, 0.271559, -0.4726, -0.189998, 0.312947, -0.207737, 0.0217564, 0.1186, -0.374854, -0.20766, -0.0677486, 0.0408746, -0.207754, -0.578316, -0.305636, -0.198599, 0.665849, 0.191857, -0.0493463, -0.167757, 0.0233818, 0.515827, 0.498094, -0.187076, 0.121914, -0.456583, 0.65113, 0.369351, 0.327257, 0.549622, 0.120613, -0.410527, -0.501025, 0.239459, 0.232567, 0.019527, -0.0667524, 0.2217, 0.575115, 0.42261, 0.314567,
                                                                                                    0.200766, 0.264179, -0.369024, 0.114248, -0.227827, -0.119559, -0.323036, -0.377543, -0.161182, -0.560913, -0.312426, 0.0766865, 0.162548, 0.16886, -0.414095, 0.143267, 0.0609799, -0.0526028, 0.738016, -0.0213105, -0.0118553, -0.192346, -0.444947, 0.113633, -0.113359, 0.29172, -0.0410373, -0.640128, 0.533699, -0.359253, -0.45068, -1.05715, 0.291641, 0.481755, 0.23861, 0.728805, -0.190239, -0.354456, 0.346509, -0.584531, -0.109395, 0.399368, 0.178515, 0.130195, 0.112971, -0.146165, -0.216734, -0.625788, -0.108979, -0.671195, 0.198074, -0.765496, -0.178831, -0.570699, -0.332516, 0.178584, -0.53621, 0.294477, 0.14208, -0.564996, 0.25082, -0.0519732, -0.395157, 0.301366,
                                                                                                    0.371567, 0.395812, -0.0538089, -0.222835, -0.875037, 0.0305462, -0.537218, -0.215235, -0.174247, 0.740716, 0.14359, -0.408952, -0.745729, 0.228255, 0.665236, 0.496472, 0.25859, 0.411902, 0.0589592, -0.725048, -0.585412, 0.245997, -0.0136985, 0.394873, -0.700131, -0.589119, 0.402468, -0.562015, -0.180133, 0.744723, -0.13493, 0.502589, -0.222477, 0.279912, -0.748409, -0.199373, 0.66535, -0.0177536, 0.252557, 0.271933, 0.286045, 0.6238, 0.309563, 0.230662, -0.884751, -0.3707, 0.649346, -0.27296, 0.356245, 1.93949, -0.164194, -0.737614, -0.742001, -1.05966, 0.165291, 0.886223, -0.54666, -0.10899, 0.366343, 0.291286, 0.588899, -0.711387, -0.0920027, -0.0312618,
                                                                                                    -0.129518, 0.568624, 0.221768, 0.110909, 0.211278, -0.105048, 0.0968346, 0.174876, -0.193827, -0.426026, -0.42618, 0.442548, -0.203367, -0.141148, 0.469998, 0.410277, 0.164081, 0.142488, 0.190642, 0.516334, 0.213047, 0.320151, -0.379286, 0.642914, 0.264697, -0.115713, -0.633077, 0.0522141, 0.258731, -0.166314, 0.285901, 0.43371, -0.781119, -0.303521, -0.264986, -0.539587, 0.36658, 0.626326, -0.462358, 0.0879489, 0.695357, 0.445772, -0.701003, 0.600392, -0.133078, 0.339058, -0.709846, 0.485003, -0.255193, 0.668313, 0.35471, 0.328032, -0.248275, -0.103187, -0.151152, -0.32841, 0.36805, 0.6859, -0.423359, 0.412596, -0.62697, 0.0520708, 0.279556, -0.746193,
                                                                                                    -0.886678, -0.117224, 0.274738, 0.042842, -0.0416307, 0.531812, 0.555873, -0.377635, -0.428139, 0.0186357, -0.215719, 0.750105, 0.402653, -0.172719, -0.509379, -0.100314, -0.224457, 0.0893534, -0.00891375, 0.0626471, -0.25947, -0.0737936, -0.270919, -0.303436, -0.378645, 0.15439, -0.0042406, -0.108832, 0.877037, 0.179514, 0.194672, -0.444263, 0.156497, 0.323234, -0.0165641, 0.51761, -0.107129, 0.390195, 0.0462056, 0.227994, -0.0203946, -0.147039, 0.193721, 0.261838, -0.0414375, -0.0215803, -0.710795, 0.329994, -0.406611, -0.487686, 0.121775, -0.00698228, 0.180769, 0.241683, 0.644671, 0.0716296, -0.456506, 0.767066, -0.132998, -0.0164689, 0.481127, 0.414513, -0.289131, -0.061111,
                                                                                                    0.538056, 0.189351, -0.727985, -0.168463, -0.428888, 0.223317, -0.510099, 0.265812, 0.194844, 0.412061, -0.0609776, -0.785662, -0.58123, 0.399957, 1.26561, 0.373603, -0.130859, 0.214426, 0.157816, -0.865694, -0.521356, 0.125773, -0.0737673, 0.315772, -0.362495, -0.45157, 0.379186, -0.163393, -0.0635894, 0.501386, -0.134433, -0.00686982, -0.198695, 0.0351774, 0.154078, 0.0380356, 0.777619, -0.129512, 0.0706381, 0.0810578, -0.00519494, 1.03161, 0.206045, -0.160528, -0.806516, -0.393979, 0.551298, -0.0827028, 0.39624, 1.6347, -0.370448, -0.554133, -0.747024, -0.619764, -0.162216, 0.912078, -0.549748, -0.162339, 0.182045, 0.427306, 0.409554, -0.840445, -0.23904, 0.0925023,
                                                                                                    -0.397983, 0.00315487, 0.0442176, -0.266677, 0.754035, 0.0239993, 0.0968595, -0.081028, -0.419663, -0.557876, -0.574874, 0.650151, 0.151281, -0.0553864, 0.436003, -0.105546, -0.23779, -0.065588, 0.465435, 0.975623, 0.995617, -0.272545, -0.39907, 0.163949, 0.620037, 1.00808, -0.5998, 0.0216808, 0.251716, -0.865937, 0.0700251, -0.0154359, -0.392737, 0.603149, -0.0595917, -0.7445, -0.179154, 0.571106, -0.16938, 0.453724, 0.0612863, -0.216407, -0.197686, -0.00673649, 0.0801398, 0.250736, -1.0604, -0.156061, -0.254013, -0.915023, 0.84577, 0.143787, -0.227798, 0.390474, -0.455083, -0.608801, 0.185695, 0.548414, -0.0619574, -0.490991, -0.712626, 0.677227, 0.0645484, -0.729598,
                                                                                                    -0.0543022, 0.483848, 0.587492, 0.0545149, 0.313055, 0.062429, 0.32107, 0.17568, -0.154672, -0.42825, -0.0419195, 0.120238, -0.38771, -0.186061, 0.639626, 0.497624, 0.0948987, 0.149293, 0.0652043, 0.113803, 0.194624, 0.22701, -0.356127, 0.595373, 0.400804, -0.54486, -0.428592, -0.12328, 0.296381, -0.118736, 0.567613, 0.428937, -0.966787, -0.260073, -0.331192, -0.497061, 0.484539, 0.630537, -0.40259, 0.134066, 0.558767, 0.358117, -0.734718, 0.552452, -0.237502, 0.194752, -0.472375, 0.767155, -0.237149, 0.884236, 0.365687, 0.335496, -0.167162, 0.161673, -0.0193532, -0.1988, 0.357897, 0.608203, -0.191666, 0.202838, -0.537174, 0.260147, 0.368207, -0.58179,
                                                                                                    0.219998, 0.211346, -0.135226, -0.181673, 0.0434669, -0.301841, 0.0818013, 0.152748, 0.356695, 0.0952624, 0.00494592, -0.472838, -0.20796, -0.102951, -0.311762, -0.106927, -0.430016, -0.376863, -0.632539, -0.866318, -0.579061, 0.224944, 0.185937, 0.151015, -0.362332, -1.10197, 0.293034, -0.133279, -0.308744, 0.22737, 0.10455, -0.285034, 0.105473, -0.274941, -0.312263, 0.519977, -0.185211, -0.185771, -0.0436721, -0.257767, 0.330098, 0.0944179, -0.0622412, 0.311232, 0.321174, 0.321653, 0.454014, -0.226459, -0.259834, 0.499015, -0.775974, 0.443707, 0.773836, -0.164787, 0.185975, 0.516437, 0.142636, -0.773429, -0.0857208, 0.268161, 0.160629, -0.437373, 0.363561, 0.37478,
                                                                                                    0.0663151, 0.450684, 0.263425, -0.533634, -0.187775, 0.47671, -0.0323445, 0.0672583, -0.304777, -0.491171, -0.257726, 0.0751738, -0.123901, 0.127794, 0.19312, 0.239159, -0.32868, 0.169371, 0.718284, 0.461342, 0.10716, 0.364501, -0.562327, 0.323072, 0.25733, 0.0774135, -0.442431, -0.854542, 1.28835, -0.10206, -0.486526, 0.302614, -0.272847, 0.174889, 0.113161, -0.349681, 0.748792, 0.374709, 0.327539, 0.575677, 0.340213, 0.272579, -0.237831, 0.539536, -0.100466, -0.186528, -0.352661, 0.217522, 0.0442491, 0.190034, 0.452376, -0.572362, -0.104562, -0.0395446, -0.707836, -0.415051, -0.261244, 0.890418, -0.343283, -0.424813, -0.397976, 0.0306956, -0.464216, -0.0279473,
                                                                                                    0.372866, 0.690321, -0.613838, 0.777986, 0.0100169, -0.502428, -0.33167, 0.177872, -0.334843, 0.0492442, 0.283521, 0.485025, -0.0853036, 0.120485, 0.752095, 0.0510987, -0.713313, -0.129685, 0.470805, -0.71609, -0.756448, 0.295802, -0.589654, 0.598992, 0.0961377, 0.00379355, -0.306699, -0.786766, -1.42475, -0.773047, -0.070226, -0.75985, -0.400568, 0.124452, 1.59013, 0.0449723, 0.192092, 0.164643, -0.0119745, -0.376528, 0.249097, -0.0291373, -0.394581, 0.572203, -0.57015, -0.0557825, 0.0166946, -0.0316331, 0.485938, -0.792351, 0.0872711, -0.39373, -0.041479, -0.13974, -1.01901, 0.477772, 0.0560954, 0.360465, -0.663626, -0.469082, -0.0627375, -0.810259, -0.0616473, -0.474875,
                                                                                                    0.207397, -0.239982, 0.661464, -0.175243, -0.130126, 0.33358, -0.0499868, -0.235162, 0.328525, -0.434414, 0.379335, -0.454246, 0.446621, 0.206768, -0.169383, 0.0508613, 0.469083, -0.122362, -0.499364, -0.00519839, -0.0766184, -0.401726, 0.0515708, -0.393882, 0.530136, 0.0282346, 0.0152171, 1.05664, -1.25693, 0.196048, 0.625, -0.86006, 0.0716348, 0.134616, 0.057787, 0.30272, -0.637135, 0.259894, 0.0108578, -0.655107, -0.591678, 0.156091, 0.0992485, -0.710102, -0.183571, 0.177384, 0.282851, 0.305896, 0.262249, 0.572132, -0.378589, 0.211328, -0.124296, -0.203142, 0.163527, 0.381315, 0.38655, -0.459512, 0.123127, 0.196295, 1.11537, 0.159073, -0.0264089, 0.707329,
                                                                                                    -0.577099, 0.0662965, -0.111214, -0.50234, -0.204677, 0.367839, 0.230365, -0.233985, -0.748568, 0.529229, -0.579403, 0.25099, 0.0706839, 0.217701, 0.00929499, -0.325503, 0.0332025, 0.412234, -0.457856, 0.256302, 0.00383529, -0.054448, -0.35899, 0.13475, 0.798095, -0.647229, -0.0846613, 0.109511, 0.352726, 0.202962, 0.288639, 0.512151, 0.164803, -0.129642, -0.114597, 0.680177, 0.350817, 0.482544, -0.130398, 0.249939, 0.0126862, 0.573856, 0.0628899, 0.172126, 0.256349, 0.0523226, 0.278447, 0.147897, -0.57483, -0.28346, -0.628608, -0.0174463, -0.0876573, 0.126581, 0.586623, 0.130099, 0.0137419, 0.086755, -0.379704, 0.251627, -0.205547, 0.684461, -0.21092, 0.227297,
                                                                                                    0.493146, 0.0229013, -0.412663, 0.97338, 0.366239, -0.338924, -0.443668, 0.383948, -0.00644691, 0.0034179, 0.568461, 0.117899, -0.16054, 0.00584894, 1.33032, 0.150789, -0.625571, -0.0885118, 0.344139, -0.591042, -0.51572, 0.0663092, -0.423688, 0.359665, 0.179553, 0.742697, -0.147824, -0.766838, -1.68199, -0.654063, 0.13443, -0.667802, -0.329841, 0.0413264, 1.02702, 0.371006, -0.180127, 0.299857, 0.191713, -0.032407, -0.0850883, -0.439757, -0.052523, 0.0434637, -0.521922, 0.11137, 0.318036, 0.116229, 0.911305, -0.267363, 0.0392276, -0.278387, -0.230147, -0.35771, -1.08752, 0.446466, -0.210993, 0.438849, -0.267552, 0.0161887, -0.00515869, -0.722184, -0.00192098, -0.0272858,
                                                                                                    0.606307, -0.0473972, 0.606431, -0.913891, -0.33168, 0.8707, 0.0362515, -0.439457, 0.0666983, -0.613484, -0.00851095, -0.423032, 0.214501, 0.569946, -0.385053, 0.123555, 0.439993, 0.194584, -0.538439, 0.500635, -0.105915, -0.269591, 0.765711, -0.0252809, 0.503809, -0.77626, 0.067623, 0.525756, 0.354654, 0.913607, -0.0794095, 0.215133, 0.51028, 0.0253775, -0.573315, 0.106777, 0.301362, -0.221675, -0.136016, 0.15966, -0.0636345, 0.523625, -0.12982, 0.113229, -0.0173356, -0.34558, -0.147626, 0.205463, -0.22088, 0.767231, -0.592363, 0.025852, -0.203501, -0.0190747, 0.161309, 0.0430456, -0.290037, -0.917458, 0.192385, -0.267894, -0.0125811, 0.267749, -0.319489, 0.19824,
                                                                                                    0.0533431, -0.147806, 0.49423, -0.197099, -0.356748, 0.247886, -0.161911, -0.0145763, 0.52991, -0.309273, 0.363239, -0.29734, 0.474043, 0.0626233, -0.276772, -0.0245014, 0.546151, -0.0588064, -0.478483, -0.130532, -0.1483, -0.36371, 0.143291, -0.285139, 0.481285, 0.0652742, 0.135182, 0.892159, -1.55, 0.292516, 0.363232, -0.755682, 0.144454, 0.216691, -0.0967244, 0.344675, -0.674316, 0.210138, 0.218021, -0.640032, -0.408194, 0.23668, 0.0292025, -0.632407, -0.0112948, 0.0544744, 0.228432, 0.250552, 0.446607, 0.513505, -0.399331, 0.259481, -0.266204, -0.240447, 0.0697551, 0.490694, 0.30152, -0.506497, 0.20461, 0.183382, 0.946813, -0.129037, -0.145301, 0.475001,
                                                                                                    -0.468212, 0.0314796, -0.83213, 0.590088, 0.287138, -0.797711, 0.132449, 0.0873379, 0.260911, 0.202733, -0.145124, -0.0327807, -0.299907, -0.555779, -0.32526, -0.0996196, -0.0759945, -0.457377, 0.47647, -0.360193, -0.246625, 0.00960986, -0.416143, 0.0490207, -0.664716, 0.0998689, -0.127996, -0.202678, -0.253519, -0.732451, -0.144812, -0.398971, -0.434538, -0.283531, 0.304518, -0.314562, -0.501687, -0.0233682, -0.121934, -0.176671, 0.39668, -0.632499, -0.219113, -0.16455, 0.138143, 0.238144, -0.0345098, -0.122219, -0.447424, -0.399858, 0.060425, 0.245563, 0.249569, -0.327736, -0.574151, -0.36745, 0.316524, 0.870928, -0.384015, 0.177425, 0.26321, -0.304584, 0.661332, -0.356836,
                                                                                                    -0.130203, 0.29269, 0.366477, -0.392713, 0.0946075, -0.182291, 0.0874534, -0.0245408, -0.114674, -1.03624, -0.2034, -0.348361, -0.25745, 0.266857, -0.139731, 0.576991, -0.518541, -0.0862511, 0.576524, -0.271209, -0.807051, -0.0757636, -0.477993, 0.277121, 0.799657, -0.270104, -0.246745, -0.451845, -0.65451, -0.312902, 0.0924306, -0.0157742, -0.180092, 0.0364165, 0.947782, 0.138076, 0.330461, -0.189393, -0.180183, -0.00615874, 0.184741, 0.199039, -0.0468406, 0.415567, -0.329279, -0.2136, -0.585431, 0.242278, -0.364458, 0.436794, 0.171998, -0.356337, 0.0241807, 0.0222892, -0.763892, 0.0090146, -0.152237, 0.602226, -0.144273, -0.297491, 0.440934, 0.0830433, -0.0780981, 0.42208,
                                                                                                    0.428927, 0.770758, 0.207724, -0.205561, -0.306159, 0.0460255, -0.598586, -0.198316, 0.0369514, -0.269305, -0.349745, -0.58225, 0.22239, -0.095902, 1.152, 0.416331, -1.10946, 0.0881332, 0.159734, 0.231134, 0.98807, -0.149215, 0.290774, 0.844489, 0.0326324, 0.920859, 0.0700658, 0.67522, -0.574205, -0.0400086, -1.02771, 0.545548, -0.233327, 0.656323, -1.9874, -0.612345, 0.181325, -0.00588128, 0.112858, 0.269302, 0.392061, 0.0907103, -0.377143, 0.814763, -0.665424, 0.203924, 1.55404, -0.85993, 0.0707635, -0.00443786, 0.642378, -0.17838, -0.213452, -1.61489, 0.028501, 0.428963, -0.417324, 0.906756, -0.217011, -0.0695809, -1.30994, -0.516008, -0.0103308, 0.202277,
                                                                                                    -0.0341885, 0.00290079, -0.445844, 0.539037, -0.118454, 0.385963, 0.053127, 0.423877, 0.488284, 1.16403, -0.0930286, 0.147729, -0.774648, -0.204813, 0.227046, 0.13419, 0.379037, 0.14567, -0.13106, 0.108687, 0.50649, -0.195995, -0.105563, -0.150829, -0.572478, 0.0935387, -0.0502145, 0.801824, 0.798247, 0.703583, -0.0298548, 0.26359, 0.241175, 0.388957, -0.663317, 0.0578073, 0.240331, 0.512869, 0.168238, -0.144773, -0.302913, 0.158734, 0.0629894, 0.0231016, 0.0625515, 0.0897607, -0.181952, -0.277036, 0.409462, -0.584388, -0.540902, 0.249569, -0.0252912, 0.362218, 0.185238, 0.143856, -0.12079, 0.00288821, 0.0409064, -0.182829, 0.0945825, -0.0387192, 0.121048, -0.396876,
                                                                                                    -0.240853, -0.187667, -0.183807, -0.182627, -0.275032, -0.419249, 0.613259, -0.0298997, -0.0014855, 0.394198, 0.0778342, -0.137415, -0.0299922, 0.194914, -0.179743, 0.871059, -0.262124, -0.0217125, -0.507873, 0.189129, -0.547927, -0.215379, -0.688384, -0.0783544, 0.690503, -0.293659, -0.300697, 0.215693, -0.246088, -0.293017, 0.85853, -0.369132, -0.294586, 0.171053, -0.327364, 0.200151, 0.500469, -0.0209327, -0.00506496, -0.632402, 0.0478483, -0.710613, 0.0805065, -0.232066, 0.222418, -0.208664, 0.0666447, -0.0404363, -0.0438038, -0.358439, -0.723949, 0.0928145, 0.00665736, 0.594753, -0.239478, 0.0643309, 0.0358399, 0.816272, -0.0316635, -0.289338, 0.213689, 0.255017, -0.143299, 0.467588,
                                                                                                    0.246394, 0.402203, -0.339167, -0.040564, -0.0187051, 0.244146, -0.577909, -0.230849, 0.569286, -0.426318, 0.0153457, -0.59001, -0.209568, -0.24179, 1.06201, 0.0618935, -0.813255, 0.199491, 0.408885, 0.273959, 1.10824, 0.168202, 0.0480845, 0.303711, -0.865335, 0.883242, -0.0700838, 0.689448, -0.165266, 0.300818, -0.792686, -0.028081, -0.245452, 0.523103, -1.19656, -0.225339, 0.299375, -0.0626916, 0.214291, 1.03977, -0.196867, -0.114926, 0.14451, 0.263266, -0.591733, 0.263263, 1.42909, -0.471699, 0.0973322, 0.390131, 0.669017, 0.0308293, -0.117003, -1.03512, -0.0728924, -0.0946028, -0.253033, 0.252488, -0.114597, 0.264957, -0.883154, -0.450787, 0.398142, 0.11765,
                                                                                                    0.383264, -0.196294, -0.384354, 0.245451, 0.174276, 0.506084, 0.389659, -0.00521111, 0.0551012, 0.0848346, -0.0567245, 0.798368, -0.429843, 0.143743, -1.72384, 0.268755, 0.33756, -0.221624, 0.0787031, -0.38395, -1.37146, 0.0961749, -0.0319247, 0.139646, 0.119194, -0.681527, -0.361351, -0.884254, -0.0827141, 0.999299, -0.0268066, -0.0649839, 0.274773, -0.967007, 1.47692, 0.111054, -0.369117, -0.301211, -0.0886249, -1.07418, -0.144838, -0.181857, -0.103121, 0.328421, 0.109765, -0.294258, -1.34205, 0.284378, -0.124154, -0.117579, -1.14161, 0.0295958, 0.365908, 1.31408, 0.150599, 0.363015, 0.13685, -0.176711, 0.586824, -0.95796, 1.28386, 0.0188983, -0.108755, 0.0310742,
                                                                                                    0.153044, -0.0272373, -0.299266, 0.102592, -0.206977, 0.509152, -0.290838, 0.21567, 0.696141, 1.22262, -0.310368, 0.355726, -0.79875, -0.0623966, 0.290769, 0.100111, 0.459963, 0.398809, -0.231011, 0.127279, 0.592975, -0.250183, 0.155061, -0.282944, -0.750802, 0.154733, -0.0511364, 0.589428, 0.493725, 0.569823, -0.286101, 0.135254, 0.14716, 0.423835, -0.937971, -0.243513, 0.0357346, 0.595832, 0.0721943, 0.109402, -0.248359, 0.222069, -0.0993574, 0.00526186, -0.175882, 0.0512647, 0.0274434, -0.406241, 0.635795, -0.545002, -0.477704, 0.231551, 0.0614799, 0.208182, 0.218398, 0.0407136, 0.00599101, 0.0586872, 0.337189, -0.18595, -0.225571, 0.0255354, 0.124816, -0.570932,
                                                                                                    -0.325455, 0.19059, -0.0588597, 0.00868011, -0.199853, -0.487424, -0.0975787, 0.306044, 0.100039, -0.129492, -0.0303096, -0.480757, 0.0924065, 0.0644946, 0.698847, -0.764572, -0.0215845, -0.0234363, 0.0248318, 0.319278, 0.861239, 0.181234, 0.10534, 0.368869, -0.320903, -0.0559596, 0.251013, 0.63936, -0.000939925, -0.575788, -0.242206, -0.0168545, -0.273326, -0.0704378, -1.30155, -0.295905, 0.270286, 0.277, 0.0271027, 0.221119, 0.300005, 0.12334, 0.0428298, -0.138554, -0.00950368, 0.488088, 1.04409, -0.216218, -0.237241, -0.464637, 0.748577, 0.279951, 0.117337, -0.99962, 0.0468596, -0.0259161, 0.207621, 0.26219, -0.48054, 0.447287, -0.581943, -0.209116, 0.281754, -0.156525,
                                                                                                    -0.296472, 0.587783, -0.22297, -0.0937686, -0.224473, 0.433338, -0.0613548, -0.323747, -0.0600411, -0.160293, -0.549709, 0.0634857, -0.329256, -0.156248, -0.125933, 1.1541, -0.229087, 0.0115297, 0.85688, -0.12899, -0.442772, 0.273813, -0.599916, 0.448806, 0.668603, -0.270321, -0.286303, -0.03641, -0.430419, -0.174754, -0.317517, -0.676956, -0.130506, 0.311987, 0.8067, 0.0660619, 0.0627211, -0.468098, 0.0837639, -0.922022, 0.388801, 0.139533, -0.254426, 0.546046, -0.391773, -0.00961051, -0.458465, -0.067078, -0.145168, -0.71656, -0.390539, -0.172487, -0.299899, -1.23738, 0.0900111, 0.506439, -0.18084, 0.605243, -0.251752, -0.33339, -0.358452, 0.278017, -0.436388, -0.0947544,
                                                                                                    0.631571, 0.623988, -0.400119, -0.363411, -0.222449, 0.0790432, -0.227235, 0.47314, 0.252394, -0.844917, -0.808613, -0.49703, 0.0427201, 0.514987, -0.0847261, -0.134993, 0.873746, 0.17084, -0.256883, -0.49018, 0.690707, -0.0329048, 0.14421, 0.602918, -0.543669, 0.202221, -0.0195609, -0.659519, -0.197766, -0.908034, 0.0183161, -0.910012, 0.084047, -0.132106, 0.024392, -0.00403625, -0.424039, -0.458802, -0.127308, 0.201502, 0.345453, 0.84648, -0.188445, 0.20306, -0.245316, -0.0515585, 0.478781, -0.308459, 0.697714, -0.210425, 0.0599434, -0.127465, -0.623347, 0.718784, -1.2447, -0.0465362, -0.130368, 0.000215026, 1.01485, -0.584449, 0.0119402, -0.876956, -0.0243532, 0.798837,
                                                                                                    0.29079, 0.048782, -0.17299, 0.212888, 0.612218, -0.223799, -0.131541, -0.647653, 0.225185, -0.674721, 0.296401, 0.635238, 0.0751833, 0.075312, -0.545736, 0.0360613, -0.420932, 0.547013, -0.576053, -0.33211, -0.546084, -0.0985499, 0.0635617, -0.0915099, -0.186534, 0.0829969, -0.000529148, -0.426432, -0.00811411, 0.122746, 0.876932, 0.0174511, -0.377875, -0.20305, 0.0529978, 0.276919, -0.350865, 0.35454, 0.391894, 0.355125, -0.24422, 0.213034, -0.0065606, 0.320287, 0.0491653, -0.0902853, -0.22408, -0.834601, -0.215892, 0.258977, 0.0613935, -0.666534, 0.00636757, 0.22512, -0.0909054, -0.0590579, -0.0231061, 0.0934577, 0.0853444, 0.809742, -0.46793, -0.0660409, -0.293368, -0.718245,
                                                                                                    -0.182568, 0.00344277, 0.741708, 0.142738, 0.215464, -0.0761035, 0.492944, 0.0577947, -0.561963, 0.0388664, -0.0434829, -0.0365904, -0.520892, -0.209914, -0.220937, -0.16401, -0.0350168, 0.213255, -0.194963, 0.029383, -0.064017, 0.123818, -0.379686, 0.0799846, 0.377758, -1.04147, -0.121153, 0.108715, 0.234539, -0.0165442, 0.11481, -0.444828, -0.339051, 0.16109, 0.0691506, -0.078362, 0.0744739, -0.043403, -0.140198, -0.258822, -0.142547, -0.217709, 0.165786, 0.52406, 0.0488992, 0.019338, 0.277516, 0.334585, 0.0419446, -0.562991, 0.306158, -0.124063, 0.0746623, 0.477686, 0.75139, 0.0932556, -0.349999, 0.743298, -0.625963, 0.148234, 0.344361, 0.559344, -0.148325, -0.462406,
                                                                                                    0.840005, 0.174781, -0.191417, 0.170949, -0.273322, 0.128184, -0.605346, 0.631713, 0.392778, -0.926755, -0.582227, -0.189725, -0.304829, 0.589549, 0.00131164, 0.275317, 0.790611, -0.0391237, 0.0551777, -0.542876, 0.643226, -0.0528037, 0.297763, 0.348479, -0.709006, 0.648661, 0.0273071, -0.352401, -0.0279432, -0.270542, -0.0527987, -0.487698, -0.0251323, -0.160725, 0.137198, -0.0925497, -0.550268, -0.204827, 0.0998264, 0.543995, 0.0967425, 0.906161, 0.0194388, 0.111243, -0.12802, -0.285908, 0.638095, 0.136243, 1.22679, 0.0588254, 0.170034, -0.441151, -0.642498, 0.619797, -1.03451, -0.3077, -0.116693, -0.248714, 0.807134, -0.598838, -0.292594, -0.899879, -0.033591, 0.507244,
                                                                                                    -0.348848, -0.189571, 0.0462029, 0.119495, -0.0650186, -0.246276, -0.355524, -0.779158, -0.236163, 0.0476281, 0.243998, 0.941236, -0.061922, -0.320631, 0.387256, 0.466875, -0.781122, 0.285855, 0.0722384, 0.145978, -0.562955, -0.0444282, 0.134625, -0.190867, 1.38237, -0.327896, -0.181632, 0.414461, -0.604574, 0.261112, -0.219817, 0.376844, -0.081113, 0.601993, 0.633819, 0.757571, 0.544646, 0.0851482, 0.345405, 0.0510582, -0.0591905, -0.336701, 0.231325, 0.262428, -0.347726, -0.116346, -0.202282, 0.0291572, -1.31526, -0.226339, -0.395911, -0.331668, 0.0612854, -0.529528, 1.08146, -0.00282989, -0.175091, 0.669533, 0.0536799, 0.415712, -0.52288, 0.216517, -0.449204, -0.989364,
                                                                                                    0.220627, -0.0431439, -0.343871, 0.264772, 0.632134, 0.178656, -0.239291, -0.618979, 0.140757, -0.669219, 0.216309, 0.770203, 0.220591, 0.282952, -0.310302, -0.0320258, -0.336029, 0.297033, -0.518047, -0.419125, -0.254886, -0.109117, 0.148769, -0.137646, -0.225776, -0.0835489, 0.0254159, -0.314854, 0.0884269, 0.251548, 0.65195, 0.0174528, -0.196893, -0.373246, -0.107815, 0.450808, -0.196988, 0.484507, 0.208356, 0.60357, -0.327025, 0.237922, 0.058447, 0.365282, 0.246392, -0.11556, 0.00225961, -1.01478, -0.160699, 0.216031, -0.0470756, -0.505106, 0.207189, 0.68885, -0.287466, 0.139831, 0.0712916, 0.245566, 0.0829931, 0.437137, -0.482174, -0.127547, -0.172116, -0.73952,
                                                                                                    0.23539, 0.250031, -0.136567, -0.569802, 0.0803112, 0.155534, -0.138132, 0.327873, 0.250781, -0.0617928, -0.0864377, -0.669364, -0.0545856, 0.118926, 0.144096, -0.532597, 0.4103, -0.396459, -0.161114, -0.506795, 0.639652, 0.188178, -0.112569, 0.0733816, -0.480928, 0.0335773, 0.272791, -0.635681, 0.505916, -0.0694625, 0.064803, -0.611334, 0.0831563, -0.89798, -0.573877, -0.815073, -0.263251, -0.204507, -0.16537, 0.19148, 0.0605154, 0.085808, -0.0770594, -0.410111, 0.293154, 0.170793, 0.291709, -0.0977774, 0.912472, -0.1689, 0.0502525, 0.513914, 0.0622272, 0.206554, -0.380041, 0.0548898, 0.308136, -0.903391, -0.166781, -0.611045, 0.0100295, -0.591858, 0.503708, 0.411995,
                                                                                                    0.0970986, 0.613417, 0.500149, 0.634226, -0.191658, 0.333548, -0.272262, -0.227708, -0.107039, -0.0890435, -0.693727, 0.402935, -0.237085, 0.177436, 0.0794577, 0.959304, 0.364614, 0.263118, 0.258964, -0.258279, -0.0526119, 0.27908, -0.599268, 0.544575, 0.447673, 0.28815, -0.331108, -0.704233, -0.966222, -0.330652, 0.318557, -0.0983561, -0.211551, 0.142846, 0.938224, 0.257797, 0.190959, 0.0689834, -0.12723, -0.168411, 0.278849, -0.0124985, -0.222543, 0.60096, 0.032659, -0.0906693, 0.00922615, -0.0682592, -0.510419, -0.267261, -0.324063, -0.289322, -0.293329, -0.300288, 0.0435158, 0.134831, -0.182453, 0.657064, -0.243861, -0.516783, -0.291127, 0.0868284, -0.269683, -0.49639,
                                                                                                    -0.0692156, 0.360755, -0.128677, 0.858602, 0.280609, 0.601623, -0.633813, -0.0173388, -0.350056, -0.303268, 0.430514, -0.705747, -0.240102, -0.240244, 0.217235, 0.121533, -1.09366, 0.0361902, -0.00999593, -0.0192225, -0.437194, 0.23003, 0.219247, 0.274354, -0.384366, -0.965989, -0.160272, -0.368351, 0.657629, 1.02232, 0.294674, 0.0671021, -0.0464416, -0.25414, 0.150742, -0.376557, -0.291464, -0.485535, 0.270894, -0.364963, 0.213557, -0.642532, -0.204901, 0.4734, -0.0102526, 0.134093, -0.794999, -0.658541, 0.0809789, 0.808589, 0.0201266, -0.189925, -0.17857, -1.1744, -0.516125, 0.312735, -0.309438, 0.24206, 0.476595, -0.10726, -0.450135, -0.0317694, -0.114653, -0.73704,
                                                                                                    -0.0757328, -0.0139565, -0.429268, -0.40085, 0.282403, 0.0919451, 0.346262, -0.257602, -0.0356905, -0.567309, -0.130852, -0.874319, 1.1005, -0.0955473, -0.877635, 0.155594, -0.57155, -0.109802, 0.170345, 1.23051, -0.266736, -0.19692, 0.188499, -0.347439, -0.0616182, -0.148191, 0.0947355, 0.0931613, 0.116238, -0.0398263, -0.319878, 0.0548646, 0.331175, 0.0675139, -0.361221, 0.17724, 0.504087, -0.548116, 0.209836, 0.740616, -0.253044, 0.641447, 0.0815538, -0.255564, -0.3206, -0.38052, -0.56481, -0.458036, 0.193136, -0.411936, -0.308534, -0.562311, -0.288886, 0.133642, -0.508205, -0.0146581, 0.0308086, 0.0610183, -0.44256, 0.665363, -0.12813, 0.602306, -0.210842, -0.32709,
                                                                                                    -0.1168, 0.00402264, 0.373336, -0.371745, -0.459881, 0.352567, 0.121682, -0.353372, 0.0689893, 0.264467, -0.383087, -0.481014, 0.523968, -0.00348813, 0.363996, -0.315538, 0.643863, 0.28822, -0.316893, 0.166463, -0.103261, -0.28683, -0.363596, 0.14371, 0.298706, 0.236126, -0.0392317, 0.1382, -0.766212, -0.743535, 0.31041, -0.0591731, -0.121815, 0.357974, 0.194939, -0.154533, 0.220441, 0.0304231, -0.172633, -0.0397261, -0.0303198, 0.637705, 0.172478, -0.0921976, -0.176822, 0.103446, 0.600102, 0.192129, -0.594929, -0.714608, -0.4901, 0.0194824, 0.195205, 0.353166, -0.259807, -0.233895, 0.0156335, -0.020656, -0.658261, -0.232056, -0.262541, -0.0334564, -0.121646, 0.0644605,
                                                                                                    -0.0213855, 0.0785623, -0.448477, 0.54774, 0.144005, 0.538634, -0.36151, 0.0357024, 0.0631999, -0.362429, 0.534546, -0.329753, -0.169581, -0.417991, -0.0185997, 0.30861, -0.362661, -0.0394219, 0.255128, 0.0387413, -0.889848, 0.105382, 0.156711, 0.000234179, -0.593703, -0.804507, -0.10818, -0.323135, 0.508388, 0.637658, -0.139799, 0.426085, -0.0149302, 0.0564109, 0.0189779, -0.433047, -0.147154, -0.834669, 0.114938, -0.401366, 0.0776575, -0.62458, -0.23427, 0.461375, -0.182449, 0.142223, -0.876097, -0.487037, 0.00680466, 1.51101, 0.494458, -0.167862, -0.172205, -1.04428, -0.150794, 0.400738, -0.0634674, 0.0826041, 0.68496, 0.0257335, -0.157327, 0.14863, 0.244287, -0.385933,
                                                                                                    0.0294668, -0.107547, 0.161933, -0.391938, -0.198467, -0.375618, -0.182713, -0.482977, -0.0711553, 0.433042, -0.618243, 0.353774, 1.31112, 0.392741, -0.439812, 0.281183, -0.250089, 0.163341, 0.454782, 0.444313, 0.439134, 0.134449, 0.0347473, -0.00414902, 0.461149, 0.732542, 0.0155295, -0.0541898, -0.965878, -0.946321, 0.269564, -0.361129, 0.101159, -0.178346, -0.424043, 0.701443, 0.454232, 0.437126, 0.0594009, -0.384346, -0.102149, 0.932224, 0.349445, -0.469293, -0.544923, -0.561069, -0.070342, -0.719453, -0.330668, -0.968929, -0.359094, -0.429503, -0.604083, 1.10262, 0.842681, 0.718322, -0.402829, -0.00906561, -0.267944, -0.182271, -0.226958, 0.321617, -0.19789, 0.556125,
                                                                                                    -0.000807313, -0.0289329, -0.600957, -0.124346, 0.363222, -0.278279, 0.260843, -0.444943, -0.227227, -0.574576, 0.0515791, -1.03619, 1.07204, -0.0631781, -0.747599, -0.0971252, -0.678877, -0.134353, 0.0353752, 0.957425, -0.311274, -0.0813008, 0.340289, -0.105544, -0.00182328, -0.308012, 0.175616, 0.0461369, 0.152464, -0.25164, -0.290328, -0.0122339, 0.324015, -0.103665, -0.542271, -0.122471, 0.343609, -0.649462, 0.305837, 0.454631, -0.199722, 0.535132, 0.00234969, -0.00895284, -0.427966, -0.528217, -0.557857, -0.721399, 0.297163, -0.0777758, 0.0384126, -0.670961, -0.330604, 0.0356123, -0.550226, 0.0306228, -0.159123, 0.15227, -0.208075, 0.402446, -0.197069, 0.786842, -0.406095, -0.302384,
                                                                                                    -0.22131, 0.617988, -0.583969, 0.30333, -0.000823685, -0.226127, 0.231761, 0.438422, -0.082177, -0.152435, 0.332121, -0.0853526, -0.819871, -0.278471, 0.355589, -0.318306, -0.467964, 0.0609166, -0.0191905, -0.645473, -0.398189, 0.0907855, -0.0596924, 0.236574, -0.13069, -1.1656, 0.00241209, -0.452094, 0.486797, 0.510979, 0.0502389, 0.130542, -0.180332, 0.0386533, -0.44117, -0.88848, -0.358042, -0.0657821, -0.0133521, 0.0317559, 0.422821, -0.763501, -0.283676, 0.420949, 0.410808, 0.436317, -0.0859967, -0.0130496, 0.0755951, 0.487537, 0.294821, 0.279602, 0.58544, -0.859803, -0.407274, -0.500393, 0.289386, 0.168471, 0.446835, 0.0326612, -0.0285298, -0.5422, 0.247381, -0.901492,
                                                                                                    0.0155996, 0.331302, -0.418456, 0.168299, -0.177459, -0.0123535, -0.238458, -0.27779, -0.555168, 0.204403, -0.382223, -0.13801, 0.281744, 0.271107, -0.335994, 0.913135, -0.418233, 0.174192, 0.120002, 0.33239, -0.148484, -0.0350893, -0.163479, 0.545796, 0.523037, -0.2544, -0.143152, -0.015587, 0.0208717, 0.257314, 0.70105, -0.467823, -0.0490012, 0.404796, 0.108382, 0.55525, 0.0657235, 0.234062, 0.212263, -1.12974, 0.145621, -0.0651895, -0.031203, 0.456655, -0.515444, 0.244382, -0.476981, -1.03756, -0.157071, -0.446502, -0.549793, -0.494398, -0.325, 0.242027, -0.0221663, 0.0528331, -0.333374, 0.704794, -0.198801, -0.424471, -0.722798, 0.400832, -0.385203, 0.104986,
                                                                                                    0.260548, 0.46114, 0.42932, 0.945351, 0.0125771, -0.588779, 0.100296, -0.170884, 0.124112, -1.37355, -0.716857, -0.148576, -0.486491, -0.0529271, -0.330689, -0.215228, 1.16674, -0.0378276, 0.727097, 0.0780332, -0.0566967, -0.0504319, 0.246128, 0.374354, -0.988316, 0.120266, 0.00607021, -0.975247, -0.640308, 0.61574, 0.194826, -0.257762, 0.253532, -0.129572, -0.126672, -0.125252, -0.0348795, -0.911359, 0.256656, 1.12662, 0.222267, 0.236775, -0.225441, 0.319728, 0.445648, -0.131584, -0.331326, -0.380677, 0.116864, 1.80551, 0.838009, -0.42448, -0.209893, -0.186405, 0.41825, -1.08754, 0.072455, 0.359178, -0.0772446, -0.0600423, 0.249619, 0.186102, 0.0645593, -0.928238,
                                                                                                    0.261514, 0.123114, 0.208759, -0.279588, 0.173878, 0.295108, -0.129937, 0.114396, 0.084786, -0.0239537, -0.180106, 0.0958946, -0.0969963, 0.113786, 0.0567485, -0.161168, 0.442237, 0.327949, 0.413035, -0.774544, 0.378729, -0.211333, 0.247852, -0.164151, 0.444318, 0.378632, 0.0614148, 0.111975, -0.103255, -0.728084, -0.0510964, 0.0628375, -0.104762, 0.212383, -0.269114, -0.399233, 0.260562, -0.363202, 0.0914099, 0.789979, -0.295702, 0.38153, 0.147216, 0.1446, -0.109713, -0.144615, 0.705992, 0.846507, -0.293605, 0.463757, 0.140788, -0.362668, -0.369127, -0.780691, -0.638336, -0.026182, 0.0155253, 0.212618, 0.188181, 0.692653, -0.225946, 0.156728, -0.468167, -0.0276578,
                                                                                                    0.335344, -0.00478872, -0.18033, -0.0175203, -0.188494, -0.181687, 0.0733304, 0.0585652, 0.526516, 0.421621, 0.107264, -0.583409, 0.142576, 0.263458, -0.000900007, 0.349639, 0.129042, 0.167374, -0.266438, 0.247902, -0.446816, -0.192581, -0.344923, 0.159309, 0.780682, -0.449744, -0.0637721, 0.227877, 0.279099, -0.119251, 0.268032, 0.0643936, -0.282499, 0.290229, -0.0409489, -0.15256, -0.625191, -0.324396, -0.0774834, -0.0985178, -0.0411076, -0.423372, -0.194859, -0.0109531, -0.226116, -0.141819, 0.274054, 0.0593658, -0.0503702, -0.661389, -0.474763, 0.0431059, 0.0257099, 0.747905, 0.0720889, 0.273876, 0.2968, -0.0810961, 0.110285, 0.712195, -0.329235, 0.457782, 0.0127311, -0.0769079,
                                                                                                    0.264929, 0.190753, 0.421943, 0.542049, 0.102204, -0.633594, 0.100011, 0.271756, 0.258436, -1.31377, -0.342443, 0.152236, -0.246492, -0.348324, -0.242893, -0.0938286, 0.855855, -0.106735, 0.774273, -0.476028, 0.179855, -0.0494765, 0.154337, 0.0528125, -0.881734, -0.0569699, 0.00362954, -0.417854, -0.692428, 0.459516, -0.171236, -0.224467, 0.28923, -0.297614, 0.100416, 0.0889169, -0.187647, -0.625126, 0.184915, 0.9219, -0.171334, 0.268358, -0.000425407, 0.057081, 0.363422, -0.0126614, -0.372434, -0.0528644, -0.0519637, 1.66489, 0.986919, -0.315981, -0.243722, -0.676069, 0.463999, -0.529694, -0.00838773, 0.200063, -0.00843236, 0.0338146, 0.450985, -0.297659, 0.109881, -0.541392,
                                                                                                    -0.0209654, -0.190625, -0.939961, -0.807342, 0.37114, 0.00968084, -0.48118, 0.0938577, -0.182682, 0.567399, 0.411754, 0.0810942, 0.0254889, 0.0481645, 0.451995, 0.599884, -0.923899, -0.238944, -0.399189, 0.362193, 0.308433, -0.177912, -0.274269, -0.15041, 0.530378, -0.0389775, -0.200854, 1.01885, 0.593598, -0.27108, 0.697156, 0.376715, -0.439879, 0.0186, -0.414415, 0.0895388, -0.527079, 1.76141, 0.141891, -0.554012, -0.143283, -0.131185, 0.288325, 0.0303081, -0.242989, -0.193838, -0.0106961, 0.0303771, -0.0878025, -1.08566, -0.101172, -0.188633, 0.0169048, -0.405889, -0.0616096, 1.02079, -0.584587, 0.169105, -0.894991, 0.294471, -0.579375, -0.346103, -0.30318, 0.632084,
                                                                                                    0.175543, 0.185493, 0.235548, -0.496738, -0.00234269, 0.00706188, -0.134142, -0.0667824, -0.01684, -0.0105064, -0.485765, 0.153085, -0.0790729, -0.012913, 0.266146, -0.114797, 0.485448, 0.323399, 0.368723, -0.631456, 0.448796, -0.110326, 0.0930216, -0.186201, 0.216682, 0.284062, 0.143696, -0.128062, -0.168308, -0.859478, -0.572879, 0.0882943, 0.0566435, 0.14995, -0.260504, -0.718678, 0.409226, -0.479525, 0.309713, 0.735491, -0.0830502, 0.449776, 0.1249, 0.112578, -0.0960043, -0.246001, 0.210327, 0.5391, -0.0936186, 0.651159, 0.0859324, -0.334576, -0.367456, -0.66728, -0.566133, -0.0722293, -0.0813201, 0.133942, 0.00443834, 0.494823, -0.562469, 0.25444, -0.329125, 0.0354735,
                                                                                                    -0.0356424, 0.353906, 0.895248, 0.184116, -0.0967059, -0.527199, 0.458087, 0.100827, -0.144723, -0.367807, 0.0986274, 0.149755, 0.134776, -0.234784, -0.204469, -0.873532, 0.538874, 0.356639, 0.325571, -0.156478, -0.40314, 0.223979, 0.0237359, 0.546104, -0.873037, -0.4579, -0.0283991, -0.565275, -0.605618, 0.124442, -0.0600631, -0.174683, 0.0519107, -0.237908, -0.232784, -0.297281, 0.327651, -0.635578, -0.203445, 0.190469, 0.36962, -0.25658, -0.175561, 0.185255, 0.611389, 0.263722, -0.413026, 0.00827119, -0.409783, 0.833727, 0.304558, 0.35684, 0.156489, 0.25072, -0.0246124, -0.817847, 0.430705, -0.11323, 0.234359, -0.409307, 0.365005, 0.00687351, 0.517174, -0.362966,
                                                                                                    0.099988, 0.268554, 0.220605, 0.201372, 0.366549, -0.469371, 0.208029, -0.363108, -0.0224632, -0.77832, -0.460914, 0.0652914, 0.0114267, -0.0822065, -0.271426, 0.727966, -0.267393, -0.158286, 0.779977, -0.416078, -0.0964804, 0.199861, -0.541559, 0.625318, -0.0998755, -0.35894, -0.550633, -0.7933, -0.13448, -0.243237, 0.567434, -0.460399, -0.356087, 0.159338, 0.471643, -0.0396765, 0.320355, 0.510734, -0.0985987, 0.75998, 0.41177, 0.0485964, -0.265342, 0.510081, -0.188148, -0.166674, 0.0229133, -0.508482, -0.201638, 0.368667, 0.270462, -0.333124, -0.0616744, -0.822569, -0.651996, 0.571416, 0.0181221, 0.699878, -0.492145, 0.426175, -0.720901, 0.88083, -0.248931, -0.427579,
                                                                                                    -0.269776, 0.601662, 0.105226, -0.321337, -0.931238, 0.0520562, -1.06801, 1.03467, 0.768653, 0.318865, 0.0236874, 0.194792, -0.282797, 0.241932, 0.298753, -0.00175549, 0.111027, -0.238976, 0.276406, -0.157207, -0.727126, 0.453127, -0.0935175, 0.685145, -0.167236, -0.341331, -0.270011, 0.151806, 0.476623, 0.192267, -0.435375, 0.715603, -0.564629, 0.0819912, -0.491236, 0.473086, -0.126966, 0.588865, -0.242259, 0.674604, 0.408815, 0.315442, -0.152863, 0.432458, -0.07937, -0.0103964, 0.484606, -0.303806, 0.105168, -0.118805, -0.229319, 0.015108, 0.139705, 0.0794113, 0.369408, 0.0407732, 0.174841, -0.0660913, 0.811341, -0.808888, -0.718331, -0.152365, 0.00743258, 1.16776,
                                                                                                    -0.0608737, 0.0236366, -0.462592, 0.0688742, -0.0733091, 0.335609, -0.253287, -0.258046, 0.263989, 0.219584, -0.11912, -0.108261, -0.174605, 0.113416, -0.178347, -0.135066, 0.340764, 0.115117, 0.143991, 0.410648, 0.0152106, -0.0558123, -0.282014, -0.161846, -0.203451, 0.293437, -0.0972069, 0.0164018, 0.676917, -0.0429591, -0.0570877, -0.0254064, -0.147688, 0.0073687, 0.222965, 0.297561, 0.0577319, -0.429108, 0.0825771, -0.799355, -0.175912, 0.159094, 0.0935532, 0.124572, -0.217322, -0.431699, -0.22856, 0.079862, 0.499198, 0.424743, -0.045743, -0.0760749, 0.0207109, -0.0120064, -0.122009, 0.0407998, -0.424038, 0.0758556, 0.690207, -0.167412, 0.89475, -0.280801, 0.109968, -0.0165243,
                                                                                                    0.170866, -0.0843633, 0.0365924, 0.196016, -0.0778371, 0.0267806, 0.754663, -0.4315, 0.0796254, -0.316329, 0.128469, 0.0992922, -0.0365668, 0.139344, -0.327407, 0.0729448, 0.375886, 0.268608, -0.311777, -0.64608, 0.0623211, 0.195988, 0.00271983, 0.198961, 0.278008, 0.537107, -0.0350533, -0.521454, -0.70406, -0.597059, 0.513986, -0.167779, 0.410455, -0.186097, -0.284079, -1.01155, 0.207029, -0.249674, 0.00585596, 0.463294, 0.00406891, -0.298912, 0.00889761, 0.32566, 0.0385168, -0.206813, 0.448403, -0.736762, -0.239992, 0.331579, -0.155264, -0.0873939, -0.350959, -0.211211, -0.134247, -0.250334, 0.0970871, -0.110471, -0.416739, 0.0833866, -0.209906, -0.0190134, 0.130059, -0.460303,
                                                                                                    -0.423493, -0.00176707, 0.14997, 0.16635, -0.546293, 0.381393, -0.829873, 0.816512, 0.56287, 0.4792, 0.0967269, -0.208234, -0.597518, 0.0434393, 0.267897, 0.305247, 0.07613, -0.289207, 0.330129, 0.448979, -0.412597, 0.225991, -0.346136, 0.0583915, -0.552981, -0.100881, -0.305357, 0.501421, 0.28356, 0.381921, -0.166591, 0.780288, -0.386701, -0.0990069, -0.170272, 0.335433, 0.371733, 0.59502, -0.28392, 0.0686652, -0.00358666, 0.552998, -0.0157141, -0.362603, 0.21498, 0.362981, 0.477398, -0.245606, 0.20513, -0.030134, -0.011534, 0.194858, 0.212863, -0.32749, 0.412941, -0.0786785, 0.0249281, -0.135415, 0.617695, -0.332334, -0.444267, -0.131493, 0.0298632, 1.09011,
                                                                                                    -0.0903879, -0.248163, -0.33952, 0.630896, 1.2634, 0.00453531, 0.758878, -0.428264, 0.528443, -0.668543, 0.092211, 0.0966911, -0.41726, -0.270638, -0.46879, 0.34824, -0.638249, 0.189232, -0.0237761, -0.175025, 0.487757, -0.0649228, -0.366468, -0.328987, 0.120162, -0.243255, -0.337253, -0.343563, 0.560944, -0.530139, 0.821294, -0.455902, 0.0292158, 0.245879, 0.367453, 0.356397, 0.14259, -0.285927, -0.0685972, -0.223862, -0.0497886, -1.04165, 0.0526372, 0.113266, 0.372859, 0.0928165, 0.109048, -0.0262805, -0.169307, 0.424802, 0.920959, 0.152284, 0.275955, -0.117693, -0.254593, 0.199938, -0.0890335, -0.22692, -0.576375, 0.718443, 0.915981, 0.607988, 0.124892, -0.761275,
                                                                                                    -0.0207748, -0.0670491, -0.548224, -0.100218, -0.269439, 0.0765879, -0.525186, -0.214873, 0.389107, 0.0190405, -0.0288347, -0.0158592, -0.390761, 0.286569, -0.0211772, -0.220705, 0.345994, 0.10328, -0.111981, 0.691716, 0.0202073, -0.0167311, -0.0200939, -0.103404, -0.103709, 0.26843, -0.0901025, 0.579749, 0.46953, -0.235241, -0.269586, -0.139218, -0.113455, -0.118612, 0.310018, 0.243761, 0.184117, -0.671309, 0.133797, -0.725882, 0.0396798, 0.0816853, 0.143289, 0.340199, -0.450042, -0.345138, 0.136691, 0.122902, 0.295307, 0.550895, -0.0804335, -0.0907323, -0.015147, 0.113412, -0.119849, 0.0201003, -0.31909, -0.00631079, 0.846022, -0.249848, 0.817308, -0.339769, 0.0293438, 0.0075939,
                                                                                                    -0.169831, 0.443485, 0.00710662, -0.562567, -0.672983, -0.324874, -0.0532699, 0.339329, -0.0362932, 0.102832, 0.174435, -0.464426, -0.224919, -0.115082, 0.283992, -0.234179, -0.16508, -0.566653, -0.117535, -0.18418, -0.213152, -0.0891484, 0.16807, 0.677641, 0.0326011, -0.446119, 0.0462644, -0.245307, -0.446586, 0.0897583, -0.532198, 0.131461, -0.252474, -0.0628888, -0.67231, 0.121068, -0.663202, 0.240544, -0.291942, 0.209638, 0.403735, 0.0735782, -0.37956, -0.0240028, 0.169078, 0.414856, -0.238349, -0.0153083, 0.0273833, -0.26705, -0.549283, 0.201513, 0.212715, 0.163983, -0.216426, -0.0589815, 0.437046, 0.00706792, 0.237017, -0.207065, -0.431964, -0.386844, 0.247396, 0.736651,
                                                                                                    -0.211188, 0.127642, -0.0306532, 0.0587476, 0.339529, -0.28661, -0.633226, 0.188677, 0.462202, -0.479883, -0.661914, -0.590966, -0.248869, 0.190983, -0.463613, 0.271204, -0.454597, 0.248993, 0.533222, 0.837936, 0.0580381, 0.229894, -0.486727, 0.472377, -0.323321, -0.123007, -0.214671, -0.736384, -0.106309, -0.522759, 0.242979, 0.388165, -0.11734, -0.0259898, 0.204729, -0.0711185, 0.70092, -0.0769859, -0.0637092, 0.280092, 0.158, 0.284255, 0.0352876, 0.444775, -0.149238, 0.281022, 0.112098, -0.657237, 0.335357, -0.455905, 0.310875, -0.616826, 0.197334, 0.508427, -0.950778, 0.635115, -0.475307, 0.662174, 0.0585164, -0.0853317, -0.970401, 0.922369, -0.26106, -0.00943239,
                                                                                                    0.120908, 0.581236, -0.531695, 0.515394, 0.0829173, 0.683574, 0.358578, 0.126672, -0.969788, -1.28617, 0.986705, -0.421407, -0.36154, -0.0669268, 0.0484029, -0.042586, 0.262487, 0.0314618, 0.651727, -0.154425, 0.0747005, 0.379478, -0.0683997, 0.470238, 0.0164943, 1.22742, -0.361401, 0.0605577, 0.700376, 0.859253, -0.361913, -0.261827, -0.388071, 0.313144, -0.105057, -0.00860752, 0.151782, 0.980203, -0.274281, 0.691634, 0.631941, -0.326999, -0.349518, 0.798032, -0.146711, -0.149446, -0.871986, -0.201822, 0.147173, 0.571569, 0.199994, -0.243781, -0.117526, 0.311416, 1.73488, -0.135733, 0.148751, 0.437615, 0.672145, -0.314732, -0.0240234, -0.40138, 0.0287747, 0.328109,
                                                                                                    0.37866, -0.0416015, 0.433196, 0.45069, 0.179973, 0.149221, 0.142375, -0.21049, -0.163972, 0.142295, -0.177484, 0.586152, 0.289013, 0.141514, 1.15394, 0.509235, -0.0475187, -0.271674, 0.0316866, -0.569972, 0.113763, -0.0647808, 0.107309, 0.159644, 0.206043, -0.184902, 0.000821637, 0.892668, -0.0248607, -0.18523, -0.505406, 0.348938, 0.0552386, 0.365395, 0.0547902, 0.660766, -0.053806, -0.418762, 0.348739, -0.811096, -0.290217, 0.221535, 0.228381, -0.0613507, 0.367195, -0.341478, -0.445418, 1.15293, -0.177014, -0.0316076, -0.259984, -0.195122, -0.417161, -0.93411, 0.0999848, -0.195704, -0.0530735, 0.180186, 0.317686, 0.707355, -0.0428401, -0.203475, -0.169018, -0.505972,
                                                                                                    0.00292038, 0.200906, 0.417883, -0.276312, 0.493951, -0.572242, -0.343452, 0.0252476, 0.726168, 0.60612, -0.273032, -0.188492, -0.854057, 0.0709649, -0.811061, -0.217479, 0.31425, 0.481496, -0.0424941, 0.291833, -0.074768, 0.0284453, -0.144707, 0.135729, -0.158503, 0.00853183, -0.0695104, -0.500009, -0.113931, -0.603154, -0.37997, -0.00193023, -0.0164852, 0.229112, 0.0790585, 0.0761305, -0.170155, -0.115265, 0.0537126, 0.470934, 0.0206937, -0.532815, 0.0321474, 0.206013, -0.0784744, 0.166735, 0.438043, -0.230504, -0.505387, -0.104171, -0.394232, 0.0155852, 0.114073, -0.00191394, 0.0647969, 0.628429, -0.163985, -0.194174, 0.135233, -0.759557, -0.451784, 0.582707, -0.0859384, 0.307255,
                                                                                                    0.0774544, 0.249672, -0.478638, 0.656486, 0.157108, 0.57588, 0.385051, 0.128031, -0.568955, -1.04337, 1.17663, -0.185347, -0.316031, -0.126649, 0.166189, 0.164086, 0.115112, -0.0171445, 0.66902, -0.363667, 0.475183, 0.154944, 0.105209, 0.0430553, 0.0556843, 0.335527, -0.125338, 0.403265, 0.682589, 1.01212, -0.146301, 0.039015, -0.16163, 0.0575512, 0.0178172, 0.445035, 0.629065, 0.81525, -0.10585, 0.556433, 0.167084, -0.42545, -0.281855, 0.297395, -0.195881, -0.387902, -0.574984, 0.113297, 0.362419, 0.770847, 0.596595, -0.254198, -0.364995, -0.0481734, 1.02613, -0.249601, 0.313038, 0.469484, 0.267807, -0.162901, 0.26164, 0.0716233, -0.0273633, 0.451717,
                                                                                                    -0.204839, -0.333013, 0.0117994, -0.0464435, 0.281301, -0.261011, -0.0346664, 0.283422, 1.03527, 0.56332, -1.00975, 0.02428, -0.38598, -0.192711, 0.782743, 0.101094, 0.44855, -0.569888, -0.227548, 0.284049, 0.0308389, 0.216565, -0.275744, 0.0519039, -0.244531, -0.589097, -0.114702, 0.00185679, 0.0686087, -0.608277, 0.0504658, 0.207906, -0.116231, -0.0583773, 0.997573, 0.247213, -0.392818, -0.549677, -0.144589, -0.309482, -0.216104, 0.69814, 0.104555, -0.210241, 0.56808, 0.119921, 0.21758, 0.610479, -0.00792188, -0.482335, 0.547729, 0.0497229, 0.0534174, -0.391773, -1.07864, -0.121991, -0.319745, 0.0401394, -0.935574, 0.269165, -0.407735, 0.828241, 0.118472, -0.185599,
                                                                                                    0.282585, 0.0467343, 0.592718, 0.611397, 0.150944, 0.346617, 0.161488, -0.197047, -0.257646, -0.112642, -0.0332116, 0.60496, 0.40475, 0.0302255, 1.24146, 0.277054, 0.0800913, -0.280708, 0.0519924, -0.527341, -0.0220389, 0.258364, 0.141297, 0.239567, 0.018678, -0.00413792, 0.0828427, 0.774878, 0.0554722, 0.055109, -0.564385, 0.377896, 0.0352127, 0.330466, -0.0434321, 0.650894, -0.348448, -0.0871886, 0.0793963, -0.821898, -0.138275, 0.149148, 0.145406, -0.0672656, 0.391946, -0.357154, -0.27657, 1.13934, -0.530522, 0.376322, -0.0920415, -0.059396, -0.300357, -0.81014, 0.12448, -0.352254, 0.0444156, -0.0251717, -0.0328315, 0.785923, 0.190551, -0.194451, 0.038478, -0.323142,
                                                                                                    -0.105492, 0.319189, -0.137363, 0.0138851, -0.484371, 0.29425, 0.231857, -0.386546, -0.468633, -0.478082, 0.436241, -0.172147, 0.338525, -0.177895, -0.767534, -0.304595, -0.189846, 0.32159, -0.175276, -0.190379, -0.418122, -0.0151817, 0.071663, 0.27936, -0.283107, 0.498638, 0.102444, -0.170003, -0.468526, 0.196997, -0.00888161, -0.318268, -0.193071, 0.188876, -1.01967, -0.421654, 0.0497948, 0.226725, -0.0668246, 0.239391, 0.496598, -0.612893, -0.259188, 0.184355, -0.215843, 0.160052, 0.00349162, -0.0389166, -0.252084, 0.562946, -0.0173356, 0.219653, 0.337776, 0.212957, 0.433243, -0.340845, 0.43419, 0.23249, 0.158978, -0.179564, 0.125826, -0.530183, 0.105709, -0.198609,
                                                                                                    0.366982, 0.559764, 0.361803, 0.0797199, 0.311799, 0.202828, -0.251363, -0.307158, 0.203162, -0.718882, -0.67121, -0.48598, -0.18524, 0.325028, -0.0676377, 0.698192, 0.359378, -0.254296, 0.212671, -0.0856619, -0.289638, 0.0491503, -0.347531, 0.860003, 0.803633, 0.472247, -0.519619, 0.0696715, 0.405552, -0.512809, -0.31482, -0.297282, -0.371509, 0.441514, 0.533723, 0.373155, 0.20544, -0.693448, 0.170951, 0.039544, 0.0775082, 0.721091, -0.172741, 0.543147, -0.475651, 0.0431901, 0.151551, 0.0849384, -0.289233, 0.151699, -0.465743, -0.6245, -0.361792, -0.665382, -0.743898, -0.0344075, -0.298976, 0.653531, 0.452365, -0.373139, -0.417414, 0.585015, -0.382294, -0.267724,
                                                                                                    -0.452855, 0.641023, -0.336833, -0.893225, 0.116838, -0.614942, -0.348489, 0.659009, -0.645935, -0.284469, -0.181292, 0.329465, 0.796467, -0.0656779, 0.39104, -0.376014, 0.0631151, 0.676348, 0.532587, -0.900358, 0.109106, -0.0511624, -0.137054, 0.565029, 0.300483, -1.13036, -0.353946, -0.0163779, -0.567759, 0.174338, -0.25072, -0.216867, -0.221753, -0.753086, -0.141684, 0.582051, 0.100634, 0.929646, 0.0329836, 0.424624, 0.346805, 0.627393, -0.444806, 1.33429, -0.00781617, 0.0776522, -0.86422, -0.190296, 0.0807322, -0.533156, 0.561896, -0.289664, -0.282035, -1.14749, -0.840404, 0.277296, -0.412883, 0.636632, -0.530919, -0.956737, -0.530246, -0.300548, -0.0994858, -0.338886,
                                                                                                    -0.190212, 0.046303, -0.336712, -0.436865, -0.408846, 0.231534, -0.278376, -0.191022, -0.0289113, 0.56387, 0.101614, 0.213634, -0.304466, -0.0116816, 0.424523, 0.538461, 0.0280316, 0.189848, -0.385149, 0.090662, -0.377929, -0.0728424, -0.288268, -0.236324, -0.820396, 0.0842553, 0.0454656, -0.403149, -0.477718, 0.190191, 0.288885, 0.212259, 0.353205, -0.340729, -0.0373171, -0.650384, 0.634084, 1.44831, 0.0356558, -0.656146, -0.193099, 0.0352641, 0.0570544, 0.140493, -0.314668, -0.425042, 0.484993, -0.9301, 0.67058, -0.14829, -0.0791676, -0.307762, -0.118412, 0.49912, -0.304831, 0.638104, -0.30955, -0.208795, 0.337035, 0.678671, -0.184849, -0.312118, -0.330528, -0.00267415,
                                                                                                    0.526577, 0.264393, 0.199683, 0.13982, 0.0739756, 0.0631981, 0.107505, 0.0433594, 0.778613, -0.493262, -0.098464, -0.650299, 0.118284, -0.11119, 0.114386, 0.119321, -0.044763, -0.145433, -0.122781, 0.346271, 0.125698, 0.133796, -0.00690191, 0.155074, 0.017927, 0.174277, 0.0504078, 0.180387, -0.427045, -0.575125, -0.117142, -0.530121, -0.0721323, 1.02229, -0.267549, -0.192268, -0.706526, -0.700538, 0.146142, 0.845243, 0.0992177, 0.119867, 0.0239165, -0.348791, -0.143458, -0.14806, 0.257109, -0.51721, -0.151301, 0.455945, -0.308705, 0.228057, 0.0926461, 0.162769, 0.577651, -0.429254, -0.190937, -0.138968, 0.66421, 0.673764, -0.428343, -0.243202, 0.239629, -0.259681,
                                                                                                    -0.514399, 0.242201, -0.638477, -0.748459, 0.308501, -0.661668, -0.0530111, 0.255264, -0.465238, -0.202023, -0.233883, 0.650255, 0.666652, -0.189548, 0.45038, -0.0631576, -0.221552, 0.355359, 0.252443, -0.41534, 0.0541966, 0.0208906, -0.093069, 0.0375355, -0.0265247, -0.969734, -0.043443, -0.0237393, -0.58009, 0.483908, 0.231819, 0.451712, 0.223773, -0.972014, -0.114675, 0.414675, 0.376755, 0.788281, 0.0188568, 0.0352611, 0.184484, 0.561121, -0.250461, 0.865882, 0.00116486, 0.135516, -0.933824, -0.467203, 0.36234, -0.634884, 0.580766, -0.134102, -0.226545, -0.855631, -1.05422, 0.174911, -0.545102, 0.431228, -0.348367, -0.855601, -0.302107, -0.400308, -0.182752, 0.0751761,
                                                                                                    0.171397, 0.173684, 0.491259, 0.548832, -0.240202, 0.683897, -0.0213187, -0.485125, 1.11098, -0.0531803, -0.132035, -0.570035, 0.254482, -0.157307, 0.327653, 0.413048, 0.25386, -0.435718, -0.291453, 0.145488, -0.513416, 0.204581, -0.302777, 0.293392, -0.112511, 0.591786, -0.452531, 0.550962, 0.582402, -0.114337, -0.309143, 0.523135, 0.0547539, 1.3852, -0.0459058, -0.383986, 0.140574, -0.469254, -0.111462, 0.0688169, 0.228339, -0.100298, -0.130513, -0.246441, -0.0689573, -0.303103, 1.24752, -0.267404, -0.206569, 0.718316, -0.800536, 0.0930598, -0.0349017, 0.892036, 0.0590761, 0.0685229, 0.183248, 0.1767, 0.246692, 1.19113, 0.364945, 0.470804, 0.124648, -0.274883,
                                                                                                    -0.0998999, 0.0778828, -0.178273, -0.497154, -0.385836, 0.011962, -0.218122, -0.0439497, -0.054277, 0.758805, 0.367982, 0.498822, -0.15393, -0.0180463, 0.677429, 0.216439, 0.133225, 0.330894, -0.158151, -0.0429962, -0.444232, 0.02924, -0.222135, -0.425101, -0.741216, -0.067407, -0.0102391, -0.373923, -0.674105, 0.214027, 0.592014, 0.178404, 0.500617, -0.493709, 0.107908, -0.502131, 0.557306, 1.10404, -0.0817682, -0.451986, -0.0532267, 0.104887, -0.047541, 0.282388, -0.36287, -0.531291, 0.38656, -0.915927, 0.348388, -0.375768, 0.194067, -0.245233, -0.11405, 0.502365, -0.374572, 0.549203, -0.151216, -0.0752685, 0.139516, 0.535262, -0.268663, -0.26855, -0.356358, -0.0663251,
                                                                                                    -0.283366, 0.0762974, -0.201356, -0.262559, 0.555152, -0.359332, 0.13064, 0.280384, -0.625046, 0.136763, 0.119378, 0.303478, -0.486879, -0.174299, -0.178114, -0.216054, -0.190633, 0.356006, -0.0294602, -0.388775, 0.333401, 0.0710236, -0.0480856, 0.173338, -0.299044, -0.258097, 0.14323, 0.146836, -0.304907, 0.0639346, 0.393112, -0.432611, -0.0139017, -0.87853, -0.222325, 0.000751354, 0.129454, 0.360546, -0.207059, -0.189308, 0.0675347, -0.47877, -0.151216, 0.307958, 0.581557, 0.266973, -0.817128, 0.372875, 0.267503, -0.62389, 0.403255, 0.166739, 0.366109, -0.258451, -0.235962, -0.0828593, 0.0553724, -0.441429, -0.577123, -0.736491, -0.303619, -0.58203, 0.164751, 0.351506,
                                                                                                    -0.31683, 0.424436, -1.02878, -0.407113, 0.149011, 0.0990884, 0.0835255, 0.0443725, 0.154829, -0.375087, -0.0203217, -0.420772, 0.0413607, -0.0641441, -0.404047, 0.810204, 0.744605, -0.342849, 0.694825, -0.541585, 0.0742978, 0.194082, -0.688503, 0.677567, -0.119978, -0.00596789, -0.653785, -0.087914, -0.555802, -0.214825, -0.234314, 0.524176, -0.138595, 0.228252, 0.31436, -0.0855801, 0.409394, 0.469964, -0.457083, -0.315205, 0.268527, 0.285623, -0.473675, 0.693145, 0.0435155, 0.0230424, 0.10474, -0.393402, 0.0571949, -0.123952, 0.0312131, -0.328529, -0.0336258, -0.539269, -0.563436, 0.45047, -0.22914, 0.655595, 0.758728, -0.379851, -0.618348, 0.906896, 0.289318, 0.10883,
                                                                                                    -0.471774, 0.51301, -0.389535, -0.146252, 0.196494, 0.691742, -0.181, -0.0282309, -0.489059, -0.462289, 0.202303, 0.290009, -0.940672, -0.207828, -1.12085, 0.215262, 0.263785, -0.302504, 0.400768, 1.02024, 0.622628, 0.15265, -0.571557, 0.389389, -0.651383, -0.660496, -0.577863, -0.78213, -0.528237, 0.653197, -0.0449805, 0.500339, -0.408196, 0.198839, 0.486449, -0.273267, 0.536372, -0.2905, -0.33886, -0.150137, 0.778925, 0.206777, -0.491575, 0.56173, 0.192624, 0.344232, 0.576093, -0.288052, -0.312891, -0.628485, 0.703146, -0.119562, 0.361231, 0.440216, -0.309323, 0.769038, 0.121381, 0.264561, 0.0925066, 0.395542, -0.197449, 0.411113, -0.105706, 0.217349,
                                                                                                    0.0887922, -0.287248, 0.348155, 0.812943, 0.0660566, -0.750488, -0.0561838, 0.358155, 0.0510725, -0.685687, -0.0206087, 0.624229, 0.0448461, -0.250207, 0.0832447, 0.180156, -0.652581, 0.197613, 0.401182, 0.898142, 0.0897194, -0.0907244, -0.0898673, 0.00585495, 0.00621895, 0.169499, -0.232001, 0.0790257, 0.571957, 0.0123787, 0.239921, -0.296208, -0.232915, 0.127673, -0.567114, -0.160709, -0.0384293, 0.28262, 0.035611, 0.706144, -0.113034, -0.195834, 0.0830334, 0.210179, -0.14812, -0.416275, 0.162752, -0.218263, 0.360535, -0.462156, 0.466004, -0.0124375, -0.21034, -0.418721, 0.1923, 0.251238, 0.172827, 0.189113, 0.0676145, 0.0762824, 0.383605, -0.223571, -0.376552, -0.387749,
                                                                                                    0.0574533, 0.142484, -0.135305, -0.309513, -0.443182, 0.195855, -0.579691, -0.174869, 0.165372, 0.837165, 0.183838, -0.400257, 0.0271844, 0.0345386, -0.529502, -0.258428, -0.150273, -0.0341736, 0.252048, 0.0115599, -0.359226, 0.367853, 0.00685836, 0.1548, 0.122429, 1.00145, -0.0835819, -0.000618425, -0.48632, -0.284388, -0.303512, -0.0558529, 0.624673, -0.517766, 0.138153, -0.123373, 0.434185, -0.280638, 0.0513114, 0.491786, 0.043451, 0.0498199, -0.0575457, 0.0448652, -0.0873137, 0.00147426, 0.486264, -0.158964, -0.035196, -0.0612141, 0.185392, 0.158487, 0.285735, 0.579772, -0.16511, -0.186298, 0.0148841, -0.066124, 0.244256, 0.0963726, -0.123497, -0.45492, -0.0251917, -0.559418,
                                                                                                    -0.317431, 0.0931658, -0.163346, -0.305327, 0.165197, 0.189058, -0.299854, -0.290185, -0.643658, -0.288876, -0.0814733, 0.444445, -0.617895, 0.148111, -0.519514, 0.112452, -0.304128, -0.054903, 0.454105, 0.917136, 0.39478, -0.110781, -0.424024, -0.112763, -0.504264, -0.87546, -0.267897, -0.438233, -0.245701, 0.576601, -0.36155, 0.130304, 0.0882482, 0.463509, 0.651183, -0.130278, 0.493665, -0.403364, 0.0711096, 0.0823849, 0.279762, 0.151614, -0.240304, 0.191602, -0.110478, -0.225678, 0.168652, -0.387128, -0.197125, -0.505406, 0.674249, -0.328123, -0.0750402, 0.334361, -0.0539933, 1.13684, -0.228934, 0.249455, -0.242089, 0.627491, -0.121801, 0.0847758, -0.281847, 0.0950533,
                                                                                                    0.169689, -0.418025, -0.0205149, 0.645949, 0.00563804, -0.863878, -0.174492, -0.146531, 0.224438, -0.093389, -0.0432898, 0.34411, 0.482721, 0.0121662, 0.09416, 0.376875, 0.0666171, 0.222651, 0.242213, -0.0103711, -0.159438, -0.228651, 0.515895, -0.1907, 0.837613, 0.489046, -0.0679746, 0.802059, 0.395761, -0.240418, -0.210399, 0.106736, 0.0322389, 0.0611595, -0.00211212, -0.44887, -0.663982, 0.789279, -0.111721, 1.22759, -0.453364, 0.21131, 0.171834, 0.263604, -0.330878, -0.246456, 0.118147, 0.197162, 0.32865, -0.273326, -0.1016, -0.0261103, -0.212644, -0.219534, 0.483939, -0.136638, -0.181792, -0.433186, 0.286598, -0.260828, 0.0205384, 0.516208, 0.213143, -0.735699,
                                                                                                    0.452166, -0.168136, 0.513161, 0.853292, 0.139782, -0.762637, -0.243813, 0.0935906, -0.254028, -0.613967, -0.207977, 0.85026, 0.0487763, -0.200049, 0.0795312, 0.31469, -0.692092, 0.211274, 0.0820395, 0.805739, -0.238486, 0.0915612, 0.0888002, -0.105525, -0.0112101, -0.0879035, 0.0376314, -0.179111, 0.551186, 0.173273, 0.343059, -0.427358, -0.250913, 0.0206117, -0.357794, -0.233862, -0.00426303, -0.139763, 0.115222, 0.547288, -0.11514, -0.178568, -0.0759324, 0.197707, -0.313372, -0.334757, 0.0463859, -0.326033, 0.6032, -0.543828, 0.262086, 0.0895271, -0.0298706, -0.349552, 0.414245, 0.374817, 0.0738693, 0.0213892, 0.165832, 0.0227483, 0.0214187, -0.385047, -0.480575, -0.336666,
                                                                                                    -0.0759633, 0.361483, 0.000485411, -0.850176, 0.0825906, 0.579193, 0.109325, -0.13791, -0.498531, -0.245423, -0.00144871, -0.297544, 0.135282, 0.0456234, -0.0869534, -0.303374, 0.197954, -0.186371, -0.352499, -0.240605, 0.505861, 0.06346, -0.0438383, 0.0857989, -0.440533, -0.594485, 0.168262, -0.864302, -0.526479, 0.341089, 0.205873, -0.647492, 0.0421324, 0.169567, 0.373194, -0.13173, 0.489569, -0.634967, 0.0196079, -0.78281, 0.134659, 0.0735822, -0.0365232, -0.405669, 0.239235, 0.208512, 0.00178317, -0.284817, -0.683346, 0.01487, -0.132325, 0.125761, 0.175536, -0.209536, -0.330274, -0.100817, 0.198279, 0.38974, -0.111584, 0.0791802, 0.362114, -0.192799, 0.201643, 0.971419,
                                                                                                    -0.256696, 0.450932, -0.164129, -0.089951, -0.219274, 0.15216, -0.325254, 0.20334, -0.456309, -0.39078, -0.0279655, -0.305549, 0.307248, 0.0529208, -0.6839, 1.03351, 0.518801, -0.156994, 0.463778, 0.415762, 0.226147, 0.0478103, -0.615325, 0.377876, -0.449826, -0.322868, -0.336228, -0.187878, -0.29684, -0.304338, -0.765291, -0.226781, -0.652573, -0.243451, 0.595886, -0.677628, 0.339991, 0.66003, 0.0604279, 0.156637, 0.128375, -0.0577537, -0.392652, 0.925522, -0.0498273, -0.0324791, -0.117656, -0.906439, -0.00619166, -0.343975, -0.181759, -0.305221, -0.274092, -1.26466, -0.0399504, 0.603556, -0.386505, 0.561979, 0.0352422, -0.589781, -0.0763331, 0.419289, -0.0608126, -0.635891,
                                                                                                    0.240551, 0.256884, -0.0853137, -0.311908, 0.226104, -1.22511, -0.118244, 0.244794, 0.641918, -1.16853, -0.228776, -0.442878, 0.553517, -0.194896, 1.32851, -0.0754476, -0.834831, -0.438954, 0.016697, -0.64088, -0.219557, -0.232603, 0.00328069, 0.225169, -0.345934, -0.594898, -0.213491, 0.642603, 0.0458462, -0.439693, -0.219148, -0.0391945, 0.0848091, -0.206273, -0.00407788, -0.0255014, 0.163712, 0.798517, -0.22177, -0.331546, 0.172669, 0.476365, -0.175914, 0.787197, -0.364173, -0.044313, 0.0793518, -0.402448, 0.191392, 0.189997, 0.373234, -0.312421, 0.232269, 1.06361, -0.924636, -0.302302, -0.190696, 0.231164, 0.336184, 0.447629, -0.63268, 0.63307, -0.0486534, -0.317557,
                                                                                                    0.00723339, -0.0406204, 0.743191, 0.149518, 0.0547886, -0.0792248, 0.275914, -0.683875, -0.823857, -0.129746, -0.151326, 0.0979528, 0.286895, 0.108264, 0.335169, -0.269947, -0.394063, 0.0782065, -0.244789, 0.342422, -0.182702, -0.0442118, 0.0666691, -0.0306721, 0.666703, 0.507698, -0.0748351, 0.0083699, -0.807271, 0.161754, 0.481978, -0.125192, 0.223366, 0.22065, -0.196243, 0.717048, 0.516113, -0.781332, 0.166375, 0.455134, -0.120344, 0.348678, 0.0977785, 0.0921178, -0.220305, 0.142819, 0.401509, 0.729824, 0.318227, -0.438563, -0.0234407, -0.285677, -0.0332593, 0.0191205, -0.213469, -0.239976, -0.377094, -0.288139, -0.170378, 0.224901, 0.00236306, 0.0853821, -0.108643, 0.456832,
                                                                                                    0.218024, -0.0569608, -0.56307, -0.112682, -0.272941, 0.0941913, -0.0558837, -0.258966, -0.855853, 0.330042, 0.324752, -0.224007, -0.270948, 0.148571, -0.626049, 0.31976, -0.173133, 0.0579197, -0.0596862, 0.283702, 0.350953, 0.120263, 0.128874, -0.0772464, 0.10418, 0.0487032, 0.00980822, -0.0577068, -0.452581, -0.381502, -0.189746, -0.118186, 0.127714, -0.355243, 0.0164654, -0.175191, -0.108481, -0.323233, -0.0266003, 0.558685, -0.0107257, -0.0265395, 0.0849585, -0.101192, 0.153318, 0.232809, 0.105148, -0.233654, 0.263466, -0.00583935, -0.368787, 0.0625844, 0.183043, -0.402765, 0.0734513, 0.00936494, 0.129751, -0.178412, -0.112606, 0.418405, -0.572659, -0.235153, 0.252423, 0.129214,
                                                                                                    -0.112264, 0.024427, 0.362792, 0.11021, 0.495972, -0.696505, 0.0834029, 0.201164, 0.928474, -1.00526, -0.158631, -0.352664, 0.706423, -0.377222, 1.65483, 0.459918, -0.720911, -0.318676, 0.220785, -0.416971, -0.217624, 0.0609613, -0.200004, 0.19122, 0.137419, -0.712929, -0.38915, 0.717829, -0.0561023, -0.061839, 0.213557, 0.299586, -0.104621, 0.157089, 0.321076, -0.0302145, 0.558275, 0.960391, -0.367521, -0.0556117, -0.00908221, 0.46686, -0.06782, 0.551609, -0.0888178, -0.0515845, -0.239533, -0.118933, 0.156866, 0.229731, 0.533998, -0.226043, 0.236374, 0.849261, -0.961648, -0.294804, 0.109765, 0.142839, 0.257822, 1.00269, -0.322718, 0.620589, 0.321293, 0.0552138,
                                                                                                    -0.449403, -0.214951, 0.654209, 0.35299, 0.118454, 0.336239, -0.264808, -0.524189, -0.899191, -0.148693, 0.755008, 0.130657, 0.0815363, -0.103704, -0.509553, 0.399659, 1.08247, -0.118572, 0.230965, 1.19371, 0.698262, -0.10482, -0.212968, -0.47331, 0.237878, -0.177522, -0.126285, -0.319641, 0.0601651, 0.374557, -0.0091601, 0.75607, -0.111848, 0.0502443, 0.566503, -0.0610646, 0.200191, 0.749567, 0.0481133, 1.25998, -0.0536964, -0.135551, -0.0239732, -0.264317, 0.163336, 0.277845, 0.42611, 0.105211, -0.260087, -0.604795, -0.1232, 0.342922, -0.153272, -0.646364, 0.412825, 0.251359, -0.425003, -0.0925588, -0.666611, -0.617757, 0.664298, 0.0957631, 0.00814411, 0.193982,
                                                                                                    -0.0280735, 0.0254255, 0.74699, 0.30414, 0.121241, -0.214667, 0.303161, -0.530984, -0.569505, -0.325624, -0.159632, 0.0536055, 0.0965372, -0.126831, 0.535424, -0.228111, -0.163459, -0.0754804, -0.0931056, 0.343494, -0.362003, 0.0859777, -0.102607, 0.108144, 0.535694, 0.2692, -0.0615393, 0.352131, -0.55758, 0.08055, 0.859505, 0.13777, 0.287041, 0.19474, -0.0552869, 0.730709, 0.570718, -0.782888, -0.0433713, 0.380855, -0.118302, 0.264597, 0.0180538, 0.0364324, -0.255895, 0.129832, 0.812715, 0.714549, 0.353054, -0.00689516, 0.0681764, -0.297948, 0.128614, 0.442236, -0.602628, -0.451616, -0.297169, -0.348867, -0.488127, 0.516573, 0.0170556, 0.270794, 0.00207543, 0.357968,
                                                                                                    0.33228, 0.118255, -0.4679, -0.322188, -0.104851, -0.375171, 0.132665, 0.54163, 0.843174, 0.286032, -0.438481, -0.218074, -0.242539, -0.0503933, 0.299964, -0.523621, -0.82333, 0.205536, -0.104375, -0.726523, -0.572504, 0.161714, 0.091986, 0.483283, 0.00502779, -0.560102, 0.0111869, 0.419828, -0.0576372, -0.106055, -0.0150458, -0.881154, -0.198202, -0.184503, -0.579665, -0.0931114, -0.133064, -0.368371, -0.256941, -0.951978, 0.324483, 0.104074, -0.121721, 0.359195, 0.0774436, -0.0812406, -0.267242, -0.222442, 0.0222612, 0.198562, 0.247498, 0.0667877, 0.31657, 0.433867, -0.304149, 0.00309341, 0.243035, -0.0656143, 0.121389, 0.0606246, -0.639725, -0.254288, 0.0511574, 0.0541301,
                                                                                                    -0.172036, 0.438618, 0.499434, -0.0670246, 0.565104, -0.345729, -0.143963, 0.165729, -0.0415388, -0.815181, -0.370259, -0.038241, -0.057918, -0.29128, -0.140361, 1.28256, -0.641595, -0.428875, 0.760381, -0.0744772, -0.0619495, 0.0155377, -0.833471, 0.292382, 0.192059, -0.628907, -0.782204, -0.194987, -0.226329, -0.0882165, -0.608624, -0.885305, -0.54058, 0.135645, -0.172119, -0.225865, 0.0414089, 0.294695, -0.147227, 0.404444, 0.291294, 0.512278, -0.323968, 0.65903, -0.0399715, -0.106117, 0.546562, -0.277036, 0.421204, -0.176167, 0.397499, -0.0713996, -0.121934, -0.563655, -0.586729, -0.223186, -0.0987991, 0.515825, 0.068827, -0.215866, -0.71529, 1.09236, 0.189091, 0.50912,
                                                                                                    -0.156407, 0.309096, -0.719757, 0.657058, -0.112556, 1.10434, 0.158614, -0.140696, -0.368528, -0.242619, -0.393714, -0.0801347, -0.44716, 0.297638, -0.734421, -0.252911, -0.275862, -0.176327, -0.172774, -0.698875, -0.0369876, 0.0114233, 0.155006, 0.806047, 0.403023, -0.623007, -0.181891, 0.0384487, -0.562968, 0.866116, 1.01129, 1.30016, -0.204755, -0.229916, 0.38831, 0.250911, 0.376733, -0.0103928, 0.101597, -0.493793, 0.429147, -0.400923, -0.333363, 1.03428, -0.582724, 0.301043, -0.626812, 0.0650496, -0.067065, -0.0129019, -0.43297, 0.278571, -0.400445, 1.01607, -1.31568, -0.285878, -0.0477162, 0.527679, -0.247063, -0.118296, 2.05626, -0.373068, -0.103645, -1.03878,
                                                                                                    0.112393, -0.235128, -0.743414, -0.0156138, -0.182809, -0.132588, 0.38614, -0.113482, 0.0362513, 0.332419, 0.206623, -0.0619843, 0.0982656, 0.03306, 0.338544, -0.162423, 0.269969, -0.123098, -0.312726, 0.228036, 0.174243, -0.103137, -0.139422, 0.254575, 0.0531654, 0.436478, -0.0506895, -0.219882, 0.234413, 0.0642584, 0.0576813, 0.0572044, 0.0623091, 0.4263, -0.165511, 0.482869, 0.352134, -0.289136, 0.0395251, -0.176395, -0.235891, -0.158787, 0.114299, 0.186751, 0.0449003, -0.00232694, -0.319091, 0.363205, -0.236422, 0.484158, 0.322709, -0.160743, -0.128224, -0.433193, -0.378979, -0.145908, 0.029414, 0.205537, -0.384903, 0.362063, 0.70891, -0.323981, -0.142149, 0.120316,
                                                                                                    0.101494, 0.161533, -0.59755, -0.720567, -0.103965, -0.0976051, -0.202288, 0.090899, -0.0389642, -0.801527, 0.117778, -0.230609, 0.019205, -0.229134, -0.446666, 0.14222, -0.342657, 0.0641245, 0.108612, 0.473671, 0.65016, 0.0975741, 0.129262, 0.0924807, -0.337037, -0.117938, -0.137479, 0.522097, 0.391194, -0.326061, -0.986533, -0.993809, -0.0106403, 0.0211929, 0.427062, -0.290879, 0.583468, -0.223422, 0.120657, 0.877981, 0.036279, -0.249214, 0.0480646, -0.239143, 0.0646036, 0.199723, -0.0651169, -0.0629135, 1.19813, 0.258063, -0.511682, 0.159351, -0.0626265, 0.0724941, 0.094083, -0.18176, -0.241325, 0.314808, 0.352588, 0.0818764, -0.880896, -0.335544, -0.0678175, 0.288665,
                                                                                                    -0.284998, 0.0233278, -0.146632, 0.350601, -0.197233, 0.862157, 0.397722, -0.177242, -0.0850836, -0.216962, -0.0366648, 0.399002, -0.321444, 0.153679, -0.306769, -0.0671847, 0.102126, 0.035913, -0.0633994, -0.841837, 0.0141333, -0.0166119, -0.0319601, 0.233237, 0.308806, -0.26215, -0.167667, -0.0273853, 0.218402, 1.22821, 0.898703, 1.30418, -0.0574339, 0.0724294, 0.046053, -0.129889, 0.503883, -0.154617, 0.0623547, -0.54621, 0.206642, -0.574183, -0.0842907, 0.993993, -0.582101, 0.205597, -0.382294, 0.600262, -0.413132, -0.122835, -0.103175, -0.114821, -0.266359, 1.0718, -1.05347, 0.200641, -0.00359629, 0.23665, 0.0338937, 0.104653, 2.02986, -0.299387, -0.0459564, -0.444779,
