/********************
    parameters.h

    Code generated using nn4mc.

    This file defines the neural network weight parameters for all layers.

*/
#ifndef __NEURAL_NET_PARAMS_H__
#define __NEURAL_NET_PARAMS_H__

#ifdef __cpluscplus
extern "C" {
#endif



const float gru_W[210] = { 0.163646, -0.0954987, 0.410176, 0.0461433, 0.0108195, -0.436926, -0.0303298, -0.0107571, -0.0767696, 0.25095, 0.263497, 0.224554, -0.373276, 0.0414804, -0.0533791, -0.126486, -0.646773, 0.175666, 0.0084331, -0.0303489, 0.330128,
                           -0.170246, -0.23332, 0.309105, -0.318576, 0.0769449, -0.0572043, 0.043472, 0.264278, -0.280079, -0.0483459, -0.242566, 0.293031, 0.160851, -0.439912, 0.190979, 0.140592, -0.763979, 0.427152, -0.0397827, -0.43912, 0.13326,
                           0.0577844, 0.00891078, 0.0929585, 0.147484, -0.139187, -0.0472318, -0.203938, 0.140635, -0.0500958, 0.244586, 0.160355, -0.206972, 0.0389678, -0.200657, 0.18352, -0.144971, 0.337614, -0.229634, 0.0531794, 0.129617, 0.421961,
                           0.0573432, -0.275202, -0.141538, -0.320857, -0.170124, 0.220346, -0.250368, 0.0678967, -0.341178, 0.35743, -0.0199537, -0.170697, -0.419757, -0.06699, -0.311008, -0.469541, -0.178653, 0.318202, 0.326044, 0.408395, 0.0199492,
                           0.211002, 0.145451, 0.249162, 0.282943, -0.300405, -0.0776269, 0.283857, -0.342289, -0.0691219, -0.377965, 0.335978, -0.4375, 0.316339, -0.227384, 0.0745531, -0.0912582, 0.568891, 0.196492, 0.228229, -0.117453, -0.0864713,
                           0.425485, -0.0143618, 0.259277, -0.446751, -0.692701, 0.323416, -0.170855, -0.101436, -0.226843, -0.394023, -0.121232, -0.311144, -0.0164157, 0.0803822, -0.162091, 0.277362, -0.0743644, 0.422402, 0.211549, 0.166056, 0.0829079,
                           -0.735331, -0.331066, -0.149148, -0.447504, 0.195242, -0.293615, -0.079097, 0.0356561, -0.351537, 0.362716, 0.0338179, 0.213545, -0.337348, 0.341737, 0.508857, 0.0049186, -0.040969, 0.629377, 0.047981, -0.385626, -0.206814,
                           -0.439153, -0.0621071, 0.328664, -0.424516, 0.0198366, -0.137818, 0.000907196, -0.149531, -0.328699, 0.314975, 0.324475, 0.17849, -0.219448, 0.0461285, -0.116923, 0.171619, 0.0749853, -0.273267, 0.446462, -0.148619, 0.0763675,
                           0.24433, -0.286445, 0.192651, 0.38198, -0.855848, -0.168602, -0.14617, -0.290733, 0.0103721, 0.143106, -0.0750404, 0.371567, 0.139225, 0.434799, -0.712169, -0.190303, -0.078601, -0.0498269, 0.201251, -0.292162, 0.253859,
                           -0.0517299, -0.116774, 0.175322, 0.123102, 0.0840324, -0.310031, -0.532992, 0.018355, -0.225227, -0.254466, -0.282168, -0.43021, -0.353108, 0.0698023, -0.3911, -0.305077, -0.238712, 0.344612, -0.347734, -0.0560356, 0.341902};


const float gru_b[21] = {-0.222021, -0.0326725, -0.272634, -0.0371079, -0.149022, -0.132588, -0.0361888, 0, 0, 0, 0, 0, 0, 0, -0.0848045, -0.0679377, -0.144113, 0.169979, -0.14307, 0.156818, -0.173715};


const float gru_Wrec[147] = { 0.0154401, 0.121204, 0.0153848, 0.0826387, -0.124982, -0.456695, -0.082246, -0.292503, -0.00538765, -0.0266991, -0.228964, 0.238257, 0.195698, -0.208923, 0.540856, -0.147184, -0.0351386, 0.00154868, 0.259938, 0.293127, -0.0263984,
                              0.255164, -0.0990072, -0.458013, 0.388919, -0.176794, -0.324048, -0.058066, 0.0726624, -0.280675, -0.0260469, 0.176576, -0.0266158, -0.318924, 0.204228, -0.0845295, 0.00659547, 0.334738, -0.0827027, -0.0137896, 0.127095, -0.148163,
                              0.239418, -0.402007, -0.204452, -0.271904, 0.132529, 0.0710093, -0.0192192, -0.179648, -0.159368, -0.0286782, -0.0333874, 0.163368, 0.144789, -0.355147, -0.109052, 0.363852, -0.01699, 0.128782, 0.142576, -0.0783269, -0.470482,
                              -0.110286, -0.366119, 0.65096, 0.251947, 0.0106707, -0.253824, 0.0774999, -0.0767833, -0.191806, -0.266306, 0.324779, -0.104034, 0.00728065, 0.0279, 0.0394261, 0.192265, -0.0665144, -0.0327504, -0.111755, 0.0391358, -0.0851069,
                              -0.00906571, -0.432418, 0.0139226, -0.203356, 0.135159, -0.105661, -0.389103, 0.0509906, 0.253552, 0.393631, 0.235992, -0.0980385, 0.168695, 0.0454031, 0.190336, -0.116685, 0.348392, -0.27032, 0.0201114, -0.0760807, 0.149698,
                              -0.478904, -0.189508, -0.0895406, 0.198203, -0.182691, 0.158771, 0.190226, 0.0639884, 0.224715, 0.0467255, -0.194618, 0.167833, 0.303554, 0.117683, -0.161428, 0.223689, 0.299235, -0.00208034, -0.0577887, 0.427748, -0.109102,
                              0.33526, 0.102751, -0.00884007, 0.142092, 0.188434, -0.0475688, -0.179951, -0.0487452, 0.391114, -0.0552151, 0.0952623, -0.232034, 0.205796, -0.0261596, -0.264704, -0.171618, -0.301726, -0.140705, -0.199662, 0.434353, -0.288775};


const float dense_W[56] = { 0.23918, 0.120397, 0.150768, 0.903702, -0.288627, 0.38042, -0.859589, -0.269811,
                            -0.194926, -0.634266, 0.440342, 0.172027, -0.0816279, 0.691404, 0.864289, 0.455284,
                            0.596199, 0.977749, 0.608285, 0.502978, 0.208545, 0.518729, -0.124854, 0.740115,
                            0.716838, 0.174321, -0.575715, -0.310444, 0.295601, 0.102837, 0.0126953, 0.0773362,
                            0.0959596, 0.653007, 0.703637, 0.595525, -0.299696, -0.0879056, -0.253669, 0.720213,
                            0.282271, -0.215243, 0.215181, 0.157773, 0.599392, -0.343775, -0.295026, -0.300489,
                            -0.108195, 0.513727, -0.18491, 0.405152, 0.25779, -0.112387, -0.522045, 0.561247};


const float dense_b[8] = {0.000556913, 0.0354097, -0.0688879, -0.107015, -0.0053711, 0.066861, -0.148638, -0.0409879};


const float dense_1_W[8] = { 0.52446,
                             0.650963,
                             -0.672974,
                             -1.3853,
                             -0.442945,
                             0.706007,
                             -0.754958,
                             0.268151};


const float dense_1_b[1] = {0.0891245};



#ifdef __cplusplus
}

#endif
#endif
